<?xml version="1.0"?>
<opencv_storage>
<stage11>
  <maxWeakCount>10</maxWeakCount>
  <stageThreshold>-1.3645437955856323e+000</stageThreshold>
  <weakClassifiers>
    <_>
      <internalNodes>
        0 -1 2232 -207884033 -1585250175 -1581248010 -13250357 -91315989
        -880246656 -1307930125 -1338661</internalNodes>
      <leafValues>
        -6.4100641012191772e-001 2.4731183052062988e-001</leafValues></_>
    <_>
      <internalNodes>
        0 -1 6123 -485567348 -771900219 2030629327 -712640699 -375148102
        1360750060 386194347 1471615723</internalNodes>
      <leafValues>
        -5.7613766193389893e-001 2.7222886681556702e-001</leafValues></_>
    <_>
      <internalNodes>
        0 -1 1823 1128527138 1465479895 1534681111 -144979647 583328763
        -1455363510 -1061427813 1084970145</internalNodes>
      <leafValues>
        -6.1723011732101440e-001 2.4379023909568787e-001</leafValues></_>
    <_>
      <internalNodes>
        0 -1 3509 1464704126 1504165097 -2096851115 157009604 1035081978
        -661143420 441188206 1379505064</internalNodes>
      <leafValues>
        -5.3266024589538574e-001 3.2809439301490784e-001</leafValues></_>
    <_>
      <internalNodes>
        0 -1 4740 -812974056 525942933 -1878998832 838996059 -1073085944
        -1710620663 -1870474516 -1171589085</internalNodes>
      <leafValues>
        -5.4785418510437012e-001 2.7779048681259155e-001</leafValues></_>
    <_>
      <internalNodes>
        0 -1 60 139207541 -250380143 -1056714535 -94777261 1216872589
        -788395896 -670958853 -98514372</internalNodes>
      <leafValues>
        -4.6497151255607605e-001 3.5156834125518799e-001</leafValues></_>
    <_>
      <internalNodes>
        0 -1 8621 -405828637 140480726 1073746310 -469069694 1124199010
        813764738 1504391378 2011158667</internalNodes>
      <leafValues>
        -5.2686947584152222e-001 2.7266174554824829e-001</leafValues></_>
    <_>
      <internalNodes>
        0 -1 4844 -1568628495 -179240615 1099694429 763200273
        -2112308483 -1157005181 -889189953 1317538309</internalNodes>
      <leafValues>
        -4.7396159172058105e-001 3.3346316218376160e-001</leafValues></_>
    <_>
      <internalNodes>
        0 -1 7818 386972244 -1713503522 1342951803 -3160612 692136409
        -1400192382 1661803449 -1926558804</internalNodes>
      <leafValues>
        -5.0159728527069092e-001 2.7162653207778931e-001</leafValues></_>
    <_>
      <internalNodes>
        0 -1 7640 -1012434526 906629332 -1492999272 -855613312 270756057
        411840731 1644839235 2043274163</internalNodes>
      <leafValues>
        -5.3785967826843262e-001 2.6769512891769409e-001</leafValues></_></weakClassifiers></stage11>
</opencv_storage>
