<?xml version="1.0"?>
<opencv_storage>
<stage6>
  <maxWeakCount>7</maxWeakCount>
  <stageThreshold>-1.3418282270431519e+000</stageThreshold>
  <weakClassifiers>
    <_>
      <internalNodes>
        0 -1 8932 -2097153 -1152388129 -799951273 -1075840601 -610287111
        160350346 -1009782295 -537920581</internalNodes>
      <leafValues>
        -6.3542592525482178e-001 4.1612198948860168e-001</leafValues></_>
    <_>
      <internalNodes>
        0 -1 250 -680527382 -14688406 -134620297 -136449791 1088354303
        -1566837042 15135727 1106231551</internalNodes>
      <leafValues>
        -5.4979485273361206e-001 3.4983885288238525e-001</leafValues></_>
    <_>
      <internalNodes>
        0 -1 3937 -33591299 2011129087 1901253087 1034957787 -387822916
        797471369 -2966532 -1153499137</internalNodes>
      <leafValues>
        -4.7412532567977905e-001 3.8133445382118225e-001</leafValues></_>
    <_>
      <internalNodes>
        0 -1 6547 -128188323 -69355201 -153485505 -541198353 -1710429442
        -44310 -82255906 -1174394622</internalNodes>
      <leafValues>
        -5.0359243154525757e-001 3.6690014600753784e-001</leafValues></_>
    <_>
      <internalNodes>
        0 -1 7710 -337649114 -423432046 -1073688376 -489765994 -74813184
        1359708162 -745807068 -140512833</internalNodes>
      <leafValues>
        -6.1778813600540161e-001 3.2723385095596313e-001</leafValues></_>
    <_>
      <internalNodes>
        0 -1 8284 -336125073 -338325349 -1870413606 -531672418 -73729205
        -123043798 -91567882 -187500097</internalNodes>
      <leafValues>
        -5.2300214767456055e-001 3.3318302035331726e-001</leafValues></_>
    <_>
      <internalNodes>
        0 -1 152 10486498 -2893925 -770050145 -3680361 -1627419649
        -72643622 464781567 139788288</internalNodes>
      <leafValues>
        -6.4937806129455566e-001 2.5726804137229919e-001</leafValues></_></weakClassifiers></stage6>
</opencv_storage>
