<?xml version="1.0"?>
<opencv_storage>
<stage0>
  <maxWeakCount>6</maxWeakCount>
  <stageThreshold>-1.7381286621093750e+000</stageThreshold>
  <weakClassifiers>
    <_>
      <internalNodes>
        0 -1 3600 -1349533773 -305941869 -787754019 -11821 -606354453
        -374634294 -913643785 -1064796</internalNodes>
      <leafValues>
        -7.8517585992813110e-001 3.3723020553588867e-001</leafValues></_>
    <_>
      <internalNodes>
        0 -1 929 -716909864 -14832936 1459935709 1565915475 -119690502
        -1140870470 -832783377 722280634</internalNodes>
      <leafValues>
        -7.8344881534576416e-001 4.3656828999519348e-001</leafValues></_>
    <_>
      <internalNodes>
        0 -1 7386 985414141 -1157070119 -83659781 -69922732 -1295428643
        -72777590 -1143310086 -1074122504</internalNodes>
      <leafValues>
        -6.4478206634521484e-001 4.8707178235054016e-001</leafValues></_>
    <_>
      <internalNodes>
        0 -1 8029 -1 -1079328772 -114692 -1108181060 1073569277
        494534139 536024568 -8193</internalNodes>
      <leafValues>
        -5.0273597240447998e-001 6.6170156002044678e-001</leafValues></_>
    <_>
      <internalNodes>
        0 -1 8933 -402660497 -488652143 -804044577 -422383154 -93701597
        839024658 -1165231129 -1225537026</internalNodes>
      <leafValues>
        -6.2432765960693359e-001 4.8576989769935608e-001</leafValues></_>
    <_>
      <internalNodes>
        0 -1 7044 179311861 -86816559 -1874225666 -14692197 -1198882563
        -74874750 -343360577 -1095234708</internalNodes>
      <leafValues>
        -6.2009316682815552e-001 4.7048774361610413e-001</leafValues></_></weakClassifiers></stage0>
</opencv_storage>
