<?xml version="1.0"?>
<opencv_storage>
<stage3>
  <maxWeakCount>7</maxWeakCount>
  <stageThreshold>-1.9754929542541504e+000</stageThreshold>
  <weakClassifiers>
    <_>
      <internalNodes>
        0 -1 3816 -2097153 534582015 -205866050 1069036255 -3253252
        2076854542 -1123332 -1025</internalNodes>
      <leafValues>
        -7.3254388570785522e-001 2.7973359823226929e-001</leafValues></_>
    <_>
      <internalNodes>
        0 -1 8753 -67147937 -615660981 -797748770 -631574113 -4547766
        -132462429 -91555110 -84218881</internalNodes>
      <leafValues>
        -5.3809857368469238e-001 4.7177678346633911e-001</leafValues></_>
    <_>
      <internalNodes>
        0 -1 4015 -45057 -8421377 -65793 -30228489 -276933556 -9076865
        -1073807617 -67698689</internalNodes>
      <leafValues>
        -4.2254999279975891e-001 5.3172272443771362e-001</leafValues></_>
    <_>
      <internalNodes>
        0 -1 8308 -73424053 1724901723 -1069301596 -455150641 -224467339
        1803569153 -242224524 -220466177</internalNodes>
      <leafValues>
        -6.4125299453735352e-001 3.6474704742431641e-001</leafValues></_>
    <_>
      <internalNodes>
        0 -1 6066 -258993647 -572947973 -787426593 -552561 -1056310593
        -1147109248 -73815363 -1475605952</internalNodes>
      <leafValues>
        -4.8569869995117188e-001 5.1087296009063721e-001</leafValues></_>
    <_>
      <internalNodes>
        0 -1 2537 796114908 937219028 828119674 930855574 1599733740
        1054669224 952940220 805147372</internalNodes>
      <leafValues>
        -6.6772013902664185e-001 2.9470953345298767e-001</leafValues></_>
    <_>
      <internalNodes>
        0 -1 5245 -2104337 1859113035 307478744 1918275736 -1281678822
        807043073 -74778410 -773850421</internalNodes>
      <leafValues>
        -4.9407562613487244e-001 4.2153307795524597e-001</leafValues></_></weakClassifiers></stage3>
</opencv_storage>
