<?xml version="1.0"?>
<opencv_storage>
<stage5>
  <maxWeakCount>8</maxWeakCount>
  <stageThreshold>-1.6550183296203613e+000</stageThreshold>
  <weakClassifiers>
    <_>
      <internalNodes>
        0 -1 2655 -202116097 -2098209 1998053375 -4326401 -605553681
        -1054486 -167773697 -7353393</internalNodes>
      <leafValues>
        -6.0424387454986572e-001 5.5367231369018555e-001</leafValues></_>
    <_>
      <internalNodes>
        0 -1 3560 -1447034957 -370421359 -764948077 -37236655
        -1951669265 -1417445240 -366218505 -335547692</internalNodes>
      <leafValues>
        -4.9927702546119690e-001 4.1174620389938354e-001</leafValues></_>
    <_>
      <internalNodes>
        0 -1 5352 269762421 490247260 524037111 1071455455 1026308860
        -1082016376 265234844 -1073870664</internalNodes>
      <leafValues>
        -5.5065339803695679e-001 3.7377586960792542e-001</leafValues></_>
    <_>
      <internalNodes>
        0 -1 7659 -337692113 -301510450 -1068249070 -226504289 -68494778
        -620068839 -91488538 -252447809</internalNodes>
      <leafValues>
        -4.8733595013618469e-001 3.8040548563003540e-001</leafValues></_>
    <_>
      <internalNodes>
        0 -1 8978 -1148219077 -1886154525 -1859923577 -2183046
        1267433714 -905281535 -74452495 -34104643</internalNodes>
      <leafValues>
        -4.1380679607391357e-001 4.6433833241462708e-001</leafValues></_>
    <_>
      <internalNodes>
        0 -1 7038 -765769652 -681616513 -2074750721 1904106367
        -1350566002 -338192100 -1463558434 806534671</internalNodes>
      <leafValues>
        -6.0049462318420410e-001 2.8842750191688538e-001</leafValues></_>
    <_>
      <internalNodes>
        0 -1 340 -126693426 -229607718 1493208324 -137127848 -32848465
        269501071 1126583119 124504879</internalNodes>
      <leafValues>
        -5.6102186441421509e-001 3.2984015345573425e-001</leafValues></_>
    <_>
      <internalNodes>
        0 -1 3930 -275291669 -287850165 -1072574010 -301690410 -92114867
        1795293824 -1316357262 -254612742</internalNodes>
      <leafValues>
        -6.0298103094100952e-001 2.8203099966049194e-001</leafValues></_></weakClassifiers></stage5>
</opencv_storage>
