<?xml version="1.0"?>
<opencv_storage>
<stage7>
  <maxWeakCount>10</maxWeakCount>
  <stageThreshold>-1.6947774887084961e+000</stageThreshold>
  <weakClassifiers>
    <_>
      <internalNodes>
        0 -1 3109 -8913921 -10489377 1071069947 -26145 -4325377
        -551767044 -809566209 -2097153</internalNodes>
      <leafValues>
        -5.9993261098861694e-001 5.2532833814620972e-001</leafValues></_>
    <_>
      <internalNodes>
        0 -1 8825 -1146356801 -1181035554 -268316655 -78161016 969661435
        -1987933558 420991481 -603981379</internalNodes>
      <leafValues>
        -4.4500404596328735e-001 4.2061656713485718e-001</leafValues></_>
    <_>
      <internalNodes>
        0 -1 3050 -234888533 -834154022 319009218 -20983366 -653548741
        1665896577 -205270233 -167775537</internalNodes>
      <leafValues>
        -4.5602154731750488e-001 3.5736146569252014e-001</leafValues></_>
    <_>
      <internalNodes>
        0 -1 5477 922762933 -134672235 -1794805539 -540569451
        -1701775215 -1149157213 -1148458563 -1342422864</internalNodes>
      <leafValues>
        -5.5939739942550659e-001 2.9400205612182617e-001</leafValues></_>
    <_>
      <internalNodes>
        0 -1 8252 -286265854 2001621847 1820356781 1692260567 -85466108
        925848067 -94709041 35377535</internalNodes>
      <leafValues>
        -5.8211165666580200e-001 2.9908218979835510e-001</leafValues></_>
    <_>
      <internalNodes>
        0 -1 6955 808468445 855957968 1360253437 -241956647 -744455527
        -125288303 -1433695749 -1150494032</internalNodes>
      <leafValues>
        -4.6180126070976257e-001 3.3928802609443665e-001</leafValues></_>
    <_>
      <internalNodes>
        0 -1 6789 -1981862137 -404799335 -762227833 -225066797
        -930373573 1930299402 -69604361 -223354217</internalNodes>
      <leafValues>
        -4.2777866125106812e-001 3.6003199219703674e-001</leafValues></_>
    <_>
      <internalNodes>
        0 -1 8210 -355401601 -615559133 -251014689 -637300709 -662507415
        -108462080 -1163165441 -97343177</internalNodes>
      <leafValues>
        -4.1143190860748291e-001 3.7892764806747437e-001</leafValues></_>
    <_>
      <internalNodes>
        0 -1 3037 -262534 -1724713830 1413906444 823678428 -784168211
        409229770 1587531897 789699567</internalNodes>
      <leafValues>
        -4.8268395662307739e-001 3.0402579903602600e-001</leafValues></_>
    <_>
      <internalNodes>
        0 -1 189 1259267978 2141057478 1057223677 2144330625 734767359
        -543231316 1922954938 65650850</internalNodes>
      <leafValues>
        -4.9085769057273865e-001 2.8653731942176819e-001</leafValues></_></weakClassifiers></stage7>
</opencv_storage>
