<?xml version="1.0"?>
<opencv_storage>
<stage10>
  <maxWeakCount>10</maxWeakCount>
  <stageThreshold>-1.8070781230926514e+000</stageThreshold>
  <weakClassifiers>
    <_>
      <internalNodes>
        0 -1 3416 -785255693 -1067525 -2096644865 -143534625 -270539793
        -71579217 -1014890501 -682915441</internalNodes>
      <leafValues>
        -6.5680474042892456e-001 1.7098446190357208e-001</leafValues></_>
    <_>
      <internalNodes>
        0 -1 8638 -1282412101 -2019889894 -251591728 -1890634974
        243519919 164594570 1258821812 1439692717</internalNodes>
      <leafValues>
        -6.1635977029800415e-001 2.3673328757286072e-001</leafValues></_>
    <_>
      <internalNodes>
        0 -1 4325 -1349519053 -1417428985 1426166231 -213921519
        -2104821057 -914259806 25416627 -1179680299</internalNodes>
      <leafValues>
        -4.4333732128143311e-001 3.3066976070404053e-001</leafValues></_>
    <_>
      <internalNodes>
        0 -1 1649 -82026508 -214135298 319107315 2077700750 -159318564
        -590566004 455750399 2113003486</internalNodes>
      <leafValues>
        -3.7142169475555420e-001 3.6995968222618103e-001</leafValues></_>
    <_>
      <internalNodes>
        0 -1 5396 -1871707107 -37359137 421619 -642985765 -32788047
        -67905368 -938902626 -1473477870</internalNodes>
      <leafValues>
        -3.7669450044631958e-001 3.6433082818984985e-001</leafValues></_>
    <_>
      <internalNodes>
        0 -1 5851 -84576260 -15967984 587279088 857429273 447398106
        287048088 416487672 801095547</internalNodes>
      <leafValues>
        -4.4860914349555969e-001 3.2417351007461548e-001</leafValues></_>
    <_>
      <internalNodes>
        0 -1 5137 -472931825 -426897211 -795749930 -95839548 -1501414894
        -1962899448 -1023364429 -242766861</internalNodes>
      <leafValues>
        -4.6670228242874146e-001 2.8912428021430969e-001</leafValues></_>
    <_>
      <internalNodes>
        0 -1 7340 -1084598856 -1086713188 1650988444 -14689452 278386942
        801948408 962941085 333331966</internalNodes>
      <leafValues>
        -5.7009786367416382e-001 2.3415136337280273e-001</leafValues></_>
    <_>
      <internalNodes>
        0 -1 3160 -607401586 -523534192 1342226456 -1159774073
        -402415078 1736966144 -226242044 -187178357</internalNodes>
      <leafValues>
        -4.8079741001129150e-001 2.6314136385917664e-001</leafValues></_>
    <_>
      <internalNodes>
        0 -1 693 -1210174755 -1143205742 17025055 960524684 -1708515111
        -1060433782 -1442143351 -1367186435</internalNodes>
      <leafValues>
        -5.3893470764160156e-001 2.5526502728462219e-001</leafValues></_></weakClassifiers></stage10>
</opencv_storage>
