<?xml version="1.0"?>
<opencv_storage>
<stage2>
  <maxWeakCount>7</maxWeakCount>
  <stageThreshold>-2.0590753555297852e+000</stageThreshold>
  <weakClassifiers>
    <_>
      <internalNodes>
        0 -1 2635 -148639453 -2108493 -149947393 -2624521 -908070913
        -292577857 -269746193 -976239385</internalNodes>
      <leafValues>
        -7.2847813367843628e-001 3.4976887702941895e-001</leafValues></_>
    <_>
      <internalNodes>
        0 -1 8387 -1156513795 -1080235632 1359073791 -9892 865663419
        -1161262968 25907453 -1075897092</internalNodes>
      <leafValues>
        -6.4048278331756592e-001 3.9778637886047363e-001</leafValues></_>
    <_>
      <internalNodes>
        0 -1 2623 -1918119503 -6424085 -180882433 -2108425 -337645905
        -104886141 -340001857 -1917877852</internalNodes>
      <leafValues>
        -5.5471742153167725e-001 4.6291387081146240e-001</leafValues></_>
    <_>
      <internalNodes>
        0 -1 7448 -218118577 -193 -32769 2069888631 -8921089 -554172425
        -490737985 1914956303</internalNodes>
      <leafValues>
        -4.6734693646430969e-001 5.2666741609573364e-001</leafValues></_>
    <_>
      <internalNodes>
        0 -1 5137 -291528414 -423391141 -1878943398 -117604020
        -343674317 1493860370 -206909197 -167777549</internalNodes>
      <leafValues>
        -4.9162217974662781e-001 5.0800967216491699e-001</leafValues></_>
    <_>
      <internalNodes>
        0 -1 5934 865342462 524030557 1459665397 -1081061226 999384056
        -67633015 -1206310146 -1095237064</internalNodes>
      <leafValues>
        -5.8531886339187622e-001 4.1115078330039978e-001</leafValues></_>
    <_>
      <internalNodes>
        0 -1 3177 -403977526 -549797378 949067986 1373115320 1268500188
        1230096505 -105927446 1433649146</internalNodes>
      <leafValues>
        -6.1100894212722778e-001 3.9125981926918030e-001</leafValues></_></weakClassifiers></stage2>
</opencv_storage>
