<?xml version="1.0"?>
<opencv_storage>
<stage12>
  <maxWeakCount>13</maxWeakCount>
  <stageThreshold>-1.6698075532913208e+000</stageThreshold>
  <weakClassifiers>
    <_>
      <internalNodes>
        0 -1 4690 -538969089 -2499620 960797599 -537028097 -1152404514
        -1344753224 1006091999 -16401</internalNodes>
      <leafValues>
        -5.9102243185043335e-001 2.2943723201751709e-001</leafValues></_>
    <_>
      <internalNodes>
        0 -1 4285 -1416973391 -1348890617 -721367017 -211959600
        -1299656261 -1417541631 151483057 -1178631707</internalNodes>
      <leafValues>
        -5.2932578325271606e-001 2.1679478883743286e-001</leafValues></_>
    <_>
      <internalNodes>
        0 -1 4026 -706981419 524746989 -1051930485 -1210834737
        -1291319156 -318111616 -380988691 -1634067493</internalNodes>
      <leafValues>
        -4.5197993516921997e-001 2.7817302942276001e-001</leafValues></_>
    <_>
      <internalNodes>
        0 -1 7013 -529278770 -2641399 -1315578921 -147123851 -430970225
        -40008191 -1025708545 1933049711</internalNodes>
      <leafValues>
        -3.7974354624748230e-001 3.2643559575080872e-001</leafValues></_>
    <_>
      <internalNodes>
        0 -1 8386 -1311509517 -1970569080 -788446763 -10829616
        -611678021 -1694498686 -2122133119 -321916676</internalNodes>
      <leafValues>
        -3.7001845240592957e-001 3.3629217743873596e-001</leafValues></_>
    <_>
      <internalNodes>
        0 -1 4960 1911795852 2064614703 -704266145 1534968013 1854540942
        -949848 -2133068801 1397019982</internalNodes>
      <leafValues>
        -4.2518189549446106e-001 2.7888095378875732e-001</leafValues></_>
    <_>
      <internalNodes>
        0 -1 5942 164374873 -1312431990 -1870622243 -1119252399
        -536870407 -1157038071 -1206998549 -1688194628</internalNodes>
      <leafValues>
        -3.9659616351127625e-001 2.9132106900215149e-001</leafValues></_>
    <_>
      <internalNodes>
        0 -1 3579 -456972766 -807597978 1426284415 -539133310 43756520
        -741745496 1451358311 124641926</internalNodes>
      <leafValues>
        -5.4405343532562256e-001 2.1823206543922424e-001</leafValues></_>
    <_>
      <internalNodes>
        0 -1 468 1474240000 2011037867 1908445470 -1278029617 -1857057
        1916999857 722354760 290183983</internalNodes>
      <leafValues>
        -4.3543022871017456e-001 2.5005590915679932e-001</leafValues></_>
    <_>
      <internalNodes>
        0 -1 3985 -1692446213 -1076903870 -796872512 -230543213
        -108918712 -1425504248 -2094798102 -359917</internalNodes>
      <leafValues>
        -3.7659326195716858e-001 3.0929103493690491e-001</leafValues></_>
    <_>
      <internalNodes>
        0 -1 2679 -1567581680 -258156069 -804976909 1137562559
        -1985359683 -611630963 -1645636707 211813476</internalNodes>
      <leafValues>
        -5.6979453563690186e-001 1.8717557191848755e-001</leafValues></_>
    <_>
      <internalNodes>
        0 -1 7994 -272957137 -946274116 -805257138 -228925005
        -1744199157 167936128 -1031734601 -192490898</internalNodes>
      <leafValues>
        -4.7453969717025757e-001 2.4495802819728851e-001</leafValues></_>
    <_>
      <internalNodes>
        0 -1 6187 1999484090 1306989052 -128415302 -720449415 -100565613
        -2117431880 523887362 1360644762</internalNodes>
      <leafValues>
        -4.4196256995201111e-001 2.6487457752227783e-001</leafValues></_></weakClassifiers></stage12>
</opencv_storage>
