<?xml version="1.0"?>
<opencv_storage>
<stage4>
  <maxWeakCount>8</maxWeakCount>
  <stageThreshold>-1.8354623317718506e+000</stageThreshold>
  <weakClassifiers>
    <_>
      <internalNodes>
        0 -1 4629 -2097153 -2231335 367333625 -2411525 -2097153
        -11732232 -1073760001 -1025</internalNodes>
      <leafValues>
        -6.1524134874343872e-001 5.7808220386505127e-001</leafValues></_>
    <_>
      <internalNodes>
        0 -1 3522 -1886651597 -3163515 1095356863 -612369455 -355468833
        -95818037 -338701313 -857745999</internalNodes>
      <leafValues>
        -5.3529119491577148e-001 4.4614410400390625e-001</leafValues></_>
    <_>
      <internalNodes>
        0 -1 7258 -3145734 218276762 -1290327632 2132736508 1488441820
        294135468 1506742524 1577057247</internalNodes>
      <leafValues>
        -6.1243695020675659e-001 3.3504912257194519e-001</leafValues></_>
    <_>
      <internalNodes>
        0 -1 7380 909382521 -1076846390 -1852730369 1071386817
        -1199002887 -1165180800 -1349842179 -1409799816</internalNodes>
      <leafValues>
        -6.3663905858993530e-001 3.0899009108543396e-001</leafValues></_>
    <_>
      <internalNodes>
        0 -1 8951 -335558769 107976139 -1072695876 -488668433
        -1706302957 21168266 -544480975 -721421605</internalNodes>
      <leafValues>
        -5.0411003828048706e-001 3.9162352681159973e-001</leafValues></_>
    <_>
      <internalNodes>
        0 -1 5016 -488127966 1944024839 -732598797 1931465555 -872422705
        -1550937637 -1058604290 1074218255</internalNodes>
      <leafValues>
        -6.0624778270721436e-001 3.1816902756690979e-001</leafValues></_>
    <_>
      <internalNodes>
        0 -1 902 -2054905616 -664846 -1983138817 -35793923 -1412703489
        -335967783 -1981431815 -1916469084</internalNodes>
      <leafValues>
        -5.1741904020309448e-001 3.7852784991264343e-001</leafValues></_>
    <_>
      <internalNodes>
        0 -1 1560 -1144014802 752005275 -771645066 -221296421 -92051385
        1393131648 -89399438 -155452993</internalNodes>
      <leafValues>
        -5.6834614276885986e-001 3.2187703251838684e-001</leafValues></_></weakClassifiers></stage4>
</opencv_storage>
