<?xml version="1.0"?>
<opencv_storage>
<cascade>
  <stageType>BOOST</stageType>
  <featureType>LBP</featureType>
  <height>30</height>
  <width>20</width>
  <stageParams>
    <boostType>GAB</boostType>
    <minHitRate>9.9500000476837158e-001</minHitRate>
    <maxFalseAlarm>5.0000000000000000e-001</maxFalseAlarm>
    <weightTrimRate>9.4999999999999996e-001</weightTrimRate>
    <maxDepth>1</maxDepth>
    <maxWeakCount>100</maxWeakCount></stageParams>
  <featureParams>
    <maxCatCount>256</maxCatCount>
    <featSize>1</featSize></featureParams>
  <stageNum>15</stageNum>
  <stages>
    <!-- stage 0 -->
    <_>
      <maxWeakCount>6</maxWeakCount>
      <stageThreshold>-1.6948324441909790e+000</stageThreshold>
      <weakClassifiers>
        <_>
          <internalNodes>
            0 -1 64 -609041185 -80028193 -145105441 -73270305 -91500545
            -72709889 -624240417 -1174157233</internalNodes>
          <leafValues>
            -7.3561668395996094e-001 4.5646145939826965e-001</leafValues></_>
        <_>
          <internalNodes>
            0 -1 102 280509181 -1153137960 -83659777 -10678060
            -1429679138 -206995318 -1143293511 -1078329128</internalNodes>
          <leafValues>
            -6.2372612953186035e-001 5.0679361820220947e-001</leafValues></_>
        <_>
          <internalNodes>
            0 -1 19 -681508956 -67347465 1574803503 2138902627
            -1527455761 -1095293985 2139602911 1089824646</internalNodes>
          <leafValues>
            -6.5596449375152588e-001 4.3167003989219666e-001</leafValues></_>
        <_>
          <internalNodes>
            0 -1 131 -1078002695 -1434156582 -117188231 -141936
            -1684278529 -1618247544 -1651879436 -1140940547</internalNodes>
          <leafValues>
            -5.1405692100524902e-001 5.3527820110321045e-001</leafValues></_>
        <_>
          <internalNodes>
            0 -1 116 -1528952740 -590065199 -665463297 -86372065
            -91719303 -390594326 -357909526 -89112781</internalNodes>
          <leafValues>
            -5.9245860576629639e-001 4.3882626295089722e-001</leafValues></_>
        <_>
          <internalNodes>
            0 -1 132 -1153932316 -1156391522 -779944996 -136359459
            -1144038932 -1174175741 730545149 -1073846788</internalNodes>
          <leafValues>
            -6.1661422252655029e-001 3.7765529751777649e-001</leafValues></_></weakClassifiers></_>
    <!-- stage 1 -->
    <_>
      <maxWeakCount>7</maxWeakCount>
      <stageThreshold>-2.0895617008209229e+000</stageThreshold>
      <weakClassifiers>
        <_>
          <internalNodes>
            0 -1 140 -69239457 -69269153 -109850369 -228990465 -87361494
            -5341170 -71578882 -88409089</internalNodes>
          <leafValues>
            -7.3741078376770020e-001 2.9451075196266174e-001</leafValues></_>
        <_>
          <internalNodes>
            0 -1 79 -516 -1615022604 1607481812 -1111705616 500543993
            213389721 464259289 1608382463</internalNodes>
          <leafValues>
            -6.7810541391372681e-001 3.2237562537193298e-001</leafValues></_>
        <_>
          <internalNodes>
            0 -1 83 331103857 -606386736 -774339617 -573202475
            -108275464 -1097301852 -108659715 -1366293712</internalNodes>
          <leafValues>
            -5.2952527999877930e-001 4.4640269875526428e-001</leafValues></_>
        <_>
          <internalNodes>
            0 -1 136 -268964241 -405802029 -905222930 -489499169
            -626265536 1403126050 -224660509 -218891269</internalNodes>
          <leafValues>
            -4.9096873402595520e-001 4.7580382227897644e-001</leafValues></_>
        <_>
          <internalNodes>
            0 -1 89 934550744 -224665449 -1731159599 -211875560
            -1283446019 -7692110 -611213570 -1413731396</internalNodes>
          <leafValues>
            -5.2019113302230835e-001 4.3907761573791504e-001</leafValues></_>
        <_>
          <internalNodes>
            0 -1 14 1355281518 -2228929 -61604617 -337645457 2131754715
            -57467921 -268222822 1896311398</internalNodes>
          <leafValues>
            -5.6727021932601929e-001 3.8929465413093567e-001</leafValues></_>
        <_>
          <internalNodes>
            0 -1 76 -99550137 -97321029 -344899253 855821215 -408172322
            -501505941 -1630320563 1108592959</internalNodes>
          <leafValues>
            -5.1625519990921021e-001 4.0198832750320435e-001</leafValues></_></weakClassifiers></_>
    <!-- stage 2 -->
    <_>
      <maxWeakCount>8</maxWeakCount>
      <stageThreshold>-1.6594420671463013e+000</stageThreshold>
      <weakClassifiers>
        <_>
          <internalNodes>
            0 -1 149 -1140851717 -1345613669 -720645161 -2101153
            -1431587589 -862224246 -761268235 -1281</internalNodes>
          <leafValues>
            -7.0435464382171631e-001 3.2304418087005615e-001</leafValues></_>
        <_>
          <internalNodes>
            0 -1 122 -27374497 -69701314 -788470305 -43205 -72420613
            -74825073 -19989509 -1171098753</internalNodes>
          <leafValues>
            -5.9115791320800781e-001 3.9458721876144409e-001</leafValues></_>
        <_>
          <internalNodes>
            0 -1 53 -1001064144 -671113923 -112338433 -674857 -195035649
            -1359234885 -838878769 10816545</internalNodes>
          <leafValues>
            -6.4822983741760254e-001 3.4521004557609558e-001</leafValues></_>
        <_>
          <internalNodes>
            0 -1 101 -1614872579 -1077373764 1496946545 -141316
            1068010495 -1414991154 968708605 -1914759944</internalNodes>
          <leafValues>
            -4.8814702033996582e-001 4.4119319319725037e-001</leafValues></_>
        <_>
          <internalNodes>
            0 -1 37 -101648912 -60476188 -363534337 130876100 -324799836
            2141536833 -2087846997 262139631</internalNodes>
          <leafValues>
            -5.1550000905990601e-001 3.9956209063529968e-001</leafValues></_>
        <_>
          <internalNodes>
            0 -1 128 -1177833065 -1954381630 -788278320 -459353176
            -1827998878 -2013101951 -1450589967 -1608</internalNodes>
          <leafValues>
            -4.6114856004714966e-001 4.4301351904869080e-001</leafValues></_>
        <_>
          <internalNodes>
            0 -1 77 -273678918 1339363525 -1593779841 368395505
            -355719328 1490646442 -1727332516 1406096095</internalNodes>
          <leafValues>
            -5.5659955739974976e-001 3.5163131356239319e-001</leafValues></_>
        <_>
          <internalNodes>
            0 -1 51 16785841 900526423 1477547359 -543370795 688110299
            -627310416 -880100113 -1129305468</internalNodes>
          <leafValues>
            -5.0013744831085205e-001 4.2122238874435425e-001</leafValues></_></weakClassifiers></_>
    <!-- stage 3 -->
    <_>
      <maxWeakCount>8</maxWeakCount>
      <stageThreshold>-1.5318418741226196e+000</stageThreshold>
      <weakClassifiers>
        <_>
          <internalNodes>
            0 -1 147 -6291841 -11026275 -775323173 -224410657 -91838133
            -1316257760 -75302145 -83887141</internalNodes>
          <leafValues>
            -6.6907566785812378e-001 2.9735934734344482e-001</leafValues></_>
        <_>
          <internalNodes>
            0 -1 85 -97461537 -97460641 -1147742369 -82060165 -33564449
            -7434533 -812167909 -1156887461</internalNodes>
          <leafValues>
            -5.0843667984008789e-001 4.1428622603416443e-001</leafValues></_>
        <_>
          <internalNodes>
            0 -1 63 466622973 1006516188 1062542175 1072052734
            1067220991 -1351085826 466501566 -1090903896</internalNodes>
          <leafValues>
            -5.7032221555709839e-001 3.6697900295257568e-001</leafValues></_>
        <_>
          <internalNodes>
            0 -1 130 -1282410509 -1348279856 -778841643 -121064496
            971748087 -1884782365 462094837 -33558311</internalNodes>
          <leafValues>
            -4.6479225158691406e-001 4.1555461287498474e-001</leafValues></_>
        <_>
          <internalNodes>
            0 -1 93 584334589 -1428500269 -788409891 -40382305
            -209059090 -1155956728 -73897037 -1074002972</internalNodes>
          <leafValues>
            -5.2837359905242920e-001 3.5349094867706299e-001</leafValues></_>
        <_>
          <internalNodes>
            0 -1 27 -353376478 -134217753 -131 -1081375 -1074855941
            -327192585 -2565 -993532127</internalNodes>
          <leafValues>
            -4.0404996275901794e-001 4.7134134173393250e-001</leafValues></_>
        <_>
          <internalNodes>
            0 -1 109 -83942570 -367017765 -1719619334 -1595944545
            -72634300 -259358709 -129900368 -88940034</internalNodes>
          <leafValues>
            -4.5778617262840271e-001 3.7670269608497620e-001</leafValues></_>
        <_>
          <internalNodes>
            0 -1 137 -1086407689 -1078045700 -579758645 459059740
            797630462 260785282 526197501 1879012348</internalNodes>
          <leafValues>
            -4.8636296391487122e-001 3.5464134812355042e-001</leafValues></_></weakClassifiers></_>
    <!-- stage 4 -->
    <_>
      <maxWeakCount>10</maxWeakCount>
      <stageThreshold>-1.7070802450180054e+000</stageThreshold>
      <weakClassifiers>
        <_>
          <internalNodes>
            0 -1 60 -79964961 -80491045 -33566241 -205786689 -46401313
            -72621825 -75506209 -81016929</internalNodes>
          <leafValues>
            -6.4163947105407715e-001 3.6204576492309570e-001</leafValues></_>
        <_>
          <internalNodes>
            0 -1 139 -287881633 -220466725 -929967721 -1101892769
            -91002359 -47611744 -73991938 -84215553</internalNodes>
          <leafValues>
            -5.2526909112930298e-001 3.5598400235176086e-001</leafValues></_>
        <_>
          <internalNodes>
            0 -1 124 -153139105 1408962563 -1342126597 -94399907
            -359998968 -610762741 -91559254 -88409137</internalNodes>
          <leafValues>
            -4.1821628808975220e-001 4.4658389687538147e-001</leafValues></_>
        <_>
          <internalNodes>
            0 -1 74 1029306365 1060676344 -1077075971 1070970330
            1072555482 -1140994646 618343869 -1342370888</internalNodes>
          <leafValues>
            -4.0590915083885193e-001 4.4393938779830933e-001</leafValues></_>
        <_>
          <internalNodes>
            0 -1 68 -923730764 -802095305 -168297123 -74128801
            -186319909 -898136440 -1342239221 792658971</internalNodes>
          <leafValues>
            -5.1293301582336426e-001 3.3397892117500305e-001</leafValues></_>
        <_>
          <internalNodes>
            0 -1 35 -338712657 -1024749431 -737984378 -287321714
            -208444827 25231496 -206855869 -235408409</internalNodes>
          <leafValues>
            -4.6845942735671997e-001 3.7378704547882080e-001</leafValues></_>
        <_>
          <internalNodes>
            0 -1 129 -1090259009 -1348496766 285331653 -18431856
            1032566995 -1476231032 462106773 -51383836</internalNodes>
          <leafValues>
            -4.6232292056083679e-001 3.7151619791984558e-001</leafValues></_>
        <_>
          <internalNodes>
            0 -1 82 901526576 -28311785 1946196955 -1109991977
            -347524163 -4648296 -1142375701 146017328</internalNodes>
          <leafValues>
            -6.5304368734359741e-001 2.5229629874229431e-001</leafValues></_>
        <_>
          <internalNodes>
            0 -1 141 -69310449 1327349801 -1073692201 1658835419
            -100029680 5144608 -116682334 -219168001</internalNodes>
          <leafValues>
            -4.6916839480400085e-001 3.6509415507316589e-001</leafValues></_>
        <_>
          <internalNodes>
            0 -1 55 -64562052 -32225165 -223285803 -1106607073
            -535408558 -133968759 -121443210 993987646</internalNodes>
          <leafValues>
            -5.4314863681793213e-001 2.9211899638175964e-001</leafValues></_></weakClassifiers></_>
    <!-- stage 5 -->
    <_>
      <maxWeakCount>10</maxWeakCount>
      <stageThreshold>-1.7802549600601196e+000</stageThreshold>
      <weakClassifiers>
        <_>
          <internalNodes>
            0 -1 81 -4194305 -2583588 353581565 -578568 -1075904769
            -1620267092 268316927 -1</internalNodes>
          <leafValues>
            -6.3703024387359619e-001 3.0744338035583496e-001</leafValues></_>
        <_>
          <internalNodes>
            0 -1 106 -88881841 -99421321 -70565809 -1305310089
            -335553201 -207363017 -631831985 -231481489</internalNodes>
          <leafValues>
            -4.7983959317207336e-001 3.7313422560691833e-001</leafValues></_>
        <_>
          <internalNodes>
            0 -1 33 -1591693455 -10636623 -123732481 -2536603 -274352177
            -1332551 -268453889 -1360722571</internalNodes>
          <leafValues>
            -4.5733824372291565e-001 3.5284888744354248e-001</leafValues></_>
        <_>
          <internalNodes>
            0 -1 29 -540022993 -288374549 -1752996602 -252192054
            -794136494 1646502026 -207361194 -134745097</internalNodes>
          <leafValues>
            -4.5095509290695190e-001 3.5802465677261353e-001</leafValues></_>
        <_>
          <internalNodes>
            0 -1 95 751437309 -1160492833 -805187105 -1076068195
            -41131853 -125730665 -1282401350 -1145558512</internalNodes>
          <leafValues>
            -5.0193256139755249e-001 3.6221158504486084e-001</leafValues></_>
        <_>
          <internalNodes>
            0 -1 73 459308372 -2866920 -653667843 -1084354363 -74946392
            -880279550 -1081422865 -1078059716</internalNodes>
          <leafValues>
            -5.1982229948043823e-001 2.9244089126586914e-001</leafValues></_>
        <_>
          <internalNodes>
            0 -1 56 -358946106 1113757493 240249482 840005901
            -1059514240 1416699174 -1433724790 859307071</internalNodes>
          <leafValues>
            -6.4394330978393555e-001 2.6338282227516174e-001</leafValues></_>
        <_>
          <internalNodes>
            0 -1 143 -1355038410 -1350135629 1627447446 -414297956
            1101742083 42647683 1502336241 -1041237019</internalNodes>
          <leafValues>
            -5.8737307786941528e-001 2.3413436114788055e-001</leafValues></_>
        <_>
          <internalNodes>
            0 -1 57 -20581644 -590548664 -343025987 1101659097
            -1285933178 -40860569 690043579 801080187</internalNodes>
          <leafValues>
            -4.4470509886741638e-001 3.2677328586578369e-001</leafValues></_>
        <_>
          <internalNodes>
            0 -1 50 212468755 -84366356 -1379958789 -8585244 -285956672
            -1259522842 804585167 -6018288</internalNodes>
          <leafValues>
            -3.7204280495643616e-001 3.9973580837249756e-001</leafValues></_></weakClassifiers></_>
    <!-- stage 6 -->
    <_>
      <maxWeakCount>10</maxWeakCount>
      <stageThreshold>-1.5007960796356201e+000</stageThreshold>
      <weakClassifiers>
        <_>
          <internalNodes>
            0 -1 110 -8390657 -1082146914 -144869380 -537946628
            1006631935 250149311 1609522429 -1</internalNodes>
          <leafValues>
            -6.7315489053726196e-001 1.5473887324333191e-001</leafValues></_>
        <_>
          <internalNodes>
            0 -1 117 -555799473 -134270859 -665730853 576143443
            -471078330 -903970806 -90252566 -88409893</internalNodes>
          <leafValues>
            -4.8707330226898193e-001 3.3424210548400879e-001</leafValues></_>
        <_>
          <internalNodes>
            0 -1 21 -6029602 1998846067 -1643254580 -4210497 -582814561
            993230107 1930334459 2071974143</internalNodes>
          <leafValues>
            -4.3675228953361511e-001 3.5709193348884583e-001</leafValues></_>
        <_>
          <internalNodes>
            0 -1 49 324802201 374083993 500498907 -1646650146 1403006408
            -376143221 -754370070 -73860472</internalNodes>
          <leafValues>
            -3.6395469307899475e-001 4.0473467111587524e-001</leafValues></_>
        <_>
          <internalNodes>
            0 -1 54 -189858689 -126025990 -4194837 -79164406 2088007931
            -102662209 2105507111 -12645089</internalNodes>
          <leafValues>
            -2.9189836978912354e-001 4.9281078577041626e-001</leafValues></_>
        <_>
          <internalNodes>
            0 -1 135 -2102961 -271068849 -805187388 -221556469
            -1419597246 -217561078 -101979398 -222108705</internalNodes>
          <leafValues>
            -3.7740606069564819e-001 3.7765184044837952e-001</leafValues></_>
        <_>
          <internalNodes>
            0 -1 28 757116913 -1116165153 2141057019 -1076762723
            -74340367 -1155743543 -880554019 228862596</internalNodes>
          <leafValues>
            -4.3167230486869812e-001 3.5139849781990051e-001</leafValues></_>
        <_>
          <internalNodes>
            0 -1 30 2130704964 -158664444 -2004421489 598673669
            -1662899868 -138980776 46083170 192886559</internalNodes>
          <leafValues>
            -6.0352575778961182e-001 2.3057721555233002e-001</leafValues></_>
        <_>
          <internalNodes>
            0 -1 145 -1344539915 -1278152108 -2130620068 -10776099
            -1096880701 -922566632 998430929 -1914743812</internalNodes>
          <leafValues>
            -4.2314603924751282e-001 3.2598978281021118e-001</leafValues></_>
        <_>
          <internalNodes>
            0 -1 5 1340073070 1492701950 -429655889 -136582508 864515039
            -17040493 1039359751 1971313250</internalNodes>
          <leafValues>
            -4.6130141615867615e-001 2.8525328636169434e-001</leafValues></_></weakClassifiers></_>
    <!-- stage 7 -->
    <_>
      <maxWeakCount>11</maxWeakCount>
      <stageThreshold>-1.4543778896331787e+000</stageThreshold>
      <weakClassifiers>
        <_>
          <internalNodes>
            0 -1 151 -673186953 -69740605 -216436325 -212864165 -7347525
            -78921590 -822092805 -287311121</internalNodes>
          <leafValues>
            -5.9730380773544312e-001 3.7561780214309692e-001</leafValues></_>
        <_>
          <internalNodes>
            0 -1 10 -26548098 -696276777 1344186927 -6905201 -735614017
            -176743621 -284075521 2004318023</internalNodes>
          <leafValues>
            -5.1604515314102173e-001 2.7890092134475708e-001</leafValues></_>
        <_>
          <internalNodes>
            0 -1 41 -1489519689 -286474202 -775827074 -721628962
            1225470138 -878116670 -74714249 -7179</internalNodes>
          <leafValues>
            -4.1670614480972290e-001 3.4305626153945923e-001</leafValues></_>
        <_>
          <internalNodes>
            0 -1 24 -9441026 -3620876 1593781759 -70533190 -85793
            -1109544516 503132415 -1183777</internalNodes>
          <leafValues>
            -2.9540190100669861e-001 4.9012914299964905e-001</leafValues></_>
        <_>
          <internalNodes>
            0 -1 48 699733717 935547059 -1651041827 2129044488
            1216894233 -217579478 -1375048708 -8605444</internalNodes>
          <leafValues>
            -4.4765546917915344e-001 3.1436228752136230e-001</leafValues></_>
        <_>
          <internalNodes>
            0 -1 142 -137368793 1330561235 -2138976014 1615323586
            -607474829 1093730378 -204477456 -258475014</internalNodes>
          <leafValues>
            -4.7238007187843323e-001 3.0042675137519836e-001</leafValues></_>
        <_>
          <internalNodes>
            0 -1 92 798236660 -1143209771 1367658969 -1652698665
            -275907712 -360071166 -511128655 -1430519392</internalNodes>
          <leafValues>
            -5.5569642782211304e-001 2.7209028601646423e-001</leafValues></_>
        <_>
          <internalNodes>
            0 -1 16 843102176 -1085021220 110449663 1968563167 -92012553
            -386764343 -177217602 1106199202</internalNodes>
          <leafValues>
            -5.6993442773818970e-001 2.4208685755729675e-001</leafValues></_>
        <_>
          <internalNodes>
            0 -1 84 -525297708 -704597064 -784133839 -341675243
            -89986601 -1947165792 -1347729289 252906519</internalNodes>
          <leafValues>
            -5.5633682012557983e-001 2.3509211838245392e-001</leafValues></_>
        <_>
          <internalNodes>
            0 -1 112 -1278490125 -1431911976 1929994461 -241774456
            -1416910149 -494337918 -1953550091 -1145065220</internalNodes>
          <leafValues>
            -3.7615275382995605e-001 3.7830647826194763e-001</leafValues></_>
        <_>
          <internalNodes>
            0 -1 70 -94379584 -504127212 -1035980625 1110790921
            -1730583352 1529832545 -2138511122 325058095</internalNodes>
          <leafValues>
            -5.7302820682525635e-001 2.4638307094573975e-001</leafValues></_></weakClassifiers></_>
    <!-- stage 8 -->
    <_>
      <maxWeakCount>10</maxWeakCount>
      <stageThreshold>-1.3221553564071655e+000</stageThreshold>
      <weakClassifiers>
        <_>
          <internalNodes>
            0 -1 67 -79954465 -1157431425 -8913697 -79956065 -284242721
            -15800161 -33570609 -4207393</internalNodes>
          <leafValues>
            -6.2397313117980957e-001 2.0802919566631317e-001</leafValues></_>
        <_>
          <internalNodes>
            0 -1 144 -1140854349 -1887252072 -645718825 -69234292
            193721087 176849024 -2122133323 -857736771</internalNodes>
          <leafValues>
            -5.2249515056610107e-001 2.8155857324600220e-001</leafValues></_>
        <_>
          <internalNodes>
            0 -1 86 -595833761 -2616961 1543987551 -1088604547
            -221677058 -34704757 -95487237 -1170588897</internalNodes>
          <leafValues>
            -3.8447317481040955e-001 3.8578411936759949e-001</leafValues></_>
        <_>
          <internalNodes>
            0 -1 126 2128036143 249250330 1078055118 1650430173
            -74471325 -1291124736 -74718494 -222365090</internalNodes>
          <leafValues>
            -5.1405626535415649e-001 2.6201641559600830e-001</leafValues></_>
        <_>
          <internalNodes>
            0 -1 113 959723241 -1719123548 -1929293355 -1646996540
            984719614 -1197911845 734331373 -537510960</internalNodes>
          <leafValues>
            -5.0109320878982544e-001 2.7566966414451599e-001</leafValues></_>
        <_>
          <internalNodes>
            0 -1 4 -257957222 -783291154 1601225747 -33752706 -8523845
            2124085935 1013087103 2083771703</internalNodes>
          <leafValues>
            -4.4014516472816467e-001 2.9630494117736816e-001</leafValues></_>
        <_>
          <internalNodes>
            0 -1 87 -1126429100 -654425901 -251604547 -23162852
            -1215732671 -226359158 -1161088008 -1163383940</internalNodes>
          <leafValues>
            -5.3556638956069946e-001 2.1659216284751892e-001</leafValues></_>
        <_>
          <internalNodes>
            0 -1 148 -342888433 1271632215 -804224802 -488717884
            -508980640 856293376 -90055948 -155194677</internalNodes>
          <leafValues>
            -4.4746994972229004e-001 3.0417552590370178e-001</leafValues></_>
        <_>
          <internalNodes>
            0 -1 91 -1867511780 -36150091 1359347711 -1116884487
            -108899845 -68646247 -1158612226 -1675613416</internalNodes>
          <leafValues>
            -5.0840389728546143e-001 2.4385906755924225e-001</leafValues></_>
        <_>
          <internalNodes>
            0 -1 31 -858925840 1145612900 -314434902 1799814063
            -1250825996 1372938707 469443200 530413556</internalNodes>
          <leafValues>
            -6.1306887865066528e-001 2.1364986896514893e-001</leafValues></_></weakClassifiers></_>
    <!-- stage 9 -->
    <_>
      <maxWeakCount>12</maxWeakCount>
      <stageThreshold>-1.7932265996932983e+000</stageThreshold>
      <weakClassifiers>
        <_>
          <internalNodes>
            0 -1 12 -2098177 -540493860 -921193473 -2111521 -82202117
            -3540753 2046638847 -2098193</internalNodes>
          <leafValues>
            -5.9809118509292603e-001 2.8614008426666260e-001</leafValues></_>
        <_>
          <internalNodes>
            0 -1 90 -634763169 -80022977 -144745697 -4991413 -37497893
            -1078236538 -470857489 -100480673</internalNodes>
          <leafValues>
            -4.6777307987213135e-001 3.0334249138832092e-001</leafValues></_>
        <_>
          <internalNodes>
            0 -1 45 -352389897 -621117953 -69681 -9933146 1165301759
            -1243316298 -146983105 -15512257</internalNodes>
          <leafValues>
            -3.2882943749427795e-001 4.0040770173072815e-001</leafValues></_>
        <_>
          <internalNodes>
            0 -1 46 1566400478 389583838 290468797 1004242686 982907064
            -1419934388 1503235772 1021160122</internalNodes>
          <leafValues>
            -4.2022490501403809e-001 3.1535935401916504e-001</leafValues></_>
        <_>
          <internalNodes>
            0 -1 6 -44049158 -1816141653 75700389 -321027898 456130317
            1597733215 1896839071 726397144</internalNodes>
          <leafValues>
            -4.0305250883102417e-001 3.2966825366020203e-001</leafValues></_>
        <_>
          <internalNodes>
            0 -1 152 -1490094341 -1827999420 285311131 -1454640491
            -1299723569 -1983708663 462123449 -345080115</internalNodes>
          <leafValues>
            -4.3358117341995239e-001 2.6595047116279602e-001</leafValues></_>
        <_>
          <internalNodes>
            0 -1 100 -1963317651 -938786813 -805187074 678903959
            -91594144 436437122 -896879642 -90031688</internalNodes>
          <leafValues>
            -4.7198340296745300e-001 2.6483160257339478e-001</leafValues></_>
        <_>
          <internalNodes>
            0 -1 18 -2023740589 -216014578 -304228017 937251011
            -350540817 -1449619265 -611726389 -1906573132</internalNodes>
          <leafValues>
            -3.6628198623657227e-001 3.2255390286445618e-001</leafValues></_>
        <_>
          <internalNodes>
            0 -1 23 -2391509 -389087023 -670969760 -1026928421
            -1073044985 -628588471 -509347791 -137387342</internalNodes>
          <leafValues>
            -4.0590178966522217e-001 3.1116193532943726e-001</leafValues></_>
        <_>
          <internalNodes>
            0 -1 105 -1937991168 743372581 -1006331284 -2015366851
            -264013083 1779032185 -1143996624 77298487</internalNodes>
          <leafValues>
            -6.6490983963012695e-001 1.6087113320827484e-001</leafValues></_>
        <_>
          <internalNodes>
            0 -1 134 -811615832 1035923533 -1861184614 96895257
            -65199695 428343426 538589869 226915179</internalNodes>
          <leafValues>
            -5.4194658994674683e-001 2.1639849245548248e-001</leafValues></_>
        <_>
          <internalNodes>
            0 -1 69 1218759748 821744447 816044793 168075589 1636391377
            -613184837 -166783393 723209262</internalNodes>
          <leafValues>
            -5.7973217964172363e-001 1.9437360763549805e-001</leafValues></_></weakClassifiers></_>
    <!-- stage 10 -->
    <_>
      <maxWeakCount>12</maxWeakCount>
      <stageThreshold>-1.4444597959518433e+000</stageThreshold>
      <weakClassifiers>
        <_>
          <internalNodes>
            0 -1 115 -761462533 -69533489 -788311713 -216346597
            -123150165 -360677247 -217404689 -1435077</internalNodes>
          <leafValues>
            -6.4743977785110474e-001 9.6648856997489929e-002</leafValues></_>
        <_>
          <internalNodes>
            0 -1 32 -541609316 -565954652 -1157156355 -545783908
            -1550036487 -1714891900 100208883 232636399</internalNodes>
          <leafValues>
            -5.2142006158828735e-001 2.4166776239871979e-001</leafValues></_>
        <_>
          <internalNodes>
            0 -1 133 -1964512219 -143140621 -754532137 -313528109
            -414453029 -1568169822 -1378964485 -1402670799</internalNodes>
          <leafValues>
            -4.3632045388221741e-001 2.9742211103439331e-001</leafValues></_>
        <_>
          <internalNodes>
            0 -1 47 -567380493 -8421385 -65553 -1145143489 -705274676 -1
            -21168641 -1078313109</internalNodes>
          <leafValues>
            -2.8672870993614197e-001 4.5043870806694031e-001</leafValues></_>
        <_>
          <internalNodes>
            0 -1 9 -34083902 -336338453 -417251196 48409135 -210763771
            1804051076 -620858742 1132408731</internalNodes>
          <leafValues>
            -4.0179368853569031e-001 3.3685576915740967e-001</leafValues></_>
        <_>
          <internalNodes>
            0 -1 150 -544257177 -219778443 21200923 -1290513521
            1615777931 -1761607542 -535801442 -359466417</internalNodes>
          <leafValues>
            -3.5971173644065857e-001 3.6207687854766846e-001</leafValues></_>
        <_>
          <internalNodes>
            0 -1 66 -395264208 -57611495 1369657631 2106722631
            1144107433 -224867830 2030525989 170854373</internalNodes>
          <leafValues>
            -5.0826764106750488e-001 2.4417373538017273e-001</leafValues></_>
        <_>
          <internalNodes>
            0 -1 127 -1088431169 -2092776952 1074872337 -456732420
            848033665 -1987870584 1252744629 -1077161731</internalNodes>
          <leafValues>
            -4.3644630908966064e-001 2.8302106261253357e-001</leafValues></_>
        <_>
          <internalNodes>
            0 -1 11 -26283840 -889478597 1686571595 -116406685
            -355312428 -1294967431 -364190849 2071166027</internalNodes>
          <leafValues>
            -4.2231845855712891e-001 2.9025653004646301e-001</leafValues></_>
        <_>
          <internalNodes>
            0 -1 15 -1979370666 -540123117 965865877 -1826682479
            -1171688705 -1953988454 -1723547907 -849045312</internalNodes>
          <leafValues>
            -3.3932331204414368e-001 3.6399897933006287e-001</leafValues></_>
        <_>
          <internalNodes>
            0 -1 62 1991244895 -210743459 -290526180 -1874858484
            810491851 775042687 695175302 -230702849</internalNodes>
          <leafValues>
            -2.9827103018760681e-001 4.1814503073692322e-001</leafValues></_>
        <_>
          <internalNodes>
            0 -1 42 -1596198217 -2036559208 -922644293 -961765222
            283398839 -624721784 -787746730 -673206220</internalNodes>
          <leafValues>
            -3.9377018809318542e-001 3.1296056509017944e-001</leafValues></_></weakClassifiers></_>
    <!-- stage 11 -->
    <_>
      <maxWeakCount>11</maxWeakCount>
      <stageThreshold>-1.4366631507873535e+000</stageThreshold>
      <weakClassifiers>
        <_>
          <internalNodes>
            0 -1 38 1534415869 1058610011 -788508193 524164575
            -1744799236 -83361654 -95880449 -1411760257</internalNodes>
          <leafValues>
            -6.8047863245010376e-001 2.8548451140522957e-002</leafValues></_>
        <_>
          <internalNodes>
            0 -1 108 -555755414 -169922441 -651621921 1641507391
            -725116654 2072999027 -1979593266 865851263</internalNodes>
          <leafValues>
            -5.0436091423034668e-001 2.5512370467185974e-001</leafValues></_>
        <_>
          <internalNodes>
            0 -1 88 970219513 -1278475876 -2029937195 -547532548
            -1685980166 -1416068960 184617881 -1343272808</internalNodes>
          <leafValues>
            -3.5434591770172119e-001 3.9547443389892578e-001</leafValues></_>
        <_>
          <internalNodes>
            0 -1 123 -623359924 -16907957 268554321 441389343 -125193664
            -611713014 -1576303621 -1173747109</internalNodes>
          <leafValues>
            -4.5299243927001953e-001 2.9095584154129028e-001</leafValues></_>
        <_>
          <internalNodes>
            0 -1 0 -435985658 -739454718 1505841755 -211949370
            -152123173 -511147895 1402860251 -1060177408</internalNodes>
          <leafValues>
            -3.6697527766227722e-001 3.8047811388969421e-001</leafValues></_>
        <_>
          <internalNodes>
            0 -1 80 -217058566 -786369160 -347516172 1708094160
            -1185943153 436175086 233511167 1234627939</internalNodes>
          <leafValues>
            -4.5120042562484741e-001 3.0195215344429016e-001</leafValues></_>
        <_>
          <internalNodes>
            0 -1 52 81016881 -215475311 55055135 -6493539 -73426180
            -1367064159 -1174382439 134228736</internalNodes>
          <leafValues>
            -5.2219241857528687e-001 2.4929404258728027e-001</leafValues></_>
        <_>
          <internalNodes>
            0 -1 97 -622914481 1581478231 1154552283 -635497921
            -133361154 -343195110 -88868749 -1576527061</internalNodes>
          <leafValues>
            -4.0769237279891968e-001 2.9209542274475098e-001</leafValues></_>
        <_>
          <internalNodes>
            0 -1 17 -1770012472 128563845 -2115239324 1731048576
            1428507163 -527384559 -1914571241 1075958611</internalNodes>
          <leafValues>
            -5.9893774986267090e-001 2.1521194279193878e-001</leafValues></_>
        <_>
          <internalNodes>
            0 -1 120 -1868508987 -1202159486 -788426493 -1077178243
            -1475676029 -1148551168 -83255143 -1079376943</internalNodes>
          <leafValues>
            -3.4463956952095032e-001 3.8117414712905884e-001</leafValues></_>
        <_>
          <internalNodes>
            0 -1 61 -133139790 -13569564 -1061060433 -1928376746
            1560666542 -519765944 -16293762 1605828855</internalNodes>
          <leafValues>
            -4.4703626632690430e-001 2.9985034465789795e-001</leafValues></_></weakClassifiers></_>
    <!-- stage 12 -->
    <_>
      <maxWeakCount>14</maxWeakCount>
      <stageThreshold>-1.4867149591445923e+000</stageThreshold>
      <weakClassifiers>
        <_>
          <internalNodes>
            0 -1 8 -104660993 -35659557 -1791438897 -5796146 1410383615
            -241722901 -475530337 -67142689</internalNodes>
          <leafValues>
            -5.9926807880401611e-001 1.7915309965610504e-001</leafValues></_>
        <_>
          <internalNodes>
            0 -1 138 -481043029 -339259262 -788446736 -111816294
            -217455702 27955841 -2138316041 -674004273</internalNodes>
          <leafValues>
            -4.7652247548103333e-001 2.7896797657012939e-001</leafValues></_>
        <_>
          <internalNodes>
            0 -1 98 -1199570827 -69259183 327308253 -1075904301
            -1215779589 -2139028864 -1283413061 -1162208707</internalNodes>
          <leafValues>
            -3.8324636220932007e-001 3.4877279400825500e-001</leafValues></_>
        <_>
          <internalNodes>
            0 -1 39 1373663733 -578908136 1360534641 1073361178
            1489837500 -56874534 1023238141 -508380</internalNodes>
          <leafValues>
            -3.9013129472732544e-001 2.9386833310127258e-001</leafValues></_>
        <_>
          <internalNodes>
            0 -1 58 -219101244 -170036832 122628879 790580917 -435049570
            1907055115 -1108338551 635674815</internalNodes>
          <leafValues>
            -4.0919828414916992e-001 2.9144564270973206e-001</leafValues></_>
        <_>
          <internalNodes>
            0 -1 75 1088393487 -611131539 -1793724065 -140865338
            1021991839 -1085016701 -666023993 -2135761919</internalNodes>
          <leafValues>
            -3.7758725881576538e-001 2.9180222749710083e-001</leafValues></_>
        <_>
          <internalNodes>
            0 -1 72 2143809372 -586641524 2075464844 -438438987
            449941711 456989640 521869563 -583666933</internalNodes>
          <leafValues>
            -3.3974188566207886e-001 3.2777157425880432e-001</leafValues></_>
        <_>
          <internalNodes>
            0 -1 44 -854395118 -1565330351 -1944237878 -1733147474
            806500700 691160185 2085949002 1972846809</internalNodes>
          <leafValues>
            -5.1187151670455933e-001 2.0396846532821655e-001</leafValues></_>
        <_>
          <internalNodes>
            0 -1 121 -1495793411 -494780405 1360236547 1607267242
            -612172865 -1970634750 -1316871761 -1105839257</internalNodes>
          <leafValues>
            -4.9497866630554199e-001 2.2472466528415680e-001</leafValues></_>
        <_>
          <internalNodes>
            0 -1 65 -1982578893 1427390475 67244177 -1283375079
            -1576668985 -1434419064 -220004197 -1344533712</internalNodes>
          <leafValues>
            -4.6197298169136047e-001 2.3282393813133240e-001</leafValues></_>
        <_>
          <internalNodes>
            0 -1 96 2085374029 -7519801 1091257310 -170060706 -632790703
            1271808417 -502736438 -97320070</internalNodes>
          <leafValues>
            -3.8491439819335938e-001 2.8141343593597412e-001</leafValues></_>
        <_>
          <internalNodes>
            0 -1 114 237042427 -1414770536 1912952799 -572087856
            458121923 -1733572429 336147405 -1342538164</internalNodes>
          <leafValues>
            -3.9062145352363586e-001 2.9373186826705933e-001</leafValues></_>
        <_>
          <internalNodes>
            0 -1 13 -1202402330 -254631681 -1073047410 113156104
            1905547300 1619019906 1359166212 2134121221</internalNodes>
          <leafValues>
            -6.1916142702102661e-001 1.8259988725185394e-001</leafValues></_>
        <_>
          <internalNodes>
            0 -1 20 1820762916 -280979287 -984821480 1470070967
            1689290486 1754192025 -2023572921 1743733988</internalNodes>
          <leafValues>
            -5.4190933704376221e-001 2.0432001352310181e-001</leafValues></_></weakClassifiers></_>
    <!-- stage 13 -->
    <_>
      <maxWeakCount>13</maxWeakCount>
      <stageThreshold>-1.4884883165359497e+000</stageThreshold>
      <weakClassifiers>
        <_>
          <internalNodes>
            0 -1 146 -134257057 -216030054 17404345 -6303333 -795968854
            1895927818 -1295850853 -99943681</internalNodes>
          <leafValues>
            -6.5833336114883423e-001 8.1967213191092014e-004</leafValues></_>
        <_>
          <internalNodes>
            0 -1 99 -144705692 1364693329 -1069006168 1158137695
            -156634208 382705879 -1605901365 1675618687</internalNodes>
          <leafValues>
            -5.4223865270614624e-001 2.0452356338500977e-001</leafValues></_>
        <_>
          <internalNodes>
            0 -1 111 -1818526800 -1350385408 -805187333 -170466918
            1653130179 168394882 193720496 -268719684</internalNodes>
          <leafValues>
            -3.9476954936981201e-001 3.0315116047859192e-001</leafValues></_>
        <_>
          <internalNodes>
            0 -1 104 -1069058812 -16141705 -2013146161 -1221807125
            -847101479 -552923933 -230045041 203930130</internalNodes>
          <leafValues>
            -4.3630492687225342e-001 3.2347252964973450e-001</leafValues></_>
        <_>
          <internalNodes>
            0 -1 103 336206842 285724800 -1694394923 -1852538660
            310910345 -1559756726 167787209 -1164181092</internalNodes>
          <leafValues>
            -4.3207737803459167e-001 2.8761282563209534e-001</leafValues></_>
        <_>
          <internalNodes>
            0 -1 26 1393505270 2114233994 117553809 251433246
            -1592505722 -1835775584 1015290603 1603921867</internalNodes>
          <leafValues>
            -4.5116969943046570e-001 2.7208280563354492e-001</leafValues></_>
        <_>
          <internalNodes>
            0 -1 125 -426040977 1262583872 -1073639357 38093335
            -1476218880 973602818 -368523044 -230360289</internalNodes>
          <leafValues>
            -5.0227439403533936e-001 2.4493050575256348e-001</leafValues></_>
        <_>
          <internalNodes>
            0 -1 22 -39936556 -244811871 -1471803226 608495723 -88641276
            1916948501 -2010945995 588974575</internalNodes>
          <leafValues>
            -5.4958212375640869e-001 2.1248224377632141e-001</leafValues></_>
        <_>
          <internalNodes>
            0 -1 78 213793556 -132268031 1343243479 -552746913
            -763346294 -100530165 -779443238 -23535608</internalNodes>
          <leafValues>
            -4.2292243242263794e-001 2.7199611067771912e-001</leafValues></_>
        <_>
          <internalNodes>
            0 -1 3 656928673 2007760175 -1880096931 -609366105
            1056964607 -2015952903 1610605547 -2134390814</internalNodes>
          <leafValues>
            -3.0966100096702576e-001 3.9124098420143127e-001</leafValues></_>
        <_>
          <internalNodes>
            0 -1 71 -349587236 -452150983 -1054468324 1428424912
            1800099069 160535443 190392559 -48782549</internalNodes>
          <leafValues>
            -3.7365370988845825e-001 3.2585322856903076e-001</leafValues></_>
        <_>
          <internalNodes>
            0 -1 43 -567387653 1656474422 -997102003 1583450330
            -1258249487 2047234160 -1693994450 1863266087</internalNodes>
          <leafValues>
            -3.7205803394317627e-001 3.2661557197570801e-001</leafValues></_>
        <_>
          <internalNodes>
            0 -1 1 669129683 -524310 -1628440717 502939635 -58853953
            -604987548 -1074018589 -1618190912</internalNodes>
          <leafValues>
            -2.7942571043968201e-001 4.3258652091026306e-001</leafValues></_></weakClassifiers></_>
    <!-- stage 14 -->
    <_>
      <maxWeakCount>12</maxWeakCount>
      <stageThreshold>-1.7529449462890625e+000</stageThreshold>
      <weakClassifiers>
        <_>
          <internalNodes>
            0 -1 40 -206652193 -1691642859 420229321 -4984166 -652680053
            -13907934 -161558055 -14113</internalNodes>
          <leafValues>
            -6.1330324411392212e-001 1.5733015537261963e-001</leafValues></_>
        <_>
          <internalNodes>
            0 -1 119 -1555893762 -519925760 -2130411251 -682143680
            -1342001013 -1207304192 50406363 -1080356787</internalNodes>
          <leafValues>
            -3.9699923992156982e-001 3.4098407626152039e-001</leafValues></_>
        <_>
          <internalNodes>
            0 -1 118 -1848520469 -1379270574 50413570 -774946796
            1244307874 8978432 -1568460124 -235160696</internalNodes>
          <leafValues>
            -3.5793271660804749e-001 3.3804425597190857e-001</leafValues></_>
        <_>
          <internalNodes>
            0 -1 94 -795834299 -1735080067 -2130013320 -1173221253
            -720819391 260538504 -578730733 974784527</internalNodes>
          <leafValues>
            -6.1760395765304565e-001 2.0465336740016937e-001</leafValues></_>
        <_>
          <internalNodes>
            0 -1 153 -1137975661 -1413873754 -872568261 -545554638
            -318799873 -297796237 502945221 -589310471</internalNodes>
          <leafValues>
            -3.2306590676307678e-001 4.0026685595512390e-001</leafValues></_>
        <_>
          <internalNodes>
            0 -1 36 -393833533 -530775867 302055618 -502071216
            -2147344381 1074298880 319301715 -138677853</internalNodes>
          <leafValues>
            -4.6001699566841125e-001 2.9438146948814392e-001</leafValues></_>
        <_>
          <internalNodes>
            0 -1 2 38994199 -2013261568 1880182845 -1659416483
            -402476915 -1466924926 1107825560 -459276160</internalNodes>
          <leafValues>
            -4.2738395929336548e-001 2.9853138327598572e-001</leafValues></_>
        <_>
          <internalNodes>
            0 -1 7 -1810429522 1897390146 -1056898708 -469319654
            1108498572 -251625334 1478433283 352701027</internalNodes>
          <leafValues>
            -4.5397379994392395e-001 2.9893285036087036e-001</leafValues></_>
        <_>
          <internalNodes>
            0 -1 59 -1828317176 1393557648 1749289786 1166532609
            -1155923520 679483592 663429294 994141003</internalNodes>
          <leafValues>
            -6.3825517892837524e-001 1.7593945562839508e-001</leafValues></_>
        <_>
          <internalNodes>
            0 -1 25 -1743331092 30086170 -1856880188 318930951
            1359536294 967475345 -922179254 453200736</internalNodes>
          <leafValues>
            -4.6135908365249634e-001 2.8013956546783447e-001</leafValues></_>
        <_>
          <internalNodes>
            0 -1 34 -128470109 837169087 -8401177 582364970 2103524370
            1107165183 -1778712284 -847513969</internalNodes>
          <leafValues>
            -3.4352797269821167e-001 3.9951831102371216e-001</leafValues></_>
        <_>
          <internalNodes>
            0 -1 107 563218772 1605632 16794840 -1861975920 -930999664
            1074397184 -1727917423 -1465352000</internalNodes>
          <leafValues>
            -6.3377904891967773e-001 2.0812806487083435e-001</leafValues></_></weakClassifiers></_></stages>
  <features>
    <_>
      <rect>
        0 0 2 5</rect></_>
    <_>
      <rect>
        0 0 5 1</rect></_>
    <_>
      <rect>
        0 1 3 1</rect></_>
    <_>
      <rect>
        0 1 3 3</rect></_>
    <_>
      <rect>
        0 1 5 6</rect></_>
    <_>
      <rect>
        0 3 4 5</rect></_>
    <_>
      <rect>
        0 3 6 6</rect></_>
    <_>
      <rect>
        0 6 3 4</rect></_>
    <_>
      <rect>
        0 7 5 2</rect></_>
    <_>
      <rect>
        0 9 3 5</rect></_>
    <_>
      <rect>
        0 10 5 2</rect></_>
    <_>
      <rect>
        0 10 6 3</rect></_>
    <_>
      <rect>
        0 15 6 5</rect></_>
    <_>
      <rect>
        0 17 3 3</rect></_>
    <_>
      <rect>
        1 0 5 7</rect></_>
    <_>
      <rect>
        1 1 5 1</rect></_>
    <_>
      <rect>
        1 1 6 4</rect></_>
    <_>
      <rect>
        1 1 6 7</rect></_>
    <_>
      <rect>
        1 2 4 2</rect></_>
    <_>
      <rect>
        1 2 6 4</rect></_>
    <_>
      <rect>
        1 4 4 3</rect></_>
    <_>
      <rect>
        1 5 6 5</rect></_>
    <_>
      <rect>
        1 6 5 6</rect></_>
    <_>
      <rect>
        1 11 1 1</rect></_>
    <_>
      <rect>
        1 15 6 5</rect></_>
    <_>
      <rect>
        1 18 4 3</rect></_>
    <_>
      <rect>
        1 18 6 4</rect></_>
    <_>
      <rect>
        2 0 2 5</rect></_>
    <_>
      <rect>
        2 1 5 2</rect></_>
    <_>
      <rect>
        2 11 1 1</rect></_>
    <_>
      <rect>
        2 11 5 4</rect></_>
    <_>
      <rect>
        2 15 5 4</rect></_>
    <_>
      <rect>
        2 17 6 4</rect></_>
    <_>
      <rect>
        3 0 3 3</rect></_>
    <_>
      <rect>
        3 6 2 6</rect></_>
    <_>
      <rect>
        3 10 1 1</rect></_>
    <_>
      <rect>
        3 11 1 1</rect></_>
    <_>
      <rect>
        3 11 4 5</rect></_>
    <_>
      <rect>
        3 24 3 2</rect></_>
    <_>
      <rect>
        3 24 4 2</rect></_>
    <_>
      <rect>
        4 5 5 5</rect></_>
    <_>
      <rect>
        4 6 1 1</rect></_>
    <_>
      <rect>
        4 6 1 2</rect></_>
    <_>
      <rect>
        4 6 4 3</rect></_>
    <_>
      <rect>
        4 6 4 4</rect></_>
    <_>
      <rect>
        4 8 4 2</rect></_>
    <_>
      <rect>
        4 23 5 2</rect></_>
    <_>
      <rect>
        4 24 1 1</rect></_>
    <_>
      <rect>
        4 26 3 1</rect></_>
    <_>
      <rect>
        4 27 4 1</rect></_>
    <_>
      <rect>
        5 0 4 1</rect></_>
    <_>
      <rect>
        5 1 3 1</rect></_>
    <_>
      <rect>
        5 1 5 2</rect></_>
    <_>
      <rect>
        5 2 5 3</rect></_>
    <_>
      <rect>
        5 7 4 3</rect></_>
    <_>
      <rect>
        5 9 4 3</rect></_>
    <_>
      <rect>
        5 9 5 4</rect></_>
    <_>
      <rect>
        5 12 4 5</rect></_>
    <_>
      <rect>
        5 13 3 4</rect></_>
    <_>
      <rect>
        5 15 4 4</rect></_>
    <_>
      <rect>
        6 1 4 7</rect></_>
    <_>
      <rect>
        6 6 3 3</rect></_>
    <_>
      <rect>
        6 7 4 5</rect></_>
    <_>
      <rect>
        6 24 3 2</rect></_>
    <_>
      <rect>
        7 0 4 7</rect></_>
    <_>
      <rect>
        7 3 1 1</rect></_>
    <_>
      <rect>
        7 5 3 3</rect></_>
    <_>
      <rect>
        7 5 4 5</rect></_>
    <_>
      <rect>
        7 6 4 3</rect></_>
    <_>
      <rect>
        7 8 4 3</rect></_>
    <_>
      <rect>
        7 11 4 4</rect></_>
    <_>
      <rect>
        7 15 4 4</rect></_>
    <_>
      <rect>
        7 17 4 4</rect></_>
    <_>
      <rect>
        7 24 1 1</rect></_>
    <_>
      <rect>
        7 24 4 2</rect></_>
    <_>
      <rect>
        8 0 4 6</rect></_>
    <_>
      <rect>
        8 5 4 5</rect></_>
    <_>
      <rect>
        8 8 4 7</rect></_>
    <_>
      <rect>
        8 15 1 1</rect></_>
    <_>
      <rect>
        8 15 4 5</rect></_>
    <_>
      <rect>
        8 16 4 4</rect></_>
    <_>
      <rect>
        8 18 3 4</rect></_>
    <_>
      <rect>
        9 2 3 2</rect></_>
    <_>
      <rect>
        9 3 2 1</rect></_>
    <_>
      <rect>
        9 6 3 3</rect></_>
    <_>
      <rect>
        9 6 3 4</rect></_>
    <_>
      <rect>
        9 11 2 2</rect></_>
    <_>
      <rect>
        9 13 1 1</rect></_>
    <_>
      <rect>
        9 24 2 1</rect></_>
    <_>
      <rect>
        9 26 1 1</rect></_>
    <_>
      <rect>
        10 0 3 7</rect></_>
    <_>
      <rect>
        10 1 3 2</rect></_>
    <_>
      <rect>
        10 5 1 1</rect></_>
    <_>
      <rect>
        10 7 1 1</rect></_>
    <_>
      <rect>
        10 8 3 3</rect></_>
    <_>
      <rect>
        10 10 1 1</rect></_>
    <_>
      <rect>
        10 10 2 3</rect></_>
    <_>
      <rect>
        10 11 2 3</rect></_>
    <_>
      <rect>
        10 13 1 1</rect></_>
    <_>
      <rect>
        10 14 3 3</rect></_>
    <_>
      <rect>
        10 15 1 1</rect></_>
    <_>
      <rect>
        10 21 3 3</rect></_>
    <_>
      <rect>
        10 25 1 1</rect></_>
    <_>
      <rect>
        10 27 2 1</rect></_>
    <_>
      <rect>
        11 2 3 3</rect></_>
    <_>
      <rect>
        11 4 3 3</rect></_>
    <_>
      <rect>
        11 5 3 6</rect></_>
    <_>
      <rect>
        11 6 1 1</rect></_>
    <_>
      <rect>
        11 11 3 4</rect></_>
    <_>
      <rect>
        11 17 1 1</rect></_>
    <_>
      <rect>
        11 17 3 4</rect></_>
    <_>
      <rect>
        11 21 1 1</rect></_>
    <_>
      <rect>
        11 22 1 1</rect></_>
    <_>
      <rect>
        11 24 2 2</rect></_>
    <_>
      <rect>
        11 24 3 2</rect></_>
    <_>
      <rect>
        12 11 1 1</rect></_>
    <_>
      <rect>
        12 12 1 1</rect></_>
    <_>
      <rect>
        12 15 1 1</rect></_>
    <_>
      <rect>
        12 20 1 1</rect></_>
    <_>
      <rect>
        12 24 1 1</rect></_>
    <_>
      <rect>
        13 8 1 1</rect></_>
    <_>
      <rect>
        13 10 1 2</rect></_>
    <_>
      <rect>
        13 11 1 2</rect></_>
    <_>
      <rect>
        13 13 1 1</rect></_>
    <_>
      <rect>
        13 14 1 1</rect></_>
    <_>
      <rect>
        13 15 1 1</rect></_>
    <_>
      <rect>
        13 16 1 1</rect></_>
    <_>
      <rect>
        13 19 1 2</rect></_>
    <_>
      <rect>
        13 20 1 1</rect></_>
    <_>
      <rect>
        13 21 1 1</rect></_>
    <_>
      <rect>
        13 22 1 1</rect></_>
    <_>
      <rect>
        13 23 1 1</rect></_>
    <_>
      <rect>
        13 24 1 2</rect></_>
    <_>
      <rect>
        14 0 2 4</rect></_>
    <_>
      <rect>
        14 13 2 5</rect></_>
    <_>
      <rect>
        14 15 1 1</rect></_>
    <_>
      <rect>
        14 16 1 1</rect></_>
    <_>
      <rect>
        14 18 2 4</rect></_>
    <_>
      <rect>
        14 21 2 1</rect></_>
    <_>
      <rect>
        15 12 1 1</rect></_>
    <_>
      <rect>
        15 13 1 1</rect></_>
    <_>
      <rect>
        15 16 1 1</rect></_>
    <_>
      <rect>
        15 17 1 1</rect></_>
    <_>
      <rect>
        15 21 1 1</rect></_>
    <_>
      <rect>
        15 22 1 1</rect></_>
    <_>
      <rect>
        15 22 1 2</rect></_>
    <_>
      <rect>
        16 11 1 2</rect></_>
    <_>
      <rect>
        16 14 1 1</rect></_>
    <_>
      <rect>
        16 16 1 1</rect></_>
    <_>
      <rect>
        16 21 1 1</rect></_>
    <_>
      <rect>
        17 11 1 3</rect></_>
    <_>
      <rect>
        17 11 1 4</rect></_>
    <_>
      <rect>
        17 18 1 4</rect></_>
    <_>
      <rect>
        17 20 1 2</rect></_></features></cascade>
</opencv_storage>
