<?xml version="1.0"?>
<opencv_storage>
<stage11>
  <maxWeakCount>11</maxWeakCount>
  <stageThreshold>-1.4366631507873535e+000</stageThreshold>
  <weakClassifiers>
    <_>
      <internalNodes>
        0 -1 3315 1534415869 1058610011 -788508193 524164575 -1744799236
        -83361654 -95880449 -1411760257</internalNodes>
      <leafValues>
        -6.8047863245010376e-001 2.8548451140522957e-002</leafValues></_>
    <_>
      <internalNodes>
        0 -1 7674 -555755414 -169922441 -651621921 1641507391 -725116654
        2072999027 -1979593266 865851263</internalNodes>
      <leafValues>
        -5.0436091423034668e-001 2.5512370467185974e-001</leafValues></_>
    <_>
      <internalNodes>
        0 -1 6947 970219513 -1278475876 -2029937195 -547532548
        -1685980166 -1416068960 184617881 -1343272808</internalNodes>
      <leafValues>
        -3.5434591770172119e-001 3.9547443389892578e-001</leafValues></_>
    <_>
      <internalNodes>
        0 -1 8320 -623359924 -16907957 268554321 441389343 -125193664
        -611713014 -1576303621 -1173747109</internalNodes>
      <leafValues>
        -4.5299243927001953e-001 2.9095584154129028e-001</leafValues></_>
    <_>
      <internalNodes>
        0 -1 14 -435985658 -739454718 1505841755 -211949370 -152123173
        -511147895 1402860251 -1060177408</internalNodes>
      <leafValues>
        -3.6697527766227722e-001 3.8047811388969421e-001</leafValues></_>
    <_>
      <internalNodes>
        0 -1 6420 -217058566 -786369160 -347516172 1708094160
        -1185943153 436175086 233511167 1234627939</internalNodes>
      <leafValues>
        -4.5120042562484741e-001 3.0195215344429016e-001</leafValues></_>
    <_>
      <internalNodes>
        0 -1 4147 81016881 -215475311 55055135 -6493539 -73426180
        -1367064159 -1174382439 134228736</internalNodes>
      <leafValues>
        -5.2219241857528687e-001 2.4929404258728027e-001</leafValues></_>
    <_>
      <internalNodes>
        0 -1 7232 -622914481 1581478231 1154552283 -635497921 -133361154
        -343195110 -88868749 -1576527061</internalNodes>
      <leafValues>
        -4.0769237279891968e-001 2.9209542274475098e-001</leafValues></_>
    <_>
      <internalNodes>
        0 -1 981 -1770012472 128563845 -2115239324 1731048576 1428507163
        -527384559 -1914571241 1075958611</internalNodes>
      <leafValues>
        -5.9893774986267090e-001 2.1521194279193878e-001</leafValues></_>
    <_>
      <internalNodes>
        0 -1 8256 -1868508987 -1202159486 -788426493 -1077178243
        -1475676029 -1148551168 -83255143 -1079376943</internalNodes>
      <leafValues>
        -3.4463956952095032e-001 3.8117414712905884e-001</leafValues></_>
    <_>
      <internalNodes>
        0 -1 5015 -133139790 -13569564 -1061060433 -1928376746
        1560666542 -519765944 -16293762 1605828855</internalNodes>
      <leafValues>
        -4.4703626632690430e-001 2.9985034465789795e-001</leafValues></_></weakClassifiers></stage11>
</opencv_storage>
