<?xml version="1.0"?>
<opencv_storage>
<stage13>
  <maxWeakCount>13</maxWeakCount>
  <stageThreshold>-1.4884883165359497e+000</stageThreshold>
  <weakClassifiers>
    <_>
      <internalNodes>
        0 -1 8934 -134257057 -216030054 17404345 -6303333 -795968854
        1895927818 -1295850853 -99943681</internalNodes>
      <leafValues>
        -6.5833336114883423e-001 8.1967213191092014e-004</leafValues></_>
    <_>
      <internalNodes>
        0 -1 7287 -144705692 1364693329 -1069006168 1158137695
        -156634208 382705879 -1605901365 1675618687</internalNodes>
      <leafValues>
        -5.4223865270614624e-001 2.0452356338500977e-001</leafValues></_>
    <_>
      <internalNodes>
        0 -1 7794 -1818526800 -1350385408 -805187333 -170466918
        1653130179 168394882 193720496 -268719684</internalNodes>
      <leafValues>
        -3.9476954936981201e-001 3.0315116047859192e-001</leafValues></_>
    <_>
      <internalNodes>
        0 -1 7472 -1069058812 -16141705 -2013146161 -1221807125
        -847101479 -552923933 -230045041 203930130</internalNodes>
      <leafValues>
        -4.3630492687225342e-001 3.2347252964973450e-001</leafValues></_>
    <_>
      <internalNodes>
        0 -1 7393 336206842 285724800 -1694394923 -1852538660 310910345
        -1559756726 167787209 -1164181092</internalNodes>
      <leafValues>
        -4.3207737803459167e-001 2.8761282563209534e-001</leafValues></_>
    <_>
      <internalNodes>
        0 -1 1631 1393505270 2114233994 117553809 251433246 -1592505722
        -1835775584 1015290603 1603921867</internalNodes>
      <leafValues>
        -4.5116969943046570e-001 2.7208280563354492e-001</leafValues></_>
    <_>
      <internalNodes>
        0 -1 8340 -426040977 1262583872 -1073639357 38093335 -1476218880
        973602818 -368523044 -230360289</internalNodes>
      <leafValues>
        -5.0227439403533936e-001 2.4493050575256348e-001</leafValues></_>
    <_>
      <internalNodes>
        0 -1 1225 -39936556 -244811871 -1471803226 608495723 -88641276
        1916948501 -2010945995 588974575</internalNodes>
      <leafValues>
        -5.4958212375640869e-001 2.1248224377632141e-001</leafValues></_>
    <_>
      <internalNodes>
        0 -1 6385 213793556 -132268031 1343243479 -552746913 -763346294
        -100530165 -779443238 -23535608</internalNodes>
      <leafValues>
        -4.2292243242263794e-001 2.7199611067771912e-001</leafValues></_>
    <_>
      <internalNodes>
        0 -1 80 656928673 2007760175 -1880096931 -609366105 1056964607
        -2015952903 1610605547 -2134390814</internalNodes>
      <leafValues>
        -3.0966100096702576e-001 3.9124098420143127e-001</leafValues></_>
    <_>
      <internalNodes>
        0 -1 5823 -349587236 -452150983 -1054468324 1428424912
        1800099069 160535443 190392559 -48782549</internalNodes>
      <leafValues>
        -3.7365370988845825e-001 3.2585322856903076e-001</leafValues></_>
    <_>
      <internalNodes>
        0 -1 3626 -567387653 1656474422 -997102003 1583450330
        -1258249487 2047234160 -1693994450 1863266087</internalNodes>
      <leafValues>
        -3.7205803394317627e-001 3.2661557197570801e-001</leafValues></_>
    <_>
      <internalNodes>
        0 -1 40 669129683 -524310 -1628440717 502939635 -58853953
        -604987548 -1074018589 -1618190912</internalNodes>
      <leafValues>
        -2.7942571043968201e-001 4.3258652091026306e-001</leafValues></_></weakClassifiers></stage13>
</opencv_storage>
