<?xml version="1.0"?>
<opencv_storage>
<stage6>
  <maxWeakCount>10</maxWeakCount>
  <stageThreshold>-1.5007960796356201e+000</stageThreshold>
  <weakClassifiers>
    <_>
      <internalNodes>
        0 -1 7763 -8390657 -1082146914 -144869380 -537946628 1006631935
        250149311 1609522429 -1</internalNodes>
      <leafValues>
        -6.7315489053726196e-001 1.5473887324333191e-001</leafValues></_>
    <_>
      <internalNodes>
        0 -1 8050 -555799473 -134270859 -665730853 576143443 -471078330
        -903970806 -90252566 -88409893</internalNodes>
      <leafValues>
        -4.8707330226898193e-001 3.3424210548400879e-001</leafValues></_>
    <_>
      <internalNodes>
        0 -1 1184 -6029602 1998846067 -1643254580 -4210497 -582814561
        993230107 1930334459 2071974143</internalNodes>
      <leafValues>
        -4.3675228953361511e-001 3.5709193348884583e-001</leafValues></_>
    <_>
      <internalNodes>
        0 -1 4058 324802201 374083993 500498907 -1646650146 1403006408
        -376143221 -754370070 -73860472</internalNodes>
      <leafValues>
        -3.6395469307899475e-001 4.0473467111587524e-001</leafValues></_>
    <_>
      <internalNodes>
        0 -1 4388 -189858689 -126025990 -4194837 -79164406 2088007931
        -102662209 2105507111 -12645089</internalNodes>
      <leafValues>
        -2.9189836978912354e-001 4.9281078577041626e-001</leafValues></_>
    <_>
      <internalNodes>
        0 -1 8630 -2102961 -271068849 -805187388 -221556469 -1419597246
        -217561078 -101979398 -222108705</internalNodes>
      <leafValues>
        -3.7740606069564819e-001 3.7765184044837952e-001</leafValues></_>
    <_>
      <internalNodes>
        0 -1 1837 757116913 -1116165153 2141057019 -1076762723 -74340367
        -1155743543 -880554019 228862596</internalNodes>
      <leafValues>
        -4.3167230486869812e-001 3.5139849781990051e-001</leafValues></_>
    <_>
      <internalNodes>
        0 -1 2295 2130704964 -158664444 -2004421489 598673669
        -1662899868 -138980776 46083170 192886559</internalNodes>
      <leafValues>
        -6.0352575778961182e-001 2.3057721555233002e-001</leafValues></_>
    <_>
      <internalNodes>
        0 -1 8837 -1344539915 -1278152108 -2130620068 -10776099
        -1096880701 -922566632 998430929 -1914743812</internalNodes>
      <leafValues>
        -4.2314603924751282e-001 3.2598978281021118e-001</leafValues></_>
    <_>
      <internalNodes>
        0 -1 199 1340073070 1492701950 -429655889 -136582508 864515039
        -17040493 1039359751 1971313250</internalNodes>
      <leafValues>
        -4.6130141615867615e-001 2.8525328636169434e-001</leafValues></_></weakClassifiers></stage6>
</opencv_storage>
