<?xml version="1.0"?>
<opencv_storage>
<stage9>
  <maxWeakCount>12</maxWeakCount>
  <stageThreshold>-1.7932265996932983e+000</stageThreshold>
  <weakClassifiers>
    <_>
      <internalNodes>
        0 -1 689 -2098177 -540493860 -921193473 -2111521 -82202117
        -3540753 2046638847 -2098193</internalNodes>
      <leafValues>
        -5.9809118509292603e-001 2.8614008426666260e-001</leafValues></_>
    <_>
      <internalNodes>
        0 -1 6986 -634763169 -80022977 -144745697 -4991413 -37497893
        -1078236538 -470857489 -100480673</internalNodes>
      <leafValues>
        -4.6777307987213135e-001 3.0334249138832092e-001</leafValues></_>
    <_>
      <internalNodes>
        0 -1 3697 -352389897 -621117953 -69681 -9933146 1165301759
        -1243316298 -146983105 -15512257</internalNodes>
      <leafValues>
        -3.2882943749427795e-001 4.0040770173072815e-001</leafValues></_>
    <_>
      <internalNodes>
        0 -1 4034 1566400478 389583838 290468797 1004242686 982907064
        -1419934388 1503235772 1021160122</internalNodes>
      <leafValues>
        -4.2022490501403809e-001 3.1535935401916504e-001</leafValues></_>
    <_>
      <internalNodes>
        0 -1 218 -44049158 -1816141653 75700389 -321027898 456130317
        1597733215 1896839071 726397144</internalNodes>
      <leafValues>
        -4.0305250883102417e-001 3.2966825366020203e-001</leafValues></_>
    <_>
      <internalNodes>
        0 -1 9116 -1490094341 -1827999420 285311131 -1454640491
        -1299723569 -1983708663 462123449 -345080115</internalNodes>
      <leafValues>
        -4.3358117341995239e-001 2.6595047116279602e-001</leafValues></_>
    <_>
      <internalNodes>
        0 -1 7290 -1963317651 -938786813 -805187074 678903959 -91594144
        436437122 -896879642 -90031688</internalNodes>
      <leafValues>
        -4.7198340296745300e-001 2.6483160257339478e-001</leafValues></_>
    <_>
      <internalNodes>
        0 -1 1012 -2023740589 -216014578 -304228017 937251011 -350540817
        -1449619265 -611726389 -1906573132</internalNodes>
      <leafValues>
        -3.6628198623657227e-001 3.2255390286445618e-001</leafValues></_>
    <_>
      <internalNodes>
        0 -1 1398 -2391509 -389087023 -670969760 -1026928421 -1073044985
        -628588471 -509347791 -137387342</internalNodes>
      <leafValues>
        -4.0590178966522217e-001 3.1116193532943726e-001</leafValues></_>
    <_>
      <internalNodes>
        0 -1 7524 -1937991168 743372581 -1006331284 -2015366851
        -264013083 1779032185 -1143996624 77298487</internalNodes>
      <leafValues>
        -6.6490983963012695e-001 1.6087113320827484e-001</leafValues></_>
    <_>
      <internalNodes>
        0 -1 8619 -811615832 1035923533 -1861184614 96895257 -65199695
        428343426 538589869 226915179</internalNodes>
      <leafValues>
        -5.4194658994674683e-001 2.1639849245548248e-001</leafValues></_>
    <_>
      <internalNodes>
        0 -1 5660 1218759748 821744447 816044793 168075589 1636391377
        -613184837 -166783393 723209262</internalNodes>
      <leafValues>
        -5.7973217964172363e-001 1.9437360763549805e-001</leafValues></_></weakClassifiers></stage9>
</opencv_storage>
