<?xml version="1.0"?>
<opencv_storage>
<stage12>
  <maxWeakCount>14</maxWeakCount>
  <stageThreshold>-1.4867149591445923e+000</stageThreshold>
  <weakClassifiers>
    <_>
      <internalNodes>
        0 -1 395 -104660993 -35659557 -1791438897 -5796146 1410383615
        -241722901 -475530337 -67142689</internalNodes>
      <leafValues>
        -5.9926807880401611e-001 1.7915309965610504e-001</leafValues></_>
    <_>
      <internalNodes>
        0 -1 8679 -481043029 -339259262 -788446736 -111816294 -217455702
        27955841 -2138316041 -674004273</internalNodes>
      <leafValues>
        -4.7652247548103333e-001 2.7896797657012939e-001</leafValues></_>
    <_>
      <internalNodes>
        0 -1 7260 -1199570827 -69259183 327308253 -1075904301
        -1215779589 -2139028864 -1283413061 -1162208707</internalNodes>
      <leafValues>
        -3.8324636220932007e-001 3.4877279400825500e-001</leafValues></_>
    <_>
      <internalNodes>
        0 -1 3317 1373663733 -578908136 1360534641 1073361178 1489837500
        -56874534 1023238141 -508380</internalNodes>
      <leafValues>
        -3.9013129472732544e-001 2.9386833310127258e-001</leafValues></_>
    <_>
      <internalNodes>
        0 -1 4573 -219101244 -170036832 122628879 790580917 -435049570
        1907055115 -1108338551 635674815</internalNodes>
      <leafValues>
        -4.0919828414916992e-001 2.9144564270973206e-001</leafValues></_>
    <_>
      <internalNodes>
        0 -1 5980 1088393487 -611131539 -1793724065 -140865338
        1021991839 -1085016701 -666023993 -2135761919</internalNodes>
      <leafValues>
        -3.7758725881576538e-001 2.9180222749710083e-001</leafValues></_>
    <_>
      <internalNodes>
        0 -1 5856 2143809372 -586641524 2075464844 -438438987 449941711
        456989640 521869563 -583666933</internalNodes>
      <leafValues>
        -3.3974188566207886e-001 3.2777157425880432e-001</leafValues></_>
    <_>
      <internalNodes>
        0 -1 3627 -854395118 -1565330351 -1944237878 -1733147474
        806500700 691160185 2085949002 1972846809</internalNodes>
      <leafValues>
        -5.1187151670455933e-001 2.0396846532821655e-001</leafValues></_>
    <_>
      <internalNodes>
        0 -1 8285 -1495793411 -494780405 1360236547 1607267242
        -612172865 -1970634750 -1316871761 -1105839257</internalNodes>
      <leafValues>
        -4.9497866630554199e-001 2.2472466528415680e-001</leafValues></_>
    <_>
      <internalNodes>
        0 -1 5477 -1982578893 1427390475 67244177 -1283375079
        -1576668985 -1434419064 -220004197 -1344533712</internalNodes>
      <leafValues>
        -4.6197298169136047e-001 2.3282393813133240e-001</leafValues></_>
    <_>
      <internalNodes>
        0 -1 7214 2085374029 -7519801 1091257310 -170060706 -632790703
        1271808417 -502736438 -97320070</internalNodes>
      <leafValues>
        -3.8491439819335938e-001 2.8141343593597412e-001</leafValues></_>
    <_>
      <internalNodes>
        0 -1 7820 237042427 -1414770536 1912952799 -572087856 458121923
        -1733572429 336147405 -1342538164</internalNodes>
      <leafValues>
        -3.9062145352363586e-001 2.9373186826705933e-001</leafValues></_>
    <_>
      <internalNodes>
        0 -1 724 -1202402330 -254631681 -1073047410 113156104 1905547300
        1619019906 1359166212 2134121221</internalNodes>
      <leafValues>
        -6.1916142702102661e-001 1.8259988725185394e-001</leafValues></_>
    <_>
      <internalNodes>
        0 -1 1118 1820762916 -280979287 -984821480 1470070967 1689290486
        1754192025 -2023572921 1743733988</internalNodes>
      <leafValues>
        -5.4190933704376221e-001 2.0432001352310181e-001</leafValues></_></weakClassifiers></stage12>
</opencv_storage>
