<?xml version="1.0"?>
<opencv_storage>
<stage5>
  <maxWeakCount>10</maxWeakCount>
  <stageThreshold>-1.7802549600601196e+000</stageThreshold>
  <weakClassifiers>
    <_>
      <internalNodes>
        0 -1 6448 -4194305 -2583588 353581565 -578568 -1075904769
        -1620267092 268316927 -1</internalNodes>
      <leafValues>
        -6.3703024387359619e-001 3.0744338035583496e-001</leafValues></_>
    <_>
      <internalNodes>
        0 -1 7551 -88881841 -99421321 -70565809 -1305310089 -335553201
        -207363017 -631831985 -231481489</internalNodes>
      <leafValues>
        -4.7983959317207336e-001 3.7313422560691833e-001</leafValues></_>
    <_>
      <internalNodes>
        0 -1 2632 -1591693455 -10636623 -123732481 -2536603 -274352177
        -1332551 -268453889 -1360722571</internalNodes>
      <leafValues>
        -4.5733824372291565e-001 3.5284888744354248e-001</leafValues></_>
    <_>
      <internalNodes>
        0 -1 2268 -540022993 -288374549 -1752996602 -252192054
        -794136494 1646502026 -207361194 -134745097</internalNodes>
      <leafValues>
        -4.5095509290695190e-001 3.5802465677261353e-001</leafValues></_>
    <_>
      <internalNodes>
        0 -1 7206 751437309 -1160492833 -805187105 -1076068195 -41131853
        -125730665 -1282401350 -1145558512</internalNodes>
      <leafValues>
        -5.0193256139755249e-001 3.6221158504486084e-001</leafValues></_>
    <_>
      <internalNodes>
        0 -1 5925 459308372 -2866920 -653667843 -1084354363 -74946392
        -880279550 -1081422865 -1078059716</internalNodes>
      <leafValues>
        -5.1982229948043823e-001 2.9244089126586914e-001</leafValues></_>
    <_>
      <internalNodes>
        0 -1 4466 -358946106 1113757493 240249482 840005901 -1059514240
        1416699174 -1433724790 859307071</internalNodes>
      <leafValues>
        -6.4394330978393555e-001 2.6338282227516174e-001</leafValues></_>
    <_>
      <internalNodes>
        0 -1 8833 -1355038410 -1350135629 1627447446 -414297956
        1101742083 42647683 1502336241 -1041237019</internalNodes>
      <leafValues>
        -5.8737307786941528e-001 2.3413436114788055e-001</leafValues></_>
    <_>
      <internalNodes>
        0 -1 4552 -20581644 -590548664 -343025987 1101659097 -1285933178
        -40860569 690043579 801080187</internalNodes>
      <leafValues>
        -4.4470509886741638e-001 3.2677328586578369e-001</leafValues></_>
    <_>
      <internalNodes>
        0 -1 4090 212468755 -84366356 -1379958789 -8585244 -285956672
        -1259522842 804585167 -6018288</internalNodes>
      <leafValues>
        -3.7204280495643616e-001 3.9973580837249756e-001</leafValues></_></weakClassifiers></stage5>
</opencv_storage>
