<?xml version="1.0"?>
<opencv_storage>
<stage0>
  <maxWeakCount>6</maxWeakCount>
  <stageThreshold>-1.6948324441909790e+000</stageThreshold>
  <weakClassifiers>
    <_>
      <internalNodes>
        0 -1 5401 -609041185 -80028193 -145105441 -73270305 -91500545
        -72709889 -624240417 -1174157233</internalNodes>
      <leafValues>
        -7.3561668395996094e-001 4.5646145939826965e-001</leafValues></_>
    <_>
      <internalNodes>
        0 -1 7386 280509181 -1153137960 -83659777 -10678060 -1429679138
        -206995318 -1143293511 -1078329128</internalNodes>
      <leafValues>
        -6.2372612953186035e-001 5.0679361820220947e-001</leafValues></_>
    <_>
      <internalNodes>
        0 -1 1032 -681508956 -67347465 1574803503 2138902627 -1527455761
        -1095293985 2139602911 1089824646</internalNodes>
      <leafValues>
        -6.5596449375152588e-001 4.3167003989219666e-001</leafValues></_>
    <_>
      <internalNodes>
        0 -1 8396 -1078002695 -1434156582 -117188231 -141936 -1684278529
        -1618247544 -1651879436 -1140940547</internalNodes>
      <leafValues>
        -5.1405692100524902e-001 5.3527820110321045e-001</leafValues></_>
    <_>
      <internalNodes>
        0 -1 8018 -1528952740 -590065199 -665463297 -86372065 -91719303
        -390594326 -357909526 -89112781</internalNodes>
      <leafValues>
        -5.9245860576629639e-001 4.3882626295089722e-001</leafValues></_>
    <_>
      <internalNodes>
        0 -1 8401 -1153932316 -1156391522 -779944996 -136359459
        -1144038932 -1174175741 730545149 -1073846788</internalNodes>
      <leafValues>
        -6.1661422252655029e-001 3.7765529751777649e-001</leafValues></_></weakClassifiers></stage0>
</opencv_storage>
