<?xml version="1.0"?>
<opencv_storage>
<stage8>
  <maxWeakCount>10</maxWeakCount>
  <stageThreshold>-1.3221553564071655e+000</stageThreshold>
  <weakClassifiers>
    <_>
      <internalNodes>
        0 -1 5573 -79954465 -1157431425 -8913697 -79956065 -284242721
        -15800161 -33570609 -4207393</internalNodes>
      <leafValues>
        -6.2397313117980957e-001 2.0802919566631317e-001</leafValues></_>
    <_>
      <internalNodes>
        0 -1 8836 -1140854349 -1887252072 -645718825 -69234292 193721087
        176849024 -2122133323 -857736771</internalNodes>
      <leafValues>
        -5.2249515056610107e-001 2.8155857324600220e-001</leafValues></_>
    <_>
      <internalNodes>
        0 -1 6796 -595833761 -2616961 1543987551 -1088604547 -221677058
        -34704757 -95487237 -1170588897</internalNodes>
      <leafValues>
        -3.8447317481040955e-001 3.8578411936759949e-001</leafValues></_>
    <_>
      <internalNodes>
        0 -1 8350 2128036143 249250330 1078055118 1650430173 -74471325
        -1291124736 -74718494 -222365090</internalNodes>
      <leafValues>
        -5.1405626535415649e-001 2.6201641559600830e-001</leafValues></_>
    <_>
      <internalNodes>
        0 -1 7818 959723241 -1719123548 -1929293355 -1646996540
        984719614 -1197911845 734331373 -537510960</internalNodes>
      <leafValues>
        -5.0109320878982544e-001 2.7566966414451599e-001</leafValues></_>
    <_>
      <internalNodes>
        0 -1 101 -257957222 -783291154 1601225747 -33752706 -8523845
        2124085935 1013087103 2083771703</internalNodes>
      <leafValues>
        -4.4014516472816467e-001 2.9630494117736816e-001</leafValues></_>
    <_>
      <internalNodes>
        0 -1 6825 -1126429100 -654425901 -251604547 -23162852
        -1215732671 -226359158 -1161088008 -1163383940</internalNodes>
      <leafValues>
        -5.3556638956069946e-001 2.1659216284751892e-001</leafValues></_>
    <_>
      <internalNodes>
        0 -1 8960 -342888433 1271632215 -804224802 -488717884 -508980640
        856293376 -90055948 -155194677</internalNodes>
      <leafValues>
        -4.4746994972229004e-001 3.0417552590370178e-001</leafValues></_>
    <_>
      <internalNodes>
        0 -1 7009 -1867511780 -36150091 1359347711 -1116884487
        -108899845 -68646247 -1158612226 -1675613416</internalNodes>
      <leafValues>
        -5.0840389728546143e-001 2.4385906755924225e-001</leafValues></_>
    <_>
      <internalNodes>
        0 -1 2423 -858925840 1145612900 -314434902 1799814063
        -1250825996 1372938707 469443200 530413556</internalNodes>
      <leafValues>
        -6.1306887865066528e-001 2.1364986896514893e-001</leafValues></_></weakClassifiers></stage8>
</opencv_storage>
