<?xml version="1.0"?>
<opencv_storage>
<stage2>
  <maxWeakCount>8</maxWeakCount>
  <stageThreshold>-1.6594420671463013e+000</stageThreshold>
  <weakClassifiers>
    <_>
      <internalNodes>
        0 -1 8978 -1140851717 -1345613669 -720645161 -2101153
        -1431587589 -862224246 -761268235 -1281</internalNodes>
      <leafValues>
        -7.0435464382171631e-001 3.2304418087005615e-001</leafValues></_>
    <_>
      <internalNodes>
        0 -1 8297 -27374497 -69701314 -788470305 -43205 -72420613
        -74825073 -19989509 -1171098753</internalNodes>
      <leafValues>
        -5.9115791320800781e-001 3.9458721876144409e-001</leafValues></_>
    <_>
      <internalNodes>
        0 -1 4193 -1001064144 -671113923 -112338433 -674857 -195035649
        -1359234885 -838878769 10816545</internalNodes>
      <leafValues>
        -6.4822983741760254e-001 3.4521004557609558e-001</leafValues></_>
    <_>
      <internalNodes>
        0 -1 7367 -1614872579 -1077373764 1496946545 -141316 1068010495
        -1414991154 968708605 -1914759944</internalNodes>
      <leafValues>
        -4.8814702033996582e-001 4.4119319319725037e-001</leafValues></_>
    <_>
      <internalNodes>
        0 -1 3072 -101648912 -60476188 -363534337 130876100 -324799836
        2141536833 -2087846997 262139631</internalNodes>
      <leafValues>
        -5.1550000905990601e-001 3.9956209063529968e-001</leafValues></_>
    <_>
      <internalNodes>
        0 -1 8380 -1177833065 -1954381630 -788278320 -459353176
        -1827998878 -2013101951 -1450589967 -1608</internalNodes>
      <leafValues>
        -4.6114856004714966e-001 4.4301351904869080e-001</leafValues></_>
    <_>
      <internalNodes>
        0 -1 6244 -273678918 1339363525 -1593779841 368395505 -355719328
        1490646442 -1727332516 1406096095</internalNodes>
      <leafValues>
        -5.5659955739974976e-001 3.5163131356239319e-001</leafValues></_>
    <_>
      <internalNodes>
        0 -1 4128 16785841 900526423 1477547359 -543370795 688110299
        -627310416 -880100113 -1129305468</internalNodes>
      <leafValues>
        -5.0013744831085205e-001 4.2122238874435425e-001</leafValues></_></weakClassifiers></stage2>
</opencv_storage>
