<?xml version="1.0"?>
<opencv_storage>
<stage10>
  <maxWeakCount>12</maxWeakCount>
  <stageThreshold>-1.4444597959518433e+000</stageThreshold>
  <weakClassifiers>
    <_>
      <internalNodes>
        0 -1 8006 -761462533 -69533489 -788311713 -216346597 -123150165
        -360677247 -217404689 -1435077</internalNodes>
      <leafValues>
        -6.4743977785110474e-001 9.6648856997489929e-002</leafValues></_>
    <_>
      <internalNodes>
        0 -1 2477 -541609316 -565954652 -1157156355 -545783908
        -1550036487 -1714891900 100208883 232636399</internalNodes>
      <leafValues>
        -5.2142006158828735e-001 2.4166776239871979e-001</leafValues></_>
    <_>
      <internalNodes>
        0 -1 8423 -1964512219 -143140621 -754532137 -313528109
        -414453029 -1568169822 -1378964485 -1402670799</internalNodes>
      <leafValues>
        -4.3632045388221741e-001 2.9742211103439331e-001</leafValues></_>
    <_>
      <internalNodes>
        0 -1 4035 -567380493 -8421385 -65553 -1145143489 -705274676 -1
        -21168641 -1078313109</internalNodes>
      <leafValues>
        -2.8672870993614197e-001 4.5043870806694031e-001</leafValues></_>
    <_>
      <internalNodes>
        0 -1 468 -34083902 -336338453 -417251196 48409135 -210763771
        1804051076 -620858742 1132408731</internalNodes>
      <leafValues>
        -4.0179368853569031e-001 3.3685576915740967e-001</leafValues></_>
    <_>
      <internalNodes>
        0 -1 9080 -544257177 -219778443 21200923 -1290513521 1615777931
        -1761607542 -535801442 -359466417</internalNodes>
      <leafValues>
        -3.5971173644065857e-001 3.6207687854766846e-001</leafValues></_>
    <_>
      <internalNodes>
        0 -1 5563 -395264208 -57611495 1369657631 2106722631 1144107433
        -224867830 2030525989 170854373</internalNodes>
      <leafValues>
        -5.0826764106750488e-001 2.4417373538017273e-001</leafValues></_>
    <_>
      <internalNodes>
        0 -1 8375 -1088431169 -2092776952 1074872337 -456732420
        848033665 -1987870584 1252744629 -1077161731</internalNodes>
      <leafValues>
        -4.3644630908966064e-001 2.8302106261253357e-001</leafValues></_>
    <_>
      <internalNodes>
        0 -1 524 -26283840 -889478597 1686571595 -116406685 -355312428
        -1294967431 -364190849 2071166027</internalNodes>
      <leafValues>
        -4.2231845855712891e-001 2.9025653004646301e-001</leafValues></_>
    <_>
      <internalNodes>
        0 -1 966 -1979370666 -540123117 965865877 -1826682479
        -1171688705 -1953988454 -1723547907 -849045312</internalNodes>
      <leafValues>
        -3.3932331204414368e-001 3.6399897933006287e-001</leafValues></_>
    <_>
      <internalNodes>
        0 -1 5054 1991244895 -210743459 -290526180 -1874858484 810491851
        775042687 695175302 -230702849</internalNodes>
      <leafValues>
        -2.9827103018760681e-001 4.1814503073692322e-001</leafValues></_>
    <_>
      <internalNodes>
        0 -1 3601 -1596198217 -2036559208 -922644293 -961765222
        283398839 -624721784 -787746730 -673206220</internalNodes>
      <leafValues>
        -3.9377018809318542e-001 3.1296056509017944e-001</leafValues></_></weakClassifiers></stage10>
</opencv_storage>
