<?xml version="1.0"?>
<opencv_storage>
<stage14>
  <maxWeakCount>12</maxWeakCount>
  <stageThreshold>-1.7529449462890625e+000</stageThreshold>
  <weakClassifiers>
    <_>
      <internalNodes>
        0 -1 3596 -206652193 -1691642859 420229321 -4984166 -652680053
        -13907934 -161558055 -14113</internalNodes>
      <leafValues>
        -6.1330324411392212e-001 1.5733015537261963e-001</leafValues></_>
    <_>
      <internalNodes>
        0 -1 8110 -1555893762 -519925760 -2130411251 -682143680
        -1342001013 -1207304192 50406363 -1080356787</internalNodes>
      <leafValues>
        -3.9699923992156982e-001 3.4098407626152039e-001</leafValues></_>
    <_>
      <internalNodes>
        0 -1 8090 -1848520469 -1379270574 50413570 -774946796 1244307874
        8978432 -1568460124 -235160696</internalNodes>
      <leafValues>
        -3.5793271660804749e-001 3.3804425597190857e-001</leafValues></_>
    <_>
      <internalNodes>
        0 -1 7180 -795834299 -1735080067 -2130013320 -1173221253
        -720819391 260538504 -578730733 974784527</internalNodes>
      <leafValues>
        -6.1760395765304565e-001 2.0465336740016937e-001</leafValues></_>
    <_>
      <internalNodes>
        0 -1 9121 -1137975661 -1413873754 -872568261 -545554638
        -318799873 -297796237 502945221 -589310471</internalNodes>
      <leafValues>
        -3.2306590676307678e-001 4.0026685595512390e-001</leafValues></_>
    <_>
      <internalNodes>
        0 -1 3050 -393833533 -530775867 302055618 -502071216 -2147344381
        1074298880 319301715 -138677853</internalNodes>
      <leafValues>
        -4.6001699566841125e-001 2.9438146948814392e-001</leafValues></_>
    <_>
      <internalNodes>
        0 -1 78 38994199 -2013261568 1880182845 -1659416483 -402476915
        -1466924926 1107825560 -459276160</internalNodes>
      <leafValues>
        -4.2738395929336548e-001 2.9853138327598572e-001</leafValues></_>
    <_>
      <internalNodes>
        0 -1 337 -1810429522 1897390146 -1056898708 -469319654
        1108498572 -251625334 1478433283 352701027</internalNodes>
      <leafValues>
        -4.5397379994392395e-001 2.9893285036087036e-001</leafValues></_>
    <_>
      <internalNodes>
        0 -1 4628 -1828317176 1393557648 1749289786 1166532609
        -1155923520 679483592 663429294 994141003</internalNodes>
      <leafValues>
        -6.3825517892837524e-001 1.7593945562839508e-001</leafValues></_>
    <_>
      <internalNodes>
        0 -1 1622 -1743331092 30086170 -1856880188 318930951 1359536294
        967475345 -922179254 453200736</internalNodes>
      <leafValues>
        -4.6135908365249634e-001 2.8013956546783447e-001</leafValues></_>
    <_>
      <internalNodes>
        0 -1 2888 -128470109 837169087 -8401177 582364970 2103524370
        1107165183 -1778712284 -847513969</internalNodes>
      <leafValues>
        -3.4352797269821167e-001 3.9951831102371216e-001</leafValues></_>
    <_>
      <internalNodes>
        0 -1 7554 563218772 1605632 16794840 -1861975920 -930999664
        1074397184 -1727917423 -1465352000</internalNodes>
      <leafValues>
        -6.3377904891967773e-001 2.0812806487083435e-001</leafValues></_></weakClassifiers></stage14>
</opencv_storage>
