<?xml version="1.0"?>
<opencv_storage>
<stage3>
  <maxWeakCount>8</maxWeakCount>
  <stageThreshold>-1.5318418741226196e+000</stageThreshold>
  <weakClassifiers>
    <_>
      <internalNodes>
        0 -1 8950 -6291841 -11026275 -775323173 -224410657 -91838133
        -1316257760 -75302145 -83887141</internalNodes>
      <leafValues>
        -6.6907566785812378e-001 2.9735934734344482e-001</leafValues></_>
    <_>
      <internalNodes>
        0 -1 6703 -97461537 -97460641 -1147742369 -82060165 -33564449
        -7434533 -812167909 -1156887461</internalNodes>
      <leafValues>
        -5.0843667984008789e-001 4.1428622603416443e-001</leafValues></_>
    <_>
      <internalNodes>
        0 -1 5350 466622973 1006516188 1062542175 1072052734 1067220991
        -1351085826 466501566 -1090903896</internalNodes>
      <leafValues>
        -5.7032221555709839e-001 3.6697900295257568e-001</leafValues></_>
    <_>
      <internalNodes>
        0 -1 8392 -1282410509 -1348279856 -778841643 -121064496
        971748087 -1884782365 462094837 -33558311</internalNodes>
      <leafValues>
        -4.6479225158691406e-001 4.1555461287498474e-001</leafValues></_>
    <_>
      <internalNodes>
        0 -1 7143 584334589 -1428500269 -788409891 -40382305 -209059090
        -1155956728 -73897037 -1074002972</internalNodes>
      <leafValues>
        -5.2837359905242920e-001 3.5349094867706299e-001</leafValues></_>
    <_>
      <internalNodes>
        0 -1 1754 -353376478 -134217753 -131 -1081375 -1074855941
        -327192585 -2565 -993532127</internalNodes>
      <leafValues>
        -4.0404996275901794e-001 4.7134134173393250e-001</leafValues></_>
    <_>
      <internalNodes>
        0 -1 7752 -83942570 -367017765 -1719619334 -1595944545 -72634300
        -259358709 -129900368 -88940034</internalNodes>
      <leafValues>
        -4.5778617262840271e-001 3.7670269608497620e-001</leafValues></_>
    <_>
      <internalNodes>
        0 -1 8663 -1086407689 -1078045700 -579758645 459059740 797630462
        260785282 526197501 1879012348</internalNodes>
      <leafValues>
        -4.8636296391487122e-001 3.5464134812355042e-001</leafValues></_></weakClassifiers></stage3>
</opencv_storage>
