<?xml version="1.0"?>
<opencv_storage>
<cascade>
  <stageType>BOOST</stageType>
  <featureType>LBP</featureType>
  <height>30</height>
  <width>20</width>
  <stageParams>
    <boostType>GAB</boostType>
    <minHitRate>9.9500000476837158e-001</minHitRate>
    <maxFalseAlarm>5.0000000000000000e-001</maxFalseAlarm>
    <weightTrimRate>9.4999999999999996e-001</weightTrimRate>
    <maxDepth>1</maxDepth>
    <maxWeakCount>100</maxWeakCount></stageParams>
  <featureParams>
    <maxCatCount>256</maxCatCount>
    <featSize>1</featSize></featureParams>
  <stageNum>15</stageNum>
  <stages>
    <!-- stage 0 -->
    <_>
      <maxWeakCount>6</maxWeakCount>
      <stageThreshold>-1.6166185140609741e+000</stageThreshold>
      <weakClassifiers>
        <_>
          <internalNodes>
            0 -1 30 -154140690 -8397841 -145099777 -136326225 -17833985
            -78644885 -34866177 1945105263</internalNodes>
          <leafValues>
            -8.1909769773483276e-001 3.0402630567550659e-001</leafValues></_>
        <_>
          <internalNodes>
            0 -1 149 296762109 -1171471407 -1860316681 -8548001
            -1467370821 -1098348134 -542991875 -1141360392</internalNodes>
          <leafValues>
            -6.8112665414810181e-001 4.6513187885284424e-001</leafValues></_>
        <_>
          <internalNodes>
            0 -1 70 -1048577 530087871 -67326274 -1074217480 2147319709
            1609957375 -115716 -262150</internalNodes>
          <leafValues>
            -5.0606358051300049e-001 5.8372914791107178e-001</leafValues></_>
        <_>
          <internalNodes>
            0 -1 81 -990524155 -147985 -16797697 -134611217 -16846849 -1
            -52437009 -1536840192</internalNodes>
          <leafValues>
            -5.3431761264801025e-001 5.3813737630844116e-001</leafValues></_>
        <_>
          <internalNodes>
            0 -1 102 -335577810 -827354677 -1047996948 -422137378
            -209504233 1739227144 -203699616 -151002378</internalNodes>
          <leafValues>
            -6.9727396965026855e-001 3.6733222007751465e-001</leafValues></_>
        <_>
          <internalNodes>
            0 -1 96 859246035 -250075 2143058937 -134578271 -1115858993
            -805355553 1979563487 -285995100</internalNodes>
          <leafValues>
            -4.8296397924423218e-001 5.5665475130081177e-001</leafValues></_></weakClassifiers></_>
    <!-- stage 1 -->
    <_>
      <maxWeakCount>6</maxWeakCount>
      <stageThreshold>-1.5560849905014038e+000</stageThreshold>
      <weakClassifiers>
        <_>
          <internalNodes>
            0 -1 134 -1 1072338879 -36187138 -1344607777 -40927235
            2040503267 -70296836 -1</internalNodes>
          <leafValues>
            -7.2785568237304688e-001 3.1442785263061523e-001</leafValues></_>
        <_>
          <internalNodes>
            0 -1 40 -456921305 -2099233 -610010113 -3444907 -287310081
            -1793 -1 -461937311</internalNodes>
          <leafValues>
            -5.8500421047210693e-001 4.4892793893814087e-001</leafValues></_>
        <_>
          <internalNodes>
            0 -1 130 813971453 -1076055567 -1810762787 -80982 -73829896
            -73362679 -208946179 -1143195220</internalNodes>
          <leafValues>
            -5.4960995912551880e-001 4.2044997215270996e-001</leafValues></_>
        <_>
          <internalNodes>
            0 -1 155 -270800913 1750045919 -149820958 -85986865
            2076425073 1443463170 -605291664 -135007497</internalNodes>
          <leafValues>
            -5.6650406122207642e-001 4.5200157165527344e-001</leafValues></_>
        <_>
          <internalNodes>
            0 -1 123 -69209605 -359673525 -1073622850 -292310130
            -243077547 -368406528 -74991066 -174597378</internalNodes>
          <leafValues>
            -4.9275103211402893e-001 4.5707917213439941e-001</leafValues></_>
        <_>
          <internalNodes>
            0 -1 167 177239423 -137621288 -268283435 -103493409
            411712183 -1298071414 -926368770 -1090980040</internalNodes>
          <leafValues>
            -5.6441938877105713e-001 3.9558002352714539e-001</leafValues></_></weakClassifiers></_>
    <!-- stage 2 -->
    <_>
      <maxWeakCount>7</maxWeakCount>
      <stageThreshold>-2.1490488052368164e+000</stageThreshold>
      <weakClassifiers>
        <_>
          <internalNodes>
            0 -1 59 -69206017 -1080232993 -782935073 -1078798338
            1607434205 -68433781 -84980004 -1025</internalNodes>
          <leafValues>
            -6.9475907087326050e-001 3.4561696648597717e-001</leafValues></_>
        <_>
          <internalNodes>
            0 -1 131 -1735118219 -69725735 -787385859 -2797217
            -880639237 -1178564199 -1462006533 -1162080864</internalNodes>
          <leafValues>
            -6.1857283115386963e-001 4.1546338796615601e-001</leafValues></_>
        <_>
          <internalNodes>
            0 -1 76 -2 970603970 -673465092 1063154175 2145992701
            1017716894 -338920964 2112880639</internalNodes>
          <leafValues>
            -6.0882800817489624e-001 3.8253736495971680e-001</leafValues></_>
        <_>
          <internalNodes>
            0 -1 55 -1597772030 -21104141 -4792865 -33831657 -1008731137
            -73807421 -453088531 1086579237</internalNodes>
          <leafValues>
            -6.4113223552703857e-001 2.9724502563476563e-001</leafValues></_>
        <_>
          <internalNodes>
            0 -1 159 43266737 -1191001967 -1728016005 -216887024
            569918459 -1694269247 -1333251651 -5752684</internalNodes>
          <leafValues>
            -4.7640350461006165e-001 4.3364089727401733e-001</leafValues></_>
        <_>
          <internalNodes>
            0 -1 156 -69221393 -1429225330 1099542660 -421609254
            -268345230 1522769922 -92016336 -152568910</internalNodes>
          <leafValues>
            -6.0862416028976440e-001 3.5812959074974060e-001</leafValues></_>
        <_>
          <internalNodes>
            0 -1 122 -67157706 1724694686 -774647308 -90205545
            -107554266 545488906 -74718729 -134244129</internalNodes>
          <leafValues>
            -4.7314253449440002e-001 3.7058177590370178e-001</leafValues></_></weakClassifiers></_>
    <!-- stage 3 -->
    <_>
      <maxWeakCount>8</maxWeakCount>
      <stageThreshold>-1.8932381868362427e+000</stageThreshold>
      <weakClassifiers>
        <_>
          <internalNodes>
            0 -1 41 -65538 -537934849 -136912897 -2100513 -6296577
            -336888101 -83100705 2080341999</internalNodes>
          <leafValues>
            -7.4971455335617065e-001 1.0797405242919922e-001</leafValues></_>
        <_>
          <internalNodes>
            0 -1 129 268972541 1038395356 1595120605 -1076315144
            1071544765 -70794597 965609384 -1145304964</internalNodes>
          <leafValues>
            -6.1262065172195435e-001 2.8684523701667786e-001</leafValues></_>
        <_>
          <internalNodes>
            0 -1 144 -67372193 -291532413 -483994682 -363408929
            2063790707 -452788216 -74712205 -155190293</internalNodes>
          <leafValues>
            -5.5025100708007813e-001 3.3822941780090332e-001</leafValues></_>
        <_>
          <internalNodes>
            0 -1 54 -1515144272 -136474215 1963586037 -1621754079
            -1343247873 -73716230 -1371096099 -1930065659</internalNodes>
          <leafValues>
            -5.0389349460601807e-001 4.0326464176177979e-001</leafValues></_>
        <_>
          <internalNodes>
            0 -1 110 -203693585 -287326013 -2097037226 -354971497
            -91508429 -762806262 -75302089 -138937613</internalNodes>
          <leafValues>
            -5.1810985803604126e-001 3.5501214861869812e-001</leafValues></_>
        <_>
          <internalNodes>
            0 -1 116 -1057455065 -606145598 -170810369 -1074035799
            -354455809 -70656889 -9984001 -1540049145</internalNodes>
          <leafValues>
            -4.8645532131195068e-001 3.6124044656753540e-001</leafValues></_>
        <_>
          <internalNodes>
            0 -1 94 502823389 534761772 -1752088097 -1214607146
            109663196 -1146953334 -72665092 -1080411440</internalNodes>
          <leafValues>
            -4.9629858136177063e-001 3.6643067002296448e-001</leafValues></_>
        <_>
          <internalNodes>
            0 -1 2 -495458490 -554023104 -690764025 -295703778
            -628115093 -230692102 -73700485 1615853414</internalNodes>
          <leafValues>
            -5.9617835283279419e-001 2.6541444659233093e-001</leafValues></_></weakClassifiers></_>
    <!-- stage 4 -->
    <_>
      <maxWeakCount>9</maxWeakCount>
      <stageThreshold>-1.6678513288497925e+000</stageThreshold>
      <weakClassifiers>
        <_>
          <internalNodes>
            0 -1 67 -67108865 -1209337121 -773849089 -1075915778
            2144042749 -91512129 -39887491 -1025</internalNodes>
          <leafValues>
            -6.8416786193847656e-001 1.8142235279083252e-001</leafValues></_>
        <_>
          <internalNodes>
            0 -1 105 -1480575437 -3161903 -787768869 -3157547
            -1684278529 -607158117 -1198871557 -1090741551</internalNodes>
          <leafValues>
            -5.4357004165649414e-001 3.3651348948478699e-001</leafValues></_>
        <_>
          <internalNodes>
            0 -1 165 -470563985 -497864621 -267366020 -453453550
            -108321230 -234127334 -74730729 -67116042</internalNodes>
          <leafValues>
            -5.3984647989273071e-001 3.1252658367156982e-001</leafValues></_>
        <_>
          <internalNodes>
            0 -1 112 503087101 1063180676 2036314588 -1625516266
            2139912940 1002078635 1070148604 -1073857844</internalNodes>
          <leafValues>
            -6.2329000234603882e-001 2.6955229043960571e-001</leafValues></_>
        <_>
          <internalNodes>
            0 -1 29 -487587890 -11812937 1881406911 1474287541
            -926168833 -340088709 1520161775 1944057610</internalNodes>
          <leafValues>
            -5.2098321914672852e-001 3.3253416419029236e-001</leafValues></_>
        <_>
          <internalNodes>
            0 -1 172 784342711 -1190082477 -803155493 -711405543
            1233334521 -1685337944 -611747671 -1082630148</internalNodes>
          <leafValues>
            -4.9901726841926575e-001 3.3880522847175598e-001</leafValues></_>
        <_>
          <internalNodes>
            0 -1 108 -807512261 -1018800903 -536817109 -431357746
            -519872489 1386414210 -102133242 -151276861</internalNodes>
          <leafValues>
            -5.8693414926528931e-001 2.9020845890045166e-001</leafValues></_>
        <_>
          <internalNodes>
            0 -1 65 -280026346 1859031105 -788504367 -554004071
            -1585231309 -1181581044 -209528078 -90388015</internalNodes>
          <leafValues>
            -4.9928537011146545e-001 3.1581833958625793e-001</leafValues></_>
        <_>
          <internalNodes>
            0 -1 61 67647025 -720565357 -644851587 -537682980
            -1291453764 -1679218168 -1060620065 -2009069568</internalNodes>
          <leafValues>
            -5.8006012439727783e-001 2.5910159945487976e-001</leafValues></_></weakClassifiers></_>
    <!-- stage 5 -->
    <_>
      <maxWeakCount>11</maxWeakCount>
      <stageThreshold>-1.6401661634445190e+000</stageThreshold>
      <weakClassifiers>
        <_>
          <internalNodes>
            0 -1 139 -285213129 -548416617 -663749153 -2098177
            -103822593 -99630629 -70255873 -520619145</internalNodes>
          <leafValues>
            -6.8912136554718018e-001 1.3243243098258972e-001</leafValues></_>
        <_>
          <internalNodes>
            0 -1 51 -1 969995231 1951127262 -1074097190 2043501212
            960694543 -637572004 -16385</internalNodes>
          <leafValues>
            -4.9974524974822998e-001 3.5026338696479797e-001</leafValues></_>
        <_>
          <internalNodes>
            0 -1 1 -487594393 -86056017 1431663991 -2097818 -1352400897
            -23146513 -122684033 -520657149</internalNodes>
          <leafValues>
            -4.2538204789161682e-001 3.5039275884628296e-001</leafValues></_>
        <_>
          <internalNodes>
            0 -1 147 441480181 -1185001137 1362219487 -1074376489
            -1735693839 -394100533 -104776963 -1343354312</internalNodes>
          <leafValues>
            -4.5490160584449768e-001 3.1882748007774353e-001</leafValues></_>
        <_>
          <internalNodes>
            0 -1 143 -69209093 -531639630 -1862155814 -354692610
            -628430031 1629487618 -108790873 -151039237</internalNodes>
          <leafValues>
            -3.7999522686004639e-001 3.6985623836517334e-001</leafValues></_>
        <_>
          <internalNodes>
            0 -1 117 -1916269772 1004377034 -805187121 2013232069
            -88037445 -71581159 1786822331 -1401148639</internalNodes>
          <leafValues>
            -5.5383110046386719e-001 2.5861993432044983e-001</leafValues></_>
        <_>
          <internalNodes>
            0 -1 77 -570724033 -1425307433 -2129948461 -422608636
            -1165907341 -368541544 -376723101 -67181985</internalNodes>
          <leafValues>
            -4.6209985017776489e-001 2.9350927472114563e-001</leafValues></_>
        <_>
          <internalNodes>
            0 -1 123 -12108953 -1417052085 -1073679974 -1564421688
            1930147873 -368861056 -7605405 -723524629</internalNodes>
          <leafValues>
            -5.7102978229522705e-001 2.2046466171741486e-001</leafValues></_>
        <_>
          <internalNodes>
            0 -1 95 190523423 449839256 1410334973 391549136 1787300024
            -645397879 -259359816 -1075051380</internalNodes>
          <leafValues>
            -4.6186369657516479e-001 3.2582184672355652e-001</leafValues></_>
        <_>
          <internalNodes>
            0 -1 89 -557323394 2140682127 -1873495864 961590710
            596178412 21859283 -1654205444 1977481207</internalNodes>
          <leafValues>
            -4.4929003715515137e-001 2.8483960032463074e-001</leafValues></_>
        <_>
          <internalNodes>
            0 -1 104 -1459536589 -1275113249 -799943265 -69351311
            -376865913 -357957631 -1679717921 150743381</internalNodes>
          <leafValues>
            -5.3644198179244995e-001 2.3640799522399902e-001</leafValues></_></weakClassifiers></_>
    <!-- stage 6 -->
    <_>
      <maxWeakCount>12</maxWeakCount>
      <stageThreshold>-1.7415436506271362e+000</stageThreshold>
      <weakClassifiers>
        <_>
          <internalNodes>
            0 -1 146 -33555457 -1109476867 -1824335653 -1108411429
            -24678163 2077999243 -544530692 -263169</internalNodes>
          <leafValues>
            -6.7343521118164063e-001 9.7615838050842285e-002</leafValues></_>
        <_>
          <internalNodes>
            0 -1 47 -234882050 -180955874 -1806508580 -1569535289
            1536636540 1732073098 -611189761 2079323647</internalNodes>
          <leafValues>
            -5.7254618406295776e-001 2.0315860211849213e-001</leafValues></_>
        <_>
          <internalNodes>
            0 -1 84 537265329 -711978629 -1862168131 -143372154
            -660360763 -289767173 -257391698 -1736398080</internalNodes>
          <leafValues>
            -4.1983228921890259e-001 3.3470526337623596e-001</leafValues></_>
        <_>
          <internalNodes>
            0 -1 100 -134217865 1827930095 -100761675 -520355922
            -134744457 2088173565 -285217500 -587475041</internalNodes>
          <leafValues>
            -3.4048286080360413e-001 4.0300989151000977e-001</leafValues></_>
        <_>
          <internalNodes>
            0 -1 73 -1375614564 -12402684 -754920999 -107228955
            -1467420241 -893157239 -91489281 -1342224011</internalNodes>
          <leafValues>
            -3.7802812457084656e-001 3.5820135474205017e-001</leafValues></_>
        <_>
          <internalNodes>
            0 -1 50 -477418149 -419708718 -778849828 -162344815
            -208985221 -91651959 -1873891033 -17141066</internalNodes>
          <leafValues>
            -4.3710830807685852e-001 3.0259171128273010e-001</leafValues></_>
        <_>
          <internalNodes>
            0 -1 16 291839219 -1192083669 -1078053121 1071923006
            1316242911 -310579345 -34334980 -1092610612</internalNodes>
          <leafValues>
            -2.9042634367942810e-001 4.4852522015571594e-001</leafValues></_>
        <_>
          <internalNodes>
            0 -1 122 -145497285 -422423848 -747548226 -95055729
            -1149115581 -788365302 -1299477881 -191910853</internalNodes>
          <leafValues>
            -3.8011452555656433e-001 3.3161312341690063e-001</leafValues></_>
        <_>
          <internalNodes>
            0 -1 12 -746602914 -1155870123 -602338178 -1217888134
            2090420960 1023898059 -938075889 1590651803</internalNodes>
          <leafValues>
            -4.4359093904495239e-001 2.6596552133560181e-001</leafValues></_>
        <_>
          <internalNodes>
            0 -1 58 -135856178 1809550815 -261034838 -1830160970
            -216278307 1068599423 -610602241 603944023</internalNodes>
          <leafValues>
            -4.8999303579330444e-001 2.2053377330303192e-001</leafValues></_>
        <_>
          <internalNodes>
            0 -1 137 492590716 1069596892 -787136321 -1416044454
            1259044821 982089920 938152440 1006110796</internalNodes>
          <leafValues>
            -6.1026316881179810e-001 2.0323486626148224e-001</leafValues></_>
        <_>
          <internalNodes>
            0 -1 4 1781313040 -175349177 352510251 -578336689 430650367
            -93353333 -810855731 -2134779579</internalNodes>
          <leafValues>
            -4.2506957054138184e-001 2.8379037976264954e-001</leafValues></_></weakClassifiers></_>
    <!-- stage 7 -->
    <_>
      <maxWeakCount>12</maxWeakCount>
      <stageThreshold>-1.6600368022918701e+000</stageThreshold>
      <weakClassifiers>
        <_>
          <internalNodes>
            0 -1 132 -145230849 1155516303 -805254490 -489698598
            -1209009321 1128869914 -584070558 -1089</internalNodes>
          <leafValues>
            -6.9923418760299683e-001 4.8309178091585636e-003</leafValues></_>
        <_>
          <internalNodes>
            0 -1 92 -79692803 1062130143 1220735326 -1289814178
            1602775805 1520165515 -626296084 -2306</internalNodes>
          <leafValues>
            -4.2434152960777283e-001 2.7996873855590820e-001</leafValues></_>
        <_>
          <internalNodes>
            0 -1 86 1304594725 -167816930 -900015713 -146246813
            -355751269 -544636894 -21066258 -456803833</internalNodes>
          <leafValues>
            -4.1891261935234070e-001 2.9328879714012146e-001</leafValues></_>
        <_>
          <internalNodes>
            0 -1 68 -220217305 -320880581 -804011597 -220262161
            2072936563 -896890712 -206842923 -267536</internalNodes>
          <leafValues>
            -3.7067091464996338e-001 3.2409632205963135e-001</leafValues></_>
        <_>
          <internalNodes>
            0 -1 53 333204216 934873291 -595313163 966268030 -1986789188
            -273809206 -343381256 -1090905928</internalNodes>
          <leafValues>
            -3.8774052262306213e-001 3.1145027279853821e-001</leafValues></_>
        <_>
          <internalNodes>
            0 -1 140 1070934807 567792026 1381079387 -1429212727
            -81087901 -82837494 -128205839 -285683019</internalNodes>
          <leafValues>
            -5.3147292137145996e-001 2.2744028270244598e-001</leafValues></_>
        <_>
          <internalNodes>
            0 -1 49 -1428213729 -1026977573 -787361289 -502083435
            61550611 -905344894 -1377076489 -85026000</internalNodes>
          <leafValues>
            -5.4771381616592407e-001 1.7841903865337372e-001</leafValues></_>
        <_>
          <internalNodes>
            0 -1 83 -1533756144 1468223578 -1056845485 -1751416487
            -1475548182 -1691647989 -1768833091 -1929900799</internalNodes>
          <leafValues>
            -4.8357591032981873e-001 2.5215551257133484e-001</leafValues></_>
        <_>
          <internalNodes>
            0 -1 6 -520356730 -995244889 1443225232 1627379906
            1922732034 19098633 1988743187 1717556045</internalNodes>
          <leafValues>
            -6.1183351278305054e-001 1.6093896329402924e-001</leafValues></_>
        <_>
          <internalNodes>
            0 -1 124 -1335976002 534155477 273787488 1071093662
            1745546228 718110842 -628139572 1874025354</internalNodes>
          <leafValues>
            -4.3264707922935486e-001 2.3313882946968079e-001</leafValues></_>
        <_>
          <internalNodes>
            0 -1 114 72617696 -1077165872 -1790766645 -1780709154
            -553090309 -620199286 687917545 241445377</internalNodes>
          <leafValues>
            -5.7812219858169556e-001 1.7782318592071533e-001</leafValues></_>
        <_>
          <internalNodes>
            0 -1 119 937391389 147316874 1082201566 -489238312 -91547101
            -351666173 -662586848 -219172203</internalNodes>
          <leafValues>
            -5.2386564016342163e-001 1.9182266294956207e-001</leafValues></_></weakClassifiers></_>
    <!-- stage 8 -->
    <_>
      <maxWeakCount>13</maxWeakCount>
      <stageThreshold>-1.8177030086517334e+000</stageThreshold>
      <weakClassifiers>
        <_>
          <internalNodes>
            0 -1 153 -167773201 -456142245 336052651 -937953877
            1371792182 -7897053 -108283802 -5129</internalNodes>
          <leafValues>
            -6.5282863378524780e-001 9.9712371826171875e-002</leafValues></_>
        <_>
          <internalNodes>
            0 -1 36 -69501953 525731801 -888729122 528089818 -342097476
            -97857382 -1160942632 -82977</internalNodes>
          <leafValues>
            -3.6922243237495422e-001 3.2737532258033752e-001</leafValues></_>
        <_>
          <internalNodes>
            0 -1 93 -930946448 -2065792887 -1073658476 -422848236
            -1702665691 -257326976 -1459374041 -269758</internalNodes>
          <leafValues>
            -5.0293308496475220e-001 2.2883667051792145e-001</leafValues></_>
        <_>
          <internalNodes>
            0 -1 64 -1431503621 -87785314 -788442625 -242001441
            -125366100 -1433759608 -611638305 -555778955</internalNodes>
          <leafValues>
            -3.4116300940513611e-001 3.2623395323753357e-001</leafValues></_>
        <_>
          <internalNodes>
            0 -1 113 76298233 946666092 -1409302977 -1313181958
            771145177 -1669038084 -1536267587 -1429464996</internalNodes>
          <leafValues>
            -3.2760018110275269e-001 3.4771934151649475e-001</leafValues></_>
        <_>
          <internalNodes>
            0 -1 103 -11809274 -1420365105 -1476326917 -834109041
            -620618426 -11893055 -125117794 1648870711</internalNodes>
          <leafValues>
            -4.4834929704666138e-001 2.5157603621482849e-001</leafValues></_>
        <_>
          <internalNodes>
            0 -1 62 -1433860592 -550776512 1477497083 394363601
            -1685378823 2089454600 -2147481111 -1944582048</internalNodes>
          <leafValues>
            -5.5250906944274902e-001 1.7551493644714355e-001</leafValues></_>
        <_>
          <internalNodes>
            0 -1 142 -207939315 802390149 -2130456228 -422264611
            -629011869 -1207631712 -121048750 -84434182</internalNodes>
          <leafValues>
            -4.8941531777381897e-001 2.1160723268985748e-001</leafValues></_>
        <_>
          <internalNodes>
            0 -1 148 403051345 -1195065340 82275 -1723480370 -1870589255
            -636944254 -1954402151 -1902875880</internalNodes>
          <leafValues>
            -5.5581647157669067e-001 1.8407879769802094e-001</leafValues></_>
        <_>
          <internalNodes>
            0 -1 98 -523545845 -1064103521 -1857486711 -258752299
            -133662181 998768768 -99611935 -219446383</internalNodes>
          <leafValues>
            -4.1352534294128418e-001 2.5670805573463440e-001</leafValues></_>
        <_>
          <internalNodes>
            0 -1 151 -898758105 -212107121 -787050099 -679137034
            -894738261 -133807880 -679249475 -1540333257</internalNodes>
          <leafValues>
            -4.3096923828125000e-001 2.5157049298286438e-001</leafValues></_>
        <_>
          <internalNodes>
            0 -1 66 1643598627 1300939133 16849102 651170267 -216841645
            462669863 2076288293 1086865829</internalNodes>
          <leafValues>
            -5.6437182426452637e-001 1.8701337277889252e-001</leafValues></_>
        <_>
          <internalNodes>
            0 -1 45 -1101103119 735215891 -804929391 33739478
            -1329006429 -341196672 -1073271841 -411600591</internalNodes>
          <leafValues>
            -4.2085650563240051e-001 2.2438836097717285e-001</leafValues></_></weakClassifiers></_>
    <!-- stage 9 -->
    <_>
      <maxWeakCount>15</maxWeakCount>
      <stageThreshold>-1.5836334228515625e+000</stageThreshold>
      <weakClassifiers>
        <_>
          <internalNodes>
            0 -1 161 -84937729 -295726673 -988659421 -523837297
            -208733593 -106725240 -343738589 -2099273</internalNodes>
          <leafValues>
            -6.6064488887786865e-001 -4.2253520339727402e-002</leafValues></_>
        <_>
          <internalNodes>
            0 -1 74 -2071137415 -690384677 1359036637 -572829583
            -1685345351 -1685880696 -1970763089 -1347709979</internalNodes>
          <leafValues>
            -3.7700283527374268e-001 3.1029304862022400e-001</leafValues></_>
        <_>
          <internalNodes>
            0 -1 23 -146282754 -586663721 -783021904 -1080422382
            2039553177 1540407947 -1386718705 1605730078</internalNodes>
          <leafValues>
            -5.1589423418045044e-001 2.2875200212001801e-001</leafValues></_>
        <_>
          <internalNodes>
            0 -1 158 453038320 -1692892534 -787443491 -1660116863
            1066337019 -1903542069 50471129 -1351942088</internalNodes>
          <leafValues>
            -3.6139771342277527e-001 3.2807037234306335e-001</leafValues></_>
        <_>
          <internalNodes>
            0 -1 80 820577265 -1779733624 738114705 1025621807
            1476241141 -1371021356 1777696702 -120580352</internalNodes>
          <leafValues>
            -3.0687311291694641e-001 3.3330523967742920e-001</leafValues></_>
        <_>
          <internalNodes>
            0 -1 121 -430443873 1066864642 -800534154 88129858
            -394051255 1518354466 -654214708 2068568271</internalNodes>
          <leafValues>
            -3.9311417937278748e-001 2.6899003982543945e-001</leafValues></_>
        <_>
          <internalNodes>
            0 -1 0 -491311360 -813201070 -784246443 -1747566014
            -393557782 -1650669320 952330330 517959</internalNodes>
          <leafValues>
            -4.7522160410881042e-001 1.9358424842357635e-001</leafValues></_>
        <_>
          <internalNodes>
            0 -1 88 -1986184193 -934248246 1879130367 -161787752
            -226090952 -108888000 -939353356 -1359087147</internalNodes>
          <leafValues>
            -3.9247137308120728e-001 2.5718247890472412e-001</leafValues></_>
        <_>
          <internalNodes>
            0 -1 22 1956638164 345276928 -1056689483 -1110009654
            1225882580 2047557775 1233803372 781041382</internalNodes>
          <leafValues>
            -4.0935435891151428e-001 2.3517034947872162e-001</leafValues></_>
        <_>
          <internalNodes>
            0 -1 87 1917835974 1120392156 1107838338 1644250574
            -1291832729 1999083560 -1977910314 871332251</internalNodes>
          <leafValues>
            -5.1188516616821289e-001 1.9227953255176544e-001</leafValues></_>
        <_>
          <internalNodes>
            0 -1 133 -1437867730 -2137096039 -1073655588 -1063890480
            982149155 -372768616 -1316845001 -290672011</internalNodes>
          <leafValues>
            -5.3885906934738159e-001 1.8573130667209625e-001</leafValues></_>
        <_>
          <internalNodes>
            0 -1 13 987501429 1058029576 -1860972403 -1521073977
            1892315838 -116784631 -897563912 1040995313</internalNodes>
          <leafValues>
            -5.8390277624130249e-001 1.4122658967971802e-001</leafValues></_>
        <_>
          <internalNodes>
            0 -1 75 -1181128421 1782579346 -1072639539 -1235300205
            -1702751418 -368443392 -1031241485 -425010220</internalNodes>
          <leafValues>
            -4.1652598977088928e-001 2.2832733392715454e-001</leafValues></_>
        <_>
          <internalNodes>
            0 -1 97 -1979638236 -615300908 -1862152051 -1169436667
            -74754566 -385218293 -1962821441 6910016</internalNodes>
          <leafValues>
            -6.0786336660385132e-001 1.3462546467781067e-001</leafValues></_>
        <_>
          <internalNodes>
            0 -1 52 1160235572 1545486739 -1073676068 -1931701386
            1304978936 1888194563 1586104852 792900480</internalNodes>
          <leafValues>
            -4.7536706924438477e-001 1.9805441796779633e-001</leafValues></_></weakClassifiers></_>
    <!-- stage 10 -->
    <_>
      <maxWeakCount>14</maxWeakCount>
      <stageThreshold>-1.4329876899719238e+000</stageThreshold>
      <weakClassifiers>
        <_>
          <internalNodes>
            0 -1 27 541983505 -1684963111 -1828646753 -674152175
            -612193635 -99964869 -317686865 -817626368</internalNodes>
          <leafValues>
            -6.2221753597259521e-001 -2.8471309691667557e-002</leafValues></_>
        <_>
          <internalNodes>
            0 -1 141 -103284922 1147130571 -1862221653 -497093874
            1041211907 -2013200376 -74718654 -135268377</internalNodes>
          <leafValues>
            -4.6525266766548157e-001 2.1806494891643524e-001</leafValues></_>
        <_>
          <internalNodes>
            0 -1 138 546599333 -1612951421 -788139809 -1785327595
            -360484183 -1979023352 -133616904 -1148570832</internalNodes>
          <leafValues>
            -4.4506767392158508e-001 2.2311787307262421e-001</leafValues></_>
        <_>
          <internalNodes>
            0 -1 39 -355312769 1515669982 -1324339109 -1013737143
            -960352095 -1719107454 -1652145553 -2097449401</internalNodes>
          <leafValues>
            -3.6891803145408630e-001 3.0678880214691162e-001</leafValues></_>
        <_>
          <internalNodes>
            0 -1 46 -1575560271 -801968000 1359188125 -58994481
            -1203156753 2073657474 -238589701 -1967427211</internalNodes>
          <leafValues>
            -3.6030995845794678e-001 2.4657428264617920e-001</leafValues></_>
        <_>
          <internalNodes>
            0 -1 15 -690536738 835871107 4196522 1062207771 -1722984995
            1044539939 -559257464 534460482</internalNodes>
          <leafValues>
            -3.3147302269935608e-001 2.8031519055366516e-001</leafValues></_>
        <_>
          <internalNodes>
            0 -1 71 -1110482138 714342418 1090720210 1590689930
            167780464 575144064 -1820069551 -5573661</internalNodes>
          <leafValues>
            -4.8308089375495911e-001 2.0450292527675629e-001</leafValues></_>
        <_>
          <internalNodes>
            0 -1 101 -212108429 -532217213 286294103 706384139
            -1551286016 679510026 1771567954 -958797624</internalNodes>
          <leafValues>
            -4.5364129543304443e-001 2.0149740576744080e-001</leafValues></_>
        <_>
          <internalNodes>
            0 -1 152 12846169 -587198413 202399071 1595412945 -913290328
            721485864 -659955521 -258700512</internalNodes>
          <leafValues>
            -4.2060551047325134e-001 2.2528417408466339e-001</leafValues></_>
        <_>
          <internalNodes>
            0 -1 32 1947636634 -2020293229 -587066342 -133004159
            -618458478 723621891 -669441384 1536818649</internalNodes>
          <leafValues>
            -4.7149822115898132e-001 2.2547395527362823e-001</leafValues></_>
        <_>
          <internalNodes>
            0 -1 118 -371452099 1520206056 269078007 1985777805
            -1860132375 -2088206327 -1962366773 -67089917</internalNodes>
          <leafValues>
            -3.2823264598846436e-001 2.7812141180038452e-001</leafValues></_>
        <_>
          <internalNodes>
            0 -1 171 -1145539675 823541889 -1728016300 -1122692603
            -800548472 -1677492093 302729877 -1348986391</internalNodes>
          <leafValues>
            -4.3961596488952637e-001 2.2600884735584259e-001</leafValues></_>
        <_>
          <internalNodes>
            0 -1 136 -224923205 -476332015 5253826 -123910897
            -1476161454 445186059 -243013178 -773922637</internalNodes>
          <leafValues>
            -3.5298222303390503e-001 2.9637306928634644e-001</leafValues></_>
        <_>
          <internalNodes>
            0 -1 163 -354700856 -1528938356 -775859770 -526626601
            -1316285946 -1154633719 -629077401 -122763145</internalNodes>
          <leafValues>
            -3.8334226608276367e-001 2.5379127264022827e-001</leafValues></_></weakClassifiers></_>
    <!-- stage 11 -->
    <_>
      <maxWeakCount>16</maxWeakCount>
      <stageThreshold>-1.5038754940032959e+000</stageThreshold>
      <weakClassifiers>
        <_>
          <internalNodes>
            0 -1 27 304814077 -178958203 293672413 -11452391 -645743878
            -560279400 -368837697 -1685573108</internalNodes>
          <leafValues>
            -5.6529515981674194e-001 1.1347517371177673e-001</leafValues></_>
        <_>
          <internalNodes>
            0 -1 126 -178594821 899170521 1359188435 -1077047117
            -729126663 461570187 -115670532 -70276162</internalNodes>
          <leafValues>
            -3.5230845212936401e-001 2.7410992980003357e-001</leafValues></_>
        <_>
          <internalNodes>
            0 -1 106 -1425403809 -7388784 -788459309 -539131574
            -1342046069 -1190428542 -87831813 -324208575</internalNodes>
          <leafValues>
            -3.7519893050193787e-001 2.6080882549285889e-001</leafValues></_>
        <_>
          <internalNodes>
            0 -1 8 -309639680 1141613050 336643190 4862581 -374782204
            1948583936 -911502988 1097586742</internalNodes>
          <leafValues>
            -5.9494763612747192e-001 1.4398142695426941e-001</leafValues></_>
        <_>
          <internalNodes>
            0 -1 38 2077385687 1053044596 -286382153 1059995284
            -1613466436 -204930 -834914819 -1342292201</internalNodes>
          <leafValues>
            -2.8027787804603577e-001 3.5395410656929016e-001</leafValues></_>
        <_>
          <internalNodes>
            0 -1 57 -258964432 -612054528 1494765657 1301069827
            -1349927510 -1458995071 -1996377651 -1073626362</internalNodes>
          <leafValues>
            -3.7044501304626465e-001 2.4788318574428558e-001</leafValues></_>
        <_>
          <internalNodes>
            0 -1 99 -564140210 -997637695 -1794090912 1880580575
            -1971204094 1159810056 -1823951819 2009008351</internalNodes>
          <leafValues>
            -5.0685185194015503e-001 1.7328818142414093e-001</leafValues></_>
        <_>
          <internalNodes>
            0 -1 166 551104881 -2108358287 -805252713 -421654177
            -91653631 -929562612 -1609772575 -68248892</internalNodes>
          <leafValues>
            -4.6207582950592041e-001 1.9397680461406708e-001</leafValues></_>
        <_>
          <internalNodes>
            0 -1 170 911758801 -1717383109 33267 -1636953967 -1853795872
            -369098742 -1551220487 -1208211456</internalNodes>
          <leafValues>
            -3.7355041503906250e-001 2.3615358769893646e-001</leafValues></_>
        <_>
          <internalNodes>
            0 -1 42 -264146818 -460598784 -1929228015 -796852077
            1220448283 -552444135 -2144607717 735962855</internalNodes>
          <leafValues>
            -3.9647465944290161e-001 2.4212457239627838e-001</leafValues></_>
        <_>
          <internalNodes>
            0 -1 120 1636501531 1782714578 1090617744 -397377327 8417378
            729907200 -259870044 -154474365</internalNodes>
          <leafValues>
            -4.7274053096771240e-001 1.9245548546314240e-001</leafValues></_>
        <_>
          <internalNodes>
            0 -1 160 -1201661891 -741736299 268685337 286244875
            -1853846598 -754401272 -914173301 -2002777295</internalNodes>
          <leafValues>
            -5.3220224380493164e-001 1.5349256992340088e-001</leafValues></_>
        <_>
          <internalNodes>
            0 -1 69 -112595372 -1529558386 1073746004 123113488
            1879657185 1249968267 1074352168 524673678</internalNodes>
          <leafValues>
            -5.0742524862289429e-001 1.8020674586296082e-001</leafValues></_>
        <_>
          <internalNodes>
            0 -1 10 -567749519 -1783562241 -1075331213 997801139
            -43713067 -8388617 -1125075459 -1078255981</internalNodes>
          <leafValues>
            -1.9094069302082062e-001 5.1447224617004395e-001</leafValues></_>
        <_>
          <internalNodes>
            0 -1 5 1986932945 -934252455 -788426030 -1673125682
            -637316984 -620716029 1249975030 -665640941</internalNodes>
          <leafValues>
            -2.9565522074699402e-001 2.9764124751091003e-001</leafValues></_>
        <_>
          <internalNodes>
            0 -1 72 -1295488783 295411713 1075396947 367951897
            -2097133397 -2004844535 -2146917697 787169553</internalNodes>
          <leafValues>
            -4.2790266871452332e-001 1.9257293641567230e-001</leafValues></_></weakClassifiers></_>
    <!-- stage 12 -->
    <_>
      <maxWeakCount>17</maxWeakCount>
      <stageThreshold>-1.4732894897460937e+000</stageThreshold>
      <weakClassifiers>
        <_>
          <internalNodes>
            0 -1 37 -712511211 451838175 -2147461562 721830622
            -511354404 673816584 -391763652 -77600277</internalNodes>
          <leafValues>
            -6.6897261142730713e-001 -1.2560541927814484e-001</leafValues></_>
        <_>
          <internalNodes>
            0 -1 165 -1602125393 -494206833 1091686877 -158281254
            964831234 973078530 -1169973033 -69230366</internalNodes>
          <leafValues>
            -4.2936041951179504e-001 1.9694894552230835e-001</leafValues></_>
        <_>
          <internalNodes>
            0 -1 85 -1496931760 -1314831744 1073823947 1439678489
            -2139053429 -385121270 -2113670485 -1450213251</internalNodes>
          <leafValues>
            -3.7440475821495056e-001 2.6066079735755920e-001</leafValues></_>
        <_>
          <internalNodes>
            0 -1 78 -771139402 907690008 1611436394 17743902 277373576
            1000955907 1611209584 2116545531</internalNodes>
          <leafValues>
            -5.5997979640960693e-001 2.0526577532291412e-001</leafValues></_>
        <_>
          <internalNodes>
            0 -1 17 -1046372080 -654163680 -654249519 -653311989
            -227938055 -1463222240 -1073660945 1083558133</internalNodes>
          <leafValues>
            -3.3774390816688538e-001 2.6754760742187500e-001</leafValues></_>
        <_>
          <internalNodes>
            0 -1 60 272634340 412749953 67113083 521535634 2023778812
            -131596159 -1291810102 -1110966120</internalNodes>
          <leafValues>
            -3.0976635217666626e-001 2.9838690161705017e-001</leafValues></_>
        <_>
          <internalNodes>
            0 -1 91 -254069981 -1068298167 1090929028 -90566447
            -397891230 -1040023408 -1148603456 -73512487</internalNodes>
          <leafValues>
            -3.4656244516372681e-001 2.6635944843292236e-001</leafValues></_>
        <_>
          <internalNodes>
            0 -1 44 1712712260 403767452 285278557 369740164 -242380485
            504905752 -385705877 823815005</internalNodes>
          <leafValues>
            -5.0403386354446411e-001 1.8990497291088104e-001</leafValues></_>
        <_>
          <internalNodes>
            0 -1 11 1596709319 -1437810030 -2147208894 -1048149363
            1829661067 1066025608 1487800784 2145962270</internalNodes>
          <leafValues>
            -3.2433611154556274e-001 2.7856230735778809e-001</leafValues></_>
        <_>
          <internalNodes>
            0 -1 125 -1747004734 936804504 -2147413424 -1894333312
            1494471381 1217071616 -651621576 792489634</internalNodes>
          <leafValues>
            -4.8254120349884033e-001 1.8504069745540619e-001</leafValues></_>
        <_>
          <internalNodes>
            0 -1 135 -510402321 1846214856 402657994 -804048232
            -2104844237 1644724360 -1551719695 -153296181</internalNodes>
          <leafValues>
            -3.4909865260124207e-001 2.5749444961547852e-001</leafValues></_>
        <_>
          <internalNodes>
            0 -1 116 1217396772 -1081048960 16843097 -384712551
            2030586249 1485381762 1514746031 611688756</internalNodes>
          <leafValues>
            -5.6252270936965942e-001 1.5764912962913513e-001</leafValues></_>
        <_>
          <internalNodes>
            0 -1 20 571105918 -2142453568 -805187492 1447088338
            1359157761 -242712576 -930442528 -268138478</internalNodes>
          <leafValues>
            -4.7816753387451172e-001 1.9545717537403107e-001</leafValues></_>
        <_>
          <internalNodes>
            0 -1 7 -161552054 -362118847 1073995795 -1923694458
            1645106071 1872855168 -1874704360 85395991</internalNodes>
          <leafValues>
            -3.7845143675804138e-001 2.2799247503280640e-001</leafValues></_>
        <_>
          <internalNodes>
            0 -1 34 273369689 1417908659 403834922 -2028003944
            -1055858520 145769090 -1048495349 1394621195</internalNodes>
          <leafValues>
            -3.2705649733543396e-001 2.6711419224739075e-001</leafValues></_>
        <_>
          <internalNodes>
            0 -1 168 172773968 -795312125 553648221 -1760247789
            -1744754502 151912576 -1198853957 -1479015836</internalNodes>
          <leafValues>
            -3.8143560290336609e-001 2.5518754124641418e-001</leafValues></_>
        <_>
          <internalNodes>
            0 -1 82 2077219034 -1384808233 851 -905672105 -1555312573
            -670297695 -1173845685 1348720606</internalNodes>
          <leafValues>
            -3.6131983995437622e-001 2.5522872805595398e-001</leafValues></_></weakClassifiers></_>
    <!-- stage 13 -->
    <_>
      <maxWeakCount>18</maxWeakCount>
      <stageThreshold>-1.6504064798355103e+000</stageThreshold>
      <weakClassifiers>
        <_>
          <internalNodes>
            0 -1 35 -681771553 -545570605 268569885 -1650522096
            1342220536 -1719105360 -1174398529 -67258005</internalNodes>
          <leafValues>
            -5.4567641019821167e-001 1.0284809768199921e-001</leafValues></_>
        <_>
          <internalNodes>
            0 -1 154 -606347093 597627265 1342255338 -292122422
            -527722390 939524224 -796329470 -157044598</internalNodes>
          <leafValues>
            -4.9826160073280334e-001 1.5251074731349945e-001</leafValues></_>
        <_>
          <internalNodes>
            0 -1 157 350122395 462848080 17946068 -1119043379 -204865391
            -1442250741 -1693904664 -1887282232</internalNodes>
          <leafValues>
            -4.2578560113906860e-001 1.9057203829288483e-001</leafValues></_>
        <_>
          <internalNodes>
            0 -1 63 -2033875856 -716603132 268474840 -1819082688
            176795835 -930447346 -1475632961 744820789</internalNodes>
          <leafValues>
            -5.4209989309310913e-001 1.8276371061801910e-001</leafValues></_>
        <_>
          <internalNodes>
            0 -1 90 -134217981 -974848182 -1090618577 -901779649
            -981604748 1207435263 -687876890 -71839747</internalNodes>
          <leafValues>
            -2.7946671843528748e-001 3.1309252977371216e-001</leafValues></_>
        <_>
          <internalNodes>
            0 -1 24 1364611564 1539359043 -2067726208 490475656
            998521585 54084145 -611690228 1876621443</internalNodes>
          <leafValues>
            -4.3464082479476929e-001 1.9637678563594818e-001</leafValues></_>
        <_>
          <internalNodes>
            0 -1 31 -301284281 -833548088 -1870626475 -1765113713
            2011181246 -1151762031 -1012709013 1753827443</internalNodes>
          <leafValues>
            -3.7598323822021484e-001 2.2844527661800385e-001</leafValues></_>
        <_>
          <internalNodes>
            0 -1 79 1899036991 605913224 -1073626808 -1065299629
            705352499 559240 -2088062398 -192419431</internalNodes>
          <leafValues>
            -5.5975705385208130e-001 1.2541262805461884e-001</leafValues></_>
        <_>
          <internalNodes>
            0 -1 28 843056016 -753368960 -938303011 964973964
            -1005323103 -117341559 168537995 151128846</internalNodes>
          <leafValues>
            -3.0847999453544617e-001 2.5429850816726685e-001</leafValues></_>
        <_>
          <internalNodes>
            0 -1 164 -1558768821 675971216 1343359447 -26996276
            -2004776957 -1291255806 -1417436989 -192165240</internalNodes>
          <leafValues>
            -3.5272142291069031e-001 2.0727798342704773e-001</leafValues></_>
        <_>
          <internalNodes>
            0 -1 14 2134327248 -1724473489 -1073823979 -1074270475
            -134472737 855375838 -176740 -1075057016</internalNodes>
          <leafValues>
            -2.3068913817405701e-001 3.3376330137252808e-001</leafValues></_>
        <_>
          <internalNodes>
            0 -1 48 587935993 -832896631 -754974305 677269718 813892179
            -133496693 160041335 -49376815</internalNodes>
          <leafValues>
            -4.8378798365592957e-001 1.4585879445075989e-001</leafValues></_>
        <_>
          <internalNodes>
            0 -1 145 1472440189 1733396625 285296704 -1974005414
            -1433677765 973701256 598319461 -255284504</internalNodes>
          <leafValues>
            -4.8048853874206543e-001 1.6512906551361084e-001</leafValues></_>
        <_>
          <internalNodes>
            0 -1 169 -1640210459 -63488004 2147360765 -709357570
            -1082886585 -198793 1072066527 -1073871071</internalNodes>
          <leafValues>
            -2.2942288219928741e-001 3.3874800801277161e-001</leafValues></_>
        <_>
          <internalNodes>
            0 -1 21 -562073743 1081081838 1728031410 1877966654
            -1098919982 1022328702 1986278626 -973129729</internalNodes>
          <leafValues>
            -2.3995305597782135e-001 3.2959944009780884e-001</leafValues></_>
        <_>
          <internalNodes>
            0 -1 167 183836159 1502085138 402669777 1373950171
            1082270097 -234815448 -939490927 -366980576</internalNodes>
          <leafValues>
            -4.3414902687072754e-001 1.7189401388168335e-001</leafValues></_>
        <_>
          <internalNodes>
            0 -1 111 1544938226 -1650923122 102494 -1991818928
            1124683832 276842635 1224940040 1606551754</internalNodes>
          <leafValues>
            -4.7392454743385315e-001 1.6786605119705200e-001</leafValues></_>
        <_>
          <internalNodes>
            0 -1 19 705719810 1849725918 16896271 -1466988216
            -1457580012 -1694461818 -884718375 1103392846</internalNodes>
          <leafValues>
            -4.4596487283706665e-001 1.7182895541191101e-001</leafValues></_></weakClassifiers></_>
    <!-- stage 14 -->
    <_>
      <maxWeakCount>17</maxWeakCount>
      <stageThreshold>-1.4828208684921265e+000</stageThreshold>
      <weakClassifiers>
        <_>
          <internalNodes>
            0 -1 25 -46730793 -9072509 419436863 -1659567841 -133104904
            -880222071 -670057813 -77907009</internalNodes>
          <leafValues>
            -5.0437223911285400e-001 3.8590604066848755e-001</leafValues></_>
        <_>
          <internalNodes>
            0 -1 162 -225463301 -527069093 285262226 -489285247
            -1425924045 -671021056 -519466701 -201340214</internalNodes>
          <leafValues>
            -4.0120986104011536e-001 1.9131635129451752e-001</leafValues></_>
        <_>
          <internalNodes>
            0 -1 128 268704240 -1718718311 268439835 227840092
            1133052040 -1702330232 2013403577 134750520</internalNodes>
          <leafValues>
            -6.0402423143386841e-001 1.4224579930305481e-001</leafValues></_>
        <_>
          <internalNodes>
            0 -1 43 -1576619472 -1090150313 1392574751 -716701420
            -259507719 -904163168 1478054541 16203877</internalNodes>
          <leafValues>
            -4.7527369856834412e-001 1.9641712307929993e-001</leafValues></_>
        <_>
          <internalNodes>
            0 -1 109 -485785493 -1013448509 1073758532 1644560641
            596363783 16908296 143360086 -185230192</internalNodes>
          <leafValues>
            -5.1537895202636719e-001 1.6892105340957642e-001</leafValues></_>
        <_>
          <internalNodes>
            0 -1 65 -1596784078 -1408069631 286359767 -963358645
            -2138431373 -2105507840 327686358 -223300943</internalNodes>
          <leafValues>
            -5.1000404357910156e-001 1.5720947086811066e-001</leafValues></_>
        <_>
          <internalNodes>
            0 -1 150 268792053 2071052313 339841162 -711683711 8587689
            1015906440 1787486954 -1345585116</internalNodes>
          <leafValues>
            -3.1299859285354614e-001 2.7012059092521667e-001</leafValues></_>
        <_>
          <internalNodes>
            0 -1 9 -771536142 -703540416 -1072606092 -1719175165
            -401962514 1502724307 245586476 -40904273</internalNodes>
          <leafValues>
            -2.7511090040206909e-001 3.4125384688377380e-001</leafValues></_>
        <_>
          <internalNodes>
            0 -1 56 -709733350 -305921520 8687773 -737923038 433000669
            1313734716 1478139115 1127210014</internalNodes>
          <leafValues>
            -4.2401173710823059e-001 2.1413344144821167e-001</leafValues></_>
        <_>
          <internalNodes>
            0 -1 3 475085651 1226412104 1476464985 1062916113 -662462293
            -360181632 1342880408 -1743208423</internalNodes>
          <leafValues>
            -3.7292057275772095e-001 2.1481640636920929e-001</leafValues></_>
        <_>
          <internalNodes>
            0 -1 26 -1039974262 -1672380287 -1878994571 546144716
            1401487799 -1941960486 2013331824 589946956</internalNodes>
          <leafValues>
            -5.1369178295135498e-001 1.7029413580894470e-001</leafValues></_>
        <_>
          <internalNodes>
            0 -1 33 1544700607 776999105 16830622 1372373205 143149302
            813844585 1216367426 1796167808</internalNodes>
          <leafValues>
            -3.8040044903755188e-001 2.2166553139686584e-001</leafValues></_>
        <_>
          <internalNodes>
            0 -1 127 428363868 508854409 -771702782 -1990835901
            176234673 436732032 -637463860 453649344</internalNodes>
          <leafValues>
            -6.0108464956283569e-001 1.3379101455211639e-001</leafValues></_>
        <_>
          <internalNodes>
            0 -1 115 1355455693 -1082867980 -824427149 1441660463
            -220349002 -50479138 -315297060 -1364863454</internalNodes>
          <leafValues>
            -2.5191384553909302e-001 3.3649897575378418e-001</leafValues></_>
        <_>
          <internalNodes>
            0 -1 107 -1420617963 -494698364 1073774743 -128810753
            -1702163957 -2138472320 -1190643125 -1426158975</internalNodes>
          <leafValues>
            -3.4143409132957458e-001 2.5163573026657104e-001</leafValues></_>
        <_>
          <internalNodes>
            0 -1 18 -2128666525 -2147478844 1359057012 1482297584
            -1073074061 -1714814847 1073957376 -858068959</internalNodes>
          <leafValues>
            -4.4856947660446167e-001 1.8012788891792297e-001</leafValues></_>
        <_>
          <internalNodes>
            0 -1 159 -1698835536 -114117087 1073721265 -142598348
            -50395209 -1640497283 83703229 931795197</internalNodes>
          <leafValues>
            -2.4044112861156464e-001 3.5152745246887207e-001</leafValues></_></weakClassifiers></_></stages>
  <features>
    <_>
      <rect>
        0 0 4 5</rect></_>
    <_>
      <rect>
        0 0 4 6</rect></_>
    <_>
      <rect>
        0 0 5 7</rect></_>
    <_>
      <rect>
        0 1 1 1</rect></_>
    <_>
      <rect>
        0 1 4 3</rect></_>
    <_>
      <rect>
        0 3 2 6</rect></_>
    <_>
      <rect>
        0 4 5 7</rect></_>
    <_>
      <rect>
        0 6 3 4</rect></_>
    <_>
      <rect>
        0 6 4 7</rect></_>
    <_>
      <rect>
        0 17 4 4</rect></_>
    <_>
      <rect>
        0 18 1 1</rect></_>
    <_>
      <rect>
        0 18 3 4</rect></_>
    <_>
      <rect>
        0 18 6 4</rect></_>
    <_>
      <rect>
        0 21 1 3</rect></_>
    <_>
      <rect>
        0 21 3 3</rect></_>
    <_>
      <rect>
        0 21 4 3</rect></_>
    <_>
      <rect>
        0 27 6 1</rect></_>
    <_>
      <rect>
        1 1 4 2</rect></_>
    <_>
      <rect>
        1 6 1 1</rect></_>
    <_>
      <rect>
        1 7 2 5</rect></_>
    <_>
      <rect>
        1 11 1 1</rect></_>
    <_>
      <rect>
        1 14 3 4</rect></_>
    <_>
      <rect>
        1 18 3 4</rect></_>
    <_>
      <rect>
        1 18 6 4</rect></_>
    <_>
      <rect>
        1 21 5 3</rect></_>
    <_>
      <rect>
        1 24 6 2</rect></_>
    <_>
      <rect>
        2 0 5 8</rect></_>
    <_>
      <rect>
        2 0 6 1</rect></_>
    <_>
      <rect>
        2 0 6 2</rect></_>
    <_>
      <rect>
        2 0 6 7</rect></_>
    <_>
      <rect>
        2 1 6 7</rect></_>
    <_>
      <rect>
        2 3 2 5</rect></_>
    <_>
      <rect>
        2 3 6 9</rect></_>
    <_>
      <rect>
        2 21 4 2</rect></_>
    <_>
      <rect>
        2 21 6 3</rect></_>
    <_>
      <rect>
        2 24 6 2</rect></_>
    <_>
      <rect>
        3 21 2 3</rect></_>
    <_>
      <rect>
        3 21 3 3</rect></_>
    <_>
      <rect>
        3 24 3 2</rect></_>
    <_>
      <rect>
        4 0 2 6</rect></_>
    <_>
      <rect>
        4 0 3 5</rect></_>
    <_>
      <rect>
        4 0 5 10</rect></_>
    <_>
      <rect>
        4 1 5 9</rect></_>
    <_>
      <rect>
        4 2 2 3</rect></_>
    <_>
      <rect>
        4 2 4 6</rect></_>
    <_>
      <rect>
        4 4 1 4</rect></_>
    <_>
      <rect>
        4 5 1 2</rect></_>
    <_>
      <rect>
        4 5 5 8</rect></_>
    <_>
      <rect>
        4 7 1 1</rect></_>
    <_>
      <rect>
        4 10 1 1</rect></_>
    <_>
      <rect>
        4 11 1 1</rect></_>
    <_>
      <rect>
        4 18 3 4</rect></_>
    <_>
      <rect>
        4 21 3 3</rect></_>
    <_>
      <rect>
        4 24 3 2</rect></_>
    <_>
      <rect>
        5 0 3 3</rect></_>
    <_>
      <rect>
        5 0 4 5</rect></_>
    <_>
      <rect>
        5 0 5 9</rect></_>
    <_>
      <rect>
        5 1 5 2</rect></_>
    <_>
      <rect>
        5 4 5 5</rect></_>
    <_>
      <rect>
        5 18 2 4</rect></_>
    <_>
      <rect>
        5 27 4 1</rect></_>
    <_>
      <rect>
        6 0 3 2</rect></_>
    <_>
      <rect>
        6 1 2 2</rect></_>
    <_>
      <rect>
        6 1 2 3</rect></_>
    <_>
      <rect>
        6 5 1 2</rect></_>
    <_>
      <rect>
        6 11 1 1</rect></_>
    <_>
      <rect>
        6 11 2 4</rect></_>
    <_>
      <rect>
        6 15 2 5</rect></_>
    <_>
      <rect>
        6 16 1 1</rect></_>
    <_>
      <rect>
        6 18 3 4</rect></_>
    <_>
      <rect>
        6 18 4 4</rect></_>
    <_>
      <rect>
        6 21 1 1</rect></_>
    <_>
      <rect>
        7 2 1 2</rect></_>
    <_>
      <rect>
        7 3 1 2</rect></_>
    <_>
      <rect>
        7 4 1 1</rect></_>
    <_>
      <rect>
        7 11 1 1</rect></_>
    <_>
      <rect>
        7 12 4 6</rect></_>
    <_>
      <rect>
        7 15 1 1</rect></_>
    <_>
      <rect>
        7 15 3 5</rect></_>
    <_>
      <rect>
        7 16 1 1</rect></_>
    <_>
      <rect>
        8 0 4 1</rect></_>
    <_>
      <rect>
        8 0 4 4</rect></_>
    <_>
      <rect>
        8 0 4 9</rect></_>
    <_>
      <rect>
        8 1 2 2</rect></_>
    <_>
      <rect>
        8 1 4 1</rect></_>
    <_>
      <rect>
        8 3 1 2</rect></_>
    <_>
      <rect>
        8 3 4 2</rect></_>
    <_>
      <rect>
        8 5 4 5</rect></_>
    <_>
      <rect>
        8 6 1 1</rect></_>
    <_>
      <rect>
        8 6 4 8</rect></_>
    <_>
      <rect>
        8 8 2 5</rect></_>
    <_>
      <rect>
        8 11 1 1</rect></_>
    <_>
      <rect>
        8 18 2 4</rect></_>
    <_>
      <rect>
        8 19 1 1</rect></_>
    <_>
      <rect>
        8 23 2 2</rect></_>
    <_>
      <rect>
        8 26 2 1</rect></_>
    <_>
      <rect>
        9 0 2 1</rect></_>
    <_>
      <rect>
        9 2 2 3</rect></_>
    <_>
      <rect>
        9 11 1 1</rect></_>
    <_>
      <rect>
        9 11 3 4</rect></_>
    <_>
      <rect>
        9 13 1 3</rect></_>
    <_>
      <rect>
        9 14 1 2</rect></_>
    <_>
      <rect>
        9 16 1 1</rect></_>
    <_>
      <rect>
        10 0 3 7</rect></_>
    <_>
      <rect>
        10 3 2 2</rect></_>
    <_>
      <rect>
        10 4 1 1</rect></_>
    <_>
      <rect>
        10 5 1 1</rect></_>
    <_>
      <rect>
        10 7 1 1</rect></_>
    <_>
      <rect>
        10 12 1 1</rect></_>
    <_>
      <rect>
        10 16 1 1</rect></_>
    <_>
      <rect>
        10 17 1 1</rect></_>
    <_>
      <rect>
        10 18 3 4</rect></_>
    <_>
      <rect>
        10 21 2 3</rect></_>
    <_>
      <rect>
        10 27 3 1</rect></_>
    <_>
      <rect>
        11 0 2 2</rect></_>
    <_>
      <rect>
        11 0 3 2</rect></_>
    <_>
      <rect>
        11 0 3 4</rect></_>
    <_>
      <rect>
        11 2 2 2</rect></_>
    <_>
      <rect>
        11 3 3 1</rect></_>
    <_>
      <rect>
        11 10 1 1</rect></_>
    <_>
      <rect>
        11 11 1 1</rect></_>
    <_>
      <rect>
        11 15 2 5</rect></_>
    <_>
      <rect>
        11 16 1 1</rect></_>
    <_>
      <rect>
        11 17 1 1</rect></_>
    <_>
      <rect>
        11 17 3 4</rect></_>
    <_>
      <rect>
        11 18 3 4</rect></_>
    <_>
      <rect>
        11 21 3 3</rect></_>
    <_>
      <rect>
        11 22 2 2</rect></_>
    <_>
      <rect>
        11 24 2 2</rect></_>
    <_>
      <rect>
        11 24 3 2</rect></_>
    <_>
      <rect>
        11 25 1 1</rect></_>
    <_>
      <rect>
        12 3 1 1</rect></_>
    <_>
      <rect>
        12 8 2 5</rect></_>
    <_>
      <rect>
        12 11 1 1</rect></_>
    <_>
      <rect>
        12 15 2 5</rect></_>
    <_>
      <rect>
        12 16 1 1</rect></_>
    <_>
      <rect>
        12 17 1 1</rect></_>
    <_>
      <rect>
        12 23 2 2</rect></_>
    <_>
      <rect>
        12 24 1 1</rect></_>
    <_>
      <rect>
        13 0 2 5</rect></_>
    <_>
      <rect>
        13 6 1 1</rect></_>
    <_>
      <rect>
        13 7 2 5</rect></_>
    <_>
      <rect>
        13 11 1 1</rect></_>
    <_>
      <rect>
        13 14 1 1</rect></_>
    <_>
      <rect>
        13 16 1 1</rect></_>
    <_>
      <rect>
        13 17 1 1</rect></_>
    <_>
      <rect>
        13 18 2 4</rect></_>
    <_>
      <rect>
        13 24 1 1</rect></_>
    <_>
      <rect>
        13 25 1 1</rect></_>
    <_>
      <rect>
        13 26 1 1</rect></_>
    <_>
      <rect>
        14 0 2 1</rect></_>
    <_>
      <rect>
        14 0 2 4</rect></_>
    <_>
      <rect>
        14 1 2 1</rect></_>
    <_>
      <rect>
        14 8 1 4</rect></_>
    <_>
      <rect>
        14 10 1 1</rect></_>
    <_>
      <rect>
        14 11 1 1</rect></_>
    <_>
      <rect>
        14 15 1 1</rect></_>
    <_>
      <rect>
        14 21 2 3</rect></_>
    <_>
      <rect>
        14 24 2 2</rect></_>
    <_>
      <rect>
        14 27 2 1</rect></_>
    <_>
      <rect>
        15 1 1 2</rect></_>
    <_>
      <rect>
        15 8 1 3</rect></_>
    <_>
      <rect>
        15 14 1 2</rect></_>
    <_>
      <rect>
        16 10 1 3</rect></_>
    <_>
      <rect>
        16 11 1 1</rect></_>
    <_>
      <rect>
        16 16 1 1</rect></_>
    <_>
      <rect>
        16 21 1 1</rect></_>
    <_>
      <rect>
        17 1 1 1</rect></_>
    <_>
      <rect>
        17 3 1 1</rect></_>
    <_>
      <rect>
        17 19 1 1</rect></_>
    <_>
      <rect>
        17 23 1 1</rect></_>
    <_>
      <rect>
        17 23 1 2</rect></_>
    <_>
      <rect>
        17 26 1 1</rect></_></features></cascade>
</opencv_storage>
