<?xml version="1.0"?>
<opencv_storage>
<stage3>
  <maxWeakCount>8</maxWeakCount>
  <stageThreshold>-1.8932381868362427e+000</stageThreshold>
  <weakClassifiers>
    <_>
      <internalNodes>
        0 -1 3384 -65538 -537934849 -136912897 -2100513 -6296577
        -336888101 -83100705 2080341999</internalNodes>
      <leafValues>
        -7.4971455335617065e-001 1.0797405242919922e-001</leafValues></_>
    <_>
      <internalNodes>
        0 -1 7820 268972541 1038395356 1595120605 -1076315144 1071544765
        -70794597 965609384 -1145304964</internalNodes>
      <leafValues>
        -6.1262065172195435e-001 2.8684523701667786e-001</leafValues></_>
    <_>
      <internalNodes>
        0 -1 8350 -67372193 -291532413 -483994682 -363408929 2063790707
        -452788216 -74712205 -155190293</internalNodes>
      <leafValues>
        -5.5025100708007813e-001 3.3822941780090332e-001</leafValues></_>
    <_>
      <internalNodes>
        0 -1 4082 -1515144272 -136474215 1963586037 -1621754079
        -1343247873 -73716230 -1371096099 -1930065659</internalNodes>
      <leafValues>
        -5.0389349460601807e-001 4.0326464176177979e-001</leafValues></_>
    <_>
      <internalNodes>
        0 -1 7317 -203693585 -287326013 -2097037226 -354971497 -91508429
        -762806262 -75302089 -138937613</internalNodes>
      <leafValues>
        -5.1810985803604126e-001 3.5501214861869812e-001</leafValues></_>
    <_>
      <internalNodes>
        0 -1 7418 -1057455065 -606145598 -170810369 -1074035799
        -354455809 -70656889 -9984001 -1540049145</internalNodes>
      <leafValues>
        -4.8645532131195068e-001 3.6124044656753540e-001</leafValues></_>
    <_>
      <internalNodes>
        0 -1 6500 502823389 534761772 -1752088097 -1214607146 109663196
        -1146953334 -72665092 -1080411440</internalNodes>
      <leafValues>
        -4.9629858136177063e-001 3.6643067002296448e-001</leafValues></_>
    <_>
      <internalNodes>
        0 -1 46 -495458490 -554023104 -690764025 -295703778 -628115093
        -230692102 -73700485 1615853414</internalNodes>
      <leafValues>
        -5.9617835283279419e-001 2.6541444659233093e-001</leafValues></_></weakClassifiers></stage3>
</opencv_storage>
