<?xml version="1.0"?>
<opencv_storage>
<stage8>
  <maxWeakCount>13</maxWeakCount>
  <stageThreshold>-1.8177030086517334e+000</stageThreshold>
  <weakClassifiers>
    <_>
      <internalNodes>
        0 -1 8549 -167773201 -456142245 336052651 -937953877 1371792182
        -7897053 -108283802 -5129</internalNodes>
      <leafValues>
        -6.5282863378524780e-001 9.9712371826171875e-002</leafValues></_>
    <_>
      <internalNodes>
        0 -1 3280 -69501953 525731801 -888729122 528089818 -342097476
        -97857382 -1160942632 -82977</internalNodes>
      <leafValues>
        -3.6922243237495422e-001 3.2737532258033752e-001</leafValues></_>
    <_>
      <internalNodes>
        0 -1 6453 -930946448 -2065792887 -1073658476 -422848236
        -1702665691 -257326976 -1459374041 -269758</internalNodes>
      <leafValues>
        -5.0293308496475220e-001 2.2883667051792145e-001</leafValues></_>
    <_>
      <internalNodes>
        0 -1 4966 -1431503621 -87785314 -788442625 -242001441 -125366100
        -1433759608 -611638305 -555778955</internalNodes>
      <leafValues>
        -3.4116300940513611e-001 3.2623395323753357e-001</leafValues></_>
    <_>
      <internalNodes>
        0 -1 7394 76298233 946666092 -1409302977 -1313181958 771145177
        -1669038084 -1536267587 -1429464996</internalNodes>
      <leafValues>
        -3.2760018110275269e-001 3.4771934151649475e-001</leafValues></_>
    <_>
      <internalNodes>
        0 -1 6986 -11809274 -1420365105 -1476326917 -834109041
        -620618426 -11893055 -125117794 1648870711</internalNodes>
      <leafValues>
        -4.4834929704666138e-001 2.5157603621482849e-001</leafValues></_>
    <_>
      <internalNodes>
        0 -1 4835 -1433860592 -550776512 1477497083 394363601
        -1685378823 2089454600 -2147481111 -1944582048</internalNodes>
      <leafValues>
        -5.5250906944274902e-001 1.7551493644714355e-001</leafValues></_>
    <_>
      <internalNodes>
        0 -1 8296 -207939315 802390149 -2130456228 -422264611 -629011869
        -1207631712 -121048750 -84434182</internalNodes>
      <leafValues>
        -4.8941531777381897e-001 2.1160723268985748e-001</leafValues></_>
    <_>
      <internalNodes>
        0 -1 8404 403051345 -1195065340 82275 -1723480370 -1870589255
        -636944254 -1954402151 -1902875880</internalNodes>
      <leafValues>
        -5.5581647157669067e-001 1.8407879769802094e-001</leafValues></_>
    <_>
      <internalNodes>
        0 -1 6789 -523545845 -1064103521 -1857486711 -258752299
        -133662181 998768768 -99611935 -219446383</internalNodes>
      <leafValues>
        -4.1352534294128418e-001 2.5670805573463440e-001</leafValues></_>
    <_>
      <internalNodes>
        0 -1 8423 -898758105 -212107121 -787050099 -679137034 -894738261
        -133807880 -679249475 -1540333257</internalNodes>
      <leafValues>
        -4.3096923828125000e-001 2.5157049298286438e-001</leafValues></_>
    <_>
      <internalNodes>
        0 -1 5146 1643598627 1300939133 16849102 651170267 -216841645
        462669863 2076288293 1086865829</internalNodes>
      <leafValues>
        -5.6437182426452637e-001 1.8701337277889252e-001</leafValues></_>
    <_>
      <internalNodes>
        0 -1 3523 -1101103119 735215891 -804929391 33739478 -1329006429
        -341196672 -1073271841 -411600591</internalNodes>
      <leafValues>
        -4.2085650563240051e-001 2.2438836097717285e-001</leafValues></_></weakClassifiers></stage8>
</opencv_storage>
