<?xml version="1.0"?>
<opencv_storage>
<stage4>
  <maxWeakCount>9</maxWeakCount>
  <stageThreshold>-1.6678513288497925e+000</stageThreshold>
  <weakClassifiers>
    <_>
      <internalNodes>
        0 -1 5234 -67108865 -1209337121 -773849089 -1075915778
        2144042749 -91512129 -39887491 -1025</internalNodes>
      <leafValues>
        -6.8416786193847656e-001 1.8142235279083252e-001</leafValues></_>
    <_>
      <internalNodes>
        0 -1 7071 -1480575437 -3161903 -787768869 -3157547 -1684278529
        -607158117 -1198871557 -1090741551</internalNodes>
      <leafValues>
        -5.4357004165649414e-001 3.3651348948478699e-001</leafValues></_>
    <_>
      <internalNodes>
        0 -1 8960 -470563985 -497864621 -267366020 -453453550 -108321230
        -234127334 -74730729 -67116042</internalNodes>
      <leafValues>
        -5.3984647989273071e-001 3.1252658367156982e-001</leafValues></_>
    <_>
      <internalNodes>
        0 -1 7364 503087101 1063180676 2036314588 -1625516266 2139912940
        1002078635 1070148604 -1073857844</internalNodes>
      <leafValues>
        -6.2329000234603882e-001 2.6955229043960571e-001</leafValues></_>
    <_>
      <internalNodes>
        0 -1 1796 -487587890 -11812937 1881406911 1474287541 -926168833
        -340088709 1520161775 1944057610</internalNodes>
      <leafValues>
        -5.2098321914672852e-001 3.3253416419029236e-001</leafValues></_>
    <_>
      <internalNodes>
        0 -1 9133 784342711 -1190082477 -803155493 -711405543 1233334521
        -1685337944 -611747671 -1082630148</internalNodes>
      <leafValues>
        -4.9901726841926575e-001 3.3880522847175598e-001</leafValues></_>
    <_>
      <internalNodes>
        0 -1 7242 -807512261 -1018800903 -536817109 -431357746
        -519872489 1386414210 -102133242 -151276861</internalNodes>
      <leafValues>
        -5.8693414926528931e-001 2.9020845890045166e-001</leafValues></_>
    <_>
      <internalNodes>
        0 -1 5137 -280026346 1859031105 -788504367 -554004071
        -1585231309 -1181581044 -209528078 -90388015</internalNodes>
      <leafValues>
        -4.9928537011146545e-001 3.1581833958625793e-001</leafValues></_>
    <_>
      <internalNodes>
        0 -1 4806 67647025 -720565357 -644851587 -537682980 -1291453764
        -1679218168 -1060620065 -2009069568</internalNodes>
      <leafValues>
        -5.8006012439727783e-001 2.5910159945487976e-001</leafValues></_></weakClassifiers></stage4>
</opencv_storage>
