<?xml version="1.0"?>
<opencv_storage>
<stage0>
  <maxWeakCount>6</maxWeakCount>
  <stageThreshold>-1.6166185140609741e+000</stageThreshold>
  <weakClassifiers>
    <_>
      <internalNodes>
        0 -1 1851 -154140690 -8397841 -145099777 -136326225 -17833985
        -78644885 -34866177 1945105263</internalNodes>
      <leafValues>
        -8.1909769773483276e-001 3.0402630567550659e-001</leafValues></_>
    <_>
      <internalNodes>
        0 -1 8406 296762109 -1171471407 -1860316681 -8548001 -1467370821
        -1098348134 -542991875 -1141360392</internalNodes>
      <leafValues>
        -6.8112665414810181e-001 4.6513187885284424e-001</leafValues></_>
    <_>
      <internalNodes>
        0 -1 5292 -1048577 530087871 -67326274 -1074217480 2147319709
        1609957375 -115716 -262150</internalNodes>
      <leafValues>
        -5.0606358051300049e-001 5.8372914791107178e-001</leafValues></_>
    <_>
      <internalNodes>
        0 -1 5978 -990524155 -147985 -16797697 -134611217 -16846849 -1
        -52437009 -1536840192</internalNodes>
      <leafValues>
        -5.3431761264801025e-001 5.3813737630844116e-001</leafValues></_>
    <_>
      <internalNodes>
        0 -1 6870 -335577810 -827354677 -1047996948 -422137378
        -209504233 1739227144 -203699616 -151002378</internalNodes>
      <leafValues>
        -6.9727396965026855e-001 3.6733222007751465e-001</leafValues></_>
    <_>
      <internalNodes>
        0 -1 6535 859246035 -250075 2143058937 -134578271 -1115858993
        -805355553 1979563487 -285995100</internalNodes>
      <leafValues>
        -4.8296397924423218e-001 5.5665475130081177e-001</leafValues></_></weakClassifiers></stage0>
</opencv_storage>
