<?xml version="1.0"?>
<opencv_storage>
<stage7>
  <maxWeakCount>12</maxWeakCount>
  <stageThreshold>-1.6600368022918701e+000</stageThreshold>
  <weakClassifiers>
    <_>
      <internalNodes>
        0 -1 7977 -145230849 1155516303 -805254490 -489698598
        -1209009321 1128869914 -584070558 -1089</internalNodes>
      <leafValues>
        -6.9923418760299683e-001 4.8309178091585636e-003</leafValues></_>
    <_>
      <internalNodes>
        0 -1 6444 -79692803 1062130143 1220735326 -1289814178 1602775805
        1520165515 -626296084 -2306</internalNodes>
      <leafValues>
        -4.2434152960777283e-001 2.7996873855590820e-001</leafValues></_>
    <_>
      <internalNodes>
        0 -1 6085 1304594725 -167816930 -900015713 -146246813 -355751269
        -544636894 -21066258 -456803833</internalNodes>
      <leafValues>
        -4.1891261935234070e-001 2.9328879714012146e-001</leafValues></_>
    <_>
      <internalNodes>
        0 -1 5245 -220217305 -320880581 -804011597 -220262161 2072936563
        -896890712 -206842923 -267536</internalNodes>
      <leafValues>
        -3.7067091464996338e-001 3.2409632205963135e-001</leafValues></_>
    <_>
      <internalNodes>
        0 -1 4040 333204216 934873291 -595313163 966268030 -1986789188
        -273809206 -343381256 -1090905928</internalNodes>
      <leafValues>
        -3.8774052262306213e-001 3.1145027279853821e-001</leafValues></_>
    <_>
      <internalNodes>
        0 -1 8226 1070934807 567792026 1381079387 -1429212727 -81087901
        -82837494 -128205839 -285683019</internalNodes>
      <leafValues>
        -5.3147292137145996e-001 2.2744028270244598e-001</leafValues></_>
    <_>
      <internalNodes>
        0 -1 3745 -1428213729 -1026977573 -787361289 -502083435 61550611
        -905344894 -1377076489 -85026000</internalNodes>
      <leafValues>
        -5.4771381616592407e-001 1.7841903865337372e-001</leafValues></_>
    <_>
      <internalNodes>
        0 -1 5995 -1533756144 1468223578 -1056845485 -1751416487
        -1475548182 -1691647989 -1768833091 -1929900799</internalNodes>
      <leafValues>
        -4.8357591032981873e-001 2.5215551257133484e-001</leafValues></_>
    <_>
      <internalNodes>
        0 -1 260 -520356730 -995244889 1443225232 1627379906 1922732034
        19098633 1988743187 1717556045</internalNodes>
      <leafValues>
        -6.1183351278305054e-001 1.6093896329402924e-001</leafValues></_>
    <_>
      <internalNodes>
        0 -1 7763 -1335976002 534155477 273787488 1071093662 1745546228
        718110842 -628139572 1874025354</internalNodes>
      <leafValues>
        -4.3264707922935486e-001 2.3313882946968079e-001</leafValues></_>
    <_>
      <internalNodes>
        0 -1 7406 72617696 -1077165872 -1790766645 -1780709154
        -553090309 -620199286 687917545 241445377</internalNodes>
      <leafValues>
        -5.7812219858169556e-001 1.7782318592071533e-001</leafValues></_>
    <_>
      <internalNodes>
        0 -1 7641 937391389 147316874 1082201566 -489238312 -91547101
        -351666173 -662586848 -219172203</internalNodes>
      <leafValues>
        -5.2386564016342163e-001 1.9182266294956207e-001</leafValues></_></weakClassifiers></stage7>
</opencv_storage>
