<?xml version="1.0"?>
<opencv_storage>
<stage5>
  <maxWeakCount>11</maxWeakCount>
  <stageThreshold>-1.6401661634445190e+000</stageThreshold>
  <weakClassifiers>
    <_>
      <internalNodes>
        0 -1 8134 -285213129 -548416617 -663749153 -2098177 -103822593
        -99630629 -70255873 -520619145</internalNodes>
      <leafValues>
        -6.8912136554718018e-001 1.3243243098258972e-001</leafValues></_>
    <_>
      <internalNodes>
        0 -1 3961 -1 969995231 1951127262 -1074097190 2043501212
        960694543 -637572004 -16385</internalNodes>
      <leafValues>
        -4.9974524974822998e-001 3.5026338696479797e-001</leafValues></_>
    <_>
      <internalNodes>
        0 -1 35 -487594393 -86056017 1431663991 -2097818 -1352400897
        -23146513 -122684033 -520657149</internalNodes>
      <leafValues>
        -4.2538204789161682e-001 3.5039275884628296e-001</leafValues></_>
    <_>
      <internalNodes>
        0 -1 8400 441480181 -1185001137 1362219487 -1074376489
        -1735693839 -394100533 -104776963 -1343354312</internalNodes>
      <leafValues>
        -4.5490160584449768e-001 3.1882748007774353e-001</leafValues></_>
    <_>
      <internalNodes>
        0 -1 8330 -69209093 -531639630 -1862155814 -354692610 -628430031
        1629487618 -108790873 -151039237</internalNodes>
      <leafValues>
        -3.7999522686004639e-001 3.6985623836517334e-001</leafValues></_>
    <_>
      <internalNodes>
        0 -1 7462 -1916269772 1004377034 -805187121 2013232069 -88037445
        -71581159 1786822331 -1401148639</internalNodes>
      <leafValues>
        -5.5383110046386719e-001 2.5861993432044983e-001</leafValues></_>
    <_>
      <internalNodes>
        0 -1 5805 -570724033 -1425307433 -2129948461 -422608636
        -1165907341 -368541544 -376723101 -67181985</internalNodes>
      <leafValues>
        -4.6209985017776489e-001 2.9350927472114563e-001</leafValues></_>
    <_>
      <internalNodes>
        0 -1 7752 -12108953 -1417052085 -1073679974 -1564421688
        1930147873 -368861056 -7605405 -723524629</internalNodes>
      <leafValues>
        -5.7102978229522705e-001 2.2046466171741486e-001</leafValues></_>
    <_>
      <internalNodes>
        0 -1 6518 190523423 449839256 1410334973 391549136 1787300024
        -645397879 -259359816 -1075051380</internalNodes>
      <leafValues>
        -4.6186369657516479e-001 3.2582184672355652e-001</leafValues></_>
    <_>
      <internalNodes>
        0 -1 6188 -557323394 2140682127 -1873495864 961590710 596178412
        21859283 -1654205444 1977481207</internalNodes>
      <leafValues>
        -4.4929003715515137e-001 2.8483960032463074e-001</leafValues></_>
    <_>
      <internalNodes>
        0 -1 7054 -1459536589 -1275113249 -799943265 -69351311
        -376865913 -357957631 -1679717921 150743381</internalNodes>
      <leafValues>
        -5.3644198179244995e-001 2.3640799522399902e-001</leafValues></_></weakClassifiers></stage5>
</opencv_storage>
