<?xml version="1.0"?>
<opencv_storage>
<stage13>
  <maxWeakCount>18</maxWeakCount>
  <stageThreshold>-1.6504064798355103e+000</stageThreshold>
  <weakClassifiers>
    <_>
      <internalNodes>
        0 -1 2591 -681771553 -545570605 268569885 -1650522096 1342220536
        -1719105360 -1174398529 -67258005</internalNodes>
      <leafValues>
        -5.4567641019821167e-001 1.0284809768199921e-001</leafValues></_>
    <_>
      <internalNodes>
        0 -1 8574 -606347093 597627265 1342255338 -292122422 -527722390
        939524224 -796329470 -157044598</internalNodes>
      <leafValues>
        -4.9826160073280334e-001 1.5251074731349945e-001</leafValues></_>
    <_>
      <internalNodes>
        0 -1 8681 350122395 462848080 17946068 -1119043379 -204865391
        -1442250741 -1693904664 -1887282232</internalNodes>
      <leafValues>
        -4.2578560113906860e-001 1.9057203829288483e-001</leafValues></_>
    <_>
      <internalNodes>
        0 -1 4836 -2033875856 -716603132 268474840 -1819082688 176795835
        -930447346 -1475632961 744820789</internalNodes>
      <leafValues>
        -5.4209989309310913e-001 1.8276371061801910e-001</leafValues></_>
    <_>
      <internalNodes>
        0 -1 6228 -134217981 -974848182 -1090618577 -901779649
        -981604748 1207435263 -687876890 -71839747</internalNodes>
      <leafValues>
        -2.7946671843528748e-001 3.1309252977371216e-001</leafValues></_>
    <_>
      <internalNodes>
        0 -1 1682 1364611564 1539359043 -2067726208 490475656 998521585
        54084145 -611690228 1876621443</internalNodes>
      <leafValues>
        -4.3464082479476929e-001 1.9637678563594818e-001</leafValues></_>
    <_>
      <internalNodes>
        0 -1 1921 -301284281 -833548088 -1870626475 -1765113713
        2011181246 -1151762031 -1012709013 1753827443</internalNodes>
      <leafValues>
        -3.7598323822021484e-001 2.2844527661800385e-001</leafValues></_>
    <_>
      <internalNodes>
        0 -1 5825 1899036991 605913224 -1073626808 -1065299629 705352499
        559240 -2088062398 -192419431</internalNodes>
      <leafValues>
        -5.5975705385208130e-001 1.2541262805461884e-001</leafValues></_>
    <_>
      <internalNodes>
        0 -1 1791 843056016 -753368960 -938303011 964973964 -1005323103
        -117341559 168537995 151128846</internalNodes>
      <leafValues>
        -3.0847999453544617e-001 2.5429850816726685e-001</leafValues></_>
    <_>
      <internalNodes>
        0 -1 8933 -1558768821 675971216 1343359447 -26996276 -2004776957
        -1291255806 -1417436989 -192165240</internalNodes>
      <leafValues>
        -3.5272142291069031e-001 2.0727798342704773e-001</leafValues></_>
    <_>
      <internalNodes>
        0 -1 806 2134327248 -1724473489 -1073823979 -1074270475
        -134472737 855375838 -176740 -1075057016</internalNodes>
      <leafValues>
        -2.3068913817405701e-001 3.3376330137252808e-001</leafValues></_>
    <_>
      <internalNodes>
        0 -1 3640 587935993 -832896631 -754974305 677269718 813892179
        -133496693 160041335 -49376815</internalNodes>
      <leafValues>
        -4.8378798365592957e-001 1.4585879445075989e-001</leafValues></_>
    <_>
      <internalNodes>
        0 -1 8358 1472440189 1733396625 285296704 -1974005414
        -1433677765 973701256 598319461 -255284504</internalNodes>
      <leafValues>
        -4.8048853874206543e-001 1.6512906551361084e-001</leafValues></_>
    <_>
      <internalNodes>
        0 -1 9117 -1640210459 -63488004 2147360765 -709357570
        -1082886585 -198793 1072066527 -1073871071</internalNodes>
      <leafValues>
        -2.2942288219928741e-001 3.3874800801277161e-001</leafValues></_>
    <_>
      <internalNodes>
        0 -1 1513 -562073743 1081081838 1728031410 1877966654
        -1098919982 1022328702 1986278626 -973129729</internalNodes>
      <leafValues>
        -2.3995305597782135e-001 3.2959944009780884e-001</leafValues></_>
    <_>
      <internalNodes>
        0 -1 9000 183836159 1502085138 402669777 1373950171 1082270097
        -234815448 -939490927 -366980576</internalNodes>
      <leafValues>
        -4.3414902687072754e-001 1.7189401388168335e-001</leafValues></_>
    <_>
      <internalNodes>
        0 -1 7340 1544938226 -1650923122 102494 -1991818928 1124683832
        276842635 1224940040 1606551754</internalNodes>
      <leafValues>
        -4.7392454743385315e-001 1.6786605119705200e-001</leafValues></_>
    <_>
      <internalNodes>
        0 -1 1247 705719810 1849725918 16896271 -1466988216 -1457580012
        -1694461818 -884718375 1103392846</internalNodes>
      <leafValues>
        -4.4596487283706665e-001 1.7182895541191101e-001</leafValues></_></weakClassifiers></stage13>
</opencv_storage>
