<?xml version="1.0"?>
<opencv_storage>
<stage10>
  <maxWeakCount>14</maxWeakCount>
  <stageThreshold>-1.4329876899719238e+000</stageThreshold>
  <weakClassifiers>
    <_>
      <internalNodes>
        0 -1 1790 541983505 -1684963111 -1828646753 -674152175
        -612193635 -99964869 -317686865 -817626368</internalNodes>
      <leafValues>
        -6.2221753597259521e-001 -2.8471309691667557e-002</leafValues></_>
    <_>
      <internalNodes>
        0 -1 8253 -103284922 1147130571 -1862221653 -497093874
        1041211907 -2013200376 -74718654 -135268377</internalNodes>
      <leafValues>
        -4.6525266766548157e-001 2.1806494891643524e-001</leafValues></_>
    <_>
      <internalNodes>
        0 -1 8110 546599333 -1612951421 -788139809 -1785327595
        -360484183 -1979023352 -133616904 -1148570832</internalNodes>
      <leafValues>
        -4.4506767392158508e-001 2.2311787307262421e-001</leafValues></_>
    <_>
      <internalNodes>
        0 -1 3350 -355312769 1515669982 -1324339109 -1013737143
        -960352095 -1719107454 -1652145553 -2097449401</internalNodes>
      <leafValues>
        -3.6891803145408630e-001 3.0678880214691162e-001</leafValues></_>
    <_>
      <internalNodes>
        0 -1 3561 -1575560271 -801968000 1359188125 -58994481
        -1203156753 2073657474 -238589701 -1967427211</internalNodes>
      <leafValues>
        -3.6030995845794678e-001 2.4657428264617920e-001</leafValues></_>
    <_>
      <internalNodes>
        0 -1 809 -690536738 835871107 4196522 1062207771 -1722984995
        1044539939 -559257464 534460482</internalNodes>
      <leafValues>
        -3.3147302269935608e-001 2.8031519055366516e-001</leafValues></_>
    <_>
      <internalNodes>
        0 -1 5317 -1110482138 714342418 1090720210 1590689930 167780464
        575144064 -1820069551 -5573661</internalNodes>
      <leafValues>
        -4.8308089375495911e-001 2.0450292527675629e-001</leafValues></_>
    <_>
      <internalNodes>
        0 -1 6841 -212108429 -532217213 286294103 706384139 -1551286016
        679510026 1771567954 -958797624</internalNodes>
      <leafValues>
        -4.5364129543304443e-001 2.0149740576744080e-001</leafValues></_>
    <_>
      <internalNodes>
        0 -1 8439 12846169 -587198413 202399071 1595412945 -913290328
        721485864 -659955521 -258700512</internalNodes>
      <leafValues>
        -4.2060551047325134e-001 2.2528417408466339e-001</leafValues></_>
    <_>
      <internalNodes>
        0 -1 1961 1947636634 -2020293229 -587066342 -133004159
        -618458478 723621891 -669441384 1536818649</internalNodes>
      <leafValues>
        -4.7149822115898132e-001 2.2547395527362823e-001</leafValues></_>
    <_>
      <internalNodes>
        0 -1 7497 -371452099 1520206056 269078007 1985777805 -1860132375
        -2088206327 -1962366773 -67089917</internalNodes>
      <leafValues>
        -3.2823264598846436e-001 2.7812141180038452e-001</leafValues></_>
    <_>
      <internalNodes>
        0 -1 9129 -1145539675 823541889 -1728016300 -1122692603
        -800548472 -1677492093 302729877 -1348986391</internalNodes>
      <leafValues>
        -4.3961596488952637e-001 2.2600884735584259e-001</leafValues></_>
    <_>
      <internalNodes>
        0 -1 8068 -224923205 -476332015 5253826 -123910897 -1476161454
        445186059 -243013178 -773922637</internalNodes>
      <leafValues>
        -3.5298222303390503e-001 2.9637306928634644e-001</leafValues></_>
    <_>
      <internalNodes>
        0 -1 8929 -354700856 -1528938356 -775859770 -526626601
        -1316285946 -1154633719 -629077401 -122763145</internalNodes>
      <leafValues>
        -3.8334226608276367e-001 2.5379127264022827e-001</leafValues></_></weakClassifiers></stage10>
</opencv_storage>
