<?xml version="1.0"?>
<opencv_storage>
<stage12>
  <maxWeakCount>17</maxWeakCount>
  <stageThreshold>-1.4732894897460937e+000</stageThreshold>
  <weakClassifiers>
    <_>
      <internalNodes>
        0 -1 3283 -712511211 451838175 -2147461562 721830622 -511354404
        673816584 -391763652 -77600277</internalNodes>
      <leafValues>
        -6.6897261142730713e-001 -1.2560541927814484e-001</leafValues></_>
    <_>
      <internalNodes>
        0 -1 8960 -1602125393 -494206833 1091686877 -158281254 964831234
        973078530 -1169973033 -69230366</internalNodes>
      <leafValues>
        -4.2936041951179504e-001 1.9694894552230835e-001</leafValues></_>
    <_>
      <internalNodes>
        0 -1 6058 -1496931760 -1314831744 1073823947 1439678489
        -2139053429 -385121270 -2113670485 -1450213251</internalNodes>
      <leafValues>
        -3.7440475821495056e-001 2.6066079735755920e-001</leafValues></_>
    <_>
      <internalNodes>
        0 -1 5819 -771139402 907690008 1611436394 17743902 277373576
        1000955907 1611209584 2116545531</internalNodes>
      <leafValues>
        -5.5997979640960693e-001 2.0526577532291412e-001</leafValues></_>
    <_>
      <internalNodes>
        0 -1 958 -1046372080 -654163680 -654249519 -653311989 -227938055
        -1463222240 -1073660945 1083558133</internalNodes>
      <leafValues>
        -3.3774390816688538e-001 2.6754760742187500e-001</leafValues></_>
    <_>
      <internalNodes>
        0 -1 4783 272634340 412749953 67113083 521535634 2023778812
        -131596159 -1291810102 -1110966120</internalNodes>
      <leafValues>
        -3.0976635217666626e-001 2.9838690161705017e-001</leafValues></_>
    <_>
      <internalNodes>
        0 -1 6297 -254069981 -1068298167 1090929028 -90566447 -397891230
        -1040023408 -1148603456 -73512487</internalNodes>
      <leafValues>
        -3.4656244516372681e-001 2.6635944843292236e-001</leafValues></_>
    <_>
      <internalNodes>
        0 -1 3462 1712712260 403767452 285278557 369740164 -242380485
        504905752 -385705877 823815005</internalNodes>
      <leafValues>
        -5.0403386354446411e-001 1.8990497291088104e-001</leafValues></_>
    <_>
      <internalNodes>
        0 -1 749 1596709319 -1437810030 -2147208894 -1048149363
        1829661067 1066025608 1487800784 2145962270</internalNodes>
      <leafValues>
        -3.2433611154556274e-001 2.7856230735778809e-001</leafValues></_>
    <_>
      <internalNodes>
        0 -1 7775 -1747004734 936804504 -2147413424 -1894333312
        1494471381 1217071616 -651621576 792489634</internalNodes>
      <leafValues>
        -4.8254120349884033e-001 1.8504069745540619e-001</leafValues></_>
    <_>
      <internalNodes>
        0 -1 8060 -510402321 1846214856 402657994 -804048232 -2104844237
        1644724360 -1551719695 -153296181</internalNodes>
      <leafValues>
        -3.4909865260124207e-001 2.5749444961547852e-001</leafValues></_>
    <_>
      <internalNodes>
        0 -1 7418 1217396772 -1081048960 16843097 -384712551 2030586249
        1485381762 1514746031 611688756</internalNodes>
      <leafValues>
        -5.6252270936965942e-001 1.5764912962913513e-001</leafValues></_>
    <_>
      <internalNodes>
        0 -1 1398 571105918 -2142453568 -805187492 1447088338 1359157761
        -242712576 -930442528 -268138478</internalNodes>
      <leafValues>
        -4.7816753387451172e-001 1.9545717537403107e-001</leafValues></_>
    <_>
      <internalNodes>
        0 -1 337 -161552054 -362118847 1073995795 -1923694458 1645106071
        1872855168 -1874704360 85395991</internalNodes>
      <leafValues>
        -3.7845143675804138e-001 2.2799247503280640e-001</leafValues></_>
    <_>
      <internalNodes>
        0 -1 2555 273369689 1417908659 403834922 -2028003944 -1055858520
        145769090 -1048495349 1394621195</internalNodes>
      <leafValues>
        -3.2705649733543396e-001 2.6711419224739075e-001</leafValues></_>
    <_>
      <internalNodes>
        0 -1 9018 172773968 -795312125 553648221 -1760247789 -1744754502
        151912576 -1198853957 -1479015836</internalNodes>
      <leafValues>
        -3.8143560290336609e-001 2.5518754124641418e-001</leafValues></_>
    <_>
      <internalNodes>
        0 -1 5983 2077219034 -1384808233 851 -905672105 -1555312573
        -670297695 -1173845685 1348720606</internalNodes>
      <leafValues>
        -3.6131983995437622e-001 2.5522872805595398e-001</leafValues></_></weakClassifiers></stage12>
</opencv_storage>
