<?xml version="1.0"?>
<opencv_storage>
<stage1>
  <maxWeakCount>6</maxWeakCount>
  <stageThreshold>-1.5560849905014038e+000</stageThreshold>
  <weakClassifiers>
    <_>
      <internalNodes>
        0 -1 8059 -1 1072338879 -36187138 -1344607777 -40927235
        2040503267 -70296836 -1</internalNodes>
      <leafValues>
        -7.2785568237304688e-001 3.1442785263061523e-001</leafValues></_>
    <_>
      <internalNodes>
        0 -1 3359 -456921305 -2099233 -610010113 -3444907 -287310081
        -1793 -1 -461937311</internalNodes>
      <leafValues>
        -5.8500421047210693e-001 4.4892793893814087e-001</leafValues></_>
    <_>
      <internalNodes>
        0 -1 7821 813971453 -1076055567 -1810762787 -80982 -73829896
        -73362679 -208946179 -1143195220</internalNodes>
      <leafValues>
        -5.4960995912551880e-001 4.2044997215270996e-001</leafValues></_>
    <_>
      <internalNodes>
        0 -1 8586 -270800913 1750045919 -149820958 -85986865 2076425073
        1443463170 -605291664 -135007497</internalNodes>
      <leafValues>
        -5.6650406122207642e-001 4.5200157165527344e-001</leafValues></_>
    <_>
      <internalNodes>
        0 -1 7752 -69209605 -359673525 -1073622850 -292310130 -243077547
        -368406528 -74991066 -174597378</internalNodes>
      <leafValues>
        -4.9275103211402893e-001 4.5707917213439941e-001</leafValues></_>
    <_>
      <internalNodes>
        0 -1 9000 177239423 -137621288 -268283435 -103493409 411712183
        -1298071414 -926368770 -1090980040</internalNodes>
      <leafValues>
        -5.6441938877105713e-001 3.9558002352714539e-001</leafValues></_></weakClassifiers></stage1>
</opencv_storage>
