<?xml version="1.0"?>
<opencv_storage>
<stage2>
  <maxWeakCount>7</maxWeakCount>
  <stageThreshold>-2.1490488052368164e+000</stageThreshold>
  <weakClassifiers>
    <_>
      <internalNodes>
        0 -1 4682 -69206017 -1080232993 -782935073 -1078798338
        1607434205 -68433781 -84980004 -1025</internalNodes>
      <leafValues>
        -6.9475907087326050e-001 3.4561696648597717e-001</leafValues></_>
    <_>
      <internalNodes>
        0 -1 7886 -1735118219 -69725735 -787385859 -2797217 -880639237
        -1178564199 -1462006533 -1162080864</internalNodes>
      <leafValues>
        -6.1857283115386963e-001 4.1546338796615601e-001</leafValues></_>
    <_>
      <internalNodes>
        0 -1 5764 -2 970603970 -673465092 1063154175 2145992701
        1017716894 -338920964 2112880639</internalNodes>
      <leafValues>
        -6.0882800817489624e-001 3.8253736495971680e-001</leafValues></_>
    <_>
      <internalNodes>
        0 -1 4094 -1597772030 -21104141 -4792865 -33831657 -1008731137
        -73807421 -453088531 1086579237</internalNodes>
      <leafValues>
        -6.4113223552703857e-001 2.9724502563476563e-001</leafValues></_>
    <_>
      <internalNodes>
        0 -1 8699 43266737 -1191001967 -1728016005 -216887024 569918459
        -1694269247 -1333251651 -5752684</internalNodes>
      <leafValues>
        -4.7640350461006165e-001 4.3364089727401733e-001</leafValues></_>
    <_>
      <internalNodes>
        0 -1 8630 -69221393 -1429225330 1099542660 -421609254 -268345230
        1522769922 -92016336 -152568910</internalNodes>
      <leafValues>
        -6.0862416028976440e-001 3.5812959074974060e-001</leafValues></_>
    <_>
      <internalNodes>
        0 -1 7740 -67157706 1724694686 -774647308 -90205545 -107554266
        545488906 -74718729 -134244129</internalNodes>
      <leafValues>
        -4.7314253449440002e-001 3.7058177590370178e-001</leafValues></_></weakClassifiers></stage2>
</opencv_storage>
