<?xml version="1.0"?>
<opencv_storage>
<cascade>
  <stageType>BOOST</stageType>
  <featureType>LBP</featureType>
  <height>30</height>
  <width>20</width>
  <stageParams>
    <boostType>GAB</boostType>
    <minHitRate>9.9500000476837158e-001</minHitRate>
    <maxFalseAlarm>5.0000000000000000e-001</maxFalseAlarm>
    <weightTrimRate>9.4999999999999996e-001</weightTrimRate>
    <maxDepth>1</maxDepth>
    <maxWeakCount>100</maxWeakCount></stageParams>
  <featureParams>
    <maxCatCount>256</maxCatCount>
    <featSize>1</featSize></featureParams>
  <stageNum>15</stageNum>
  <stages>
    <!-- stage 0 -->
    <_>
      <maxWeakCount>6</maxWeakCount>
      <stageThreshold>-1.7511420249938965e+000</stageThreshold>
      <weakClassifiers>
        <_>
          <internalNodes>
            0 -1 4 -37355524 -10496554 -173409313 -539146339 -1080901633
            -1078335350 999275519 997929583</internalNodes>
          <leafValues>
            -8.3874630928039551e-001 2.6684635877609253e-001</leafValues></_>
        <_>
          <internalNodes>
            0 -1 110 320609277 -217283880 -83659779 -2354980 -1429605409
            -72777590 -1680098309 -1078318952</internalNodes>
          <leafValues>
            -6.5622401237487793e-001 5.0135594606399536e-001</leafValues></_>
        <_>
          <internalNodes>
            0 -1 136 -672264611 -67141777 -1114121 -227377153 -553652474
            -557057 -16842754 -218173441</internalNodes>
          <leafValues>
            -5.1319909095764160e-001 5.8945989608764648e-001</leafValues></_>
        <_>
          <internalNodes>
            0 -1 59 -2055146063 -67120130 -614867457 -14691905
            -1343497217 -73405969 -1143211073 -1919841904</internalNodes>
          <leafValues>
            -5.6261879205703735e-001 5.1107823848724365e-001</leafValues></_>
        <_>
          <internalNodes>
            0 -1 65 -1484056029 -1350401792 -787090991 -3942000
            1770731132 -1449013112 -812928891 -2131758895</internalNodes>
          <leafValues>
            -6.3647210597991943e-001 4.3843770027160645e-001</leafValues></_>
        <_>
          <internalNodes>
            0 -1 31 -148760 2057896472 -586119846 1071165826 1431319512
            947916936 1493743837 1230879731</internalNodes>
          <leafValues>
            -7.0530766248703003e-001 3.8120838999748230e-001</leafValues></_></weakClassifiers></_>
    <!-- stage 1 -->
    <_>
      <maxWeakCount>6</maxWeakCount>
      <stageThreshold>-1.5144517421722412e+000</stageThreshold>
      <weakClassifiers>
        <_>
          <internalNodes>
            0 -1 55 -69248769 -77630753 -788344609 -151858433 -91612584
            -91618742 -91555078 -71632161</internalNodes>
          <leafValues>
            -7.5321757793426514e-001 3.2636579871177673e-001</leafValues></_>
        <_>
          <internalNodes>
            0 -1 123 -1147207681 -1078005256 -646332419 -2129960
            536521727 -1144131445 1003189245 -1073793636</internalNodes>
          <leafValues>
            -6.0742014646530151e-001 4.7493785619735718e-001</leafValues></_>
        <_>
          <internalNodes>
            0 -1 20 -844108383 -136317275 -113508361 -2098204
            -1444151313 -342889821 -2105345 -992623356</internalNodes>
          <leafValues>
            -5.5426049232482910e-001 5.2020555734634399e-001</leafValues></_>
        <_>
          <internalNodes>
            0 -1 61 269496373 -78373026 490518901 -44513916 -376194564
            -4592969 -456855555 -1610576636</internalNodes>
          <leafValues>
            -5.7596468925476074e-001 4.4526508450508118e-001</leafValues></_>
        <_>
          <internalNodes>
            0 -1 25 -2098193 -288665398 -239023878 -93522434 1943760963
            1695478272 -207620253 -134219338</internalNodes>
          <leafValues>
            -5.4329568147659302e-001 4.7713124752044678e-001</leafValues></_>
        <_>
          <internalNodes>
            0 -1 52 -13825 968515581 2063511547 993541951 -67338788
            1065123708 -73768 -1346584833</internalNodes>
          <leafValues>
            -4.4864478707313538e-001 4.9847701191902161e-001</leafValues></_></weakClassifiers></_>
    <!-- stage 2 -->
    <_>
      <maxWeakCount>8</maxWeakCount>
      <stageThreshold>-1.7113890647888184e+000</stageThreshold>
      <weakClassifiers>
        <_>
          <internalNodes>
            0 -1 45 -1347421253 -340274255 -754199913 -2117178
            -888425477 -1431601013 -74722317 -6219</internalNodes>
          <leafValues>
            -7.4332433938980103e-001 2.7247580885887146e-001</leafValues></_>
        <_>
          <internalNodes>
            0 -1 76 2013075965 2147439071 -1849536033 1071002045
            -71532808 -68343282 -1146159106 -1081458950</internalNodes>
          <leafValues>
            -6.0459905862808228e-001 4.0557798743247986e-001</leafValues></_>
        <_>
          <internalNodes>
            0 -1 138 -1277166677 -1425042983 1448200848 -204221998
            566424215 59476097 -561278224 -507511824</internalNodes>
          <leafValues>
            -5.2283126115798950e-001 4.3966117501258850e-001</leafValues></_>
        <_>
          <internalNodes>
            0 -1 8 -134219010 -1688695346 432941086 -1678201640
            1064316924 322009273 977625068 1533672447</internalNodes>
          <leafValues>
            -5.9835219383239746e-001 3.7342360615730286e-001</leafValues></_>
        <_>
          <internalNodes>
            0 -1 118 -1733817936 -1646853937 -721249795 -1089073131
            -1466099547 -826212214 -923751489 -1363657808</internalNodes>
          <leafValues>
            -5.5402308702468872e-001 3.7842634320259094e-001</leafValues></_>
        <_>
          <internalNodes>
            0 -1 140 -671646097 -26214529 1862270974 -353468546
            -41945521 -129 -591466770 -84475937</internalNodes>
          <leafValues>
            -4.2736208438873291e-001 4.7965881228446960e-001</leafValues></_>
        <_>
          <internalNodes>
            0 -1 109 1058824660 -1634189231 -1859857967 -93744
            -1144391048 -1400893302 -1442703108 -1354891076</internalNodes>
          <leafValues>
            -5.7479661703109741e-001 3.3808735013008118e-001</leafValues></_>
        <_>
          <internalNodes>
            0 -1 126 -151527361 -963149816 -1878568549 1155265690
            -225734655 -1819572210 -896804688 -486540577</internalNodes>
          <leafValues>
            -4.6849772334098816e-001 4.2849987745285034e-001</leafValues></_></weakClassifiers></_>
    <!-- stage 3 -->
    <_>
      <maxWeakCount>8</maxWeakCount>
      <stageThreshold>-1.5860308408737183e+000</stageThreshold>
      <weakClassifiers>
        <_>
          <internalNodes>
            0 -1 116 -4194305 -1074070376 -4218916 -32804 1040113663
            195881147 469720573 -17</internalNodes>
          <leafValues>
            -6.9349724054336548e-001 2.5460124015808105e-001</leafValues></_>
        <_>
          <internalNodes>
            0 -1 38 -1887175247 -5253121 -712246273 -5505543 -173278261
            -138248 -476053793 -1917857359</internalNodes>
          <leafValues>
            -5.6019055843353271e-001 3.8305017352104187e-001</leafValues></_>
        <_>
          <internalNodes>
            0 -1 26 -153384193 2145326075 -930024738 1355865823
            -636861624 2064190018 -7615490 -143136793</internalNodes>
          <leafValues>
            -5.2103459835052490e-001 3.9440298080444336e-001</leafValues></_>
        <_>
          <internalNodes>
            0 -1 87 289691097 -1615054636 362764243 -1082313635
            1518894268 -1081435238 1057695915 -1344525592</internalNodes>
          <leafValues>
            -5.2776098251342773e-001 4.0066027641296387e-001</leafValues></_>
        <_>
          <internalNodes>
            0 -1 47 -268456265 -286478362 -1090539853 -17039371
            1877471095 2147418111 -671096841 -134217739</internalNodes>
          <leafValues>
            -4.2730030417442322e-001 4.7834932804107666e-001</leafValues></_>
        <_>
          <internalNodes>
            0 -1 41 1362621219 -159973439 1574019455 -143270945
            -890306661 -293672737 496238318 -995767166</internalNodes>
          <leafValues>
            -4.5336204767227173e-001 4.1718947887420654e-001</leafValues></_>
        <_>
          <internalNodes>
            0 -1 71 -721948192 -39580156 -251412145 -1593106037
            -513286007 828023179 1406529263 665002799</internalNodes>
          <leafValues>
            -5.4088509082794189e-001 3.6512279510498047e-001</leafValues></_>
        <_>
          <internalNodes>
            0 -1 142 -69504153 -413302573 -805187112 -498089781
            -75285952 -1828183934 -494143260 -197205057</internalNodes>
          <leafValues>
            -4.8698300123214722e-001 3.5201084613800049e-001</leafValues></_></weakClassifiers></_>
    <!-- stage 4 -->
    <_>
      <maxWeakCount>8</maxWeakCount>
      <stageThreshold>-1.5382740497589111e+000</stageThreshold>
      <weakClassifiers>
        <_>
          <internalNodes>
            0 -1 23 -2370817 -338706037 -786705935 -15249405 -91505985
            -920944503 -226313485 -3101</internalNodes>
          <leafValues>
            -6.5736901760101318e-001 2.8807556629180908e-001</leafValues></_>
        <_>
          <internalNodes>
            0 -1 117 466681853 -1155870246 319905789 -588 736622843
            -1140927860 1067395549 -1074852680</internalNodes>
          <leafValues>
            -5.7621413469314575e-001 3.5377037525177002e-001</leafValues></_>
        <_>
          <internalNodes>
            0 -1 75 -16837409 2136408157 -246361922 -1241360353
            -70643108 -100007934 -5709570 -85790082</internalNodes>
          <leafValues>
            -4.9244529008865356e-001 3.8766676187515259e-001</leafValues></_>
        <_>
          <internalNodes>
            0 -1 63 -1610579151 -36075105 2098665919 -44577307
            -1255163430 -71177541 -829898817 -843054720</internalNodes>
          <leafValues>
            -4.7599726915359497e-001 4.3420493602752686e-001</leafValues></_>
        <_>
          <internalNodes>
            0 -1 82 -1428161553 -1563229997 -788410158 -723599166
            1923062611 1770176642 -1283277968 -138415145</internalNodes>
          <leafValues>
            -4.8735502362251282e-001 4.0486815571784973e-001</leafValues></_>
        <_>
          <internalNodes>
            0 -1 124 -589427627 -690142949 1382379995 -216399597
            -74467205 2072608954 -1174307845 -1106101445</internalNodes>
          <leafValues>
            -5.1724433898925781e-001 3.5161167383193970e-001</leafValues></_>
        <_>
          <internalNodes>
            0 -1 3 -713431866 -614604309 -214707889 932913756
            -1150353505 1305397682 1455812267 591913730</internalNodes>
          <leafValues>
            -5.2118986845016479e-001 3.5450917482376099e-001</leafValues></_>
        <_>
          <internalNodes>
            0 -1 139 -539013795 -153644864 -783707929 -120930153
            -100531381 -1182101366 -120866098 -1158757889</internalNodes>
          <leafValues>
            -4.0442165732383728e-001 4.0363964438438416e-001</leafValues></_></weakClassifiers></_>
    <!-- stage 5 -->
    <_>
      <maxWeakCount>9</maxWeakCount>
      <stageThreshold>-1.9391605854034424e+000</stageThreshold>
      <weakClassifiers>
        <_>
          <internalNodes>
            0 -1 54 -134218753 -306177 1373017087 1071200729 -87499844
            -509544 -460034 -1</internalNodes>
          <leafValues>
            -6.2755918502807617e-001 3.7960955500602722e-001</leafValues></_>
        <_>
          <internalNodes>
            0 -1 91 -1347700957 -308031024 -644228649 -2764588
            -1415857413 -1423736694 -2082776073 -838872619</internalNodes>
          <leafValues>
            -5.1092016696929932e-001 3.8131818175315857e-001</leafValues></_>
        <_>
          <internalNodes>
            0 -1 56 -604020999 -1612762849 -1719414569 1062343123
            -1433532168 -70582141 -154469393 -1145430273</internalNodes>
          <leafValues>
            -4.7536161541938782e-001 3.8007777929306030e-001</leafValues></_>
        <_>
          <internalNodes>
            0 -1 51 -279980033 -287469089 1360253134 -421736050
            1788572216 1611301386 -1741954190 -205522457</internalNodes>
          <leafValues>
            -5.0161838531494141e-001 3.4098580479621887e-001</leafValues></_>
        <_>
          <internalNodes>
            0 -1 101 1009007839 455131005 788479995 2146566138 494755775
            -34734107 -1879104580 -67327860</internalNodes>
          <leafValues>
            -4.0710896253585815e-001 4.3548139929771423e-001</leafValues></_>
        <_>
          <internalNodes>
            0 -1 0 -151978130 -86774870 2097282633 -1091197163
            1984949244 -91508061 1900251711 1750024259</internalNodes>
          <leafValues>
            -5.7417434453964233e-001 2.8656622767448425e-001</leafValues></_>
        <_>
          <internalNodes>
            0 -1 113 -789851806 1942482965 -720834849 16236903 -57049280
            -767314905 2122752943 11231722</internalNodes>
          <leafValues>
            -5.2326631546020508e-001 3.2684606313705444e-001</leafValues></_>
        <_>
          <internalNodes>
            0 -1 102 1072772567 -1107509536 922333951 -239272219
            -319895564 -1510580636 -1392579089 -74702860</internalNodes>
          <leafValues>
            -3.7838301062583923e-001 4.0293723344802856e-001</leafValues></_>
        <_>
          <internalNodes>
            0 -1 64 -22089038 -658222270 1477273639 -1421463169
            -200485922 -939123274 -91401454 160135759</internalNodes>
          <leafValues>
            -4.8892447352409363e-001 3.2796749472618103e-001</leafValues></_></weakClassifiers></_>
    <!-- stage 6 -->
    <_>
      <maxWeakCount>10</maxWeakCount>
      <stageThreshold>-1.5691424608230591e+000</stageThreshold>
      <weakClassifiers>
        <_>
          <internalNodes>
            0 -1 143 -7343617 -1345335153 -1860709997 -136326985
            -1177814017 -1971289958 -743707663 -33555717</internalNodes>
          <leafValues>
            -6.7015606164932251e-001 2.0289106667041779e-001</leafValues></_>
        <_>
          <internalNodes>
            0 -1 24 -4459521 968561653 693287602 1067237213 2134466044
            2145004989 -10576386 -9437185</internalNodes>
          <leafValues>
            -4.7815209627151489e-001 3.8582864403724670e-001</leafValues></_>
        <_>
          <internalNodes>
            0 -1 89 -1078943823 -393295 -5 -794635 -1076118019
            -536870913 -1880178945 -1346429708</internalNodes>
          <leafValues>
            -3.8251003623008728e-001 4.6982932090759277e-001</leafValues></_>
        <_>
          <internalNodes>
            0 -1 80 -542459460 2070001659 315764970 1463499699
            1061870827 491280573 -81821476 1549649914</internalNodes>
          <leafValues>
            -4.9008932709693909e-001 3.2104232907295227e-001</leafValues></_>
        <_>
          <internalNodes>
            0 -1 19 1293163728 2139006952 726740447 462565498 1067994556
            -69461848 362653438 1609372410</internalNodes>
          <leafValues>
            -4.7454130649566650e-001 3.2566320896148682e-001</leafValues></_>
        <_>
          <internalNodes>
            0 -1 6 -274796561 1856908622 -111189082 -7087192 1887688942
            1154500939 1356919796 -671648129</internalNodes>
          <leafValues>
            -5.4741132259368896e-001 2.4590267241001129e-001</leafValues></_>
        <_>
          <internalNodes>
            0 -1 95 338964561 -36658343 -570387657 -575697511 -39273816
            -123127557 -353878232 -1740625400</internalNodes>
          <leafValues>
            -4.6206554770469666e-001 3.5310927033424377e-001</leafValues></_>
        <_>
          <internalNodes>
            0 -1 127 -1081346053 -1349615486 -805191472 -69283718
            -2113154413 184778886 430174629 -33577475</internalNodes>
          <leafValues>
            -3.8535115122795105e-001 3.8172167539596558e-001</leafValues></_>
        <_>
          <internalNodes>
            0 -1 49 -208670604 1520361391 -1664850609 -1962221911
            1146176581 -1295646553 1959510879 261090723</internalNodes>
          <leafValues>
            -4.9138224124908447e-001 3.1532737612724304e-001</leafValues></_>
        <_>
          <internalNodes>
            0 -1 2 1311225747 2127417535 -715664001 -1049640 -69210693
            -55598630 -991592466 -416357134</internalNodes>
          <leafValues>
            -3.5137549042701721e-001 3.9447078108787537e-001</leafValues></_></weakClassifiers></_>
    <!-- stage 7 -->
    <_>
      <maxWeakCount>10</maxWeakCount>
      <stageThreshold>-1.5956708192825317e+000</stageThreshold>
      <weakClassifiers>
        <_>
          <internalNodes>
            0 -1 137 -2103441 -69248934 -796667681 -262712673 -225785014
            -24969216 -1165251842 -83891221</internalNodes>
          <leafValues>
            -6.6433006525039673e-001 1.5794718265533447e-001</leafValues></_>
        <_>
          <internalNodes>
            0 -1 44 -1559497805 -339554238 -788294189 -237775243
            -1954370646 -95715317 1116462803 -805309963</internalNodes>
          <leafValues>
            -4.8237720131874084e-001 3.3559665083885193e-001</leafValues></_>
        <_>
          <internalNodes>
            0 -1 108 469696440 -1144195396 1501917680 -11043076
            1020195263 228416241 390667517 234826236</internalNodes>
          <leafValues>
            -6.3405460119247437e-001 2.4752317368984222e-001</leafValues></_>
        <_>
          <internalNodes>
            0 -1 17 -68425041 -459308341 1392889966 -159428381
            -1828018169 42172552 -746327756 -67640369</internalNodes>
          <leafValues>
            -4.4509679079055786e-001 3.7395274639129639e-001</leafValues></_>
        <_>
          <internalNodes>
            0 -1 21 1429394851 -236276831 1947441653 -170796040
            -1905276417 -1108696083 -1012143173 -994475614</internalNodes>
          <leafValues>
            -4.0885531902313232e-001 3.6671116948127747e-001</leafValues></_>
        <_>
          <internalNodes>
            0 -1 125 -16822665 -143655042 -16843013 -260308993
            -151016377 -32897 -536870994 -29622273</internalNodes>
          <leafValues>
            -2.9665839672088623e-001 4.9694955348968506e-001</leafValues></_>
        <_>
          <internalNodes>
            0 -1 121 -1728296751 1910114396 -788178471 -1622535796
            2022192073 1344933898 -477995043 -1087366866</internalNodes>
          <leafValues>
            -5.2103924751281738e-001 2.8386077284812927e-001</leafValues></_>
        <_>
          <internalNodes>
            0 -1 53 -73434115 517173711 273273115 926077306 -833992500
            -2122112896 -1278546968 -5311889</internalNodes>
          <leafValues>
            -4.1666322946548462e-001 3.3515384793281555e-001</leafValues></_>
        <_>
          <internalNodes>
            0 -1 100 308663807 -1097811139 2147441141 -536887876
            935296959 -1082261650 536546297 -1880511748</internalNodes>
          <leafValues>
            -3.5348367691040039e-001 3.8133507966995239e-001</leafValues></_>
        <_>
          <internalNodes>
            0 -1 69 -69443180 -155302997 -1644017369 -1425273553
            -219778818 1350570179 -172469382 19363439</internalNodes>
          <leafValues>
            -5.3751927614212036e-001 2.4072563648223877e-001</leafValues></_></weakClassifiers></_>
    <!-- stage 8 -->
    <_>
      <maxWeakCount>11</maxWeakCount>
      <stageThreshold>-1.5824537277221680e+000</stageThreshold>
      <weakClassifiers>
        <_>
          <internalNodes>
            0 -1 74 -538969089 -537010224 431034843 2113870807 -72614977
            -1088680504 737786623 -17409</internalNodes>
          <leafValues>
            -6.1037117242813110e-001 3.1921109557151794e-001</leafValues></_>
        <_>
          <internalNodes>
            0 -1 43 -1482967245 -606614397 -1073360749 -136719930
            -2000038997 -402423654 -964078449 -1059335691</internalNodes>
          <leafValues>
            -5.0299030542373657e-001 2.8002297878265381e-001</leafValues></_>
        <_>
          <internalNodes>
            0 -1 83 -135309057 1919392405 -1874685473 -1303195178
            -7665136 -82178046 -6624548 -139269142</internalNodes>
          <leafValues>
            -4.1518417000770569e-001 3.5214406251907349e-001</leafValues></_>
        <_>
          <internalNodes>
            0 -1 119 -629351172 -598679813 1355011583 -980417649
            -50144847 -3741559 2131821371 -1623520961</internalNodes>
          <leafValues>
            -4.0256455540657043e-001 3.4498772025108337e-001</leafValues></_>
        <_>
          <internalNodes>
            0 -1 16 -18936834 1523908059 -1823693702 464552892 847973065
            1980039696 2068253304 2146560862</internalNodes>
          <leafValues>
            -5.0976651906967163e-001 3.0877959728240967e-001</leafValues></_>
        <_>
          <internalNodes>
            0 -1 141 -205034910 777506837 -1878933281 1658245274
            -1297208830 839000064 -120979978 -218443534</internalNodes>
          <leafValues>
            -5.9082555770874023e-001 2.2470335662364960e-001</leafValues></_>
        <_>
          <internalNodes>
            0 -1 39 22875409 -1657728614 -922111521 1440022737
            1345055131 -1148088152 -116680197 -928740624</internalNodes>
          <leafValues>
            -4.2637282609939575e-001 3.3322590589523315e-001</leafValues></_>
        <_>
          <internalNodes>
            0 -1 14 -246036245 1873269061 2013385946 -40234657
            2072537567 1073938568 -745801033 -183114837</internalNodes>
          <leafValues>
            -4.4538870453834534e-001 3.0842980742454529e-001</leafValues></_>
        <_>
          <internalNodes>
            0 -1 86 1598845680 -35909219 390091356 531829109 -14922088
            -275732342 -1710310977 259661530</internalNodes>
          <leafValues>
            -4.6553760766983032e-001 2.8324764966964722e-001</leafValues></_>
        <_>
          <internalNodes>
            0 -1 92 -456661980 -187031547 -2086567782 -1517385459
            1156698822 552576556 -804083251 19636011</internalNodes>
          <leafValues>
            -5.4619640111923218e-001 2.4703964591026306e-001</leafValues></_>
        <_>
          <internalNodes>
            0 -1 111 1029143730 -1909161984 -1052642415 -544980522
            -342935127 -1434287983 453118189 -1342405976</internalNodes>
          <leafValues>
            -4.8996445536613464e-001 2.3786430060863495e-001</leafValues></_></weakClassifiers></_>
    <!-- stage 9 -->
    <_>
      <maxWeakCount>11</maxWeakCount>
      <stageThreshold>-1.4181358814239502e+000</stageThreshold>
      <weakClassifiers>
        <_>
          <internalNodes>
            0 -1 67 -134220801 -137112145 -249605209 -7887089 -192417557
            -139816725 -207621633 -5248085</internalNodes>
          <leafValues>
            -5.9228271245956421e-001 4.1032370924949646e-001</leafValues></_>
        <_>
          <internalNodes>
            0 -1 133 -1081345025 1065917407 -783054888 -1353917496
            766145001 195011072 583684605 1577025277</internalNodes>
          <leafValues>
            -5.3421795368194580e-001 2.4241754412651062e-001</leafValues></_>
        <_>
          <internalNodes>
            0 -1 62 -1040985311 -134758701 523366975 -576848443
            -894201861 -22092685 -404438529 10332723</internalNodes>
          <leafValues>
            -4.8326623439788818e-001 2.9208379983901978e-001</leafValues></_>
        <_>
          <internalNodes>
            0 -1 50 -71585797 968441789 2042182394 1065106171 -839327748
            511450804 -17304644 -547373057</internalNodes>
          <leafValues>
            -3.4297022223472595e-001 3.9530691504478455e-001</leafValues></_>
        <_>
          <internalNodes>
            0 -1 32 -278417425 -1347489885 -34830 -65626 -151013403
            1290797055 1442281430 -436207650</internalNodes>
          <leafValues>
            -3.3644118905067444e-001 3.9165654778480530e-001</leafValues></_>
        <_>
          <internalNodes>
            0 -1 66 -36804478 -717224465 -76192361 636362767 -1329270337
            -1549519209 -182791737 65495979</internalNodes>
          <leafValues>
            -4.7097551822662354e-001 2.7940553426742554e-001</leafValues></_>
        <_>
          <internalNodes>
            0 -1 135 -2040897000 1931378771 -1860419501 -166325601
            -234272758 -1683849214 -1819878726 -21341461</internalNodes>
          <leafValues>
            -4.2169064283370972e-001 3.3842760324478149e-001</leafValues></_>
        <_>
          <internalNodes>
            0 -1 1 100729344 -788094641 -1127148587 1872090069
            -2121667591 -1181005102 -829545571 82051536</internalNodes>
          <leafValues>
            -6.4348304271697998e-001 2.2114469110965729e-001</leafValues></_>
        <_>
          <internalNodes>
            0 -1 35 -255571841 1602162904 -801058608 -233115495
            -1299692983 -402653176 -83703078 -78740757</internalNodes>
          <leafValues>
            -3.9005964994430542e-001 3.3307358622550964e-001</leafValues></_>
        <_>
          <internalNodes>
            0 -1 37 922750803 261750865 554765495 1561510792 964714876
            -81229627 -838184196 -1364409928</internalNodes>
          <leafValues>
            -4.4680768251419067e-001 2.9390326142311096e-001</leafValues></_>
        <_>
          <internalNodes>
            0 -1 104 -422715820 1439260708 -1357866276 1999610370
            -1530433360 1436280561 168372778 1395495099</internalNodes>
          <leafValues>
            -4.8378199338912964e-001 2.7920085191726685e-001</leafValues></_></weakClassifiers></_>
    <!-- stage 10 -->
    <_>
      <maxWeakCount>12</maxWeakCount>
      <stageThreshold>-1.9502867460250854e+000</stageThreshold>
      <weakClassifiers>
        <_>
          <internalNodes>
            0 -1 40 -777784399 -21511 -1823747073 -2622505 -810812437
            -608246852 -1946420321 -2049982197</internalNodes>
          <leafValues>
            -6.4762669801712036e-001 1.0848126560449600e-001</leafValues></_>
        <_>
          <internalNodes>
            0 -1 107 -153104818 2134709271 830535647 858512967
            -587730802 -74808781 -1434981697 1919929147</internalNodes>
          <leafValues>
            -4.8388457298278809e-001 2.8950977325439453e-001</leafValues></_>
        <_>
          <internalNodes>
            0 -1 128 -1147413507 -1433743216 -771632683 -142175856
            1066070507 -1416951608 34214357 -838874883</internalNodes>
          <leafValues>
            -4.1509062051773071e-001 3.3164113759994507e-001</leafValues></_>
        <_>
          <internalNodes>
            0 -1 28 -1886392797 -291621927 -184528561 -35683918
            -292226113 -1415659378 -526063209 -1061698383</internalNodes>
          <leafValues>
            -4.4559460878372192e-001 2.9950791597366333e-001</leafValues></_>
        <_>
          <internalNodes>
            0 -1 84 1582065148 -616237792 894437400 903352602 -662156556
            532687276 1628320504 1004417784</internalNodes>
          <leafValues>
            -5.7343363761901855e-001 2.4398954212665558e-001</leafValues></_>
        <_>
          <internalNodes>
            0 -1 112 -856112051 -95633313 1129466063 -1078590075
            1409610125 -809368950 -161453474 -1440580801</internalNodes>
          <leafValues>
            -4.1817745566368103e-001 2.9780018329620361e-001</leafValues></_>
        <_>
          <internalNodes>
            0 -1 96 -1329581039 -23736033 -1743482529 -1078372053
            -1878410791 -23491927 -125765238 -668982512</internalNodes>
          <leafValues>
            -4.7601029276847839e-001 2.4606542289257050e-001</leafValues></_>
        <_>
          <internalNodes>
            0 -1 13 -8918444 -402548642 -1781739324 -657221182
            -1709105022 151986337 1004782863 938079215</internalNodes>
          <leafValues>
            -4.5784774422645569e-001 3.0522429943084717e-001</leafValues></_>
        <_>
          <internalNodes>
            0 -1 48 -239411354 -78544214 1374455278 766018696 337655706
            1669579498 1191768811 320455374</internalNodes>
          <leafValues>
            -5.6995397806167603e-001 2.3005649447441101e-001</leafValues></_>
        <_>
          <internalNodes>
            0 -1 145 -1410630689 -1507901439 -2147401402 -506670720
            -1719547167 -637353779 723714497 -268449123</internalNodes>
          <leafValues>
            -4.1638788580894470e-001 2.8638899326324463e-001</leafValues></_>
        <_>
          <internalNodes>
            0 -1 18 -1571880081 2127265825 -1065222063 840356072
            -1030068157 -745930748 -611671581 -221584696</internalNodes>
          <leafValues>
            -4.5338755846023560e-001 2.5446015596389771e-001</leafValues></_>
        <_>
          <internalNodes>
            0 -1 99 -479733360 -984559289 356979108 366712053 -115406805
            360552162 310415550 266650622</internalNodes>
          <leafValues>
            -4.1976401209831238e-001 3.1062501668930054e-001</leafValues></_></weakClassifiers></_>
    <!-- stage 11 -->
    <_>
      <maxWeakCount>10</maxWeakCount>
      <stageThreshold>-1.4943299293518066e+000</stageThreshold>
      <weakClassifiers>
        <_>
          <internalNodes>
            0 -1 114 -19192309 -617115549 -771714913 -186674977
            -1282737305 -74809344 -359926789 -22044417</internalNodes>
          <leafValues>
            -6.5885472297668457e-001 1.1132346093654633e-001</leafValues></_>
        <_>
          <internalNodes>
            0 -1 90 -1425417677 -83640127 -788492079 -3293165
            -2003787077 -1719631864 193184243 -1879080463</internalNodes>
          <leafValues>
            -4.4544494152069092e-001 3.1508672237396240e-001</leafValues></_>
        <_>
          <internalNodes>
            0 -1 94 -545497092 -557057 -98305 -1086570561 -1359679556
            -163843 -196865 -1140965569</internalNodes>
          <leafValues>
            -3.2944843173027039e-001 4.1418829560279846e-001</leafValues></_>
        <_>
          <internalNodes>
            0 -1 81 -1555840081 1658814657 -803892858 -233844266
            160045074 -1685684064 -913648782 -236782944</internalNodes>
          <leafValues>
            -4.8998591303825378e-001 2.7776175737380981e-001</leafValues></_>
        <_>
          <internalNodes>
            0 -1 68 -1150507 -219359769 -89168569 -1440187449 -184674347
            -1479756602 -167805349 -1951662305</internalNodes>
          <leafValues>
            -3.3076652884483337e-001 4.2362946271896362e-001</leafValues></_>
        <_>
          <internalNodes>
            0 -1 60 536871889 -612026149 452985161 -1850961571 937537495
            -5569879 -578200885 -1457485052</internalNodes>
          <leafValues>
            -4.8585343360900879e-001 2.6962536573410034e-001</leafValues></_>
        <_>
          <internalNodes>
            0 -1 134 -209207253 -1349804710 286343444 -442781178
            2047602935 29598339 -1845405195 1417672863</internalNodes>
          <leafValues>
            -3.7305220961570740e-001 3.8492214679718018e-001</leafValues></_>
        <_>
          <internalNodes>
            0 -1 5 1743509379 -551657106 -796059597 -556540902
            -1017382467 -1963286269 -691934786 1677973139</internalNodes>
          <leafValues>
            -4.0642514824867249e-001 3.4249246120452881e-001</leafValues></_>
        <_>
          <internalNodes>
            0 -1 22 -86052020 -628800553 -251411516 -73551318
            -1793801273 -978046806 1460692971 666706574</internalNodes>
          <leafValues>
            -4.7986945509910583e-001 2.6792654395103455e-001</leafValues></_>
        <_>
          <internalNodes>
            0 -1 79 -1025488650 1280623107 -786627180 -951774876
            -1307033090 -354401778 -384746829 132596037</internalNodes>
          <leafValues>
            -4.9440225958824158e-001 2.3906874656677246e-001</leafValues></_></weakClassifiers></_>
    <!-- stage 12 -->
    <_>
      <maxWeakCount>13</maxWeakCount>
      <stageThreshold>-1.5324014425277710e+000</stageThreshold>
      <weakClassifiers>
        <_>
          <internalNodes>
            0 -1 9 -69996545 -212643657 -2082648514 -134225190
            1987296191 959703699 -1143280673 -536880177</internalNodes>
          <leafValues>
            -6.4524322748184204e-001 1.6108453273773193e-001</leafValues></_>
        <_>
          <internalNodes>
            0 -1 120 -44376865 -699375137 1426788861 -1684928225
            -332346881 -452218735 -117223569 -80017857</internalNodes>
          <leafValues>
            -3.9148172736167908e-001 3.7319147586822510e-001</leafValues></_>
        <_>
          <internalNodes>
            0 -1 27 -1910246991 -539387255 -787131425 -581193535
            -537143092 -624230336 -2104820833 -1917992831</internalNodes>
          <leafValues>
            -4.1906818747520447e-001 3.1606331467628479e-001</leafValues></_>
        <_>
          <internalNodes>
            0 -1 58 2087825337 394572196 952178141 529601224 1486421755
            -271054712 730304408 -1078091766</internalNodes>
          <leafValues>
            -3.6045551300048828e-001 3.7524080276489258e-001</leafValues></_>
        <_>
          <internalNodes>
            0 -1 85 -748989700 -611381093 -805253034 339874015
            -1207353334 -771219454 -1694252838 -81609746</internalNodes>
          <leafValues>
            -3.6167189478874207e-001 3.9746382832527161e-001</leafValues></_>
        <_>
          <internalNodes>
            0 -1 93 -77923676 -136068825 692301985 -548674193 -801050402
            -1434910319 -318123585 131419999</internalNodes>
          <leafValues>
            -4.0747433900833130e-001 2.8067639470100403e-001</leafValues></_>
        <_>
          <internalNodes>
            0 -1 15 -792989206 -363056473 -862069402 -692738022 68665559
            1936345154 1093135582 1102850011</internalNodes>
          <leafValues>
            -4.9363091588020325e-001 2.5571987032890320e-001</leafValues></_>
        <_>
          <internalNodes>
            0 -1 78 -1426005886 -1235316687 -788400259 -1684269733
            -1497305937 -1918877478 -817017005 96946531</internalNodes>
          <leafValues>
            -4.8588931560516357e-001 2.4250842630863190e-001</leafValues></_>
        <_>
          <internalNodes>
            0 -1 36 244271228 198521155 -2146384945 928780749 -938669688
            -91682784 -1950287624 -1679380715</internalNodes>
          <leafValues>
            -4.9025824666023254e-001 2.4134238064289093e-001</leafValues></_>
        <_>
          <internalNodes>
            0 -1 46 -1382123247 -373194605 1073909891 -547565172
            572596835 -1468006392 1661192499 -347082571</internalNodes>
          <leafValues>
            -4.7630444169044495e-001 2.1915446221828461e-001</leafValues></_>
        <_>
          <internalNodes>
            0 -1 72 1476293456 -1135416049 -174455683 -1197451391
            -2085981099 -927424357 1343238523 168686631</internalNodes>
          <leafValues>
            -4.8121157288551331e-001 2.5236481428146362e-001</leafValues></_>
        <_>
          <internalNodes>
            0 -1 7 2107637718 -225185653 -985299956 -1315449722
            1792072431 539206492 1951653967 828101618</internalNodes>
          <leafValues>
            -4.2667591571807861e-001 3.1060028076171875e-001</leafValues></_>
        <_>
          <internalNodes>
            0 -1 144 46535295 -7700148 285294815 -1122221816 -638703558
            2114617472 1531665363 -1173861637</internalNodes>
          <leafValues>
            -4.2310228943824768e-001 3.0107331275939941e-001</leafValues></_></weakClassifiers></_>
    <!-- stage 13 -->
    <_>
      <maxWeakCount>12</maxWeakCount>
      <stageThreshold>-1.5043436288833618e+000</stageThreshold>
      <weakClassifiers>
        <_>
          <internalNodes>
            0 -1 34 -169872421 -536874979 366940895 -44321 -1579947042
            -820197476 -1180958721 -538968101</internalNodes>
          <leafValues>
            -5.7562381029129028e-001 3.5256987810134888e-001</leafValues></_>
        <_>
          <internalNodes>
            0 -1 131 -833106321 -1102917493 -1064910375 -499978497
            -242265841 -532508144 -429978865 -256706689</internalNodes>
          <leafValues>
            -4.1447636485099792e-001 3.2179427146911621e-001</leafValues></_>
        <_>
          <internalNodes>
            0 -1 122 -455343500 -78704549 -1878736677 931291359
            -1064522779 -1727479656 -83707009 974141551</internalNodes>
          <leafValues>
            -5.4058647155761719e-001 2.2003659605979919e-001</leafValues></_>
        <_>
          <internalNodes>
            0 -1 57 1436246005 1610155225 1409286360 1040339163
            -628594552 2072709674 -895861796 1000503710</internalNodes>
          <leafValues>
            -4.8824751377105713e-001 2.3409514129161835e-001</leafValues></_>
        <_>
          <internalNodes>
            0 -1 11 -821041760 -439035850 285331473 -582029150
            1775188991 -394141041 -626206245 98546098</internalNodes>
          <leafValues>
            -4.3196702003479004e-001 2.8327000141143799e-001</leafValues></_>
        <_>
          <internalNodes>
            0 -1 30 -429133534 1842331835 -1660918415 -1161362300
            -398150472 1304855304 -1458388873 1155940677</internalNodes>
          <leafValues>
            -5.5262684822082520e-001 2.2520504891872406e-001</leafValues></_>
        <_>
          <internalNodes>
            0 -1 106 195612857 -1627373420 1535186773 494427116 42161325
            -1417657310 722010201 1068371120</internalNodes>
          <leafValues>
            -5.2773404121398926e-001 1.9564786553382874e-001</leafValues></_>
        <_>
          <internalNodes>
            0 -1 98 -327683484 1901043781 -167570234 1574941523
            -1026508663 -242735038 -1501265217 1648337675</internalNodes>
          <leafValues>
            -3.9268448948860168e-001 3.2712131738662720e-001</leafValues></_>
        <_>
          <internalNodes>
            0 -1 88 -773816304 -568654507 -1039354919 2132271325
            812710073 -1182035862 -763205125 679740166</internalNodes>
          <leafValues>
            -4.5471945405006409e-001 2.5195115804672241e-001</leafValues></_>
        <_>
          <internalNodes>
            0 -1 70 -803835236 1880011211 -767550440 -1427971813
            1821265986 -1262282703 1283732082 171211643</internalNodes>
          <leafValues>
            -5.7208514213562012e-001 1.9369786977767944e-001</leafValues></_>
        <_>
          <internalNodes>
            0 -1 73 -447499794 46350353 -1342127986 -166408104
            1392517207 1887666312 -1157397662 -121724242</internalNodes>
          <leafValues>
            -4.8721665143966675e-001 2.2831171751022339e-001</leafValues></_>
        <_>
          <internalNodes>
            0 -1 136 -1815478252 1036177409 -2145838882 -770502250
            -503128064 -637468672 -74927109 -224738898</internalNodes>
          <leafValues>
            -4.3634447455406189e-001 2.4800445139408112e-001</leafValues></_></weakClassifiers></_>
    <!-- stage 14 -->
    <_>
      <maxWeakCount>13</maxWeakCount>
      <stageThreshold>-1.4592187404632568e+000</stageThreshold>
      <weakClassifiers>
        <_>
          <internalNodes>
            0 -1 115 -212864609 -149628920 -787475687 -142086136
            713312207 713089163 412363 -3151761</internalNodes>
          <leafValues>
            -6.2257099151611328e-001 2.0145630836486816e-001</leafValues></_>
        <_>
          <internalNodes>
            0 -1 132 -264236609 -1278991805 -788381631 -544341302
            -670559841 -624295936 -2104788229 -16113557</internalNodes>
          <leafValues>
            -4.2176508903503418e-001 3.2626175880432129e-001</leafValues></_>
        <_>
          <internalNodes>
            0 -1 10 -2365521 -77901818 276840458 1348374875 -501005539
            1782595587 -653604241 -193736613</internalNodes>
          <leafValues>
            -3.8703384995460510e-001 3.5103860497474670e-001</leafValues></_>
        <_>
          <internalNodes>
            0 -1 129 -1185353480 -1718845416 1358959056 -576729016
            -1341945726 -1727922166 -2122252055 -1378908008</internalNodes>
          <leafValues>
            -3.5121971368789673e-001 3.6131522059440613e-001</leafValues></_>
        <_>
          <internalNodes>
            0 -1 97 -524336567 -1282543125 -2076056674 -469232636
            2020571146 -544597546 -775483346 276879694</internalNodes>
          <leafValues>
            -4.2492553591728210e-001 3.3895242214202881e-001</leafValues></_>
        <_>
          <internalNodes>
            0 -1 33 -804015714 -79527588 2038431830 -583001051
            -535574390 1241645068 576791535 1569012623</internalNodes>
          <leafValues>
            -4.3785455822944641e-001 2.9151758551597595e-001</leafValues></_>
        <_>
          <internalNodes>
            0 -1 77 -1583220431 -1567653203 135187 -653925968
            -1845256000 -393576311 -1425910977 92733729</internalNodes>
          <leafValues>
            -5.1124674081802368e-001 2.9911613464355469e-001</leafValues></_>
        <_>
          <internalNodes>
            0 -1 130 420961109 -216985599 1049039 -1861609471 -928497640
            -636878848 -1576490248 -1412693608</internalNodes>
          <leafValues>
            -3.6744722723960876e-001 3.5654899477958679e-001</leafValues></_>
        <_>
          <internalNodes>
            0 -1 105 323154224 -1993043952 1410351188 1574670784
            272665229 -1557954176 293603508 757859038</internalNodes>
          <leafValues>
            -5.4274415969848633e-001 2.5899726152420044e-001</leafValues></_>
        <_>
          <internalNodes>
            0 -1 12 153274146 206430424 268441942 -1257438870 -896296871
            696303816 -1010665163 -989621297</internalNodes>
          <leafValues>
            -4.8771533370018005e-001 2.4931633472442627e-001</leafValues></_>
        <_>
          <internalNodes>
            0 -1 103 2060825390 872663044 59244569 1528365078
            -1031175958 -1064665062 1309194975 1648609806</internalNodes>
          <leafValues>
            -3.9778885245323181e-001 3.2801294326782227e-001</leafValues></_>
        <_>
          <internalNodes>
            0 -1 42 -1458556400 -665288510 16798043 -736395061
            -2146914165 -251658240 -2013101621 -1980170047</internalNodes>
          <leafValues>
            -3.8705497980117798e-001 3.5520008206367493e-001</leafValues></_>
        <_>
          <internalNodes>
            0 -1 29 -1962269920 -1173340145 -1727692752 983339176
            530522499 294131714 -836533685 338145672</internalNodes>
          <leafValues>
            -6.1917978525161743e-001 2.2753338515758514e-001</leafValues></_></weakClassifiers></_></stages>
  <features>
    <_>
      <rect>
        0 0 3 10</rect></_>
    <_>
      <rect>
        0 0 5 3</rect></_>
    <_>
      <rect>
        0 1 3 4</rect></_>
    <_>
      <rect>
        0 1 5 8</rect></_>
    <_>
      <rect>
        0 2 5 9</rect></_>
    <_>
      <rect>
        0 3 4 4</rect></_>
    <_>
      <rect>
        0 8 4 2</rect></_>
    <_>
      <rect>
        0 9 3 5</rect></_>
    <_>
      <rect>
        0 9 4 7</rect></_>
    <_>
      <rect>
        0 14 4 4</rect></_>
    <_>
      <rect>
        0 18 2 2</rect></_>
    <_>
      <rect>
        1 2 3 4</rect></_>
    <_>
      <rect>
        1 6 3 4</rect></_>
    <_>
      <rect>
        1 6 4 7</rect></_>
    <_>
      <rect>
        1 11 3 1</rect></_>
    <_>
      <rect>
        1 11 5 4</rect></_>
    <_>
      <rect>
        1 12 2 6</rect></_>
    <_>
      <rect>
        1 16 1 1</rect></_>
    <_>
      <rect>
        1 21 1 1</rect></_>
    <_>
      <rect>
        1 21 6 3</rect></_>
    <_>
      <rect>
        2 0 3 6</rect></_>
    <_>
      <rect>
        2 0 6 5</rect></_>
    <_>
      <rect>
        2 8 4 5</rect></_>
    <_>
      <rect>
        2 11 1 1</rect></_>
    <_>
      <rect>
        2 15 3 5</rect></_>
    <_>
      <rect>
        2 16 1 1</rect></_>
    <_>
      <rect>
        2 21 2 1</rect></_>
    <_>
      <rect>
        3 1 2 3</rect></_>
    <_>
      <rect>
        3 5 2 4</rect></_>
    <_>
      <rect>
        3 5 4 7</rect></_>
    <_>
      <rect>
        3 6 3 5</rect></_>
    <_>
      <rect>
        3 9 5 7</rect></_>
    <_>
      <rect>
        3 10 1 1</rect></_>
    <_>
      <rect>
        3 17 4 3</rect></_>
    <_>
      <rect>
        3 17 5 4</rect></_>
    <_>
      <rect>
        3 22 1 1</rect></_>
    <_>
      <rect>
        3 23 2 2</rect></_>
    <_>
      <rect>
        3 27 4 1</rect></_>
    <_>
      <rect>
        4 0 2 4</rect></_>
    <_>
      <rect>
        4 1 3 1</rect></_>
    <_>
      <rect>
        4 1 3 4</rect></_>
    <_>
      <rect>
        4 1 5 5</rect></_>
    <_>
      <rect>
        4 4 1 1</rect></_>
    <_>
      <rect>
        4 4 1 3</rect></_>
    <_>
      <rect>
        4 5 1 1</rect></_>
    <_>
      <rect>
        4 6 1 1</rect></_>
    <_>
      <rect>
        4 7 1 1</rect></_>
    <_>
      <rect>
        4 10 1 1</rect></_>
    <_>
      <rect>
        4 10 4 5</rect></_>
    <_>
      <rect>
        4 10 5 4</rect></_>
    <_>
      <rect>
        4 15 3 5</rect></_>
    <_>
      <rect>
        4 17 1 1</rect></_>
    <_>
      <rect>
        4 17 2 4</rect></_>
    <_>
      <rect>
        4 18 1 3</rect></_>
    <_>
      <rect>
        4 18 3 4</rect></_>
    <_>
      <rect>
        4 22 1 1</rect></_>
    <_>
      <rect>
        4 22 1 2</rect></_>
    <_>
      <rect>
        4 22 2 2</rect></_>
    <_>
      <rect>
        4 24 5 2</rect></_>
    <_>
      <rect>
        5 0 2 4</rect></_>
    <_>
      <rect>
        5 0 4 2</rect></_>
    <_>
      <rect>
        5 0 5 2</rect></_>
    <_>
      <rect>
        5 0 5 5</rect></_>
    <_>
      <rect>
        5 1 4 2</rect></_>
    <_>
      <rect>
        5 6 5 4</rect></_>
    <_>
      <rect>
        5 7 1 1</rect></_>
    <_>
      <rect>
        5 8 3 4</rect></_>
    <_>
      <rect>
        5 8 4 5</rect></_>
    <_>
      <rect>
        5 8 5 4</rect></_>
    <_>
      <rect>
        5 9 4 3</rect></_>
    <_>
      <rect>
        5 9 5 3</rect></_>
    <_>
      <rect>
        5 10 4 4</rect></_>
    <_>
      <rect>
        5 10 5 3</rect></_>
    <_>
      <rect>
        5 17 1 1</rect></_>
    <_>
      <rect>
        5 18 4 4</rect></_>
    <_>
      <rect>
        5 22 1 1</rect></_>
    <_>
      <rect>
        5 23 2 2</rect></_>
    <_>
      <rect>
        6 3 2 3</rect></_>
    <_>
      <rect>
        6 5 3 3</rect></_>
    <_>
      <rect>
        6 6 3 3</rect></_>
    <_>
      <rect>
        6 15 3 4</rect></_>
    <_>
      <rect>
        6 16 1 1</rect></_>
    <_>
      <rect>
        6 17 1 1</rect></_>
    <_>
      <rect>
        6 21 1 1</rect></_>
    <_>
      <rect>
        6 21 3 2</rect></_>
    <_>
      <rect>
        6 22 1 1</rect></_>
    <_>
      <rect>
        6 24 2 2</rect></_>
    <_>
      <rect>
        6 24 3 2</rect></_>
    <_>
      <rect>
        7 2 4 2</rect></_>
    <_>
      <rect>
        7 4 1 1</rect></_>
    <_>
      <rect>
        7 5 1 1</rect></_>
    <_>
      <rect>
        7 6 1 1</rect></_>
    <_>
      <rect>
        7 11 3 4</rect></_>
    <_>
      <rect>
        7 15 3 3</rect></_>
    <_>
      <rect>
        7 24 1 1</rect></_>
    <_>
      <rect>
        8 0 4 2</rect></_>
    <_>
      <rect>
        8 1 4 2</rect></_>
    <_>
      <rect>
        8 1 4 8</rect></_>
    <_>
      <rect>
        8 13 3 3</rect></_>
    <_>
      <rect>
        8 18 4 3</rect></_>
    <_>
      <rect>
        8 24 4 2</rect></_>
    <_>
      <rect>
        8 26 3 1</rect></_>
    <_>
      <rect>
        9 0 2 1</rect></_>
    <_>
      <rect>
        9 13 3 3</rect></_>
    <_>
      <rect>
        9 13 3 4</rect></_>
    <_>
      <rect>
        9 23 3 2</rect></_>
    <_>
      <rect>
        9 24 3 2</rect></_>
    <_>
      <rect>
        10 12 3 3</rect></_>
    <_>
      <rect>
        10 20 3 3</rect></_>
    <_>
      <rect>
        10 24 1 1</rect></_>
    <_>
      <rect>
        10 25 1 1</rect></_>
    <_>
      <rect>
        10 25 2 1</rect></_>
    <_>
      <rect>
        11 10 2 3</rect></_>
    <_>
      <rect>
        11 10 3 5</rect></_>
    <_>
      <rect>
        11 16 1 1</rect></_>
    <_>
      <rect>
        11 18 2 4</rect></_>
    <_>
      <rect>
        11 18 3 4</rect></_>
    <_>
      <rect>
        11 23 2 2</rect></_>
    <_>
      <rect>
        12 3 1 1</rect></_>
    <_>
      <rect>
        12 6 2 4</rect></_>
    <_>
      <rect>
        12 7 2 4</rect></_>
    <_>
      <rect>
        12 10 1 2</rect></_>
    <_>
      <rect>
        12 12 1 2</rect></_>
    <_>
      <rect>
        12 21 2 3</rect></_>
    <_>
      <rect>
        13 12 1 2</rect></_>
    <_>
      <rect>
        13 16 1 1</rect></_>
    <_>
      <rect>
        13 17 1 1</rect></_>
    <_>
      <rect>
        13 21 1 1</rect></_>
    <_>
      <rect>
        13 22 1 1</rect></_>
    <_>
      <rect>
        13 23 1 1</rect></_>
    <_>
      <rect>
        14 0 2 1</rect></_>
    <_>
      <rect>
        14 3 2 7</rect></_>
    <_>
      <rect>
        14 10 1 2</rect></_>
    <_>
      <rect>
        14 17 2 4</rect></_>
    <_>
      <rect>
        14 18 2 3</rect></_>
    <_>
      <rect>
        15 13 1 1</rect></_>
    <_>
      <rect>
        15 14 1 1</rect></_>
    <_>
      <rect>
        15 15 1 1</rect></_>
    <_>
      <rect>
        15 21 1 1</rect></_>
    <_>
      <rect>
        16 13 1 1</rect></_>
    <_>
      <rect>
        16 15 1 1</rect></_>
    <_>
      <rect>
        16 16 1 1</rect></_>
    <_>
      <rect>
        16 17 1 1</rect></_>
    <_>
      <rect>
        16 21 1 1</rect></_>
    <_>
      <rect>
        17 10 1 3</rect></_>
    <_>
      <rect>
        17 20 1 2</rect></_></features></cascade>
</opencv_storage>
