<?xml version="1.0"?>
<opencv_storage>
<stage4>
  <maxWeakCount>8</maxWeakCount>
  <stageThreshold>-1.5382740497589111e+000</stageThreshold>
  <weakClassifiers>
    <_>
      <internalNodes>
        0 -1 2268 -2370817 -338706037 -786705935 -15249405 -91505985
        -920944503 -226313485 -3101</internalNodes>
      <leafValues>
        -6.5736901760101318e-001 2.8807556629180908e-001</leafValues></_>
    <_>
      <internalNodes>
        0 -1 7812 466681853 -1155870246 319905789 -588 736622843
        -1140927860 1067395549 -1074852680</internalNodes>
      <leafValues>
        -5.7621413469314575e-001 3.5377037525177002e-001</leafValues></_>
    <_>
      <internalNodes>
        0 -1 4740 -16837409 2136408157 -246361922 -1241360353 -70643108
        -100007934 -5709570 -85790082</internalNodes>
      <leafValues>
        -4.9244529008865356e-001 3.8766676187515259e-001</leafValues></_>
    <_>
      <internalNodes>
        0 -1 4138 -1610579151 -36075105 2098665919 -44577307 -1255163430
        -71177541 -829898817 -843054720</internalNodes>
      <leafValues>
        -4.7599726915359497e-001 4.3420493602752686e-001</leafValues></_>
    <_>
      <internalNodes>
        0 -1 5261 -1428161553 -1563229997 -788410158 -723599166
        1923062611 1770176642 -1283277968 -138415145</internalNodes>
      <leafValues>
        -4.8735502362251282e-001 4.0486815571784973e-001</leafValues></_>
    <_>
      <internalNodes>
        0 -1 8309 -589427627 -690142949 1382379995 -216399597 -74467205
        2072608954 -1174307845 -1106101445</internalNodes>
      <leafValues>
        -5.1724433898925781e-001 3.5161167383193970e-001</leafValues></_>
    <_>
      <internalNodes>
        0 -1 103 -713431866 -614604309 -214707889 932913756 -1150353505
        1305397682 1455812267 591913730</internalNodes>
      <leafValues>
        -5.2118986845016479e-001 3.5450917482376099e-001</leafValues></_>
    <_>
      <internalNodes>
        0 -1 8945 -539013795 -153644864 -783707929 -120930153 -100531381
        -1182101366 -120866098 -1158757889</internalNodes>
      <leafValues>
        -4.0442165732383728e-001 4.0363964438438416e-001</leafValues></_></weakClassifiers></stage4>
</opencv_storage>
