<?xml version="1.0"?>
<opencv_storage>
<stage2>
  <maxWeakCount>8</maxWeakCount>
  <stageThreshold>-1.7113890647888184e+000</stageThreshold>
  <weakClassifiers>
    <_>
      <internalNodes>
        0 -1 3600 -1347421253 -340274255 -754199913 -2117178 -888425477
        -1431601013 -74722317 -6219</internalNodes>
      <leafValues>
        -7.4332433938980103e-001 2.7247580885887146e-001</leafValues></_>
    <_>
      <internalNodes>
        0 -1 4753 2013075965 2147439071 -1849536033 1071002045 -71532808
        -68343282 -1146159106 -1081458950</internalNodes>
      <leafValues>
        -6.0459905862808228e-001 4.0557798743247986e-001</leafValues></_>
    <_>
      <internalNodes>
        0 -1 8833 -1277166677 -1425042983 1448200848 -204221998
        566424215 59476097 -561278224 -507511824</internalNodes>
      <leafValues>
        -5.2283126115798950e-001 4.3966117501258850e-001</leafValues></_>
    <_>
      <internalNodes>
        0 -1 477 -134219010 -1688695346 432941086 -1678201640 1064316924
        322009273 977625068 1533672447</internalNodes>
      <leafValues>
        -5.9835219383239746e-001 3.7342360615730286e-001</leafValues></_>
    <_>
      <internalNodes>
        0 -1 7886 -1733817936 -1646853937 -721249795 -1089073131
        -1466099547 -826212214 -923751489 -1363657808</internalNodes>
      <leafValues>
        -5.5402308702468872e-001 3.7842634320259094e-001</leafValues></_>
    <_>
      <internalNodes>
        0 -1 8955 -671646097 -26214529 1862270974 -353468546 -41945521
        -129 -591466770 -84475937</internalNodes>
      <leafValues>
        -4.2736208438873291e-001 4.7965881228446960e-001</leafValues></_>
    <_>
      <internalNodes>
        0 -1 7380 1058824660 -1634189231 -1859857967 -93744 -1144391048
        -1400893302 -1442703108 -1354891076</internalNodes>
      <leafValues>
        -5.7479661703109741e-001 3.3808735013008118e-001</leafValues></_>
    <_>
      <internalNodes>
        0 -1 8358 -151527361 -963149816 -1878568549 1155265690
        -225734655 -1819572210 -896804688 -486540577</internalNodes>
      <leafValues>
        -4.6849772334098816e-001 4.2849987745285034e-001</leafValues></_></weakClassifiers></stage2>
</opencv_storage>
