<?xml version="1.0"?>
<opencv_storage>
<stage13>
  <maxWeakCount>12</maxWeakCount>
  <stageThreshold>-1.5043436288833618e+000</stageThreshold>
  <weakClassifiers>
    <_>
      <internalNodes>
        0 -1 3224 -169872421 -536874979 366940895 -44321 -1579947042
        -820197476 -1180958721 -538968101</internalNodes>
      <leafValues>
        -5.7562381029129028e-001 3.5256987810134888e-001</leafValues></_>
    <_>
      <internalNodes>
        0 -1 8481 -833106321 -1102917493 -1064910375 -499978497
        -242265841 -532508144 -429978865 -256706689</internalNodes>
      <leafValues>
        -4.1447636485099792e-001 3.2179427146911621e-001</leafValues></_>
    <_>
      <internalNodes>
        0 -1 8019 -455343500 -78704549 -1878736677 931291359 -1064522779
        -1727479656 -83707009 974141551</internalNodes>
      <leafValues>
        -5.4058647155761719e-001 2.2003659605979919e-001</leafValues></_>
    <_>
      <internalNodes>
        0 -1 4018 1436246005 1610155225 1409286360 1040339163 -628594552
        2072709674 -895861796 1000503710</internalNodes>
      <leafValues>
        -4.8824751377105713e-001 2.3409514129161835e-001</leafValues></_>
    <_>
      <internalNodes>
        0 -1 1005 -821041760 -439035850 285331473 -582029150 1775188991
        -394141041 -626206245 98546098</internalNodes>
      <leafValues>
        -4.3196702003479004e-001 2.8327000141143799e-001</leafValues></_>
    <_>
      <internalNodes>
        0 -1 2895 -429133534 1842331835 -1660918415 -1161362300
        -398150472 1304855304 -1458388873 1155940677</internalNodes>
      <leafValues>
        -5.5262684822082520e-001 2.2520504891872406e-001</leafValues></_>
    <_>
      <internalNodes>
        0 -1 6950 195612857 -1627373420 1535186773 494427116 42161325
        -1417657310 722010201 1068371120</internalNodes>
      <leafValues>
        -5.2773404121398926e-001 1.9564786553382874e-001</leafValues></_>
    <_>
      <internalNodes>
        0 -1 6357 -327683484 1901043781 -167570234 1574941523
        -1026508663 -242735038 -1501265217 1648337675</internalNodes>
      <leafValues>
        -3.9268448948860168e-001 3.2712131738662720e-001</leafValues></_>
    <_>
      <internalNodes>
        0 -1 5469 -773816304 -568654507 -1039354919 2132271325 812710073
        -1182035862 -763205125 679740166</internalNodes>
      <leafValues>
        -4.5471945405006409e-001 2.5195115804672241e-001</leafValues></_>
    <_>
      <internalNodes>
        0 -1 4465 -803835236 1880011211 -767550440 -1427971813
        1821265986 -1262282703 1283732082 171211643</internalNodes>
      <leafValues>
        -5.7208514213562012e-001 1.9369786977767944e-001</leafValues></_>
    <_>
      <internalNodes>
        0 -1 4655 -447499794 46350353 -1342127986 -166408104 1392517207
        1887666312 -1157397662 -121724242</internalNodes>
      <leafValues>
        -4.8721665143966675e-001 2.2831171751022339e-001</leafValues></_>
    <_>
      <internalNodes>
        0 -1 8805 -1815478252 1036177409 -2145838882 -770502250
        -503128064 -637468672 -74927109 -224738898</internalNodes>
      <leafValues>
        -4.3634447455406189e-001 2.4800445139408112e-001</leafValues></_></weakClassifiers></stage13>
</opencv_storage>
