<?xml version="1.0"?>
<opencv_storage>
<stage11>
  <maxWeakCount>10</maxWeakCount>
  <stageThreshold>-1.4943299293518066e+000</stageThreshold>
  <weakClassifiers>
    <_>
      <internalNodes>
        0 -1 7740 -19192309 -617115549 -771714913 -186674977 -1282737305
        -74809344 -359926789 -22044417</internalNodes>
      <leafValues>
        -6.5885472297668457e-001 1.1132346093654633e-001</leafValues></_>
    <_>
      <internalNodes>
        0 -1 5545 -1425417677 -83640127 -788492079 -3293165 -2003787077
        -1719631864 193184243 -1879080463</internalNodes>
      <leafValues>
        -4.4544494152069092e-001 3.1508672237396240e-001</leafValues></_>
    <_>
      <internalNodes>
        0 -1 5925 -545497092 -557057 -98305 -1086570561 -1359679556
        -163843 -196865 -1140965569</internalNodes>
      <leafValues>
        -3.2944843173027039e-001 4.1418829560279846e-001</leafValues></_>
    <_>
      <internalNodes>
        0 -1 5245 -1555840081 1658814657 -803892858 -233844266 160045074
        -1685684064 -913648782 -236782944</internalNodes>
      <leafValues>
        -4.8998591303825378e-001 2.7776175737380981e-001</leafValues></_>
    <_>
      <internalNodes>
        0 -1 4431 -1150507 -219359769 -89168569 -1440187449 -184674347
        -1479756602 -167805349 -1951662305</internalNodes>
      <leafValues>
        -3.3076652884483337e-001 4.2362946271896362e-001</leafValues></_>
    <_>
      <internalNodes>
        0 -1 4091 536871889 -612026149 452985161 -1850961571 937537495
        -5569879 -578200885 -1457485052</internalNodes>
      <leafValues>
        -4.8585343360900879e-001 2.6962536573410034e-001</leafValues></_>
    <_>
      <internalNodes>
        0 -1 8662 -209207253 -1349804710 286343444 -442781178 2047602935
        29598339 -1845405195 1417672863</internalNodes>
      <leafValues>
        -3.7305220961570740e-001 3.8492214679718018e-001</leafValues></_>
    <_>
      <internalNodes>
        0 -1 198 1743509379 -551657106 -796059597 -556540902 -1017382467
        -1963286269 -691934786 1677973139</internalNodes>
      <leafValues>
        -4.0642514824867249e-001 3.4249246120452881e-001</leafValues></_>
    <_>
      <internalNodes>
        0 -1 2173 -86052020 -628800553 -251411516 -73551318 -1793801273
        -978046806 1460692971 666706574</internalNodes>
      <leafValues>
        -4.7986945509910583e-001 2.6792654395103455e-001</leafValues></_>
    <_>
      <internalNodes>
        0 -1 5015 -1025488650 1280623107 -786627180 -951774876
        -1307033090 -354401778 -384746829 132596037</internalNodes>
      <leafValues>
        -4.9440225958824158e-001 2.3906874656677246e-001</leafValues></_></weakClassifiers></stage11>
</opencv_storage>
