<?xml version="1.0"?>
<opencv_storage>
<stage7>
  <maxWeakCount>10</maxWeakCount>
  <stageThreshold>-1.5956708192825317e+000</stageThreshold>
  <weakClassifiers>
    <_>
      <internalNodes>
        0 -1 8810 -2103441 -69248934 -796667681 -262712673 -225785014
        -24969216 -1165251842 -83891221</internalNodes>
      <leafValues>
        -6.6433006525039673e-001 1.5794718265533447e-001</leafValues></_>
    <_>
      <internalNodes>
        0 -1 3560 -1559497805 -339554238 -788294189 -237775243
        -1954370646 -95715317 1116462803 -805309963</internalNodes>
      <leafValues>
        -4.8237720131874084e-001 3.3559665083885193e-001</leafValues></_>
    <_>
      <internalNodes>
        0 -1 7358 469696440 -1144195396 1501917680 -11043076 1020195263
        228416241 390667517 234826236</internalNodes>
      <leafValues>
        -6.3405460119247437e-001 2.4752317368984222e-001</leafValues></_>
    <_>
      <internalNodes>
        0 -1 1560 -68425041 -459308341 1392889966 -159428381 -1828018169
        42172552 -746327756 -67640369</internalNodes>
      <leafValues>
        -4.4509679079055786e-001 3.7395274639129639e-001</leafValues></_>
    <_>
      <internalNodes>
        0 -1 1794 1429394851 -236276831 1947441653 -170796040
        -1905276417 -1108696083 -1012143173 -994475614</internalNodes>
      <leafValues>
        -4.0885531902313232e-001 3.6671116948127747e-001</leafValues></_>
    <_>
      <internalNodes>
        0 -1 8350 -16822665 -143655042 -16843013 -260308993 -151016377
        -32897 -536870994 -29622273</internalNodes>
      <leafValues>
        -2.9665839672088623e-001 4.9694955348968506e-001</leafValues></_>
    <_>
      <internalNodes>
        0 -1 7995 -1728296751 1910114396 -788178471 -1622535796
        2022192073 1344933898 -477995043 -1087366866</internalNodes>
      <leafValues>
        -5.2103924751281738e-001 2.8386077284812927e-001</leafValues></_>
    <_>
      <internalNodes>
        0 -1 3952 -73434115 517173711 273273115 926077306 -833992500
        -2122112896 -1278546968 -5311889</internalNodes>
      <leafValues>
        -4.1666322946548462e-001 3.3515384793281555e-001</leafValues></_>
    <_>
      <internalNodes>
        0 -1 6512 308663807 -1097811139 2147441141 -536887876 935296959
        -1082261650 536546297 -1880511748</internalNodes>
      <leafValues>
        -3.5348367691040039e-001 3.8133507966995239e-001</leafValues></_>
    <_>
      <internalNodes>
        0 -1 4458 -69443180 -155302997 -1644017369 -1425273553
        -219778818 1350570179 -172469382 19363439</internalNodes>
      <leafValues>
        -5.3751927614212036e-001 2.4072563648223877e-001</leafValues></_></weakClassifiers></stage7>
</opencv_storage>
