<?xml version="1.0"?>
<opencv_storage>
<stage1>
  <maxWeakCount>6</maxWeakCount>
  <stageThreshold>-1.5144517421722412e+000</stageThreshold>
  <weakClassifiers>
    <_>
      <internalNodes>
        0 -1 4015 -69248769 -77630753 -788344609 -151858433 -91612584
        -91618742 -91555078 -71632161</internalNodes>
      <leafValues>
        -7.5321757793426514e-001 3.2636579871177673e-001</leafValues></_>
    <_>
      <internalNodes>
        0 -1 8101 -1147207681 -1078005256 -646332419 -2129960 536521727
        -1144131445 1003189245 -1073793636</internalNodes>
      <leafValues>
        -6.0742014646530151e-001 4.7493785619735718e-001</leafValues></_>
    <_>
      <internalNodes>
        0 -1 1765 -844108383 -136317275 -113508361 -2098204 -1444151313
        -342889821 -2105345 -992623356</internalNodes>
      <leafValues>
        -5.5426049232482910e-001 5.2020555734634399e-001</leafValues></_>
    <_>
      <internalNodes>
        0 -1 4101 269496373 -78373026 490518901 -44513916 -376194564
        -4592969 -456855555 -1610576636</internalNodes>
      <leafValues>
        -5.7596468925476074e-001 4.4526508450508118e-001</leafValues></_>
    <_>
      <internalNodes>
        0 -1 2430 -2098193 -288665398 -239023878 -93522434 1943760963
        1695478272 -207620253 -134219338</internalNodes>
      <leafValues>
        -5.4329568147659302e-001 4.7713124752044678e-001</leafValues></_>
    <_>
      <internalNodes>
        0 -1 3937 -13825 968515581 2063511547 993541951 -67338788
        1065123708 -73768 -1346584833</internalNodes>
      <leafValues>
        -4.4864478707313538e-001 4.9847701191902161e-001</leafValues></_></weakClassifiers></stage1>
</opencv_storage>
