<?xml version="1.0"?>
<opencv_storage>
<stage0>
  <maxWeakCount>6</maxWeakCount>
  <stageThreshold>-1.7511420249938965e+000</stageThreshold>
  <weakClassifiers>
    <_>
      <internalNodes>
        0 -1 158 -37355524 -10496554 -173409313 -539146339 -1080901633
        -1078335350 999275519 997929583</internalNodes>
      <leafValues>
        -8.3874630928039551e-001 2.6684635877609253e-001</leafValues></_>
    <_>
      <internalNodes>
        0 -1 7386 320609277 -217283880 -83659779 -2354980 -1429605409
        -72777590 -1680098309 -1078318952</internalNodes>
      <leafValues>
        -6.5622401237487793e-001 5.0135594606399536e-001</leafValues></_>
    <_>
      <internalNodes>
        0 -1 8805 -672264611 -67141777 -1114121 -227377153 -553652474
        -557057 -16842754 -218173441</internalNodes>
      <leafValues>
        -5.1319909095764160e-001 5.8945989608764648e-001</leafValues></_>
    <_>
      <internalNodes>
        0 -1 4073 -2055146063 -67120130 -614867457 -14691905 -1343497217
        -73405969 -1143211073 -1919841904</internalNodes>
      <leafValues>
        -5.6261879205703735e-001 5.1107823848724365e-001</leafValues></_>
    <_>
      <internalNodes>
        0 -1 4365 -1484056029 -1350401792 -787090991 -3942000 1770731132
        -1449013112 -812928891 -2131758895</internalNodes>
      <leafValues>
        -6.3647210597991943e-001 4.3843770027160645e-001</leafValues></_>
    <_>
      <internalNodes>
        0 -1 3019 -148760 2057896472 -586119846 1071165826 1431319512
        947916936 1493743837 1230879731</internalNodes>
      <leafValues>
        -7.0530766248703003e-001 3.8120838999748230e-001</leafValues></_></weakClassifiers></stage0>
</opencv_storage>
