<?xml version="1.0"?>
<opencv_storage>
<stage8>
  <maxWeakCount>11</maxWeakCount>
  <stageThreshold>-1.5824537277221680e+000</stageThreshold>
  <weakClassifiers>
    <_>
      <internalNodes>
        0 -1 4690 -538969089 -537010224 431034843 2113870807 -72614977
        -1088680504 737786623 -17409</internalNodes>
      <leafValues>
        -6.1037117242813110e-001 3.1921109557151794e-001</leafValues></_>
    <_>
      <internalNodes>
        0 -1 3522 -1482967245 -606614397 -1073360749 -136719930
        -2000038997 -402423654 -964078449 -1059335691</internalNodes>
      <leafValues>
        -5.0299030542373657e-001 2.8002297878265381e-001</leafValues></_>
    <_>
      <internalNodes>
        0 -1 5317 -135309057 1919392405 -1874685473 -1303195178 -7665136
        -82178046 -6624548 -139269142</internalNodes>
      <leafValues>
        -4.1518417000770569e-001 3.5214406251907349e-001</leafValues></_>
    <_>
      <internalNodes>
        0 -1 7947 -629351172 -598679813 1355011583 -980417649 -50144847
        -3741559 2131821371 -1623520961</internalNodes>
      <leafValues>
        -4.0256455540657043e-001 3.4498772025108337e-001</leafValues></_>
    <_>
      <internalNodes>
        0 -1 1445 -18936834 1523908059 -1823693702 464552892 847973065
        1980039696 2068253304 2146560862</internalNodes>
      <leafValues>
        -5.0976651906967163e-001 3.0877959728240967e-001</leafValues></_>
    <_>
      <internalNodes>
        0 -1 8960 -205034910 777506837 -1878933281 1658245274
        -1297208830 839000064 -120979978 -218443534</internalNodes>
      <leafValues>
        -5.9082555770874023e-001 2.2470335662364960e-001</leafValues></_>
    <_>
      <internalNodes>
        0 -1 3403 22875409 -1657728614 -922111521 1440022737 1345055131
        -1148088152 -116680197 -928740624</internalNodes>
      <leafValues>
        -4.2637282609939575e-001 3.3322590589523315e-001</leafValues></_>
    <_>
      <internalNodes>
        0 -1 1410 -246036245 1873269061 2013385946 -40234657 2072537567
        1073938568 -745801033 -183114837</internalNodes>
      <leafValues>
        -4.4538870453834534e-001 3.0842980742454529e-001</leafValues></_>
    <_>
      <internalNodes>
        0 -1 5348 1598845680 -35909219 390091356 531829109 -14922088
        -275732342 -1710310977 259661530</internalNodes>
      <leafValues>
        -4.6553760766983032e-001 2.8324764966964722e-001</leafValues></_>
    <_>
      <internalNodes>
        0 -1 5732 -456661980 -187031547 -2086567782 -1517385459
        1156698822 552576556 -804083251 19636011</internalNodes>
      <leafValues>
        -5.4619640111923218e-001 2.4703964591026306e-001</leafValues></_>
    <_>
      <internalNodes>
        0 -1 7387 1029143730 -1909161984 -1052642415 -544980522
        -342935127 -1434287983 453118189 -1342405976</internalNodes>
      <leafValues>
        -4.8996445536613464e-001 2.3786430060863495e-001</leafValues></_></weakClassifiers></stage8>
</opencv_storage>
