<?xml version="1.0"?>
<opencv_storage>
<cascade>
  <stageType>BOOST</stageType>
  <featureType>LBP</featureType>
  <height>30</height>
  <width>20</width>
  <stageParams>
    <boostType>GAB</boostType>
    <minHitRate>9.9500000476837158e-001</minHitRate>
    <maxFalseAlarm>5.0000000000000000e-001</maxFalseAlarm>
    <weightTrimRate>9.4999999999999996e-001</weightTrimRate>
    <maxDepth>1</maxDepth>
    <maxWeakCount>100</maxWeakCount></stageParams>
  <featureParams>
    <maxCatCount>256</maxCatCount>
    <featSize>1</featSize></featureParams>
  <stageNum>15</stageNum>
  <stages>
    <!-- stage 0 -->
    <_>
      <maxWeakCount>6</maxWeakCount>
      <stageThreshold>-1.8037114143371582e+000</stageThreshold>
      <weakClassifiers>
        <_>
          <internalNodes>
            0 -1 7 -73729 -69412385 -21591553 -34285617 -74769473
            -69907281 2076123119 -32769</internalNodes>
          <leafValues>
            -7.5389879941940308e-001 5.5338692665100098e-001</leafValues></_>
        <_>
          <internalNodes>
            0 -1 31 -185139732 -536870975 -404957028 -4730462 -44826947
            -1152870601 -723718145 863187751</internalNodes>
          <leafValues>
            -7.5588184595108032e-001 3.8538885116577148e-001</leafValues></_>
        <_>
          <internalNodes>
            0 -1 146 300497457 -1120353342 -786591247 -257698 -393530693
            -1098348134 -592727043 -1164396040</internalNodes>
          <leafValues>
            -6.2626135349273682e-001 4.3622741103172302e-001</leafValues></_>
        <_>
          <internalNodes>
            0 -1 46 -606077981 -1349545846 -662446862 -236989961
            -225734145 1336600810 -524029456 -134221837</internalNodes>
          <leafValues>
            -5.7226288318634033e-001 5.2757066488265991e-001</leafValues></_>
        <_>
          <internalNodes>
            0 -1 113 -454704127 -134348937 -16777217 -8421697 -34095617
            -268636161 -51511298 -2145278665</internalNodes>
          <leafValues>
            -4.6715563535690308e-001 5.5161184072494507e-001</leafValues></_>
        <_>
          <internalNodes>
            0 -1 120 -65796 666002427 1979644408 61635790 1073313237
            596189883 -1275107348 134184895</internalNodes>
          <leafValues>
            -7.3578536510467529e-001 3.0926033854484558e-001</leafValues></_></weakClassifiers></_>
    <!-- stage 1 -->
    <_>
      <maxWeakCount>5</maxWeakCount>
      <stageThreshold>-1.4442245960235596e+000</stageThreshold>
      <weakClassifiers>
        <_>
          <internalNodes>
            0 -1 53 -473829977 -134623273 -513 -526443 -71565377 -13313
            -86770689 -456806521</internalNodes>
          <leafValues>
            -7.7222102880477905e-001 3.0120483040809631e-001</leafValues></_>
        <_>
          <internalNodes>
            0 -1 95 2113231741 1025064957 -548720386 -1612796678
            2113690620 1072560617 -2286856 -1078411522</internalNodes>
          <leafValues>
            -7.0147216320037842e-001 4.0703278779983521e-001</leafValues></_>
        <_>
          <internalNodes>
            0 -1 33 -587407362 -51085417 -71796257 -33739667 2079850431
            -23778497 1572211497 2071666467</internalNodes>
          <leafValues>
            -7.0768767595291138e-001 3.3381888270378113e-001</leafValues></_>
        <_>
          <internalNodes>
            0 -1 86 -272717021 -1366634240 -753148461 -20786734
            161104144 -1920991102 -792022588 -100674636</internalNodes>
          <leafValues>
            -6.2123095989227295e-001 3.7311431765556335e-001</leafValues></_>
        <_>
          <internalNodes>
            0 -1 157 -69529293 134725787 -782512034 -522268602 -81367197
            1803716736 -74776912 -927007798</internalNodes>
          <leafValues>
            -6.1392658948898315e-001 3.6404198408126831e-001</leafValues></_></weakClassifiers></_>
    <!-- stage 2 -->
    <_>
      <maxWeakCount>7</maxWeakCount>
      <stageThreshold>-2.0969462394714355e+000</stageThreshold>
      <weakClassifiers>
        <_>
          <internalNodes>
            0 -1 101 -1376797697 -270675754 -759041803 -2369068
            -1165247494 -904296318 -1182080297 -263435</internalNodes>
          <leafValues>
            -7.3046714067459106e-001 2.4699352681636810e-001</leafValues></_>
        <_>
          <internalNodes>
            0 -1 50 2147425557 2147226623 2077390847 -1078050850
            -273712131 -6590565 -270615554 -1359282178</internalNodes>
          <leafValues>
            -5.9367960691452026e-001 4.1681882739067078e-001</leafValues></_>
        <_>
          <internalNodes>
            0 -1 99 -184550650 -8233 -562038049 -135332921 -93589762
            -270881823 -83891473 1074787622</internalNodes>
          <leafValues>
            -5.5435585975646973e-001 4.0341630578041077e-001</leafValues></_>
        <_>
          <internalNodes>
            0 -1 24 -460098 -106647585 -545493618 -100831233 -844885
            967904031 2010590495 2128698303</internalNodes>
          <leafValues>
            -6.2008035182952881e-001 3.0985879898071289e-001</leafValues></_>
        <_>
          <internalNodes>
            0 -1 90 -1546144853 -1970401118 -648441392 -189476782
            -2006785985 184713345 -1062571552 -184558859</internalNodes>
          <leafValues>
            -5.5682015419006348e-001 3.5969454050064087e-001</leafValues></_>
        <_>
          <internalNodes>
            0 -1 18 86423332 -104737467 -577503745 -710947530
            -1342572577 -341856136 -370941191 -1067154240</internalNodes>
          <leafValues>
            -5.1678687334060669e-001 3.9905688166618347e-001</leafValues></_>
        <_>
          <internalNodes>
            0 -1 150 -608176143 -1610647617 -1342197777 166655479
            -34085403 1073086463 -268456195 -1375770625</internalNodes>
          <leafValues>
            -4.1806060075759888e-001 4.5437490940093994e-001</leafValues></_></weakClassifiers></_>
    <!-- stage 3 -->
    <_>
      <maxWeakCount>8</maxWeakCount>
      <stageThreshold>-1.9432173967361450e+000</stageThreshold>
      <weakClassifiers>
        <_>
          <internalNodes>
            0 -1 23 -2097153 -1410364754 1538056157 1071643903
            -544228386 263319859 1410463701 -1057793</internalNodes>
          <leafValues>
            -7.3660808801651001e-001 2.1036452054977417e-001</leafValues></_>
        <_>
          <internalNodes>
            0 -1 102 -8196 2144862207 -672016386 194761119 -2902080
            1072837070 -73400325 1006632927</internalNodes>
          <leafValues>
            -6.6082811355590820e-001 2.6331797242164612e-001</leafValues></_>
        <_>
          <internalNodes>
            0 -1 115 -1473144527 -572673569 -904539395 -134629067
            -372376833 -38821213 -70665553 -1397478639</internalNodes>
          <leafValues>
            -5.3379088640213013e-001 3.7813991308212280e-001</leafValues></_>
        <_>
          <internalNodes>
            0 -1 47 -806624350 -1886404606 -534522544 -11615760
            -1685128753 -880078845 -779366159 -69209163</internalNodes>
          <leafValues>
            -4.0751346945762634e-001 4.5429980754852295e-001</leafValues></_>
        <_>
          <internalNodes>
            0 -1 123 323500511 -1633238949 -267267623 -545353514
            -242331559 -108363760 -929377860 -1078453332</internalNodes>
          <leafValues>
            -4.8104688525199890e-001 3.8466313481330872e-001</leafValues></_>
        <_>
          <internalNodes>
            0 -1 11 -10588876 -610733161 -149226569 -1323765249
            266168813 -1104192865 -829472807 716193566</internalNodes>
          <leafValues>
            -5.1221454143524170e-001 3.2164707779884338e-001</leafValues></_>
        <_>
          <internalNodes>
            0 -1 41 -1531975904 1810811266 -652280457 -606675466
            -1348468772 -1880171089 -794840348 1105717060</internalNodes>
          <leafValues>
            -7.1403479576110840e-001 2.2707812488079071e-001</leafValues></_>
        <_>
          <internalNodes>
            0 -1 121 752562551 -1429585846 -788425957 -421609257
            -1434381725 302121121 -343166223 -218199420</internalNodes>
          <leafValues>
            -6.1912781000137329e-001 2.5179243087768555e-001</leafValues></_></weakClassifiers></_>
    <!-- stage 4 -->
    <_>
      <maxWeakCount>9</maxWeakCount>
      <stageThreshold>-1.6058645248413086e+000</stageThreshold>
      <weakClassifiers>
        <_>
          <internalNodes>
            0 -1 56 -1078198273 -44163 -2145795811 -136611331 -73668097
            -1081376630 -1412697873 -1058307</internalNodes>
          <leafValues>
            -6.7124360799789429e-001 2.2187171876430511e-001</leafValues></_>
        <_>
          <internalNodes>
            0 -1 142 -134742217 -799475113 -267484726 -1571229721
            -15255001 -1055831833 -364182917 -486539521</internalNodes>
          <leafValues>
            -5.1375782489776611e-001 3.6918154358863831e-001</leafValues></_>
        <_>
          <internalNodes>
            0 -1 145 466386931 -1148281635 -788467489 -136390145
            -612148232 -341102454 -1289085956 -1164437384</internalNodes>
          <leafValues>
            -5.2187073230743408e-001 3.2562223076820374e-001</leafValues></_>
        <_>
          <internalNodes>
            0 -1 98 -978866909 -527849 -1747861569 -109838497 -57169169
            -276829481 -35918130 -1069181177</internalNodes>
          <leafValues>
            -4.4593816995620728e-001 3.8222354650497437e-001</leafValues></_>
        <_>
          <internalNodes>
            0 -1 78 2111643005 1064411101 -2672166 2077789918 2060222140
            1060954868 -1684567814 486062778</internalNodes>
          <leafValues>
            -5.9033191204071045e-001 2.9529768228530884e-001</leafValues></_>
        <_>
          <internalNodes>
            0 -1 61 -572533298 -288453942 -1743710510 -757926946
            197916767 159875354 1628014582 -543175777</internalNodes>
          <leafValues>
            -5.0560683012008667e-001 3.2413658499717712e-001</leafValues></_>
        <_>
          <internalNodes>
            0 -1 3 -1627988238 -590028837 -699006481 -1242625435
            -4621889 -1295750391 673402685 2036812646</internalNodes>
          <leafValues>
            -6.3781070709228516e-001 2.2738060355186462e-001</leafValues></_>
        <_>
          <internalNodes>
            0 -1 19 -1568563296 -3112081 2012116437 -35792306 -548675585
            -91238181 -422970482 8856388</internalNodes>
          <leafValues>
            -5.7848155498504639e-001 2.6169714331626892e-001</leafValues></_>
        <_>
          <internalNodes>
            0 -1 143 -1479559129 -1601441408 -1790930538 -90377889
            -1182008718 1628143872 -108793387 -150998551</internalNodes>
          <leafValues>
            -4.6851047873497009e-001 3.0520686507225037e-001</leafValues></_></weakClassifiers></_>
    <!-- stage 5 -->
    <_>
      <maxWeakCount>9</maxWeakCount>
      <stageThreshold>-1.9490272998809814e+000</stageThreshold>
      <weakClassifiers>
        <_>
          <internalNodes>
            0 -1 103 -268436485 -360021857 -788278827 -36187438
            -1146117381 -896884600 -91491341 -1033</internalNodes>
          <leafValues>
            -6.7849087715148926e-001 1.4554874598979950e-001</leafValues></_>
        <_>
          <internalNodes>
            0 -1 159 -3339 -1143084081 -787369637 -1915366433 -87366471
            -87326070 -1012143923 -1358954517</internalNodes>
          <leafValues>
            -4.6695816516876221e-001 3.8959005475044250e-001</leafValues></_>
        <_>
          <internalNodes>
            0 -1 25 -19464194 -75972610 -2016095523 972587036 1132228602
            181469321 974855837 2141153983</internalNodes>
          <leafValues>
            -5.3327888250350952e-001 3.0806538462638855e-001</leafValues></_>
        <_>
          <internalNodes>
            0 -1 118 -1953822973 -271398718 -788409953 -155856680
            -610289551 -359890816 -1029971533 -1392725072</internalNodes>
          <leafValues>
            -5.6226551532745361e-001 2.6479128003120422e-001</leafValues></_>
        <_>
          <internalNodes>
            0 -1 116 -623907322 -151198086 -1781080945 -1596139817
            -84198850 -16014757 1552375931 1077395991</internalNodes>
          <leafValues>
            -5.2502304315567017e-001 2.8804159164428711e-001</leafValues></_>
        <_>
          <internalNodes>
            0 -1 112 285223156 898633949 -988793893 -707127621
            1527776200 -611647342 -1689142311 -24635208</internalNodes>
          <leafValues>
            -4.1804769635200500e-001 3.5771384835243225e-001</leafValues></_>
        <_>
          <internalNodes>
            0 -1 59 -288621925 -1895661568 1350702673 -32865886
            -1063597501 1075970058 -911481871 -108267084</internalNodes>
          <leafValues>
            -4.5743995904922485e-001 2.8175112605094910e-001</leafValues></_>
        <_>
          <internalNodes>
            0 -1 52 956370224 -1088619774 -951724641 -48924431
            -1432630551 -1206082911 -353908485 -1940895584</internalNodes>
          <leafValues>
            -4.3843656778335571e-001 3.2043221592903137e-001</leafValues></_>
        <_>
          <internalNodes>
            0 -1 44 -1075905837 764060408 1493774122 836169827
            -623592548 -1941919232 -651902059 -807944297</internalNodes>
          <leafValues>
            -3.7673118710517883e-001 3.8023048639297485e-001</leafValues></_></weakClassifiers></_>
    <!-- stage 6 -->
    <_>
      <maxWeakCount>11</maxWeakCount>
      <stageThreshold>-1.7766478061676025e+000</stageThreshold>
      <weakClassifiers>
        <_>
          <internalNodes>
            0 -1 42 -539231233 -1429544342 -652357125 -236979749
            -79700017 -1681548068 1469403217 -805306369</internalNodes>
          <leafValues>
            -7.1813374757766724e-001 -4.9261082895100117e-003</leafValues></_>
        <_>
          <internalNodes>
            0 -1 79 1073418623 -69598086 -787229697 -2191162 -1333233189
            -75263840 -91227969 -18072648</internalNodes>
          <leafValues>
            -4.9183350801467896e-001 3.1503531336784363e-001</leafValues></_>
        <_>
          <internalNodes>
            0 -1 106 1599987711 1064368605 -849672962 -1078068842
            -74842119 2051664283 437069244 2146934430</internalNodes>
          <leafValues>
            -4.5925265550613403e-001 3.1029161810874939e-001</leafValues></_>
        <_>
          <internalNodes>
            0 -1 107 -2053073103 -19293967 -499008034 -2250217
            -622875665 -1080051571 -91637089 -1943532543</internalNodes>
          <leafValues>
            -5.2965688705444336e-001 2.5240576267242432e-001</leafValues></_>
        <_>
          <internalNodes>
            0 -1 160 -471887570 -498925528 -795750146 -120008260
            -1987366128 -218066944 -259282024 -151063557</internalNodes>
          <leafValues>
            -3.8652345538139343e-001 3.4934499859809875e-001</leafValues></_>
        <_>
          <internalNodes>
            0 -1 91 -15991896 -1408319290 -520039438 -233647942
            -2000086262 1133217946 867950822 -167791909</internalNodes>
          <leafValues>
            -5.1411163806915283e-001 2.5948429107666016e-001</leafValues></_>
        <_>
          <internalNodes>
            0 -1 49 -356634828 -1075956769 -384499375 524172307
            2030656511 -1194388787 2039495359 682900407</internalNodes>
          <leafValues>
            -5.9130537509918213e-001 2.3885460197925568e-001</leafValues></_>
        <_>
          <internalNodes>
            0 -1 20 -555422638 -320022024 507900655 -61439194 81131764
            -95575859 982241530 1786728295</internalNodes>
          <leafValues>
            -4.8946264386177063e-001 2.3748004436492920e-001</leafValues></_>
        <_>
          <internalNodes>
            0 -1 92 -1416646366 -1413261176 -787359280 -53006122
            93024279 -809465720 -644152847 -168828684</internalNodes>
          <leafValues>
            -5.0806444883346558e-001 2.3290951550006866e-001</leafValues></_>
        <_>
          <internalNodes>
            0 -1 48 1556891438 -589833065 17960207 2103317855 1609014730
            -1328483679 -793821409 598747923</internalNodes>
          <leafValues>
            -4.8634669184684753e-001 2.6535245776176453e-001</leafValues></_>
        <_>
          <internalNodes>
            0 -1 136 416112375 902615176 -1862198951 -1109749284
            1754360058 -911701880 428419324 -807880484</internalNodes>
          <leafValues>
            -4.0580141544342041e-001 3.2368093729019165e-001</leafValues></_></weakClassifiers></_>
    <!-- stage 7 -->
    <_>
      <maxWeakCount>12</maxWeakCount>
      <stageThreshold>-1.5582036972045898e+000</stageThreshold>
      <weakClassifiers>
        <_>
          <internalNodes>
            0 -1 125 -588251337 -10486857 -1058014977 -140510881
            -285360673 -69207077 -857867329 -453509337</internalNodes>
          <leafValues>
            -6.7765253782272339e-001 8.1410534679889679e-002</leafValues></_>
        <_>
          <internalNodes>
            0 -1 22 -525353 -1435501842 -75139342 -67112593 -4464945
            1868803806 1441091953 -268437505</internalNodes>
          <leafValues>
            -5.0965511798858643e-001 2.7933150529861450e-001</leafValues></_>
        <_>
          <internalNodes>
            0 -1 141 -1365295837 -1348726562 1343836379 -833104941
            -1198851470 1803730945 -301207120 -188951580</internalNodes>
          <leafValues>
            -5.7374107837677002e-001 2.1214450895786285e-001</leafValues></_>
        <_>
          <internalNodes>
            0 -1 132 -206047236 2141176775 -620707640 630008330
            -632601979 1547765891 -1946961172 734527391</internalNodes>
          <leafValues>
            -5.0282925367355347e-001 2.6694786548614502e-001</leafValues></_>
        <_>
          <internalNodes>
            0 -1 66 -335179488 -109724697 -82101761 2002766009
            -278938885 -97805695 -375400209 -2065873019</internalNodes>
          <leafValues>
            -4.6549785137176514e-001 2.5368669629096985e-001</leafValues></_>
        <_>
          <internalNodes>
            0 -1 4 -135107618 -250054670 1554112860 -61235107 255899849
            -1082092895 715999724 2138777039</internalNodes>
          <leafValues>
            -4.5847472548484802e-001 2.8570565581321716e-001</leafValues></_>
        <_>
          <internalNodes>
            0 -1 74 -1311795294 596103296 1610699250 -190922240
            -1836443069 -876412791 286454421 -705699107</internalNodes>
          <leafValues>
            -4.4020128250122070e-001 2.6132071018218994e-001</leafValues></_>
        <_>
          <internalNodes>
            0 -1 134 1070840821 990425371 300982558 -1081433604
            1031803901 797508288 453577624 -1345049192</internalNodes>
          <leafValues>
            -4.5215469598770142e-001 2.6063925027847290e-001</leafValues></_>
        <_>
          <internalNodes>
            0 -1 153 -469777882 -1469591349 73858 -421608966 -1014879966
            -653754221 -645676109 -151065648</internalNodes>
          <leafValues>
            -4.6500334143638611e-001 2.2689963877201080e-001</leafValues></_>
        <_>
          <internalNodes>
            0 -1 68 618672183 -152031382 -17566731 2112089769
            -2013284873 -12124171 -537479282 -909856956</internalNodes>
          <leafValues>
            -2.8608146309852600e-001 4.1029328107833862e-001</leafValues></_>
        <_>
          <internalNodes>
            0 -1 38 1331571220 2010576333 -1987963110 -1634040910
            1512592069 1167606464 -643758566 1022663918</internalNodes>
          <leafValues>
            -7.0556443929672241e-001 1.7416419088840485e-001</leafValues></_>
        <_>
          <internalNodes>
            0 -1 128 -1425071613 -356384745 285298942 -699743857
            -74794429 -1969717200 848288417 -16788747</internalNodes>
          <leafValues>
            -4.5779249072074890e-001 2.4240618944168091e-001</leafValues></_></weakClassifiers></_>
    <!-- stage 8 -->
    <_>
      <maxWeakCount>12</maxWeakCount>
      <stageThreshold>-1.4477244615554810e+000</stageThreshold>
      <weakClassifiers>
        <_>
          <internalNodes>
            0 -1 73 -547358801 -134300707 459213071 -33561093 -67506757
            -255794694 -71697473 -2098177</internalNodes>
          <leafValues>
            -6.1495745182037354e-001 2.0150187611579895e-001</leafValues></_>
        <_>
          <internalNodes>
            0 -1 60 -448013461 -284241408 -749612841 -207957968
            1268431675 -1467285366 -795227914 -605060875</internalNodes>
          <leafValues>
            -4.6342068910598755e-001 3.0652031302452087e-001</leafValues></_>
        <_>
          <internalNodes>
            0 -1 108 -388133373 -103576613 1548574685 -283278961
            -90594341 -77862781 -83498262 -1060657401</internalNodes>
          <leafValues>
            -4.0496873855590820e-001 3.2447835803031921e-001</leafValues></_>
        <_>
          <internalNodes>
            0 -1 14 -1435696108 2136971665 -184485697 838738366
            802708476 2080326730 -7410710 547385005</internalNodes>
          <leafValues>
            -5.8391022682189941e-001 1.9412326812744141e-001</leafValues></_>
        <_>
          <internalNodes>
            0 -1 100 -134239606 -629160245 274344834 -253234477
            -145948913 1348485635 -621515333 280492803</internalNodes>
          <leafValues>
            -4.7560143470764160e-001 2.5540527701377869e-001</leafValues></_>
        <_>
          <internalNodes>
            0 -1 35 -1412751873 -1530216038 -535768846 -254635812
            1384676083 -895450968 -1869960859 -706745468</internalNodes>
          <leafValues>
            -4.8621025681495667e-001 2.3416365683078766e-001</leafValues></_>
        <_>
          <internalNodes>
            0 -1 114 545262128 -573040431 -805223975 -539684847
            271182271 -348642903 -802059894 -939489280</internalNodes>
          <leafValues>
            -3.3536711335182190e-001 3.3119505643844604e-001</leafValues></_>
        <_>
          <internalNodes>
            0 -1 109 -1009278657 -343358325 1363267675 -20196396
            -1572163269 -1451179864 -612204063 -186910219</internalNodes>
          <leafValues>
            -3.7535133957862854e-001 3.1534555554389954e-001</leafValues></_>
        <_>
          <internalNodes>
            0 -1 94 -1326444431 -556646248 -1055846181 -170114723
            -1316445801 -1585414016 -100103173 -1365482240</internalNodes>
          <leafValues>
            -3.6124935746192932e-001 3.0325290560722351e-001</leafValues></_>
        <_>
          <internalNodes>
            0 -1 130 -1416691930 1700585939 -464012822 542623757
            -140045980 16794242 -353502738 651161430</internalNodes>
          <leafValues>
            -5.7642227411270142e-001 1.9458609819412231e-001</leafValues></_>
        <_>
          <internalNodes>
            0 -1 122 931559765 -1765609407 -805056427 525209688
            -1297913839 -1333026686 -124556440 -1410717276</internalNodes>
          <leafValues>
            -5.6106650829315186e-001 1.6780468821525574e-001</leafValues></_>
        <_>
          <internalNodes>
            0 -1 55 841683890 -1566101055 952225867 -207695746 956998606
            -1744043990 721541508 165663073</internalNodes>
          <leafValues>
            -4.9952942132949829e-001 2.3240575194358826e-001</leafValues></_></weakClassifiers></_>
    <!-- stage 9 -->
    <_>
      <maxWeakCount>12</maxWeakCount>
      <stageThreshold>-1.4250895977020264e+000</stageThreshold>
      <weakClassifiers>
        <_>
          <internalNodes>
            0 -1 45 -144703489 -547366921 18285871 1062951387 -2293864
            -192873572 -607780929 -1025</internalNodes>
          <leafValues>
            -5.7955336570739746e-001 2.5394320487976074e-001</leafValues></_>
        <_>
          <internalNodes>
            0 -1 138 -555750905 -705081011 -1061830401 -69225633
            -611321114 -62480245 -1222641205 -453519865</internalNodes>
          <leafValues>
            -3.8181269168853760e-001 3.6045727133750916e-001</leafValues></_>
        <_>
          <internalNodes>
            0 -1 76 -1899843158 -1433898832 -267267951 -77889358
            -880154437 43974809 1342722469 -4205835</internalNodes>
          <leafValues>
            -4.1492933034896851e-001 3.0992650985717773e-001</leafValues></_>
        <_>
          <internalNodes>
            0 -1 140 -1429791899 -421543797 -796814593 1716490303
            -74469293 -393707382 -1416898345 -1396917327</internalNodes>
          <leafValues>
            -5.1841682195663452e-001 2.0901603996753693e-001</leafValues></_>
        <_>
          <internalNodes>
            0 -1 17 679489584 -1080835808 -2071909889 -184199103
            -1978025220 -93536111 1494886123 -996892604</internalNodes>
          <leafValues>
            -4.0992775559425354e-001 2.7586555480957031e-001</leafValues></_>
        <_>
          <internalNodes>
            0 -1 37 1825592372 -185313800 -1072510183 -692185689
            -108512338 -123582445 1787783999 1176906559</internalNodes>
          <leafValues>
            -5.0998419523239136e-001 2.3294952511787415e-001</leafValues></_>
        <_>
          <internalNodes>
            0 -1 154 665768959 1066959824 -1052749603 -1659219556
            328090621 -610598752 457339353 -1103408</internalNodes>
          <leafValues>
            -4.0915688872337341e-001 2.7106493711471558e-001</leafValues></_>
        <_>
          <internalNodes>
            0 -1 21 -2094233566 -1354923856 1473355280 -79310476
            -695630931 -872722261 -2127836478 1088156119</internalNodes>
          <leafValues>
            -4.8943772912025452e-001 2.3383694887161255e-001</leafValues></_>
        <_>
          <internalNodes>
            0 -1 29 -288688434 5015750 1418333660 30925812 1928395040
            1294242837 1733308193 1866936127</internalNodes>
          <leafValues>
            -6.0279804468154907e-001 1.6361488401889801e-001</leafValues></_>
        <_>
          <internalNodes>
            0 -1 82 1625325843 1394446801 -838148835 -1881571297
            -402015599 -105569120 -901239367 -2004614142</internalNodes>
          <leafValues>
            -3.8756573200225830e-001 2.7292096614837646e-001</leafValues></_>
        <_>
          <internalNodes>
            0 -1 133 -359985066 646500570 -799882608 -421604702
            1350580785 -2096463872 -1592057488 -153175444</internalNodes>
          <leafValues>
            -5.3565663099288940e-001 2.0100925862789154e-001</leafValues></_>
        <_>
          <internalNodes>
            0 -1 151 -721555867 -1109954093 -1551514296 -1496530559
            -91506459 -218005119 -233862453 -1602225313</internalNodes>
          <leafValues>
            -3.9978715777397156e-001 2.7331101894378662e-001</leafValues></_></weakClassifiers></_>
    <!-- stage 10 -->
    <_>
      <maxWeakCount>14</maxWeakCount>
      <stageThreshold>-1.8147122859954834e+000</stageThreshold>
      <weakClassifiers>
        <_>
          <internalNodes>
            0 -1 155 -69207041 -540740897 -1559252774 -170474596
            -888440981 -624746493 -1546687605 -1055797</internalNodes>
          <leafValues>
            -5.8082145452499390e-001 2.2230595350265503e-001</leafValues></_>
        <_>
          <internalNodes>
            0 -1 62 -410521133 -1014771199 1343344691 -7142973
            1242221019 -1468006392 -779374349 -537929549</internalNodes>
          <leafValues>
            -3.6231395602226257e-001 3.3750194311141968e-001</leafValues></_>
        <_>
          <internalNodes>
            0 -1 71 -17827842 -1191249173 1610589259 24637435 -268894328
            -591110346 -854272612 -16802145</internalNodes>
          <leafValues>
            -2.7892294526100159e-001 4.2312213778495789e-001</leafValues></_>
        <_>
          <internalNodes>
            0 -1 81 -1071602416 2039910805 -1849214113 -539879247
            -1152787725 -609845025 -1425425478 -1934260219</internalNodes>
          <leafValues>
            -4.4119805097579956e-001 2.5105455517768860e-001</leafValues></_>
        <_>
          <internalNodes>
            0 -1 1 2029836926 -791087913 -1575755501 -729683641
            1136902819 -1896541677 -372696562 1851920232</internalNodes>
          <leafValues>
            -5.3890830278396606e-001 2.3470777273178101e-001</leafValues></_>
        <_>
          <internalNodes>
            0 -1 80 -979930755 2113532189 117445022 499917272 218200506
            2037184666 1598565309 -1677911045</internalNodes>
          <leafValues>
            -3.6747074127197266e-001 2.9494002461433411e-001</leafValues></_>
        <_>
          <internalNodes>
            0 -1 26 -137378177 -1604343446 731547306 26509342
            -1704559992 278316065 1749142436 2111560447</internalNodes>
          <leafValues>
            -4.0694698691368103e-001 2.5421494245529175e-001</leafValues></_>
        <_>
          <internalNodes>
            0 -1 87 -539678283 1909641418 890372376 -1244786670
            -534666535 2105560195 -501662724 798372511</internalNodes>
          <leafValues>
            -4.5609378814697266e-001 2.1145908534526825e-001</leafValues></_>
        <_>
          <internalNodes>
            0 -1 144 849310559 710127682 -805220142 -526773869 989990945
            2047606912 -1576342928 -1426656268</internalNodes>
          <leafValues>
            -5.9159165620803833e-001 1.5059985220432281e-001</leafValues></_>
        <_>
          <internalNodes>
            0 -1 8 -319626406 -107432894 -1656241773 -522997820
            906091393 1779141632 1380007610 2069770087</internalNodes>
          <leafValues>
            -3.8357013463973999e-001 2.5627350807189941e-001</leafValues></_>
        <_>
          <internalNodes>
            0 -1 32 -1108617693 -135401485 -259 1073608686 -5 -873205897
            -603986181 -403757374</internalNodes>
          <leafValues>
            -3.0368375778198242e-001 3.5045924782752991e-001</leafValues></_>
        <_>
          <internalNodes>
            0 -1 147 787750141 2113355542 1627287285 -266493 215818125
            1864695669 -1090523158 -1130347124</internalNodes>
          <leafValues>
            -2.8087404370307922e-001 3.7145259976387024e-001</leafValues></_>
        <_>
          <internalNodes>
            0 -1 158 -1432551343 -485834543 -1878933051 -401993512
            2055725075 1350697088 -91573836 -84629408</internalNodes>
          <leafValues>
            -5.0243353843688965e-001 2.0442132651805878e-001</leafValues></_>
        <_>
          <internalNodes>
            0 -1 2 198888038 38182934 -1878076332 2100794504 988920279
            987482214 1528021844 125303362</internalNodes>
          <leafValues>
            -6.3421314954757690e-001 1.2749095261096954e-001</leafValues></_></weakClassifiers></_>
    <!-- stage 11 -->
    <_>
      <maxWeakCount>15</maxWeakCount>
      <stageThreshold>-1.7336889505386353e+000</stageThreshold>
      <weakClassifiers>
        <_>
          <internalNodes>
            0 -1 51 -639771593 -202269541 286364637 -577023601
            -930285377 -92094246 -628885089 -355767925</internalNodes>
          <leafValues>
            -5.8019942045211792e-001 2.4707716703414917e-001</leafValues></_>
        <_>
          <internalNodes>
            0 -1 34 -506378321 -2635489 247464719 -33562753 -544949316
            -801853337 -874391142 -20451409</internalNodes>
          <leafValues>
            -3.2952871918678284e-001 3.6353692412376404e-001</leafValues></_>
        <_>
          <internalNodes>
            0 -1 75 -1215565406 -1491140352 1510588914 -539081520
            -921982417 1225261194 -2087026447 -638865263</internalNodes>
          <leafValues>
            -4.2400261759757996e-001 2.7051281929016113e-001</leafValues></_>
        <_>
          <internalNodes>
            0 -1 96 2111142397 333259200 -1861672549 -1253043814
            823663097 -1987518335 -1308620295 -1157679176</internalNodes>
          <leafValues>
            -3.4390747547149658e-001 3.0647504329681396e-001</leafValues></_>
        <_>
          <internalNodes>
            0 -1 97 -2072932191 -598161089 -770604577 -1122236537
            -393623399 -1143437174 142705167 -2139092478</internalNodes>
          <leafValues>
            -4.3399968743324280e-001 2.8178364038467407e-001</leafValues></_>
        <_>
          <internalNodes>
            0 -1 93 13247289 -1431781357 -788246319 -67239734 411699432
            -1599600512 -1869978896 -1111428444</internalNodes>
          <leafValues>
            -5.1009154319763184e-001 1.9243958592414856e-001</leafValues></_>
        <_>
          <internalNodes>
            0 -1 5 -1756053154 -1877421360 -2147366788 80494656
            -1702573802 147919370 734727228 1012486090</internalNodes>
          <leafValues>
            -6.1271035671234131e-001 1.8168693780899048e-001</leafValues></_>
        <_>
          <internalNodes>
            0 -1 72 -612893218 732889920 -1811373268 583315603
            -1426033920 1623493193 1535198022 595309455</internalNodes>
          <leafValues>
            -4.9052485823631287e-001 2.0562887191772461e-001</leafValues></_>
        <_>
          <internalNodes>
            0 -1 110 -16255228 1410720603 -1324219736 538745246
            -1088865772 1881721611 499290924 1648714606</internalNodes>
          <leafValues>
            -5.1299244165420532e-001 1.8828450143337250e-001</leafValues></_>
        <_>
          <internalNodes>
            0 -1 39 -1694302792 -1713639212 -1853671237 -1157058146
            -131563061 -1152745406 -1518137122 88327432</internalNodes>
          <leafValues>
            -4.3062922358512878e-001 2.2065867483615875e-001</leafValues></_>
        <_>
          <internalNodes>
            0 -1 15 1801520748 2131866409 289440858 157029138 1804098460
            1526760137 -913768274 247868094</internalNodes>
          <leafValues>
            -5.8562242984771729e-001 1.7219254374504089e-001</leafValues></_>
        <_>
          <internalNodes>
            0 -1 10 1130039783 -858451828 1359069650 -3436326 680272891
            1904345104 -1474626602 -1212695845</internalNodes>
          <leafValues>
            -3.5299277305603027e-001 2.7936559915542603e-001</leafValues></_>
        <_>
          <internalNodes>
            0 -1 162 -383878602 -1102675392 1141018946 -904728440
            1674396225 -1834774527 -337637364 -461733236</internalNodes>
          <leafValues>
            -4.5143899321556091e-001 2.2292889654636383e-001</leafValues></_>
        <_>
          <internalNodes>
            0 -1 0 1112028498 -201392167 1064189951 -11949471 -939563589
            -1078002252 -310384949 -933424128</internalNodes>
          <leafValues>
            -3.0597525835037231e-001 3.4113463759422302e-001</leafValues></_>
        <_>
          <internalNodes>
            0 -1 129 -1954314206 -2109669246 -805289581 -836878130
            -401039325 193462408 -1425295134 -392461899</internalNodes>
          <leafValues>
            -4.5012664794921875e-001 2.2689281404018402e-001</leafValues></_></weakClassifiers></_>
    <!-- stage 12 -->
    <_>
      <maxWeakCount>13</maxWeakCount>
      <stageThreshold>-1.5136462450027466e+000</stageThreshold>
      <weakClassifiers>
        <_>
          <internalNodes>
            0 -1 57 -142084613 1021044441 -1909369651 346492939
            -32192086 -636313467 -1895499107 -4199937</internalNodes>
          <leafValues>
            -5.9985011816024780e-001 1.2154031544923782e-001</leafValues></_>
        <_>
          <internalNodes>
            0 -1 124 9700500 -646113059 -1996432929 -1714651009
            -1191055175 -1433792088 -900664417 -1205860352</internalNodes>
          <leafValues>
            -4.9375778436660767e-001 2.3682206869125366e-001</leafValues></_>
        <_>
          <internalNodes>
            0 -1 9 -10884278 -342980060 1343228208 -217561654 403378835
            1233191055 1670541488 1187474071</internalNodes>
          <leafValues>
            -5.4335439205169678e-001 2.1164961159229279e-001</leafValues></_>
        <_>
          <internalNodes>
            0 -1 111 1595666775 496279769 -788426274 -1547299302
            1367671004 1820893312 -351466820 -1612662102</internalNodes>
          <leafValues>
            -4.1649666428565979e-001 3.0110323429107666e-001</leafValues></_>
        <_>
          <internalNodes>
            0 -1 54 -1588297438 1505775745 319369229 -779402927
            -1030206808 -1442676598 671812567 -978858365</internalNodes>
          <leafValues>
            -4.9718368053436279e-001 2.2864484786987305e-001</leafValues></_>
        <_>
          <internalNodes>
            0 -1 63 -803471140 2083787346 -1927753193 2135818634
            -1048001815 -1335850878 1799388303 980159247</internalNodes>
          <leafValues>
            -3.8959613442420959e-001 3.0698210000991821e-001</leafValues></_>
        <_>
          <internalNodes>
            0 -1 77 2133142788 1468846299 -242723526 -1760165544
            990390409 697475273 -2125781832 751435834</internalNodes>
          <leafValues>
            -7.3668211698532104e-001 1.2844143807888031e-001</leafValues></_>
        <_>
          <internalNodes>
            0 -1 105 -1584955093 570925248 -1877982731 -154156856
            -1962405877 134217728 -208543600 -157289595</internalNodes>
          <leafValues>
            -5.0453025102615356e-001 1.7602220177650452e-001</leafValues></_>
        <_>
          <internalNodes>
            0 -1 126 -495595994 -1298623785 816877614 -699492212
            -481414634 1946468352 -125132690 1382250966</internalNodes>
          <leafValues>
            -4.9999472498893738e-001 2.3821766674518585e-001</leafValues></_>
        <_>
          <internalNodes>
            0 -1 148 -2075602921 324567158 8671379 -1995980542
            -654134331 -620525439 1215945641 -334174925</internalNodes>
          <leafValues>
            -3.9345377683639526e-001 2.7641776204109192e-001</leafValues></_>
        <_>
          <internalNodes>
            0 -1 40 -914198256 -41009152 1996673375 1596064543
            -1122858926 -366690264 -250410801 1103955847</internalNodes>
          <leafValues>
            -3.7049394845962524e-001 2.9766586422920227e-001</leafValues></_>
        <_>
          <internalNodes>
            0 -1 65 -1441180656 827740627 -1073704952 387466587
            1789551341 729808899 964825840 169382448</internalNodes>
          <leafValues>
            -6.1980611085891724e-001 1.5993012487888336e-001</leafValues></_>
        <_>
          <internalNodes>
            0 -1 13 -674592254 -732261729 -1056382569 1578894090
            -535799092 -251403887 -2104924033 648743175</internalNodes>
          <leafValues>
            -3.7925097346305847e-001 2.5411757826805115e-001</leafValues></_></weakClassifiers></_>
    <!-- stage 13 -->
    <_>
      <maxWeakCount>15</maxWeakCount>
      <stageThreshold>-1.5080506801605225e+000</stageThreshold>
      <weakClassifiers>
        <_>
          <internalNodes>
            0 -1 119 -673187921 -184972333 -941978866 -707624361
            -109085944 -779762866 -364125649 -140509505</internalNodes>
          <leafValues>
            -6.2814068794250488e-001 3.8902578832332259e-017</leafValues></_>
        <_>
          <internalNodes>
            0 -1 161 -137366539 1430479619 -1039937507 -1619145981
            -1181267283 -930906112 -1874141493 -2017473905</internalNodes>
          <leafValues>
            -3.4042730927467346e-001 3.2095316052436829e-001</leafValues></_>
        <_>
          <internalNodes>
            0 -1 85 -843083350 -876048238 25285076 -112516965 562706491
            696287242 -2138861545 -20196574</internalNodes>
          <leafValues>
            -3.5853740572929382e-001 2.7924007177352905e-001</leafValues></_>
        <_>
          <internalNodes>
            0 -1 117 34608385 -496496639 -1073622191 2065570012
            -1853224523 -2105016320 -91571997 -1898176843</internalNodes>
          <leafValues>
            -5.2587455511093140e-001 1.8207432329654694e-001</leafValues></_>
        <_>
          <internalNodes>
            0 -1 149 -203439865 1851490499 1342799938 -297189242
            -123559422 1661632641 -476992766 -241249569</internalNodes>
          <leafValues>
            -3.9336344599723816e-001 2.4747928977012634e-001</leafValues></_>
        <_>
          <internalNodes>
            0 -1 88 -2012475202 -557297598 286315925 -1721970536
            -1308514149 -930480117 -343185159 -1356062608</internalNodes>
          <leafValues>
            -3.2084432244300842e-001 3.0511230230331421e-001</leafValues></_>
        <_>
          <internalNodes>
            0 -1 92 -2119595621 -1366798198 -788446191 -623476592
            -1920241643 -896827256 1235972529 -256184080</internalNodes>
          <leafValues>
            -5.1699966192245483e-001 1.5440730750560760e-001</leafValues></_>
        <_>
          <internalNodes>
            0 -1 67 888805403 863473648 1677310905 -270029136 380938095
            -1881833665 2003184799 -1697610272</internalNodes>
          <leafValues>
            -2.5060698390007019e-001 3.6571818590164185e-001</leafValues></_>
        <_>
          <internalNodes>
            0 -1 6 1666366366 -781676302 -1072568201 1145045057
            -2126242286 -2071976823 1646424446 493046287</internalNodes>
          <leafValues>
            -5.5593729019165039e-001 1.7209188640117645e-001</leafValues></_>
        <_>
          <internalNodes>
            0 -1 104 -657573358 1978430623 1343407268 25952775
            -675206984 2030446604 -1066784762 2010456583</internalNodes>
          <leafValues>
            -5.3035593032836914e-001 1.5312679111957550e-001</leafValues></_>
        <_>
          <internalNodes>
            0 -1 30 -468746334 -1622387685 -1005512419 -549203904
            1644878475 -910125039 403426878 1206380609</internalNodes>
          <leafValues>
            -4.3677484989166260e-001 1.9498190283775330e-001</leafValues></_>
        <_>
          <internalNodes>
            0 -1 16 1449528340 271847431 1426138614 487230231 445476316
            463030494 -1476363876 784477004</internalNodes>
          <leafValues>
            -5.3663504123687744e-001 1.5175843238830566e-001</leafValues></_>
        <_>
          <internalNodes>
            0 -1 58 -1910505933 -888614656 1358995487 -1072508912
            159916551 -1702658022 17393907 -847312655</internalNodes>
          <leafValues>
            -4.0856695175170898e-001 2.3610147833824158e-001</leafValues></_>
        <_>
          <internalNodes>
            0 -1 131 195769355 579502211 -1006448624 2029408258 42603042
            1120567560 -1332051775 -758134188</internalNodes>
          <leafValues>
            -4.9017715454101563e-001 1.6936510801315308e-001</leafValues></_>
        <_>
          <internalNodes>
            0 -1 70 -1104198590 -1060503414 -1744757150 2306758
            -82294776 503357464 1082155285 1384733322</internalNodes>
          <leafValues>
            -5.2902615070343018e-001 1.6514888405799866e-001</leafValues></_></weakClassifiers></_>
    <!-- stage 14 -->
    <_>
      <maxWeakCount>16</maxWeakCount>
      <stageThreshold>-1.4728028774261475e+000</stageThreshold>
      <weakClassifiers>
        <_>
          <internalNodes>
            0 -1 69 -740822177 -657600043 554135771 1241339147
            -317734990 -96433530 -1441293409 -540021793</internalNodes>
          <leafValues>
            -5.5393981933593750e-001 2.5414365530014038e-001</leafValues></_>
        <_>
          <internalNodes>
            0 -1 139 -1731643279 -552402743 151081435 1460621533
            -1331920199 -83886078 -1196909633 -1163388143</internalNodes>
          <leafValues>
            -4.3468537926673889e-001 2.5081267952919006e-001</leafValues></_>
        <_>
          <internalNodes>
            0 -1 156 -586981345 -963968957 1358954839 -29179566
            730468866 537100419 -1014304018 -17923350</internalNodes>
          <leafValues>
            -3.9214983582496643e-001 2.5500783324241638e-001</leafValues></_>
        <_>
          <internalNodes>
            0 -1 43 858125467 -1413283824 806473881 861343760
            -1589067642 1778647168 -984295023 2042210489</internalNodes>
          <leafValues>
            -3.8962188363075256e-001 2.5111788511276245e-001</leafValues></_>
        <_>
          <internalNodes>
            0 -1 135 445120726 269484176 268502201 -653000320 847818996
            -1987854206 688002216 -1620299728</internalNodes>
          <leafValues>
            -2.8986370563507080e-001 3.2352912425994873e-001</leafValues></_>
        <_>
          <internalNodes>
            0 -1 28 -490028312 1246939472 16828637 843190870 2343082
            168018048 -1069475667 1304897348</internalNodes>
          <leafValues>
            -4.5094347000122070e-001 2.3529179394245148e-001</leafValues></_>
        <_>
          <internalNodes>
            0 -1 27 -1018703829 -314109814 -788524168 -725249902
            1359140642 672829450 -2130546345 -1962159905</internalNodes>
          <leafValues>
            -3.6028373241424561e-001 2.7459830045700073e-001</leafValues></_>
        <_>
          <internalNodes>
            0 -1 12 35127572 -1848534883 -1823308106 395723602
            -349683656 -1584791421 -654157590 68447190</internalNodes>
          <leafValues>
            -5.9147471189498901e-001 1.6093975305557251e-001</leafValues></_>
        <_>
          <internalNodes>
            0 -1 83 -1596076026 861148740 83890709 1595799115 1377479322
            -1693278198 -364281333 338087436</internalNodes>
          <leafValues>
            -4.2618116736412048e-001 2.1336282789707184e-001</leafValues></_>
        <_>
          <internalNodes>
            0 -1 89 -312753098 2065301715 1099005970 470028566 570444005
            981500048 -1727436518 2122930819</internalNodes>
          <leafValues>
            -4.0167340636253357e-001 2.4029390513896942e-001</leafValues></_>
        <_>
          <internalNodes>
            0 -1 64 -1441595309 -828899326 -1744814055 -1138868080
            -1047901255 1082392712 -1585160173 -72688752</internalNodes>
          <leafValues>
            -4.5827299356460571e-001 1.9846269488334656e-001</leafValues></_>
        <_>
          <internalNodes>
            0 -1 84 -515962105 -1845499138 1056956227 259706032
            -33669334 -146342021 -32064236 -1038910181</internalNodes>
          <leafValues>
            -2.8645873069763184e-001 3.4142965078353882e-001</leafValues></_>
        <_>
          <internalNodes>
            0 -1 127 935104108 1936179798 268489698 1656752695
            -653678572 1398408208 -95432038 268752973</internalNodes>
          <leafValues>
            -4.5430392026901245e-001 2.0420588552951813e-001</leafValues></_>
        <_>
          <internalNodes>
            0 -1 152 894817056 1599488158 -2063482880 94802502
            1540061865 1745035273 -238615896 836463243</internalNodes>
          <leafValues>
            -4.1012006998062134e-001 2.2718553245067596e-001</leafValues></_>
        <_>
          <internalNodes>
            0 -1 137 339251410 -610316133 1283458974 -820160419
            -636835116 -1820061544 -1994808578 -1441777338</internalNodes>
          <leafValues>
            -3.5440179705619812e-001 2.6605820655822754e-001</leafValues></_>
        <_>
          <internalNodes>
            0 -1 36 -2079708395 -753872420 285229343 395739520
            -671068179 251672705 -285095631 504763031</internalNodes>
          <leafValues>
            -3.7605866789817810e-001 2.6427391171455383e-001</leafValues></_></weakClassifiers></_></stages>
  <features>
    <_>
      <rect>
        0 0 4 2</rect></_>
    <_>
      <rect>
        0 2 6 9</rect></_>
    <_>
      <rect>
        0 3 5 5</rect></_>
    <_>
      <rect>
        0 5 5 8</rect></_>
    <_>
      <rect>
        0 6 3 8</rect></_>
    <_>
      <rect>
        0 6 4 8</rect></_>
    <_>
      <rect>
        0 8 4 7</rect></_>
    <_>
      <rect>
        0 9 5 7</rect></_>
    <_>
      <rect>
        0 10 2 5</rect></_>
    <_>
      <rect>
        0 12 3 2</rect></_>
    <_>
      <rect>
        0 17 2 1</rect></_>
    <_>
      <rect>
        0 17 5 4</rect></_>
    <_>
      <rect>
        0 18 3 4</rect></_>
    <_>
      <rect>
        0 18 4 2</rect></_>
    <_>
      <rect>
        0 18 4 4</rect></_>
    <_>
      <rect>
        0 18 6 4</rect></_>
    <_>
      <rect>
        0 21 5 3</rect></_>
    <_>
      <rect>
        1 0 3 2</rect></_>
    <_>
      <rect>
        1 0 5 3</rect></_>
    <_>
      <rect>
        1 0 6 4</rect></_>
    <_>
      <rect>
        1 2 3 9</rect></_>
    <_>
      <rect>
        1 3 4 3</rect></_>
    <_>
      <rect>
        1 7 4 3</rect></_>
    <_>
      <rect>
        1 8 4 4</rect></_>
    <_>
      <rect>
        1 8 6 7</rect></_>
    <_>
      <rect>
        1 9 3 7</rect></_>
    <_>
      <rect>
        1 9 4 4</rect></_>
    <_>
      <rect>
        1 10 2 2</rect></_>
    <_>
      <rect>
        1 11 2 4</rect></_>
    <_>
      <rect>
        1 11 4 4</rect></_>
    <_>
      <rect>
        2 0 5 5</rect></_>
    <_>
      <rect>
        2 0 6 10</rect></_>
    <_>
      <rect>
        2 1 5 4</rect></_>
    <_>
      <rect>
        2 3 4 9</rect></_>
    <_>
      <rect>
        2 9 6 4</rect></_>
    <_>
      <rect>
        2 16 1 1</rect></_>
    <_>
      <rect>
        2 16 3 2</rect></_>
    <_>
      <rect>
        2 16 4 3</rect></_>
    <_>
      <rect>
        2 19 6 3</rect></_>
    <_>
      <rect>
        3 0 2 6</rect></_>
    <_>
      <rect>
        3 0 4 3</rect></_>
    <_>
      <rect>
        3 2 5 4</rect></_>
    <_>
      <rect>
        3 7 3 3</rect></_>
    <_>
      <rect>
        3 8 3 4</rect></_>
    <_>
      <rect>
        3 8 4 4</rect></_>
    <_>
      <rect>
        3 9 5 4</rect></_>
    <_>
      <rect>
        3 11 2 1</rect></_>
    <_>
      <rect>
        3 12 1 1</rect></_>
    <_>
      <rect>
        3 13 5 4</rect></_>
    <_>
      <rect>
        3 16 3 4</rect></_>
    <_>
      <rect>
        3 18 4 4</rect></_>
    <_>
      <rect>
        3 19 4 2</rect></_>
    <_>
      <rect>
        4 0 3 2</rect></_>
    <_>
      <rect>
        4 1 5 3</rect></_>
    <_>
      <rect>
        4 3 5 2</rect></_>
    <_>
      <rect>
        4 4 2 5</rect></_>
    <_>
      <rect>
        4 5 1 5</rect></_>
    <_>
      <rect>
        4 7 3 5</rect></_>
    <_>
      <rect>
        4 9 1 2</rect></_>
    <_>
      <rect>
        4 10 1 1</rect></_>
    <_>
      <rect>
        4 11 1 1</rect></_>
    <_>
      <rect>
        4 11 2 1</rect></_>
    <_>
      <rect>
        4 12 1 1</rect></_>
    <_>
      <rect>
        4 14 3 3</rect></_>
    <_>
      <rect>
        4 15 1 1</rect></_>
    <_>
      <rect>
        4 20 3 3</rect></_>
    <_>
      <rect>
        5 0 3 4</rect></_>
    <_>
      <rect>
        5 0 4 1</rect></_>
    <_>
      <rect>
        5 1 5 1</rect></_>
    <_>
      <rect>
        5 7 3 6</rect></_>
    <_>
      <rect>
        5 8 3 3</rect></_>
    <_>
      <rect>
        5 8 3 4</rect></_>
    <_>
      <rect>
        5 9 4 3</rect></_>
    <_>
      <rect>
        5 9 5 4</rect></_>
    <_>
      <rect>
        5 11 1 1</rect></_>
    <_>
      <rect>
        5 12 1 1</rect></_>
    <_>
      <rect>
        5 13 1 1</rect></_>
    <_>
      <rect>
        5 17 4 4</rect></_>
    <_>
      <rect>
        5 18 5 4</rect></_>
    <_>
      <rect>
        5 20 1 1</rect></_>
    <_>
      <rect>
        5 23 5 2</rect></_>
    <_>
      <rect>
        6 0 3 3</rect></_>
    <_>
      <rect>
        6 0 4 2</rect></_>
    <_>
      <rect>
        6 1 3 6</rect></_>
    <_>
      <rect>
        6 4 3 6</rect></_>
    <_>
      <rect>
        6 7 1 1</rect></_>
    <_>
      <rect>
        6 11 1 1</rect></_>
    <_>
      <rect>
        6 15 3 5</rect></_>
    <_>
      <rect>
        6 18 1 1</rect></_>
    <_>
      <rect>
        6 22 4 2</rect></_>
    <_>
      <rect>
        7 10 1 1</rect></_>
    <_>
      <rect>
        7 11 2 1</rect></_>
    <_>
      <rect>
        7 12 1 1</rect></_>
    <_>
      <rect>
        7 16 1 1</rect></_>
    <_>
      <rect>
        7 19 1 1</rect></_>
    <_>
      <rect>
        7 21 4 3</rect></_>
    <_>
      <rect>
        7 24 3 2</rect></_>
    <_>
      <rect>
        8 0 4 3</rect></_>
    <_>
      <rect>
        8 0 4 4</rect></_>
    <_>
      <rect>
        8 1 4 5</rect></_>
    <_>
      <rect>
        8 5 4 6</rect></_>
    <_>
      <rect>
        8 6 1 1</rect></_>
    <_>
      <rect>
        8 6 4 8</rect></_>
    <_>
      <rect>
        8 7 1 1</rect></_>
    <_>
      <rect>
        8 8 3 7</rect></_>
    <_>
      <rect>
        8 10 1 1</rect></_>
    <_>
      <rect>
        8 18 4 4</rect></_>
    <_>
      <rect>
        9 0 2 3</rect></_>
    <_>
      <rect>
        9 3 3 2</rect></_>
    <_>
      <rect>
        9 7 1 1</rect></_>
    <_>
      <rect>
        9 10 3 4</rect></_>
    <_>
      <rect>
        9 21 3 3</rect></_>
    <_>
      <rect>
        9 27 2 1</rect></_>
    <_>
      <rect>
        10 0 3 4</rect></_>
    <_>
      <rect>
        10 1 3 1</rect></_>
    <_>
      <rect>
        10 2 2 2</rect></_>
    <_>
      <rect>
        10 3 3 6</rect></_>
    <_>
      <rect>
        10 4 1 1</rect></_>
    <_>
      <rect>
        10 5 1 1</rect></_>
    <_>
      <rect>
        10 7 3 5</rect></_>
    <_>
      <rect>
        10 11 3 6</rect></_>
    <_>
      <rect>
        10 21 1 1</rect></_>
    <_>
      <rect>
        10 24 1 1</rect></_>
    <_>
      <rect>
        10 26 1 1</rect></_>
    <_>
      <rect>
        11 0 3 2</rect></_>
    <_>
      <rect>
        11 0 3 4</rect></_>
    <_>
      <rect>
        11 4 3 6</rect></_>
    <_>
      <rect>
        11 4 3 7</rect></_>
    <_>
      <rect>
        11 6 1 1</rect></_>
    <_>
      <rect>
        11 7 1 1</rect></_>
    <_>
      <rect>
        11 9 3 6</rect></_>
    <_>
      <rect>
        11 11 1 1</rect></_>
    <_>
      <rect>
        11 11 3 6</rect></_>
    <_>
      <rect>
        11 21 1 1</rect></_>
    <_>
      <rect>
        11 24 3 2</rect></_>
    <_>
      <rect>
        11 27 3 1</rect></_>
    <_>
      <rect>
        12 26 2 1</rect></_>
    <_>
      <rect>
        13 0 2 2</rect></_>
    <_>
      <rect>
        13 0 2 5</rect></_>
    <_>
      <rect>
        13 3 1 1</rect></_>
    <_>
      <rect>
        13 5 1 1</rect></_>
    <_>
      <rect>
        13 6 1 1</rect></_>
    <_>
      <rect>
        13 8 2 5</rect></_>
    <_>
      <rect>
        13 11 1 1</rect></_>
    <_>
      <rect>
        13 22 1 1</rect></_>
    <_>
      <rect>
        13 25 1 1</rect></_>
    <_>
      <rect>
        13 26 1 1</rect></_>
    <_>
      <rect>
        14 0 2 1</rect></_>
    <_>
      <rect>
        14 1 2 3</rect></_>
    <_>
      <rect>
        14 10 1 1</rect></_>
    <_>
      <rect>
        14 11 2 6</rect></_>
    <_>
      <rect>
        14 12 2 4</rect></_>
    <_>
      <rect>
        14 12 2 6</rect></_>
    <_>
      <rect>
        14 17 1 1</rect></_>
    <_>
      <rect>
        14 21 2 3</rect></_>
    <_>
      <rect>
        15 8 1 4</rect></_>
    <_>
      <rect>
        15 15 1 1</rect></_>
    <_>
      <rect>
        15 16 1 1</rect></_>
    <_>
      <rect>
        16 6 1 1</rect></_>
    <_>
      <rect>
        16 12 1 5</rect></_>
    <_>
      <rect>
        16 16 1 1</rect></_>
    <_>
      <rect>
        17 10 1 6</rect></_>
    <_>
      <rect>
        17 13 1 2</rect></_></features></cascade>
</opencv_storage>
