<?xml version="1.0"?>
<opencv_storage>
<stage7>
  <maxWeakCount>12</maxWeakCount>
  <stageThreshold>-1.5582036972045898e+000</stageThreshold>
  <weakClassifiers>
    <_>
      <internalNodes>
        0 -1 7418 -588251337 -10486857 -1058014977 -140510881 -285360673
        -69207077 -857867329 -453509337</internalNodes>
      <leafValues>
        -6.7765253782272339e-001 8.1410534679889679e-002</leafValues></_>
    <_>
      <internalNodes>
        0 -1 1259 -525353 -1435501842 -75139342 -67112593 -4464945
        1868803806 1441091953 -268437505</internalNodes>
      <leafValues>
        -5.0965511798858643e-001 2.7933150529861450e-001</leafValues></_>
    <_>
      <internalNodes>
        0 -1 8226 -1365295837 -1348726562 1343836379 -833104941
        -1198851470 1803730945 -301207120 -188951580</internalNodes>
      <leafValues>
        -5.7374107837677002e-001 2.1214450895786285e-001</leafValues></_>
    <_>
      <internalNodes>
        0 -1 7676 -206047236 2141176775 -620707640 630008330 -632601979
        1547765891 -1946961172 734527391</internalNodes>
      <leafValues>
        -5.0282925367355347e-001 2.6694786548614502e-001</leafValues></_>
    <_>
      <internalNodes>
        0 -1 4083 -335179488 -109724697 -82101761 2002766009 -278938885
        -97805695 -375400209 -2065873019</internalNodes>
      <leafValues>
        -4.6549785137176514e-001 2.5368669629096985e-001</leafValues></_>
    <_>
      <internalNodes>
        0 -1 341 -135107618 -250054670 1554112860 -61235107 255899849
        -1082092895 715999724 2138777039</internalNodes>
      <leafValues>
        -4.5847472548484802e-001 2.8570565581321716e-001</leafValues></_>
    <_>
      <internalNodes>
        0 -1 4500 -1311795294 596103296 1610699250 -190922240
        -1836443069 -876412791 286454421 -705699107</internalNodes>
      <leafValues>
        -4.4020128250122070e-001 2.6132071018218994e-001</leafValues></_>
    <_>
      <internalNodes>
        0 -1 7820 1070840821 990425371 300982558 -1081433604 1031803901
        797508288 453577624 -1345049192</internalNodes>
      <leafValues>
        -4.5215469598770142e-001 2.6063925027847290e-001</leafValues></_>
    <_>
      <internalNodes>
        0 -1 8648 -469777882 -1469591349 73858 -421608966 -1014879966
        -653754221 -645676109 -151065648</internalNodes>
      <leafValues>
        -4.6500334143638611e-001 2.2689963877201080e-001</leafValues></_>
    <_>
      <internalNodes>
        0 -1 4146 618672183 -152031382 -17566731 2112089769 -2013284873
        -12124171 -537479282 -909856956</internalNodes>
      <leafValues>
        -2.8608146309852600e-001 4.1029328107833862e-001</leafValues></_>
    <_>
      <internalNodes>
        0 -1 2519 1331571220 2010576333 -1987963110 -1634040910
        1512592069 1167606464 -643758566 1022663918</internalNodes>
      <leafValues>
        -7.0556443929672241e-001 1.7416419088840485e-001</leafValues></_>
    <_>
      <internalNodes>
        0 -1 7554 -1425071613 -356384745 285298942 -699743857 -74794429
        -1969717200 848288417 -16788747</internalNodes>
      <leafValues>
        -4.5779249072074890e-001 2.4240618944168091e-001</leafValues></_></weakClassifiers></stage7>
</opencv_storage>
