<?xml version="1.0"?>
<opencv_storage>
<stage14>
  <maxWeakCount>16</maxWeakCount>
  <stageThreshold>-1.4728028774261475e+000</stageThreshold>
  <weakClassifiers>
    <_>
      <internalNodes>
        0 -1 4384 -740822177 -657600043 554135771 1241339147 -317734990
        -96433530 -1441293409 -540021793</internalNodes>
      <leafValues>
        -5.5393981933593750e-001 2.5414365530014038e-001</leafValues></_>
    <_>
      <internalNodes>
        0 -1 8176 -1731643279 -552402743 151081435 1460621533
        -1331920199 -83886078 -1196909633 -1163388143</internalNodes>
      <leafValues>
        -4.3468537926673889e-001 2.5081267952919006e-001</leafValues></_>
    <_>
      <internalNodes>
        0 -1 8810 -586981345 -963968957 1358954839 -29179566 730468866
        537100419 -1014304018 -17923350</internalNodes>
      <leafValues>
        -3.9214983582496643e-001 2.5500783324241638e-001</leafValues></_>
    <_>
      <internalNodes>
        0 -1 2967 858125467 -1413283824 806473881 861343760 -1589067642
        1778647168 -984295023 2042210489</internalNodes>
      <leafValues>
        -3.8962188363075256e-001 2.5111788511276245e-001</leafValues></_>
    <_>
      <internalNodes>
        0 -1 7829 445120726 269484176 268502201 -653000320 847818996
        -1987854206 688002216 -1620299728</internalNodes>
      <leafValues>
        -2.8986370563507080e-001 3.2352912425994873e-001</leafValues></_>
    <_>
      <internalNodes>
        0 -1 1407 -490028312 1246939472 16828637 843190870 2343082
        168018048 -1069475667 1304897348</internalNodes>
      <leafValues>
        -4.5094347000122070e-001 2.3529179394245148e-001</leafValues></_>
    <_>
      <internalNodes>
        0 -1 1369 -1018703829 -314109814 -788524168 -725249902
        1359140642 672829450 -2130546345 -1962159905</internalNodes>
      <leafValues>
        -3.6028373241424561e-001 2.7459830045700073e-001</leafValues></_>
    <_>
      <internalNodes>
        0 -1 749 35127572 -1848534883 -1823308106 395723602 -349683656
        -1584791421 -654157590 68447190</internalNodes>
      <leafValues>
        -5.9147471189498901e-001 1.6093975305557251e-001</leafValues></_>
    <_>
      <internalNodes>
        0 -1 4848 -1596076026 861148740 83890709 1595799115 1377479322
        -1693278198 -364281333 338087436</internalNodes>
      <leafValues>
        -4.2618116736412048e-001 2.1336282789707184e-001</leafValues></_>
    <_>
      <internalNodes>
        0 -1 5336 -312753098 2065301715 1099005970 470028566 570444005
        981500048 -1727436518 2122930819</internalNodes>
      <leafValues>
        -4.0167340636253357e-001 2.4029390513896942e-001</leafValues></_>
    <_>
      <internalNodes>
        0 -1 3885 -1441595309 -828899326 -1744814055 -1138868080
        -1047901255 1082392712 -1585160173 -72688752</internalNodes>
      <leafValues>
        -4.5827299356460571e-001 1.9846269488334656e-001</leafValues></_>
    <_>
      <internalNodes>
        0 -1 4954 -515962105 -1845499138 1056956227 259706032 -33669334
        -146342021 -32064236 -1038910181</internalNodes>
      <leafValues>
        -2.8645873069763184e-001 3.4142965078353882e-001</leafValues></_>
    <_>
      <internalNodes>
        0 -1 7528 935104108 1936179798 268489698 1656752695 -653678572
        1398408208 -95432038 268752973</internalNodes>
      <leafValues>
        -4.5430392026901245e-001 2.0420588552951813e-001</leafValues></_>
    <_>
      <internalNodes>
        0 -1 8609 894817056 1599488158 -2063482880 94802502 1540061865
        1745035273 -238615896 836463243</internalNodes>
      <leafValues>
        -4.1012006998062134e-001 2.2718553245067596e-001</leafValues></_>
    <_>
      <internalNodes>
        0 -1 8131 339251410 -610316133 1283458974 -820160419 -636835116
        -1820061544 -1994808578 -1441777338</internalNodes>
      <leafValues>
        -3.5440179705619812e-001 2.6605820655822754e-001</leafValues></_>
    <_>
      <internalNodes>
        0 -1 2439 -2079708395 -753872420 285229343 395739520 -671068179
        251672705 -285095631 504763031</internalNodes>
      <leafValues>
        -3.7605866789817810e-001 2.6427391171455383e-001</leafValues></_></weakClassifiers></stage14>
</opencv_storage>
