<?xml version="1.0"?>
<opencv_storage>
<stage13>
  <maxWeakCount>15</maxWeakCount>
  <stageThreshold>-1.5080506801605225e+000</stageThreshold>
  <weakClassifiers>
    <_>
      <internalNodes>
        0 -1 7161 -673187921 -184972333 -941978866 -707624361 -109085944
        -779762866 -364125649 -140509505</internalNodes>
      <leafValues>
        -6.2814068794250488e-001 3.8902578832332259e-017</leafValues></_>
    <_>
      <internalNodes>
        0 -1 9077 -137366539 1430479619 -1039937507 -1619145981
        -1181267283 -930906112 -1874141493 -2017473905</internalNodes>
      <leafValues>
        -3.4042730927467346e-001 3.2095316052436829e-001</leafValues></_>
    <_>
      <internalNodes>
        0 -1 5029 -843083350 -876048238 25285076 -112516965 562706491
        696287242 -2138861545 -20196574</internalNodes>
      <leafValues>
        -3.5853740572929382e-001 2.7924007177352905e-001</leafValues></_>
    <_>
      <internalNodes>
        0 -1 7071 34608385 -496496639 -1073622191 2065570012 -1853224523
        -2105016320 -91571997 -1898176843</internalNodes>
      <leafValues>
        -5.2587455511093140e-001 1.8207432329654694e-001</leafValues></_>
    <_>
      <internalNodes>
        0 -1 8574 -203439865 1851490499 1342799938 -297189242 -123559422
        1661632641 -476992766 -241249569</internalNodes>
      <leafValues>
        -3.9336344599723816e-001 2.4747928977012634e-001</leafValues></_>
    <_>
      <internalNodes>
        0 -1 5277 -2012475202 -557297598 286315925 -1721970536
        -1308514149 -930480117 -343185159 -1356062608</internalNodes>
      <leafValues>
        -3.2084432244300842e-001 3.0511230230331421e-001</leafValues></_>
    <_>
      <internalNodes>
        0 -1 5741 -2119595621 -1366798198 -788446191 -623476592
        -1920241643 -896827256 1235972529 -256184080</internalNodes>
      <leafValues>
        -5.1699966192245483e-001 1.5440730750560760e-001</leafValues></_>
    <_>
      <internalNodes>
        0 -1 4090 888805403 863473648 1677310905 -270029136 380938095
        -1881833665 2003184799 -1697610272</internalNodes>
      <leafValues>
        -2.5060698390007019e-001 3.6571818590164185e-001</leafValues></_>
    <_>
      <internalNodes>
        0 -1 435 1666366366 -781676302 -1072568201 1145045057
        -2126242286 -2071976823 1646424446 493046287</internalNodes>
      <leafValues>
        -5.5593729019165039e-001 1.7209188640117645e-001</leafValues></_>
    <_>
      <internalNodes>
        0 -1 6237 -657573358 1978430623 1343407268 25952775 -675206984
        2030446604 -1066784762 2010456583</internalNodes>
      <leafValues>
        -5.3035593032836914e-001 1.5312679111957550e-001</leafValues></_>
    <_>
      <internalNodes>
        0 -1 1784 -468746334 -1622387685 -1005512419 -549203904
        1644878475 -910125039 403426878 1206380609</internalNodes>
      <leafValues>
        -4.3677484989166260e-001 1.9498190283775330e-001</leafValues></_>
    <_>
      <internalNodes>
        0 -1 812 1449528340 271847431 1426138614 487230231 445476316
        463030494 -1476363876 784477004</internalNodes>
      <leafValues>
        -5.3663504123687744e-001 1.5175843238830566e-001</leafValues></_>
    <_>
      <internalNodes>
        0 -1 3711 -1910505933 -888614656 1358995487 -1072508912
        159916551 -1702658022 17393907 -847312655</internalNodes>
      <leafValues>
        -4.0856695175170898e-001 2.3610147833824158e-001</leafValues></_>
    <_>
      <internalNodes>
        0 -1 7659 195769355 579502211 -1006448624 2029408258 42603042
        1120567560 -1332051775 -758134188</internalNodes>
      <leafValues>
        -4.9017715454101563e-001 1.6936510801315308e-001</leafValues></_>
    <_>
      <internalNodes>
        0 -1 4416 -1104198590 -1060503414 -1744757150 2306758 -82294776
        503357464 1082155285 1384733322</internalNodes>
      <leafValues>
        -5.2902615070343018e-001 1.6514888405799866e-001</leafValues></_></weakClassifiers></stage13>
</opencv_storage>
