<?xml version="1.0"?>
<opencv_storage>
<stage12>
  <maxWeakCount>13</maxWeakCount>
  <stageThreshold>-1.5136462450027466e+000</stageThreshold>
  <weakClassifiers>
    <_>
      <internalNodes>
        0 -1 3658 -142084613 1021044441 -1909369651 346492939 -32192086
        -636313467 -1895499107 -4199937</internalNodes>
      <leafValues>
        -5.9985011816024780e-001 1.2154031544923782e-001</leafValues></_>
    <_>
      <internalNodes>
        0 -1 7416 9700500 -646113059 -1996432929 -1714651009 -1191055175
        -1433792088 -900664417 -1205860352</internalNodes>
      <leafValues>
        -4.9375778436660767e-001 2.3682206869125366e-001</leafValues></_>
    <_>
      <internalNodes>
        0 -1 577 -10884278 -342980060 1343228208 -217561654 403378835
        1233191055 1670541488 1187474071</internalNodes>
      <leafValues>
        -5.4335439205169678e-001 2.1164961159229279e-001</leafValues></_>
    <_>
      <internalNodes>
        0 -1 6932 1595666775 496279769 -788426274 -1547299302 1367671004
        1820893312 -351466820 -1612662102</internalNodes>
      <leafValues>
        -4.1649666428565979e-001 3.0110323429107666e-001</leafValues></_>
    <_>
      <internalNodes>
        0 -1 3512 -1588297438 1505775745 319369229 -779402927
        -1030206808 -1442676598 671812567 -978858365</internalNodes>
      <leafValues>
        -4.9718368053436279e-001 2.2864484786987305e-001</leafValues></_>
    <_>
      <internalNodes>
        0 -1 3872 -803471140 2083787346 -1927753193 2135818634
        -1048001815 -1335850878 1799388303 980159247</internalNodes>
      <leafValues>
        -3.8959613442420959e-001 3.0698210000991821e-001</leafValues></_>
    <_>
      <internalNodes>
        0 -1 4670 2133142788 1468846299 -242723526 -1760165544 990390409
        697475273 -2125781832 751435834</internalNodes>
      <leafValues>
        -7.3668211698532104e-001 1.2844143807888031e-001</leafValues></_>
    <_>
      <internalNodes>
        0 -1 6273 -1584955093 570925248 -1877982731 -154156856
        -1962405877 134217728 -208543600 -157289595</internalNodes>
      <leafValues>
        -5.0453025102615356e-001 1.7602220177650452e-001</leafValues></_>
    <_>
      <internalNodes>
        0 -1 7527 -495595994 -1298623785 816877614 -699492212 -481414634
        1946468352 -125132690 1382250966</internalNodes>
      <leafValues>
        -4.9999472498893738e-001 2.3821766674518585e-001</leafValues></_>
    <_>
      <internalNodes>
        0 -1 8441 -2075602921 324567158 8671379 -1995980542 -654134331
        -620525439 1215945641 -334174925</internalNodes>
      <leafValues>
        -3.9345377683639526e-001 2.7641776204109192e-001</leafValues></_>
    <_>
      <internalNodes>
        0 -1 2642 -914198256 -41009152 1996673375 1596064543 -1122858926
        -366690264 -250410801 1103955847</internalNodes>
      <leafValues>
        -3.7049394845962524e-001 2.9766586422920227e-001</leafValues></_>
    <_>
      <internalNodes>
        0 -1 3993 -1441180656 827740627 -1073704952 387466587 1789551341
        729808899 964825840 169382448</internalNodes>
      <leafValues>
        -6.1980611085891724e-001 1.5993012487888336e-001</leafValues></_>
    <_>
      <internalNodes>
        0 -1 751 -674592254 -732261729 -1056382569 1578894090 -535799092
        -251403887 -2104924033 648743175</internalNodes>
      <leafValues>
        -3.7925097346305847e-001 2.5411757826805115e-001</leafValues></_></weakClassifiers></stage12>
</opencv_storage>
