<?xml version="1.0"?>
<opencv_storage>
<stage11>
  <maxWeakCount>15</maxWeakCount>
  <stageThreshold>-1.7336889505386353e+000</stageThreshold>
  <weakClassifiers>
    <_>
      <internalNodes>
        0 -1 3255 -639771593 -202269541 286364637 -577023601 -930285377
        -92094246 -628885089 -355767925</internalNodes>
      <leafValues>
        -5.8019942045211792e-001 2.4707716703414917e-001</leafValues></_>
    <_>
      <internalNodes>
        0 -1 2228 -506378321 -2635489 247464719 -33562753 -544949316
        -801853337 -874391142 -20451409</internalNodes>
      <leafValues>
        -3.2952871918678284e-001 3.6353692412376404e-001</leafValues></_>
    <_>
      <internalNodes>
        0 -1 4530 -1215565406 -1491140352 1510588914 -539081520
        -921982417 1225261194 -2087026447 -638865263</internalNodes>
      <leafValues>
        -4.2400261759757996e-001 2.7051281929016113e-001</leafValues></_>
    <_>
      <internalNodes>
        0 -1 5930 2111142397 333259200 -1861672549 -1253043814 823663097
        -1987518335 -1308620295 -1157679176</internalNodes>
      <leafValues>
        -3.4390747547149658e-001 3.0647504329681396e-001</leafValues></_>
    <_>
      <internalNodes>
        0 -1 5977 -2072932191 -598161089 -770604577 -1122236537
        -393623399 -1143437174 142705167 -2139092478</internalNodes>
      <leafValues>
        -4.3399968743324280e-001 2.8178364038467407e-001</leafValues></_>
    <_>
      <internalNodes>
        0 -1 5825 13247289 -1431781357 -788246319 -67239734 411699432
        -1599600512 -1869978896 -1111428444</internalNodes>
      <leafValues>
        -5.1009154319763184e-001 1.9243958592414856e-001</leafValues></_>
    <_>
      <internalNodes>
        0 -1 349 -1756053154 -1877421360 -2147366788 80494656
        -1702573802 147919370 734727228 1012486090</internalNodes>
      <leafValues>
        -6.1271035671234131e-001 1.8168693780899048e-001</leafValues></_>
    <_>
      <internalNodes>
        0 -1 4458 -612893218 732889920 -1811373268 583315603 -1426033920
        1623493193 1535198022 595309455</internalNodes>
      <leafValues>
        -4.9052485823631287e-001 2.0562887191772461e-001</leafValues></_>
    <_>
      <internalNodes>
        0 -1 6786 -16255228 1410720603 -1324219736 538745246 -1088865772
        1881721611 499290924 1648714606</internalNodes>
      <leafValues>
        -5.1299244165420532e-001 1.8828450143337250e-001</leafValues></_>
    <_>
      <internalNodes>
        0 -1 2625 -1694302792 -1713639212 -1853671237 -1157058146
        -131563061 -1152745406 -1518137122 88327432</internalNodes>
      <leafValues>
        -4.3062922358512878e-001 2.2065867483615875e-001</leafValues></_>
    <_>
      <internalNodes>
        0 -1 761 1801520748 2131866409 289440858 157029138 1804098460
        1526760137 -913768274 247868094</internalNodes>
      <leafValues>
        -5.8562242984771729e-001 1.7219254374504089e-001</leafValues></_>
    <_>
      <internalNodes>
        0 -1 718 1130039783 -858451828 1359069650 -3436326 680272891
        1904345104 -1474626602 -1212695845</internalNodes>
      <leafValues>
        -3.5299277305603027e-001 2.7936559915542603e-001</leafValues></_>
    <_>
      <internalNodes>
        0 -1 9091 -383878602 -1102675392 1141018946 -904728440
        1674396225 -1834774527 -337637364 -461733236</internalNodes>
      <leafValues>
        -4.5143899321556091e-001 2.2292889654636383e-001</leafValues></_>
    <_>
      <internalNodes>
        0 -1 31 1112028498 -201392167 1064189951 -11949471 -939563589
        -1078002252 -310384949 -933424128</internalNodes>
      <leafValues>
        -3.0597525835037231e-001 3.4113463759422302e-001</leafValues></_>
    <_>
      <internalNodes>
        0 -1 7578 -1954314206 -2109669246 -805289581 -836878130
        -401039325 193462408 -1425295134 -392461899</internalNodes>
      <leafValues>
        -4.5012664794921875e-001 2.2689281404018402e-001</leafValues></_></weakClassifiers></stage11>
</opencv_storage>
