<?xml version="1.0"?>
<opencv_storage>
<stage10>
  <maxWeakCount>14</maxWeakCount>
  <stageThreshold>-1.8147122859954834e+000</stageThreshold>
  <weakClassifiers>
    <_>
      <internalNodes>
        0 -1 8771 -69207041 -540740897 -1559252774 -170474596 -888440981
        -624746493 -1546687605 -1055797</internalNodes>
      <leafValues>
        -5.8082145452499390e-001 2.2230595350265503e-001</leafValues></_>
    <_>
      <internalNodes>
        0 -1 3805 -410521133 -1014771199 1343344691 -7142973 1242221019
        -1468006392 -779374349 -537929549</internalNodes>
      <leafValues>
        -3.6231395602226257e-001 3.3750194311141968e-001</leafValues></_>
    <_>
      <internalNodes>
        0 -1 4417 -17827842 -1191249173 1610589259 24637435 -268894328
        -591110346 -854272612 -16802145</internalNodes>
      <leafValues>
        -2.7892294526100159e-001 4.2312213778495789e-001</leafValues></_>
    <_>
      <internalNodes>
        0 -1 4807 -1071602416 2039910805 -1849214113 -539879247
        -1152787725 -609845025 -1425425478 -1934260219</internalNodes>
      <leafValues>
        -4.4119805097579956e-001 2.5105455517768860e-001</leafValues></_>
    <_>
      <internalNodes>
        0 -1 167 2029836926 -791087913 -1575755501 -729683641 1136902819
        -1896541677 -372696562 1851920232</internalNodes>
      <leafValues>
        -5.3890830278396606e-001 2.3470777273178101e-001</leafValues></_>
    <_>
      <internalNodes>
        0 -1 4759 -979930755 2113532189 117445022 499917272 218200506
        2037184666 1598565309 -1677911045</internalNodes>
      <leafValues>
        -3.6747074127197266e-001 2.9494002461433411e-001</leafValues></_>
    <_>
      <internalNodes>
        0 -1 1344 -137378177 -1604343446 731547306 26509342 -1704559992
        278316065 1749142436 2111560447</internalNodes>
      <leafValues>
        -4.0694698691368103e-001 2.5421494245529175e-001</leafValues></_>
    <_>
      <internalNodes>
        0 -1 5239 -539678283 1909641418 890372376 -1244786670 -534666535
        2105560195 -501662724 798372511</internalNodes>
      <leafValues>
        -4.5609378814697266e-001 2.1145908534526825e-001</leafValues></_>
    <_>
      <internalNodes>
        0 -1 8392 849310559 710127682 -805220142 -526773869 989990945
        2047606912 -1576342928 -1426656268</internalNodes>
      <leafValues>
        -5.9159165620803833e-001 1.5059985220432281e-001</leafValues></_>
    <_>
      <internalNodes>
        0 -1 502 -319626406 -107432894 -1656241773 -522997820 906091393
        1779141632 1380007610 2069770087</internalNodes>
      <leafValues>
        -3.8357013463973999e-001 2.5627350807189941e-001</leafValues></_>
    <_>
      <internalNodes>
        0 -1 1839 -1108617693 -135401485 -259 1073608686 -5 -873205897
        -603986181 -403757374</internalNodes>
      <leafValues>
        -3.0368375778198242e-001 3.5045924782752991e-001</leafValues></_>
    <_>
      <internalNodes>
        0 -1 8420 787750141 2113355542 1627287285 -266493 215818125
        1864695669 -1090523158 -1130347124</internalNodes>
      <leafValues>
        -2.8087404370307922e-001 3.7145259976387024e-001</leafValues></_>
    <_>
      <internalNodes>
        0 -1 8898 -1432551343 -485834543 -1878933051 -401993512
        2055725075 1350697088 -91573836 -84629408</internalNodes>
      <leafValues>
        -5.0243353843688965e-001 2.0442132651805878e-001</leafValues></_>
    <_>
      <internalNodes>
        0 -1 208 198888038 38182934 -1878076332 2100794504 988920279
        987482214 1528021844 125303362</internalNodes>
      <leafValues>
        -6.3421314954757690e-001 1.2749095261096954e-001</leafValues></_></weakClassifiers></stage10>
</opencv_storage>
