<?xml version="1.0"?>
<opencv_storage>
<stage6>
  <maxWeakCount>11</maxWeakCount>
  <stageThreshold>-1.7766478061676025e+000</stageThreshold>
  <weakClassifiers>
    <_>
      <internalNodes>
        0 -1 2931 -539231233 -1429544342 -652357125 -236979749 -79700017
        -1681548068 1469403217 -805306369</internalNodes>
      <leafValues>
        -7.1813374757766724e-001 -4.9261082895100117e-003</leafValues></_>
    <_>
      <internalNodes>
        0 -1 4710 1073418623 -69598086 -787229697 -2191162 -1333233189
        -75263840 -91227969 -18072648</internalNodes>
      <leafValues>
        -4.9183350801467896e-001 3.1503531336784363e-001</leafValues></_>
    <_>
      <internalNodes>
        0 -1 6452 1599987711 1064368605 -849672962 -1078068842 -74842119
        2051664283 437069244 2146934430</internalNodes>
      <leafValues>
        -4.5925265550613403e-001 3.1029161810874939e-001</leafValues></_>
    <_>
      <internalNodes>
        0 -1 6537 -2053073103 -19293967 -499008034 -2250217 -622875665
        -1080051571 -91637089 -1943532543</internalNodes>
      <leafValues>
        -5.2965688705444336e-001 2.5240576267242432e-001</leafValues></_>
    <_>
      <internalNodes>
        0 -1 8960 -471887570 -498925528 -795750146 -120008260
        -1987366128 -218066944 -259282024 -151063557</internalNodes>
      <leafValues>
        -3.8652345538139343e-001 3.4934499859809875e-001</leafValues></_>
    <_>
      <internalNodes>
        0 -1 5723 -15991896 -1408319290 -520039438 -233647942
        -2000086262 1133217946 867950822 -167791909</internalNodes>
      <leafValues>
        -5.1411163806915283e-001 2.5948429107666016e-001</leafValues></_>
    <_>
      <internalNodes>
        0 -1 3196 -356634828 -1075956769 -384499375 524172307 2030656511
        -1194388787 2039495359 682900407</internalNodes>
      <leafValues>
        -5.9130537509918213e-001 2.3885460197925568e-001</leafValues></_>
    <_>
      <internalNodes>
        0 -1 1010 -555422638 -320022024 507900655 -61439194 81131764
        -95575859 982241530 1786728295</internalNodes>
      <leafValues>
        -4.8946264386177063e-001 2.3748004436492920e-001</leafValues></_>
    <_>
      <internalNodes>
        0 -1 5741 -1416646366 -1413261176 -787359280 -53006122 93024279
        -809465720 -644152847 -168828684</internalNodes>
      <leafValues>
        -5.0806444883346558e-001 2.3290951550006866e-001</leafValues></_>
    <_>
      <internalNodes>
        0 -1 3133 1556891438 -589833065 17960207 2103317855 1609014730
        -1328483679 -793821409 598747923</internalNodes>
      <leafValues>
        -4.8634669184684753e-001 2.6535245776176453e-001</leafValues></_>
    <_>
      <internalNodes>
        0 -1 8117 416112375 902615176 -1862198951 -1109749284 1754360058
        -911701880 428419324 -807880484</internalNodes>
      <leafValues>
        -4.0580141544342041e-001 3.2368093729019165e-001</leafValues></_></weakClassifiers></stage6>
</opencv_storage>
