<?xml version="1.0"?>
<opencv_storage>
<cascade>
  <stageType>BOOST</stageType>
  <featureType>LBP</featureType>
  <height>30</height>
  <width>20</width>
  <stageParams>
    <boostType>GAB</boostType>
    <minHitRate>9.9500000476837158e-001</minHitRate>
    <maxFalseAlarm>5.0000000000000000e-001</maxFalseAlarm>
    <weightTrimRate>9.4999999999999996e-001</weightTrimRate>
    <maxDepth>1</maxDepth>
    <maxWeakCount>100</maxWeakCount></stageParams>
  <featureParams>
    <maxCatCount>256</maxCatCount>
    <featSize>1</featSize></featureParams>
  <stageNum>15</stageNum>
  <stages>
    <!-- stage 0 -->
    <_>
      <maxWeakCount>6</maxWeakCount>
      <stageThreshold>-1.6409758329391479e+000</stageThreshold>
      <weakClassifiers>
        <_>
          <internalNodes>
            0 -1 24 1364295677 -190979 534396415 -1089069638 1789153789
            -198212 -2556929 -1074255190</internalNodes>
          <leafValues>
            -7.4219810962677002e-001 4.5029875636100769e-001</leafValues></_>
        <_>
          <internalNodes>
            0 -1 110 279975152 -36042543 -1857432069 -10497895
            -108485891 -1148649310 -1291273281 -1096279804</internalNodes>
          <leafValues>
            -7.4178194999694824e-001 4.3424040079116821e-001</leafValues></_>
        <_>
          <internalNodes>
            0 -1 100 -145359168 -111157363 -531379201 -1788870737
            -201327635 -619990695 -622070849 539474703</internalNodes>
          <leafValues>
            -6.4477282762527466e-001 4.3860745429992676e-001</leafValues></_>
        <_>
          <internalNodes>
            0 -1 51 -1346633737 -273481805 -268435457 -81932 -285212681
            -268435467 -268503049 -268442124</internalNodes>
          <leafValues>
            -4.6353229880332947e-001 5.6853824853897095e-001</leafValues></_>
        <_>
          <internalNodes>
            0 -1 95 632758325 -1140911970 -619976229 -1076227310
            -928490856 -611647350 -611652872 -1430762776</internalNodes>
          <leafValues>
            -5.9375250339508057e-001 4.2655524611473083e-001</leafValues></_>
        <_>
          <internalNodes>
            0 -1 146 -493395617 -535490479 -802950914 -1334968100
            -1144045487 1208057866 -660342049 -220464961</internalNodes>
          <leafValues>
            -4.8584046959877014e-001 5.1299124956130981e-001</leafValues></_></weakClassifiers></_>
    <!-- stage 1 -->
    <_>
      <maxWeakCount>7</maxWeakCount>
      <stageThreshold>-1.3797982931137085e+000</stageThreshold>
      <weakClassifiers>
        <_>
          <internalNodes>
            0 -1 14 -978850065 -2621441 1469578751 -538971267 -2359329
            -67376390 -4981761 -145628638</internalNodes>
          <leafValues>
            -7.2550588846206665e-001 3.0910900235176086e-001</leafValues></_>
        <_>
          <internalNodes>
            0 -1 121 -1073807361 -1610957828 -638739459 -137366568
            519879423 -1144004437 467352573 -1074848356</internalNodes>
          <leafValues>
            -6.0655498504638672e-001 4.5948749780654907e-001</leafValues></_>
        <_>
          <internalNodes>
            0 -1 3 -114 -1157828740 1402153132 -153835524 1064378205
            873749197 930941737 2130704379</internalNodes>
          <leafValues>
            -6.1447823047637939e-001 3.7933152914047241e-001</leafValues></_>
        <_>
          <internalNodes>
            0 -1 27 57680177 -490543 1595522911 2013065149 -1912759297
            -104945226 -913270275 -1937503232</internalNodes>
          <leafValues>
            -5.5051332712173462e-001 4.1036802530288696e-001</leafValues></_>
        <_>
          <internalNodes>
            0 -1 145 -270540017 -1373771629 -771697278 -430190373
            -930946445 -1803436004 -120924588 -151586415</internalNodes>
          <leafValues>
            -6.1656421422958374e-001 3.8515833020210266e-001</leafValues></_>
        <_>
          <internalNodes>
            0 -1 74 997481469 2078241141 1511478527 960118228
            -1441259300 -70580214 -340739122 -1141228920</internalNodes>
          <leafValues>
            -5.5791658163070679e-001 4.0916910767555237e-001</leafValues></_>
        <_>
          <internalNodes>
            0 -1 41 -878709470 -1966362606 -1824272174 -86077014
            529097527 1653506048 -1064677132 -251666032</internalNodes>
          <leafValues>
            -6.2166142463684082e-001 3.6376789212226868e-001</leafValues></_></weakClassifiers></_>
    <!-- stage 2 -->
    <_>
      <maxWeakCount>7</maxWeakCount>
      <stageThreshold>-1.4098982810974121e+000</stageThreshold>
      <weakClassifiers>
        <_>
          <internalNodes>
            0 -1 131 -1074531331 -1075277680 -644623873 -12068
            -1164969493 -1156874087 -1076101891 -1073786691</internalNodes>
          <leafValues>
            -7.1073222160339355e-001 2.6947891712188721e-001</leafValues></_>
        <_>
          <internalNodes>
            0 -1 13 -1068512666 -169874177 1444928343 -2621694
            -744488961 -85202753 -83366033 1618214659</internalNodes>
          <leafValues>
            -6.4759910106658936e-001 3.5006695985794067e-001</leafValues></_>
        <_>
          <internalNodes>
            0 -1 118 -3149314 401084605 -772629572 127898964 -844467748
            496597245 -71798788 1606418431</internalNodes>
          <leafValues>
            -5.6422889232635498e-001 3.7754201889038086e-001</leafValues></_>
        <_>
          <internalNodes>
            0 -1 85 -1970268879 -631647791 -1869483523 -1074220843
            -1182729987 -1191083904 -1680241999 -1951923792</internalNodes>
          <leafValues>
            -6.4545750617980957e-001 3.3345556259155273e-001</leafValues></_>
        <_>
          <internalNodes>
            0 -1 15 -245596452 -539700225 1482078696 -68886257
            -549730055 -1783158216 -3327313 1060843275</internalNodes>
          <leafValues>
            -5.7999211549758911e-001 3.5783046483993530e-001</leafValues></_>
        <_>
          <internalNodes>
            0 -1 45 -153146673 1985954013 -1065234357 2046824643
            -608493494 2030569480 -142023858 -21562883</internalNodes>
          <leafValues>
            -4.9840983748435974e-001 4.2009860277175903e-001</leafValues></_>
        <_>
          <internalNodes>
            0 -1 144 -287347841 -1552953257 -786853163 -494935714
            -762631600 -1300004864 -355745032 -218956805</internalNodes>
          <leafValues>
            -5.1233768463134766e-001 3.8019031286239624e-001</leafValues></_></weakClassifiers></_>
    <!-- stage 3 -->
    <_>
      <maxWeakCount>9</maxWeakCount>
      <stageThreshold>-1.9168802499771118e+000</stageThreshold>
      <weakClassifiers>
        <_>
          <internalNodes>
            0 -1 62 360316927 534052317 432617471 -538996289 2110585853
            -40064260 -1075897686 -1073763670</internalNodes>
          <leafValues>
            -6.9454401731491089e-001 2.4671384692192078e-001</leafValues></_>
        <_>
          <internalNodes>
            0 -1 137 -201892517 -44576417 -1862024709 -90978081
            -628438518 -1140260213 -91491346 -18415617</internalNodes>
          <leafValues>
            -5.0182461738586426e-001 4.6146014332771301e-001</leafValues></_>
        <_>
          <internalNodes>
            0 -1 17 -69207302 -103620353 -280591669 -2110989 -346492197
            -775077174 -99115093 2131710955</internalNodes>
          <leafValues>
            -4.6903604269027710e-001 4.4061490893363953e-001</leafValues></_>
        <_>
          <internalNodes>
            0 -1 82 -69248258 1847525456 -786247201 -1307422337
            -74500032 2064318481 -91554832 -67191810</internalNodes>
          <leafValues>
            -4.5618316531181335e-001 4.0924468636512756e-001</leafValues></_>
        <_>
          <internalNodes>
            0 -1 49 -2120181071 -1084243977 -1082265601 -67111051
            -809500673 -356524041 -537926657 -1886583423</internalNodes>
          <leafValues>
            -4.2561835050582886e-001 4.5231533050537109e-001</leafValues></_>
        <_>
          <internalNodes>
            0 -1 129 -74514461 -1584492258 -1853761072 -292627752
            1922032247 -1434271487 1301494004 -3859</internalNodes>
          <leafValues>
            -4.7127154469490051e-001 3.6517739295959473e-001</leafValues></_>
        <_>
          <internalNodes>
            0 -1 39 -874516441 1711509522 1345372306 -95235940
            -611681671 -226488320 -249896192 -224920923</internalNodes>
          <leafValues>
            -5.1232373714447021e-001 3.3790639042854309e-001</leafValues></_>
        <_>
          <internalNodes>
            0 -1 44 -280215844 1541289753 -1806117889 991827357
            -1181070372 -97644373 -1142279458 -1076167841</internalNodes>
          <leafValues>
            -4.7973144054412842e-001 3.5387924313545227e-001</leafValues></_>
        <_>
          <internalNodes>
            0 -1 90 -1430023834 -896564853 290574556 -17117102
            -2104800648 -209485696 -796147616 -152077582</internalNodes>
          <leafValues>
            -4.9983909726142883e-001 3.4945246577262878e-001</leafValues></_></weakClassifiers></_>
    <!-- stage 4 -->
    <_>
      <maxWeakCount>10</maxWeakCount>
      <stageThreshold>-1.6624978780746460e+000</stageThreshold>
      <weakClassifiers>
        <_>
          <internalNodes>
            0 -1 72 -2361110 -33580866 -612248577 -543308353 -68045573
            -7692357 -564789249 1594884095</internalNodes>
          <leafValues>
            -7.1720612049102783e-001 1.5972222387790680e-001</leafValues></_>
        <_>
          <internalNodes>
            0 -1 53 -1348995141 -389066574 -246823469 -3598 -880021313
            -626474868 -748948493 -301992460</internalNodes>
          <leafValues>
            -5.2604198455810547e-001 3.8164988160133362e-001</leafValues></_>
        <_>
          <internalNodes>
            0 -1 83 352597493 -1646491176 425540599 1002257103 525147901
            -1344501192 1050033145 -1346885224</internalNodes>
          <leafValues>
            -5.7579094171524048e-001 3.4805577993392944e-001</leafValues></_>
        <_>
          <internalNodes>
            0 -1 133 -419961853 -134777353 -301989889 -738198273
            -134228230 -142639114 -553652530 -2139888073</internalNodes>
          <leafValues>
            -3.9377388358116150e-001 4.5428988337516785e-001</leafValues></_>
        <_>
          <internalNodes>
            0 -1 2 -147851296 -2119174593 -922741472 -1416910861
            -188755488 1158304101 -72359552 1207956467</internalNodes>
          <leafValues>
            -4.7380018234252930e-001 3.6610570549964905e-001</leafValues></_>
        <_>
          <internalNodes>
            0 -1 123 -1563538819 -1076653793 -587132193 -157920993
            -627318757 -1718943605 -225772801 -1170720195</internalNodes>
          <leafValues>
            -5.0646018981933594e-001 3.3511725068092346e-001</leafValues></_>
        <_>
          <internalNodes>
            0 -1 136 -757094390 1736388689 1661001858 -488980082
            -83177982 1241677827 -343213947 -218131877</internalNodes>
          <leafValues>
            -4.7381189465522766e-001 3.3839017152786255e-001</leafValues></_>
        <_>
          <internalNodes>
            0 -1 150 -2020609089 -1358445695 1895912404 -241248100
            1787417251 -1685569405 -628440079 -2099531</internalNodes>
          <leafValues>
            -3.8560009002685547e-001 3.9809322357177734e-001</leafValues></_>
        <_>
          <internalNodes>
            0 -1 7 -2363427 854858205 -1960967650 853080443 1571229144
            1937967237 2063992926 2136244111</internalNodes>
          <leafValues>
            -4.7705051302909851e-001 3.2977014780044556e-001</leafValues></_>
        <_>
          <internalNodes>
            0 -1 67 -244321133 -774505537 -988836725 -674101553
            -202361933 -531545667 -581195093 1897345791</internalNodes>
          <leafValues>
            -4.1009488701820374e-001 3.7057602405548096e-001</leafValues></_></weakClassifiers></_>
    <!-- stage 5 -->
    <_>
      <maxWeakCount>9</maxWeakCount>
      <stageThreshold>-1.6016887426376343e+000</stageThreshold>
      <weakClassifiers>
        <_>
          <internalNodes>
            0 -1 135 -67111937 -81927937 -766386721 1389614335 -74711474
            -604270582 -14681109 -263169</internalNodes>
          <leafValues>
            -6.7127555608749390e-001 2.3967827856540680e-001</leafValues></_>
        <_>
          <internalNodes>
            0 -1 33 -41951233 1532585983 -397479458 1072831475
            -106165540 2069448716 -1695613954 1073102847</internalNodes>
          <leafValues>
            -5.4023063182830811e-001 3.1680491566658020e-001</leafValues></_>
        <_>
          <internalNodes>
            0 -1 64 275779636 -134366089 -1176969217 -38525411
            -1714897731 -1111905542 -1802126084 -1409283832</internalNodes>
          <leafValues>
            -5.5055397748947144e-001 3.1832668185234070e-001</leafValues></_>
        <_>
          <internalNodes>
            0 -1 103 -176710556 1367299364 -1905607770 298432891
            -183018518 -8584498 1845799850 589294591</internalNodes>
          <leafValues>
            -5.2898615598678589e-001 3.0769199132919312e-001</leafValues></_>
        <_>
          <internalNodes>
            0 -1 113 524573173 -1086039728 457923583 -2279176 979483643
            -1110878036 1066278393 -1410526996</internalNodes>
          <leafValues>
            -5.0017696619033813e-001 3.2727009057998657e-001</leafValues></_>
        <_>
          <internalNodes>
            0 -1 52 -1413365853 -360463998 -1727933993 -37256878
            1267448063 -1157462007 1091290020 -321007179</internalNodes>
          <leafValues>
            -4.7127854824066162e-001 3.4568977355957031e-001</leafValues></_>
        <_>
          <internalNodes>
            0 -1 6 -69472306 919888108 1094822412 164352220 840080211
            827138316 387164943 2012986303</internalNodes>
          <leafValues>
            -5.3313452005386353e-001 2.8007987141609192e-001</leafValues></_>
        <_>
          <internalNodes>
            0 -1 115 -487274490 -611885703 -1012403233 2011099999
            -339739930 -337917877 -356254198 1107881555</internalNodes>
          <leafValues>
            -5.2072387933731079e-001 2.5647664070129395e-001</leafValues></_>
        <_>
          <internalNodes>
            0 -1 56 -1484004575 -1400190829 1359008115 -291581934
            143352434 -368181120 1535373813 -103823771</internalNodes>
          <leafValues>
            -5.3986859321594238e-001 2.5408324599266052e-001</leafValues></_></weakClassifiers></_>
    <!-- stage 6 -->
    <_>
      <maxWeakCount>10</maxWeakCount>
      <stageThreshold>-1.5467355251312256e+000</stageThreshold>
      <weakClassifiers>
        <_>
          <internalNodes>
            0 -1 147 -136316929 -1344302821 -805187373 -2895653
            -1417497858 -1425440615 -225461291 -2106373</internalNodes>
          <leafValues>
            -6.6264593601226807e-001 2.1827957034111023e-001</leafValues></_>
        <_>
          <internalNodes>
            0 -1 38 -139527190 -980699997 -234819670 92996263 -288303709
            1440960967 -678988365 1475298559</internalNodes>
          <leafValues>
            -6.2379330396652222e-001 2.2872589528560638e-001</leafValues></_>
        <_>
          <internalNodes>
            0 -1 63 -236867113 -167919617 -148545 -180227 -69355525
            -16777225 -2257921 -632485489</internalNodes>
          <leafValues>
            -3.3174702525138855e-001 5.1216173171997070e-001</leafValues></_>
        <_>
          <internalNodes>
            0 -1 130 -1086849037 -1347485698 2147483637 -5505036
            1073741527 -1879048193 1610577381 -1610617347</internalNodes>
          <leafValues>
            -3.6433768272399902e-001 4.2403644323348999e-001</leafValues></_>
        <_>
          <internalNodes>
            0 -1 96 152376561 532021170 -1375748097 -1615089925
            788502515 -1612775452 469446623 -1342429972</internalNodes>
          <leafValues>
            -3.1362330913543701e-001 4.6192568540573120e-001</leafValues></_>
        <_>
          <internalNodes>
            0 -1 116 -90182195 -1335600404 -857750975 1520098935
            -262695342 811859461 1650961679 830207931</internalNodes>
          <leafValues>
            -4.8818889260292053e-001 2.7987062931060791e-001</leafValues></_>
        <_>
          <internalNodes>
            0 -1 92 1541100025 -153681773 -510078645 -1302851489
            -125298600 -1467875328 -1433739024 -75846812</internalNodes>
          <leafValues>
            -4.4080233573913574e-001 3.2500573992729187e-001</leafValues></_>
        <_>
          <internalNodes>
            0 -1 76 -2102386031 -606629798 -587102817 -539438827
            -1702716758 -376733544 1519065583 -890758460</internalNodes>
          <leafValues>
            -4.4333475828170776e-001 3.2382243871688843e-001</leafValues></_>
        <_>
          <internalNodes>
            0 -1 80 -1948278650 -494696312 -805045643 1997326480
            1284076146 -1567915894 -473181708 -704796175</internalNodes>
          <leafValues>
            -4.8143976926803589e-001 3.2394501566886902e-001</leafValues></_>
        <_>
          <internalNodes>
            0 -1 22 -3330 817418717 1159103564 433754367 994638773
            998865643 122168589 2138415023</internalNodes>
          <leafValues>
            -4.8622152209281921e-001 2.9327669739723206e-001</leafValues></_></weakClassifiers></_>
    <!-- stage 7 -->
    <_>
      <maxWeakCount>11</maxWeakCount>
      <stageThreshold>-1.4548310041427612e+000</stageThreshold>
      <weakClassifiers>
        <_>
          <internalNodes>
            0 -1 91 -2097153 -722980 500775129 -50279 -200709
            -1077101848 956766463 -16385</internalNodes>
          <leafValues>
            -6.2090092897415161e-001 3.0758619308471680e-001</leafValues></_>
        <_>
          <internalNodes>
            0 -1 60 -67142407 -2141737 -721260485 1071599951 -1165473128
            -91574271 -341918758 -1078002977</internalNodes>
          <leafValues>
            -4.9239271879196167e-001 3.1573390960693359e-001</leafValues></_>
        <_>
          <internalNodes>
            0 -1 124 -287374243 -208977573 -802975265 -94416257
            -389103592 -99972822 -254820357 -29721729</internalNodes>
          <leafValues>
            -4.1328254342079163e-001 3.8240924477577209e-001</leafValues></_>
        <_>
          <internalNodes>
            0 -1 1 1458564814 419417807 -713040319 -51918865 -17760270
            -1066022688 860925959 1937237794</internalNodes>
          <leafValues>
            -5.4432755708694458e-001 2.6340115070343018e-001</leafValues></_>
        <_>
          <internalNodes>
            0 -1 149 -1074791425 -1685409576 272741239 -1612803811
            -1618084991 -125718510 947611133 -104899627</internalNodes>
          <leafValues>
            -3.7718826532363892e-001 3.8423448801040649e-001</leafValues></_>
        <_>
          <internalNodes>
            0 -1 57 -355276310 -100961651 -1312053208 -613935490
            -1573742846 454094332 1774041179 2069224959</internalNodes>
          <leafValues>
            -5.1614081859588623e-001 2.6618406176567078e-001</leafValues></_>
        <_>
          <internalNodes>
            0 -1 127 -286323105 1060634495 -285278225 -93061258
            -16789922 -25165953 -16843009 -1171587849</internalNodes>
          <leafValues>
            -3.3632993698120117e-001 4.0795272588729858e-001</leafValues></_>
        <_>
          <internalNodes>
            0 -1 132 -1037546467 -545429285 125933055 -718284417
            -824484357 -544024661 2049069003 1779578643</internalNodes>
          <leafValues>
            -4.7613525390625000e-001 2.7667975425720215e-001</leafValues></_>
        <_>
          <internalNodes>
            0 -1 106 2004745440 2021777477 -1235869044 1649346583
            -74065187 269576219 1644935014 826265023</internalNodes>
          <leafValues>
            -5.0312125682830811e-001 2.5695598125457764e-001</leafValues></_>
        <_>
          <internalNodes>
            0 -1 28 710216466 -318514734 -653014785 1427490271
            -368461377 -372698720 -1056404488 -856683936</internalNodes>
          <leafValues>
            -4.4275984168052673e-001 2.6574984192848206e-001</leafValues></_>
        <_>
          <internalNodes>
            0 -1 23 658373436 -1219553806 689189075 969646930 1812675004
            -1344726376 2143986524 1792293480</internalNodes>
          <leafValues>
            -4.7011590003967285e-001 2.6402130722999573e-001</leafValues></_></weakClassifiers></_>
    <!-- stage 8 -->
    <_>
      <maxWeakCount>12</maxWeakCount>
      <stageThreshold>-1.8947012424468994e+000</stageThreshold>
      <weakClassifiers>
        <_>
          <internalNodes>
            0 -1 146 -203424953 -14692141 -754871842 -230166317
            -661985210 -75497469 -108266785 -84942849</internalNodes>
          <leafValues>
            -6.7940866947174072e-001 9.5805741846561432e-002</leafValues></_>
        <_>
          <internalNodes>
            0 -1 86 -1451173967 -674524713 -804798261 -136881931
            -393479237 -1182105422 -2087085061 -1342236171</internalNodes>
          <leafValues>
            -4.4792786240577698e-001 3.4820461273193359e-001</leafValues></_>
        <_>
          <internalNodes>
            0 -1 75 -692168323 1566511769 -721169959 -1113959969
            -611693636 -1182138168 -355685634 -1145392389</internalNodes>
          <leafValues>
            -3.8783121109008789e-001 3.8952535390853882e-001</leafValues></_>
        <_>
          <internalNodes>
            0 -1 31 -1070833 -354447265 -134102825 -90517366 -494195961
            1879605256 -74974702 -218639621</internalNodes>
          <leafValues>
            -4.7826543450355530e-001 3.1092625856399536e-001</leafValues></_>
        <_>
          <internalNodes>
            0 -1 119 94305264 -1348826752 1129412340 -539069048
            693843645 194568383 51657917 234845693</internalNodes>
          <leafValues>
            -5.7862967252731323e-001 2.6288932561874390e-001</leafValues></_>
        <_>
          <internalNodes>
            0 -1 70 -286068946 -607423106 -246449312 -984152575 35843055
            -2054863643 1342861535 1425006427</internalNodes>
          <leafValues>
            -4.4011011719703674e-001 3.0097904801368713e-001</leafValues></_>
        <_>
          <internalNodes>
            0 -1 30 -607659302 -762799522 1091391614 320580315 -7113997
            -876388296 -95749583 993885850</internalNodes>
          <leafValues>
            -4.6521499752998352e-001 2.7469372749328613e-001</leafValues></_>
        <_>
          <internalNodes>
            0 -1 12 5284353 -67146275 -751566881 -143536747 995735871
            -100943382 2010745519 1074102530</internalNodes>
          <leafValues>
            -5.5134767293930054e-001 2.1148872375488281e-001</leafValues></_>
        <_>
          <internalNodes>
            0 -1 16 -143988506 -507266850 -1056410710 1303240474
            -685579360 555897205 -888934337 393304063</internalNodes>
          <leafValues>
            -5.3663682937622070e-001 2.2525922954082489e-001</leafValues></_>
        <_>
          <internalNodes>
            0 -1 97 182282746 390299808 -1778346027 -40697140 730545145
            -109969270 181936520 -1077360308</internalNodes>
          <leafValues>
            -3.5526627302169800e-001 3.5075569152832031e-001</leafValues></_>
        <_>
          <internalNodes>
            0 -1 88 1439626284 1343074445 1905466122 521801726
            1609422254 336851194 -500573415 951273799</internalNodes>
          <leafValues>
            -4.8232772946357727e-001 2.4964661896228790e-001</leafValues></_>
        <_>
          <internalNodes>
            0 -1 43 -808981714 -1912143808 286298370 -581971584 42705562
            604110976 -1878294319 -185875468</internalNodes>
          <leafValues>
            -3.3898416161537170e-001 3.5318487882614136e-001</leafValues></_></weakClassifiers></_>
    <!-- stage 9 -->
    <_>
      <maxWeakCount>10</maxWeakCount>
      <stageThreshold>-1.6978306770324707e+000</stageThreshold>
      <weakClassifiers>
        <_>
          <internalNodes>
            0 -1 84 -799543041 -144713961 -438857281 -2113585 -187711521
            -169636977 -202379345 -150229205</internalNodes>
          <leafValues>
            -6.1975491046905518e-001 2.0941759645938873e-001</leafValues></_>
        <_>
          <internalNodes>
            0 -1 50 -1582632559 -69484093 -662581033 -137636459
            -1425372245 -1685544800 -1347701761 -1880407563</internalNodes>
          <leafValues>
            -4.0710994601249695e-001 3.6307337880134583e-001</leafValues></_>
        <_>
          <internalNodes>
            0 -1 59 -69254913 911413387 -804761443 844272639 -221620152
            -485818328 -359871944 -143459393</internalNodes>
          <leafValues>
            -4.5957079529762268e-001 3.1622281670570374e-001</leafValues></_>
        <_>
          <internalNodes>
            0 -1 20 -9461550 1002379466 -1278431360 1574761944
            1064771761 1054806206 -11702295 -821698617</internalNodes>
          <leafValues>
            -5.2489721775054932e-001 2.5266522169113159e-001</leafValues></_>
        <_>
          <internalNodes>
            0 -1 77 568260968 -33603322 1124813627 1543459567 -356189974
            -168286550 -749498437 1472348807</internalNodes>
          <leafValues>
            -4.1222733259201050e-001 3.3663344383239746e-001</leafValues></_>
        <_>
          <internalNodes>
            0 -1 134 -119808642 529824195 1091621544 262298558
            1372550128 1083196043 -345024348 234061806</internalNodes>
          <leafValues>
            -5.0998508930206299e-001 2.5628635287284851e-001</leafValues></_>
        <_>
          <internalNodes>
            0 -1 10 5183891 -3768159 275749369 -649347049 856226537
            -1414887288 -209161540 -856145804</internalNodes>
          <leafValues>
            -3.5926035046577454e-001 3.3232560753822327e-001</leafValues></_>
        <_>
          <internalNodes>
            0 -1 139 -807729557 131055625 -1072676390 718164298
            580621313 50364419 -804589324 -721421853</internalNodes>
          <leafValues>
            -5.2419865131378174e-001 2.5889411568641663e-001</leafValues></_>
        <_>
          <internalNodes>
            0 -1 55 -455450938 -308047829 -988594363 -169918464
            1088439230 14704787 -799575807 1075791987</internalNodes>
          <leafValues>
            -5.4291749000549316e-001 2.3258884251117706e-001</leafValues></_>
        <_>
          <internalNodes>
            0 -1 94 -1332455307 -1081999159 -1073655589 -1617423529
            -1987560823 -1064628223 -1817651014 -1159053137</internalNodes>
          <leafValues>
            -3.9873072504997253e-001 3.2385966181755066e-001</leafValues></_></weakClassifiers></_>
    <!-- stage 10 -->
    <_>
      <maxWeakCount>11</maxWeakCount>
      <stageThreshold>-1.6012282371520996e+000</stageThreshold>
      <weakClassifiers>
        <_>
          <internalNodes>
            0 -1 125 -2097185 -84217361 1397835869 -2374961 -117719073
            -100087373 -618832037 -33</internalNodes>
          <leafValues>
            -5.8545333147048950e-001 3.7532809376716614e-001</leafValues></_>
        <_>
          <internalNodes>
            0 -1 142 -1150291029 -1484263408 -788414094 -551579498
            294375651 -1949663104 -653618799 -838862152</internalNodes>
          <leafValues>
            -4.7551307082176208e-001 2.8214648365974426e-001</leafValues></_>
        <_>
          <internalNodes>
            0 -1 4 2139094014 -221174028 -969831896 394127020 50505554
            921780337 692562719 904915335</internalNodes>
          <leafValues>
            -5.0097924470901489e-001 2.7189263701438904e-001</leafValues></_>
        <_>
          <internalNodes>
            0 -1 65 68167697 -434142821 -917470313 -673836913
            -1308513900 -619200292 -905864313 -2013000956</internalNodes>
          <leafValues>
            -4.7674682736396790e-001 2.7891120314598083e-001</leafValues></_>
        <_>
          <internalNodes>
            0 -1 47 1930720221 -1191438642 458504607 1058146716
            1116216057 -20411462 990407676 -1141098070</internalNodes>
          <leafValues>
            -4.1190591454505920e-001 3.1520259380340576e-001</leafValues></_>
        <_>
          <internalNodes>
            0 -1 9 -857741566 -1621175741 -1056697857 -205524190
            -1009800529 -74944481 -2046883585 1157095459</internalNodes>
          <leafValues>
            -3.6591494083404541e-001 3.6260479688644409e-001</leafValues></_>
        <_>
          <internalNodes>
            0 -1 107 -1378013908 1411196439 -503297329 1130071509
            -1901221206 -2004442304 -1465603346 613695263</internalNodes>
          <leafValues>
            -5.0978094339370728e-001 2.3951910436153412e-001</leafValues></_>
        <_>
          <internalNodes>
            0 -1 105 -738414304 1426824561 -1274456097 1153160823
            -1113886480 -108494794 -1422927379 251399</internalNodes>
          <leafValues>
            -5.3207725286483765e-001 2.3037020862102509e-001</leafValues></_>
        <_>
          <internalNodes>
            0 -1 81 -26282784 -182075371 187216000 254466159 -715934472
            -1781767463 921840267 1568528895</internalNodes>
          <leafValues>
            -4.6396085619926453e-001 2.4160699546337128e-001</leafValues></_>
        <_>
          <internalNodes>
            0 -1 114 787131308 1274536839 -616374108 742820691
            1810100885 -349364157 2143270634 549398038</internalNodes>
          <leafValues>
            -6.6350817680358887e-001 1.8769654631614685e-001</leafValues></_>
        <_>
          <internalNodes>
            0 -1 11 308226355 487791827 1359043419 -539786989 -80561502
            -1566474190 -1149084975 -1882971808</internalNodes>
          <leafValues>
            -3.7798568606376648e-001 3.2500034570693970e-001</leafValues></_></weakClassifiers></_>
    <!-- stage 11 -->
    <_>
      <maxWeakCount>12</maxWeakCount>
      <stageThreshold>-1.7677792310714722e+000</stageThreshold>
      <weakClassifiers>
        <_>
          <internalNodes>
            0 -1 37 -539231301 -37260809 -1895705665 -1953769709
            -611400207 -645250645 -375664197 -538968097</internalNodes>
          <leafValues>
            -6.1451905965805054e-001 2.5906041264533997e-001</leafValues></_>
        <_>
          <internalNodes>
            0 -1 18 -703794982 -16474082 57070203 -346850569 -581043480
            -351063838 -1966935061 981171451</internalNodes>
          <leafValues>
            -4.8568502068519592e-001 3.0817285180091858e-001</leafValues></_>
        <_>
          <internalNodes>
            0 -1 148 -348688025 -676905355 -285212673 -1480698249
            -846155 -1107329545 1073196207 -420286722</internalNodes>
          <leafValues>
            -3.3702665567398071e-001 4.1395404934883118e-001</leafValues></_>
        <_>
          <internalNodes>
            0 -1 122 -12976141 -1485832344 1073741812 -83 -1207961602
            230555647 1576520933 -1644216357</internalNodes>
          <leafValues>
            -3.2851108908653259e-001 4.0293881297111511e-001</leafValues></_>
        <_>
          <internalNodes>
            0 -1 98 -803471139 -2535401 -450245125 -576866033 -107111427
            -12859861 -551966212 990911273</internalNodes>
          <leafValues>
            -4.6697723865509033e-001 2.9956835508346558e-001</leafValues></_>
        <_>
          <internalNodes>
            0 -1 0 1099808768 -1002445409 -1726882813 1608817723
            1707686575 2026115208 -1123697030 1693709219</internalNodes>
          <leafValues>
            -4.5557811856269836e-001 2.9621574282646179e-001</leafValues></_>
        <_>
          <internalNodes>
            0 -1 46 1556903677 -1089183715 386439383 151531866
            2015914700 -607078242 529111961 1675307786</internalNodes>
          <leafValues>
            -4.2022931575775146e-001 3.0775305628776550e-001</leafValues></_>
        <_>
          <internalNodes>
            0 -1 69 -134220562 1882633291 -1324005875 57753419
            -1452099486 -170865814 -1036849012 1934581283</internalNodes>
          <leafValues>
            -4.3220046162605286e-001 3.1439539790153503e-001</leafValues></_>
        <_>
          <internalNodes>
            0 -1 58 -435015540 172458009 -536751926 1309298843
            -1022687160 2064261248 -57959856 -212671501</internalNodes>
          <leafValues>
            -5.6379473209381104e-001 2.2566369175910950e-001</leafValues></_>
        <_>
          <internalNodes>
            0 -1 26 570437905 -1410760255 419779033 466747441 -771132575
            -348024655 -368535283 -1906835132</internalNodes>
          <leafValues>
            -5.6219840049743652e-001 2.1473470330238342e-001</leafValues></_>
        <_>
          <internalNodes>
            0 -1 19 -1213546786 -643000049 -1337937570 1628059990
            1183449993 -64065526 604926910 1610513242</internalNodes>
          <leafValues>
            -4.2456212639808655e-001 3.3779725432395935e-001</leafValues></_>
        <_>
          <internalNodes>
            0 -1 5 -2065845526 -1561144632 -1912486822 402063688 2153975
            281408241 572001031 2112861031</internalNodes>
          <leafValues>
            -5.1570957899093628e-001 2.8725546598434448e-001</leafValues></_></weakClassifiers></_>
    <!-- stage 12 -->
    <_>
      <maxWeakCount>14</maxWeakCount>
      <stageThreshold>-1.8551042079925537e+000</stageThreshold>
      <weakClassifiers>
        <_>
          <internalNodes>
            0 -1 108 -6291457 -217724 -1794753060 -2106480 -1611139077
            -1886858414 967663359 -35651841</internalNodes>
          <leafValues>
            -6.1165046691894531e-001 2.1998701989650726e-001</leafValues></_>
        <_>
          <internalNodes>
            0 -1 140 -220503461 1046171925 -804159010 -229457777
            -82894262 2047543298 -636816696 -85787909</internalNodes>
          <leafValues>
            -4.8605296015739441e-001 2.4715013802051544e-001</leafValues></_>
        <_>
          <internalNodes>
            0 -1 93 -143106599 -101105666 -1073860609 -1208471649
            -50574084 -545259521 -1107513666 -1145946178</internalNodes>
          <leafValues>
            -3.4196951985359192e-001 3.8776722550392151e-001</leafValues></_>
        <_>
          <internalNodes>
            0 -1 109 530709781 -1746340360 1570191069 -1080203300
            941994943 -1081044600 687870969 -1082184503</internalNodes>
          <leafValues>
            -3.5074520111083984e-001 3.2188600301742554e-001</leafValues></_>
        <_>
          <internalNodes>
            0 -1 138 -294174641 527106241 1191203030 -1572826669
            -1333753242 -1845362688 -1332960534 -222891030</internalNodes>
          <leafValues>
            -4.1604331135749817e-001 2.9828056693077087e-001</leafValues></_>
        <_>
          <internalNodes>
            0 -1 21 -8719390 -618540854 -846579258 -942848956 572556994
            816544426 85960382 342744781</internalNodes>
          <leafValues>
            -4.6139663457870483e-001 2.5618630647659302e-001</leafValues></_>
        <_>
          <internalNodes>
            0 -1 112 458937331 260734994 -1878929231 -479149631
            -74569419 169541786 -352128352 -67194376</internalNodes>
          <leafValues>
            -4.1315668821334839e-001 2.8103637695312500e-001</leafValues></_>
        <_>
          <internalNodes>
            0 -1 68 -6160461 -840513668 -22413661 229326807 -2014251760
            -50899465 -1347435102 -72404745</internalNodes>
          <leafValues>
            -3.1393769383430481e-001 3.7248110771179199e-001</leafValues></_>
        <_>
          <internalNodes>
            0 -1 66 1900200216 -1462443265 553650445 -35713058
            -588548016 -1857896296 -1104953972 840499850</internalNodes>
          <leafValues>
            -5.0883436203002930e-001 2.3050607740879059e-001</leafValues></_>
        <_>
          <internalNodes>
            0 -1 35 1345597439 857532634 231102742 188233486 1216959225
            -73086224 -1828179220 1748041378</internalNodes>
          <leafValues>
            -4.8944786190986633e-001 2.1654166281223297e-001</leafValues></_>
        <_>
          <internalNodes>
            0 -1 48 -2121353935 1359471119 -267822113 -1714039843
            -1106525504 -1555332736 -1852577765 -2070609627</internalNodes>
          <leafValues>
            -5.1807308197021484e-001 2.2270521521568298e-001</leafValues></_>
        <_>
          <internalNodes>
            0 -1 78 -539433786 -1337304824 -113176430 -648521979
            -2104369739 2022604968 -2073937813 1429687535</internalNodes>
          <leafValues>
            -3.6894896626472473e-001 2.9814288020133972e-001</leafValues></_>
        <_>
          <internalNodes>
            0 -1 104 -71609992 -541529236 889198744 189495217 700141817
            966279816 290134458 483859096</internalNodes>
          <leafValues>
            -4.4798922538757324e-001 2.4937921762466431e-001</leafValues></_>
        <_>
          <internalNodes>
            0 -1 99 -1640759090 -15158917 1242393977 -69658121
            -662048516 -1713561399 -691291844 -1437553901</internalNodes>
          <leafValues>
            -4.2222321033477783e-001 2.6454335451126099e-001</leafValues></_></weakClassifiers></_>
    <!-- stage 13 -->
    <_>
      <maxWeakCount>12</maxWeakCount>
      <stageThreshold>-1.4664413928985596e+000</stageThreshold>
      <weakClassifiers>
        <_>
          <internalNodes>
            0 -1 29 -42994701 2141180291 1358975411 -1892820001
            -90209803 -909754334 -1716783943 -274867713</internalNodes>
          <leafValues>
            -6.3200002908706665e-001 1.8171428143978119e-001</leafValues></_>
        <_>
          <internalNodes>
            0 -1 128 -490089393 440385625 -2013178676 282296557
            -670397878 1930035491 -1021601074 -144996213</internalNodes>
          <leafValues>
            -5.0018316507339478e-001 2.5387063622474670e-001</leafValues></_>
        <_>
          <internalNodes>
            0 -1 141 -1210461329 -1490298872 285315520 -10563440
            581102251 696778890 1351291124 -973080120</internalNodes>
          <leafValues>
            -4.2684057354927063e-001 3.0562394857406616e-001</leafValues></_>
        <_>
          <internalNodes>
            0 -1 101 -438831908 -253378332 -1827732288 -1115428653
            -522755617 -1333469056 -79771687 994049274</internalNodes>
          <leafValues>
            -4.0941739082336426e-001 3.1598958373069763e-001</leafValues></_>
        <_>
          <internalNodes>
            0 -1 61 1832251060 928825733 222565340 722178724 2034269176
            -1144734532 46738060 733317658</internalNodes>
          <leafValues>
            -5.2872490882873535e-001 2.5379356741905212e-001</leafValues></_>
        <_>
          <internalNodes>
            0 -1 54 597678307 -1600421755 -788512551 -220524518 588027
            -2012708864 1354473555 -829424747</internalNodes>
          <leafValues>
            -4.3009147047996521e-001 2.9594457149505615e-001</leafValues></_>
        <_>
          <internalNodes>
            0 -1 42 1933104910 -841948533 -1860748070 1329809421
            -2134720309 1866596401 -228779265 455080703</internalNodes>
          <leafValues>
            -4.2313247919082642e-001 2.8279745578765869e-001</leafValues></_>
        <_>
          <internalNodes>
            0 -1 79 -151586720 -174646965 -670001140 1157433966
            -458078526 624037943 -153089371 624825071</internalNodes>
          <leafValues>
            -5.2659732103347778e-001 2.3997217416763306e-001</leafValues></_>
        <_>
          <internalNodes>
            0 -1 36 739182596 1821321548 1360523579 1829202199
            -791641616 2055389320 -248890825 807594258</internalNodes>
          <leafValues>
            -6.3802146911621094e-001 1.9327627122402191e-001</leafValues></_>
        <_>
          <internalNodes>
            0 -1 34 -1033956615 -1827434288 -2130672164 689738307
            -1064691128 -922746872 -1019161938 -85014342</internalNodes>
          <leafValues>
            -3.6340129375457764e-001 3.6461037397384644e-001</leafValues></_>
        <_>
          <internalNodes>
            0 -1 151 -1306987612 -1820048751 -2147139492 -251313531
            -1157391727 427853954 -1608836440 -1995488891</internalNodes>
          <leafValues>
            -4.2444524168968201e-001 2.9178085923194885e-001</leafValues></_>
        <_>
          <internalNodes>
            0 -1 126 -1429524353 573243520 -1852829358 -292794302
            1258991665 -1693941736 -1945436047 -54615855</internalNodes>
          <leafValues>
            -5.4578518867492676e-001 2.3731873929500580e-001</leafValues></_></weakClassifiers></_>
    <!-- stage 14 -->
    <_>
      <maxWeakCount>13</maxWeakCount>
      <stageThreshold>-1.6071746349334717e+000</stageThreshold>
      <weakClassifiers>
        <_>
          <internalNodes>
            0 -1 87 -573178889 -178924413 -1056471911 -983850793
            -1311669577 1090570374 -399806041 -3170837</internalNodes>
          <leafValues>
            -5.9781843423843384e-001 3.0243161320686340e-001</leafValues></_>
        <_>
          <internalNodes>
            0 -1 120 -846118322 492027969 1745141898 270094489
            -1727469564 721944584 -1744574262 -1237087605</internalNodes>
          <leafValues>
            -5.6002640724182129e-001 2.1048176288604736e-001</leafValues></_>
        <_>
          <internalNodes>
            0 -1 40 -1010042461 -868036342 1360008659 -545078829
            164229811 143270016 8925408 -359173421</internalNodes>
          <leafValues>
            -3.9636093378067017e-001 3.4681370854377747e-001</leafValues></_>
        <_>
          <internalNodes>
            0 -1 111 -349975029 -204890111 5310933 1368736267
            -2121682698 -602177402 -670414641 570547459</internalNodes>
          <leafValues>
            -4.1197726130485535e-001 3.2684281468391418e-001</leafValues></_>
        <_>
          <internalNodes>
            0 -1 73 292344 965878152 285217280 823146714 -1693957976
            1510742024 -1740109584 147468498</internalNodes>
          <leafValues>
            -6.9434297084808350e-001 2.2405859827995300e-001</leafValues></_>
        <_>
          <internalNodes>
            0 -1 102 -942706036 535239893 -2147446712 1665992850
            -2105408574 1117931603 201364168 956851049</internalNodes>
          <leafValues>
            -5.5142945051193237e-001 2.5144094228744507e-001</leafValues></_>
        <_>
          <internalNodes>
            0 -1 32 -749257669 -564969455 4177 -1711128567 -1072995959
            1208027264 -1056308646 -1148530037</internalNodes>
          <leafValues>
            -3.7342411279678345e-001 3.6783197522163391e-001</leafValues></_>
        <_>
          <internalNodes>
            0 -1 25 322452859 -207132894 1727266615 1534535200
            1266024431 -1896923268 -52128625 -1630228908</internalNodes>
          <leafValues>
            -3.3913055062294006e-001 4.4316992163658142e-001</leafValues></_>
        <_>
          <internalNodes>
            0 -1 143 -2120713968 -2083225600 65616 1393934340 770203
            -1022754808 553857229 328028300</internalNodes>
          <leafValues>
            -6.1865878105163574e-001 2.3453444242477417e-001</leafValues></_>
        <_>
          <internalNodes>
            0 -1 117 -184632081 1987225443 988736283 598425211
            -134754680 -1199603715 -1476396918 -1288470657</internalNodes>
          <leafValues>
            -2.9851016402244568e-001 4.5142316818237305e-001</leafValues></_>
        <_>
          <internalNodes>
            0 -1 8 -486342006 425021610 -2147205097 353165779
            -1070914980 109121672 -930965232 1837230155</internalNodes>
          <leafValues>
            -4.6756917238235474e-001 2.7388042211532593e-001</leafValues></_>
        <_>
          <internalNodes>
            0 -1 89 1926699062 1160792415 256256 279005187 1116838720
            -1456864249 -260030428 1997595232</internalNodes>
          <leafValues>
            -5.3347569704055786e-001 2.4741078913211823e-001</leafValues></_>
        <_>
          <internalNodes>
            0 -1 71 123386318 273760268 1078395202 83951625 -528293242
            1839794184 327444666 411413834</internalNodes>
          <leafValues>
            -4.9248945713043213e-001 2.7891013026237488e-001</leafValues></_></weakClassifiers></_></stages>
  <features>
    <_>
      <rect>
        0 2 4 4</rect></_>
    <_>
      <rect>
        0 4 4 4</rect></_>
    <_>
      <rect>
        0 7 3 5</rect></_>
    <_>
      <rect>
        0 9 3 7</rect></_>
    <_>
      <rect>
        0 10 4 6</rect></_>
    <_>
      <rect>
        0 12 3 5</rect></_>
    <_>
      <rect>
        0 12 4 5</rect></_>
    <_>
      <rect>
        0 17 3 4</rect></_>
    <_>
      <rect>
        0 19 3 3</rect></_>
    <_>
      <rect>
        1 0 2 5</rect></_>
    <_>
      <rect>
        1 0 3 1</rect></_>
    <_>
      <rect>
        1 0 5 1</rect></_>
    <_>
      <rect>
        1 0 6 4</rect></_>
    <_>
      <rect>
        1 1 3 5</rect></_>
    <_>
      <rect>
        1 1 5 5</rect></_>
    <_>
      <rect>
        1 2 6 9</rect></_>
    <_>
      <rect>
        1 7 4 4</rect></_>
    <_>
      <rect>
        1 7 6 5</rect></_>
    <_>
      <rect>
        1 10 6 3</rect></_>
    <_>
      <rect>
        1 12 5 3</rect></_>
    <_>
      <rect>
        1 12 6 6</rect></_>
    <_>
      <rect>
        1 13 4 4</rect></_>
    <_>
      <rect>
        1 14 3 5</rect></_>
    <_>
      <rect>
        1 20 6 3</rect></_>
    <_>
      <rect>
        1 24 5 2</rect></_>
    <_>
      <rect>
        2 0 2 1</rect></_>
    <_>
      <rect>
        2 0 4 2</rect></_>
    <_>
      <rect>
        2 0 5 2</rect></_>
    <_>
      <rect>
        2 1 3 1</rect></_>
    <_>
      <rect>
        2 9 2 4</rect></_>
    <_>
      <rect>
        2 9 6 4</rect></_>
    <_>
      <rect>
        2 10 1 1</rect></_>
    <_>
      <rect>
        2 20 1 2</rect></_>
    <_>
      <rect>
        2 20 3 3</rect></_>
    <_>
      <rect>
        2 24 1 1</rect></_>
    <_>
      <rect>
        2 24 5 2</rect></_>
    <_>
      <rect>
        3 2 3 5</rect></_>
    <_>
      <rect>
        3 9 2 4</rect></_>
    <_>
      <rect>
        3 9 3 4</rect></_>
    <_>
      <rect>
        3 10 1 1</rect></_>
    <_>
      <rect>
        3 14 2 2</rect></_>
    <_>
      <rect>
        3 16 1 1</rect></_>
    <_>
      <rect>
        3 16 4 3</rect></_>
    <_>
      <rect>
        3 17 1 1</rect></_>
    <_>
      <rect>
        3 21 2 3</rect></_>
    <_>
      <rect>
        3 22 1 1</rect></_>
    <_>
      <rect>
        3 23 4 2</rect></_>
    <_>
      <rect>
        3 24 4 2</rect></_>
    <_>
      <rect>
        4 0 2 4</rect></_>
    <_>
      <rect>
        4 0 3 3</rect></_>
    <_>
      <rect>
        4 4 1 1</rect></_>
    <_>
      <rect>
        4 5 1 1</rect></_>
    <_>
      <rect>
        4 5 2 1</rect></_>
    <_>
      <rect>
        4 6 1 1</rect></_>
    <_>
      <rect>
        4 7 1 1</rect></_>
    <_>
      <rect>
        4 14 3 3</rect></_>
    <_>
      <rect>
        4 15 1 1</rect></_>
    <_>
      <rect>
        4 15 4 4</rect></_>
    <_>
      <rect>
        4 20 1 1</rect></_>
    <_>
      <rect>
        4 21 1 1</rect></_>
    <_>
      <rect>
        4 21 1 3</rect></_>
    <_>
      <rect>
        4 21 5 3</rect></_>
    <_>
      <rect>
        4 24 5 2</rect></_>
    <_>
      <rect>
        5 0 4 3</rect></_>
    <_>
      <rect>
        5 0 5 2</rect></_>
    <_>
      <rect>
        5 2 4 1</rect></_>
    <_>
      <rect>
        5 6 4 5</rect></_>
    <_>
      <rect>
        5 7 3 5</rect></_>
    <_>
      <rect>
        5 9 2 4</rect></_>
    <_>
      <rect>
        5 12 4 4</rect></_>
    <_>
      <rect>
        5 14 3 3</rect></_>
    <_>
      <rect>
        5 14 3 4</rect></_>
    <_>
      <rect>
        5 14 4 4</rect></_>
    <_>
      <rect>
        5 19 3 3</rect></_>
    <_>
      <rect>
        5 23 2 2</rect></_>
    <_>
      <rect>
        5 24 1 1</rect></_>
    <_>
      <rect>
        6 3 2 1</rect></_>
    <_>
      <rect>
        6 5 3 3</rect></_>
    <_>
      <rect>
        6 6 2 3</rect></_>
    <_>
      <rect>
        6 9 3 5</rect></_>
    <_>
      <rect>
        6 16 1 1</rect></_>
    <_>
      <rect>
        6 16 4 3</rect></_>
    <_>
      <rect>
        6 21 1 1</rect></_>
    <_>
      <rect>
        6 24 3 2</rect></_>
    <_>
      <rect>
        7 0 3 8</rect></_>
    <_>
      <rect>
        7 3 1 1</rect></_>
    <_>
      <rect>
        7 4 1 1</rect></_>
    <_>
      <rect>
        7 6 2 6</rect></_>
    <_>
      <rect>
        7 7 3 3</rect></_>
    <_>
      <rect>
        7 12 4 6</rect></_>
    <_>
      <rect>
        7 17 1 1</rect></_>
    <_>
      <rect>
        7 18 3 4</rect></_>
    <_>
      <rect>
        7 22 1 1</rect></_>
    <_>
      <rect>
        7 23 1 1</rect></_>
    <_>
      <rect>
        7 24 1 1</rect></_>
    <_>
      <rect>
        7 25 1 1</rect></_>
    <_>
      <rect>
        7 27 3 1</rect></_>
    <_>
      <rect>
        7 27 4 1</rect></_>
    <_>
      <rect>
        8 0 3 3</rect></_>
    <_>
      <rect>
        8 0 4 3</rect></_>
    <_>
      <rect>
        8 0 4 9</rect></_>
    <_>
      <rect>
        8 8 4 4</rect></_>
    <_>
      <rect>
        8 9 4 6</rect></_>
    <_>
      <rect>
        8 13 3 4</rect></_>
    <_>
      <rect>
        8 18 3 3</rect></_>
    <_>
      <rect>
        9 5 3 3</rect></_>
    <_>
      <rect>
        9 8 3 5</rect></_>
    <_>
      <rect>
        9 13 2 3</rect></_>
    <_>
      <rect>
        9 18 3 4</rect></_>
    <_>
      <rect>
        9 24 3 2</rect></_>
    <_>
      <rect>
        10 3 1 1</rect></_>
    <_>
      <rect>
        10 3 3 3</rect></_>
    <_>
      <rect>
        10 21 1 1</rect></_>
    <_>
      <rect>
        10 23 2 2</rect></_>
    <_>
      <rect>
        11 0 3 10</rect></_>
    <_>
      <rect>
        11 1 3 4</rect></_>
    <_>
      <rect>
        11 8 3 5</rect></_>
    <_>
      <rect>
        11 13 3 3</rect></_>
    <_>
      <rect>
        11 14 3 5</rect></_>
    <_>
      <rect>
        11 20 3 3</rect></_>
    <_>
      <rect>
        12 16 2 1</rect></_>
    <_>
      <rect>
        12 21 2 3</rect></_>
    <_>
      <rect>
        12 23 2 1</rect></_>
    <_>
      <rect>
        13 4 1 1</rect></_>
    <_>
      <rect>
        13 5 1 1</rect></_>
    <_>
      <rect>
        13 8 2 4</rect></_>
    <_>
      <rect>
        13 11 1 1</rect></_>
    <_>
      <rect>
        13 15 1 1</rect></_>
    <_>
      <rect>
        13 16 2 1</rect></_>
    <_>
      <rect>
        13 20 1 1</rect></_>
    <_>
      <rect>
        13 22 1 1</rect></_>
    <_>
      <rect>
        13 24 1 1</rect></_>
    <_>
      <rect>
        14 0 2 4</rect></_>
    <_>
      <rect>
        14 1 2 5</rect></_>
    <_>
      <rect>
        14 14 2 5</rect></_>
    <_>
      <rect>
        14 15 2 1</rect></_>
    <_>
      <rect>
        14 17 1 1</rect></_>
    <_>
      <rect>
        15 5 1 1</rect></_>
    <_>
      <rect>
        15 6 1 1</rect></_>
    <_>
      <rect>
        15 10 1 1</rect></_>
    <_>
      <rect>
        15 15 1 1</rect></_>
    <_>
      <rect>
        15 21 1 1</rect></_>
    <_>
      <rect>
        15 22 1 1</rect></_>
    <_>
      <rect>
        15 23 1 2</rect></_>
    <_>
      <rect>
        16 6 1 1</rect></_>
    <_>
      <rect>
        16 11 1 1</rect></_>
    <_>
      <rect>
        16 16 1 1</rect></_>
    <_>
      <rect>
        16 21 1 1</rect></_>
    <_>
      <rect>
        17 14 1 3</rect></_>
    <_>
      <rect>
        17 19 1 3</rect></_>
    <_>
      <rect>
        17 22 1 1</rect></_>
    <_>
      <rect>
        17 23 1 2</rect></_></features></cascade>
</opencv_storage>
