<?xml version="1.0"?>
<opencv_storage>
<stage0>
  <maxWeakCount>6</maxWeakCount>
  <stageThreshold>-1.6409758329391479e+000</stageThreshold>
  <weakClassifiers>
    <_>
      <internalNodes>
        0 -1 1719 1364295677 -190979 534396415 -1089069638 1789153789
        -198212 -2556929 -1074255190</internalNodes>
      <leafValues>
        -7.4219810962677002e-001 4.5029875636100769e-001</leafValues></_>
    <_>
      <internalNodes>
        0 -1 7044 279975152 -36042543 -1857432069 -10497895 -108485891
        -1148649310 -1291273281 -1096279804</internalNodes>
      <leafValues>
        -7.4178194999694824e-001 4.3424040079116821e-001</leafValues></_>
    <_>
      <internalNodes>
        0 -1 5983 -145359168 -111157363 -531379201 -1788870737
        -201327635 -619990695 -622070849 539474703</internalNodes>
      <leafValues>
        -6.4477282762527466e-001 4.3860745429992676e-001</leafValues></_>
    <_>
      <internalNodes>
        0 -1 3560 -1346633737 -273481805 -268435457 -81932 -285212681
        -268435467 -268503049 -268442124</internalNodes>
      <leafValues>
        -4.6353229880332947e-001 5.6853824853897095e-001</leafValues></_>
    <_>
      <internalNodes>
        0 -1 5933 632758325 -1140911970 -619976229 -1076227310
        -928490856 -611647350 -611652872 -1430762776</internalNodes>
      <leafValues>
        -5.9375250339508057e-001 4.2655524611473083e-001</leafValues></_>
    <_>
      <internalNodes>
        0 -1 8960 -493395617 -535490479 -802950914 -1334968100
        -1144045487 1208057866 -660342049 -220464961</internalNodes>
      <leafValues>
        -4.8584046959877014e-001 5.1299124956130981e-001</leafValues></_></weakClassifiers></stage0>
</opencv_storage>
