<?xml version="1.0"?>
<opencv_storage>
<stage3>
  <maxWeakCount>9</maxWeakCount>
  <stageThreshold>-1.9168802499771118e+000</stageThreshold>
  <weakClassifiers>
    <_>
      <internalNodes>
        0 -1 4044 360316927 534052317 432617471 -538996289 2110585853
        -40064260 -1075897686 -1073763670</internalNodes>
      <leafValues>
        -6.9454401731491089e-001 2.4671384692192078e-001</leafValues></_>
    <_>
      <internalNodes>
        0 -1 8745 -201892517 -44576417 -1862024709 -90978081 -628438518
        -1140260213 -91491346 -18415617</internalNodes>
      <leafValues>
        -5.0182461738586426e-001 4.6146014332771301e-001</leafValues></_>
    <_>
      <internalNodes>
        0 -1 1275 -69207302 -103620353 -280591669 -2110989 -346492197
        -775077174 -99115093 2131710955</internalNodes>
      <leafValues>
        -4.6903604269027710e-001 4.4061490893363953e-001</leafValues></_>
    <_>
      <internalNodes>
        0 -1 5317 -69248258 1847525456 -786247201 -1307422337 -74500032
        2064318481 -91554832 -67191810</internalNodes>
      <leafValues>
        -4.5618316531181335e-001 4.0924468636512756e-001</leafValues></_>
    <_>
      <internalNodes>
        0 -1 3357 -2120181071 -1084243977 -1082265601 -67111051
        -809500673 -356524041 -537926657 -1886583423</internalNodes>
      <leafValues>
        -4.2561835050582886e-001 4.5231533050537109e-001</leafValues></_>
    <_>
      <internalNodes>
        0 -1 8380 -74514461 -1584492258 -1853761072 -292627752
        1922032247 -1434271487 1301494004 -3859</internalNodes>
      <leafValues>
        -4.7127154469490051e-001 3.6517739295959473e-001</leafValues></_>
    <_>
      <internalNodes>
        0 -1 3020 -874516441 1711509522 1345372306 -95235940 -611681671
        -226488320 -249896192 -224920923</internalNodes>
      <leafValues>
        -5.1232373714447021e-001 3.3790639042854309e-001</leafValues></_>
    <_>
      <internalNodes>
        0 -1 3280 -280215844 1541289753 -1806117889 991827357
        -1181070372 -97644373 -1142279458 -1076167841</internalNodes>
      <leafValues>
        -4.7973144054412842e-001 3.5387924313545227e-001</leafValues></_>
    <_>
      <internalNodes>
        0 -1 5841 -1430023834 -896564853 290574556 -17117102 -2104800648
        -209485696 -796147616 -152077582</internalNodes>
      <leafValues>
        -4.9983909726142883e-001 3.4945246577262878e-001</leafValues></_></weakClassifiers></stage3>
</opencv_storage>
