<?xml version="1.0"?>
<opencv_storage>
<stage10>
  <maxWeakCount>11</maxWeakCount>
  <stageThreshold>-1.6012282371520996e+000</stageThreshold>
  <weakClassifiers>
    <_>
      <internalNodes>
        0 -1 8266 -2097185 -84217361 1397835869 -2374961 -117719073
        -100087373 -618832037 -33</internalNodes>
      <leafValues>
        -5.8545333147048950e-001 3.7532809376716614e-001</leafValues></_>
    <_>
      <internalNodes>
        0 -1 8836 -1150291029 -1484263408 -788414094 -551579498
        294375651 -1949663104 -653618799 -838862152</internalNodes>
      <leafValues>
        -4.7551307082176208e-001 2.8214648365974426e-001</leafValues></_>
    <_>
      <internalNodes>
        0 -1 515 2139094014 -221174028 -969831896 394127020 50505554
        921780337 692562719 904915335</internalNodes>
      <leafValues>
        -5.0097924470901489e-001 2.7189263701438904e-001</leafValues></_>
    <_>
      <internalNodes>
        0 -1 4182 68167697 -434142821 -917470313 -673836913 -1308513900
        -619200292 -905864313 -2013000956</internalNodes>
      <leafValues>
        -4.7674682736396790e-001 2.7891120314598083e-001</leafValues></_>
    <_>
      <internalNodes>
        0 -1 3317 1930720221 -1191438642 458504607 1058146716 1116216057
        -20411462 990407676 -1141098070</internalNodes>
      <leafValues>
        -4.1190591454505920e-001 3.1520259380340576e-001</leafValues></_>
    <_>
      <internalNodes>
        0 -1 884 -857741566 -1621175741 -1056697857 -205524190
        -1009800529 -74944481 -2046883585 1157095459</internalNodes>
      <leafValues>
        -3.6591494083404541e-001 3.6260479688644409e-001</leafValues></_>
    <_>
      <internalNodes>
        0 -1 6832 -1378013908 1411196439 -503297329 1130071509
        -1901221206 -2004442304 -1465603346 613695263</internalNodes>
      <leafValues>
        -5.0978094339370728e-001 2.3951910436153412e-001</leafValues></_>
    <_>
      <internalNodes>
        0 -1 6678 -738414304 1426824561 -1274456097 1153160823
        -1113886480 -108494794 -1422927379 251399</internalNodes>
      <leafValues>
        -5.3207725286483765e-001 2.3037020862102509e-001</leafValues></_>
    <_>
      <internalNodes>
        0 -1 5259 -26282784 -182075371 187216000 254466159 -715934472
        -1781767463 921840267 1568528895</internalNodes>
      <leafValues>
        -4.6396085619926453e-001 2.4160699546337128e-001</leafValues></_>
    <_>
      <internalNodes>
        0 -1 7424 787131308 1274536839 -616374108 742820691 1810100885
        -349364157 2143270634 549398038</internalNodes>
      <leafValues>
        -6.6350817680358887e-001 1.8769654631614685e-001</leafValues></_>
    <_>
      <internalNodes>
        0 -1 910 308226355 487791827 1359043419 -539786989 -80561502
        -1566474190 -1149084975 -1882971808</internalNodes>
      <leafValues>
        -3.7798568606376648e-001 3.2500034570693970e-001</leafValues></_></weakClassifiers></stage10>
</opencv_storage>
