<?xml version="1.0"?>
<opencv_storage>
<stage11>
  <maxWeakCount>12</maxWeakCount>
  <stageThreshold>-1.7677792310714722e+000</stageThreshold>
  <weakClassifiers>
    <_>
      <internalNodes>
        0 -1 2995 -539231301 -37260809 -1895705665 -1953769709
        -611400207 -645250645 -375664197 -538968097</internalNodes>
      <leafValues>
        -6.1451905965805054e-001 2.5906041264533997e-001</leafValues></_>
    <_>
      <internalNodes>
        0 -1 1394 -703794982 -16474082 57070203 -346850569 -581043480
        -351063838 -1966935061 981171451</internalNodes>
      <leafValues>
        -4.8568502068519592e-001 3.0817285180091858e-001</leafValues></_>
    <_>
      <internalNodes>
        0 -1 9097 -348688025 -676905355 -285212673 -1480698249 -846155
        -1107329545 1073196207 -420286722</internalNodes>
      <leafValues>
        -3.3702665567398071e-001 4.1395404934883118e-001</leafValues></_>
    <_>
      <internalNodes>
        0 -1 8108 -12976141 -1485832344 1073741812 -83 -1207961602
        230555647 1576520933 -1644216357</internalNodes>
      <leafValues>
        -3.2851108908653259e-001 4.0293881297111511e-001</leafValues></_>
    <_>
      <internalNodes>
        0 -1 5967 -803471139 -2535401 -450245125 -576866033 -107111427
        -12859861 -551966212 990911273</internalNodes>
      <leafValues>
        -4.6697723865509033e-001 2.9956835508346558e-001</leafValues></_>
    <_>
      <internalNodes>
        0 -1 144 1099808768 -1002445409 -1726882813 1608817723
        1707686575 2026115208 -1123697030 1693709219</internalNodes>
      <leafValues>
        -4.5557811856269836e-001 2.9621574282646179e-001</leafValues></_>
    <_>
      <internalNodes>
        0 -1 3307 1556903677 -1089183715 386439383 151531866 2015914700
        -607078242 529111961 1675307786</internalNodes>
      <leafValues>
        -4.2022931575775146e-001 3.0775305628776550e-001</leafValues></_>
    <_>
      <internalNodes>
        0 -1 4551 -134220562 1882633291 -1324005875 57753419 -1452099486
        -170865814 -1036849012 1934581283</internalNodes>
      <leafValues>
        -4.3220046162605286e-001 3.1439539790153503e-001</leafValues></_>
    <_>
      <internalNodes>
        0 -1 3985 -435015540 172458009 -536751926 1309298843 -1022687160
        2064261248 -57959856 -212671501</internalNodes>
      <leafValues>
        -5.6379473209381104e-001 2.2566369175910950e-001</leafValues></_>
    <_>
      <internalNodes>
        0 -1 1771 570437905 -1410760255 419779033 466747441 -771132575
        -348024655 -368535283 -1906835132</internalNodes>
      <leafValues>
        -5.6219840049743652e-001 2.1473470330238342e-001</leafValues></_>
    <_>
      <internalNodes>
        0 -1 1460 -1213546786 -643000049 -1337937570 1628059990
        1183449993 -64065526 604926910 1610513242</internalNodes>
      <leafValues>
        -4.2456212639808655e-001 3.3779725432395935e-001</leafValues></_>
    <_>
      <internalNodes>
        0 -1 580 -2065845526 -1561144632 -1912486822 402063688 2153975
        281408241 572001031 2112861031</internalNodes>
      <leafValues>
        -5.1570957899093628e-001 2.8725546598434448e-001</leafValues></_></weakClassifiers></stage11>
</opencv_storage>
