<?xml version="1.0"?>
<opencv_storage>
<stage14>
  <maxWeakCount>13</maxWeakCount>
  <stageThreshold>-1.6071746349334717e+000</stageThreshold>
  <weakClassifiers>
    <_>
      <internalNodes>
        0 -1 5590 -573178889 -178924413 -1056471911 -983850793
        -1311669577 1090570374 -399806041 -3170837</internalNodes>
      <leafValues>
        -5.9781843423843384e-001 3.0243161320686340e-001</leafValues></_>
    <_>
      <internalNodes>
        0 -1 8064 -846118322 492027969 1745141898 270094489 -1727469564
        721944584 -1744574262 -1237087605</internalNodes>
      <leafValues>
        -5.6002640724182129e-001 2.1048176288604736e-001</leafValues></_>
    <_>
      <internalNodes>
        0 -1 3141 -1010042461 -868036342 1360008659 -545078829 164229811
        143270016 8925408 -359173421</internalNodes>
      <leafValues>
        -3.9636093378067017e-001 3.4681370854377747e-001</leafValues></_>
    <_>
      <internalNodes>
        0 -1 7064 -349975029 -204890111 5310933 1368736267 -2121682698
        -602177402 -670414641 570547459</internalNodes>
      <leafValues>
        -4.1197726130485535e-001 3.2684281468391418e-001</leafValues></_>
    <_>
      <internalNodes>
        0 -1 4703 292344 965878152 285217280 823146714 -1693957976
        1510742024 -1740109584 147468498</internalNodes>
      <leafValues>
        -6.9434297084808350e-001 2.2405859827995300e-001</leafValues></_>
    <_>
      <internalNodes>
        0 -1 6271 -942706036 535239893 -2147446712 1665992850
        -2105408574 1117931603 201364168 956851049</internalNodes>
      <leafValues>
        -5.5142945051193237e-001 2.5144094228744507e-001</leafValues></_>
    <_>
      <internalNodes>
        0 -1 2521 -749257669 -564969455 4177 -1711128567 -1072995959
        1208027264 -1056308646 -1148530037</internalNodes>
      <leafValues>
        -3.7342411279678345e-001 3.6783197522163391e-001</leafValues></_>
    <_>
      <internalNodes>
        0 -1 1750 322452859 -207132894 1727266615 1534535200 1266024431
        -1896923268 -52128625 -1630228908</internalNodes>
      <leafValues>
        -3.3913055062294006e-001 4.4316992163658142e-001</leafValues></_>
    <_>
      <internalNodes>
        0 -1 8839 -2120713968 -2083225600 65616 1393934340 770203
        -1022754808 553857229 328028300</internalNodes>
      <leafValues>
        -6.1865878105163574e-001 2.3453444242477417e-001</leafValues></_>
    <_>
      <internalNodes>
        0 -1 7707 -184632081 1987225443 988736283 598425211 -134754680
        -1199603715 -1476396918 -1288470657</internalNodes>
      <leafValues>
        -2.9851016402244568e-001 4.5142316818237305e-001</leafValues></_>
    <_>
      <internalNodes>
        0 -1 770 -486342006 425021610 -2147205097 353165779 -1070914980
        109121672 -930965232 1837230155</internalNodes>
      <leafValues>
        -4.6756917238235474e-001 2.7388042211532593e-001</leafValues></_>
    <_>
      <internalNodes>
        0 -1 5764 1926699062 1160792415 256256 279005187 1116838720
        -1456864249 -260030428 1997595232</internalNodes>
      <leafValues>
        -5.3347569704055786e-001 2.4741078913211823e-001</leafValues></_>
    <_>
      <internalNodes>
        0 -1 4598 123386318 273760268 1078395202 83951625 -528293242
        1839794184 327444666 411413834</internalNodes>
      <leafValues>
        -4.9248945713043213e-001 2.7891013026237488e-001</leafValues></_></weakClassifiers></stage14>
</opencv_storage>
