<?xml version="1.0"?>
<opencv_storage>
<stage1>
  <maxWeakCount>7</maxWeakCount>
  <stageThreshold>-1.3797982931137085e+000</stageThreshold>
  <weakClassifiers>
    <_>
      <internalNodes>
        0 -1 970 -978850065 -2621441 1469578751 -538971267 -2359329
        -67376390 -4981761 -145628638</internalNodes>
      <leafValues>
        -7.2550588846206665e-001 3.0910900235176086e-001</leafValues></_>
    <_>
      <internalNodes>
        0 -1 8101 -1073807361 -1610957828 -638739459 -137366568
        519879423 -1144004437 467352573 -1074848356</internalNodes>
      <leafValues>
        -6.0655498504638672e-001 4.5948749780654907e-001</leafValues></_>
    <_>
      <internalNodes>
        0 -1 470 -114 -1157828740 1402153132 -153835524 1064378205
        873749197 930941737 2130704379</internalNodes>
      <leafValues>
        -6.1447823047637939e-001 3.7933152914047241e-001</leafValues></_>
    <_>
      <internalNodes>
        0 -1 1781 57680177 -490543 1595522911 2013065149 -1912759297
        -104945226 -913270275 -1937503232</internalNodes>
      <leafValues>
        -5.5051332712173462e-001 4.1036802530288696e-001</leafValues></_>
    <_>
      <internalNodes>
        0 -1 8933 -270540017 -1373771629 -771697278 -430190373
        -930946445 -1803436004 -120924588 -151586415</internalNodes>
      <leafValues>
        -6.1656421422958374e-001 3.8515833020210266e-001</leafValues></_>
    <_>
      <internalNodes>
        0 -1 4753 997481469 2078241141 1511478527 960118228 -1441259300
        -70580214 -340739122 -1141228920</internalNodes>
      <leafValues>
        -5.5791658163070679e-001 4.0916910767555237e-001</leafValues></_>
    <_>
      <internalNodes>
        0 -1 3185 -878709470 -1966362606 -1824272174 -86077014 529097527
        1653506048 -1064677132 -251666032</internalNodes>
      <leafValues>
        -6.2166142463684082e-001 3.6376789212226868e-001</leafValues></_></weakClassifiers></stage1>
</opencv_storage>
