<?xml version="1.0"?>
<opencv_storage>
<stage2>
  <maxWeakCount>7</maxWeakCount>
  <stageThreshold>-1.4098982810974121e+000</stageThreshold>
  <weakClassifiers>
    <_>
      <internalNodes>
        0 -1 8400 -1074531331 -1075277680 -644623873 -12068 -1164969493
        -1156874087 -1076101891 -1073786691</internalNodes>
      <leafValues>
        -7.1073222160339355e-001 2.6947891712188721e-001</leafValues></_>
    <_>
      <internalNodes>
        0 -1 952 -1068512666 -169874177 1444928343 -2621694 -744488961
        -85202753 -83366033 1618214659</internalNodes>
      <leafValues>
        -6.4759910106658936e-001 3.5006695985794067e-001</leafValues></_>
    <_>
      <internalNodes>
        0 -1 7724 -3149314 401084605 -772629572 127898964 -844467748
        496597245 -71798788 1606418431</internalNodes>
      <leafValues>
        -5.6422889232635498e-001 3.7754201889038086e-001</leafValues></_>
    <_>
      <internalNodes>
        0 -1 5477 -1970268879 -631647791 -1869483523 -1074220843
        -1182729987 -1191083904 -1680241999 -1951923792</internalNodes>
      <leafValues>
        -6.4545750617980957e-001 3.3345556259155273e-001</leafValues></_>
    <_>
      <internalNodes>
        0 -1 1037 -245596452 -539700225 1482078696 -68886257 -549730055
        -1783158216 -3327313 1060843275</internalNodes>
      <leafValues>
        -5.7999211549758911e-001 3.5783046483993530e-001</leafValues></_>
    <_>
      <internalNodes>
        0 -1 3290 -153146673 1985954013 -1065234357 2046824643
        -608493494 2030569480 -142023858 -21562883</internalNodes>
      <leafValues>
        -4.9840983748435974e-001 4.2009860277175903e-001</leafValues></_>
    <_>
      <internalNodes>
        0 -1 8898 -287347841 -1552953257 -786853163 -494935714
        -762631600 -1300004864 -355745032 -218956805</internalNodes>
      <leafValues>
        -5.1233768463134766e-001 3.8019031286239624e-001</leafValues></_></weakClassifiers></stage2>
</opencv_storage>
