<?xml version="1.0"?>
<opencv_storage>
<stage7>
  <maxWeakCount>11</maxWeakCount>
  <stageThreshold>-1.4548310041427612e+000</stageThreshold>
  <weakClassifiers>
    <_>
      <internalNodes>
        0 -1 5868 -2097153 -722980 500775129 -50279 -200709 -1077101848
        956766463 -16385</internalNodes>
      <leafValues>
        -6.2090092897415161e-001 3.0758619308471680e-001</leafValues></_>
    <_>
      <internalNodes>
        0 -1 4002 -67142407 -2141737 -721260485 1071599951 -1165473128
        -91574271 -341918758 -1078002977</internalNodes>
      <leafValues>
        -4.9239271879196167e-001 3.1573390960693359e-001</leafValues></_>
    <_>
      <internalNodes>
        0 -1 8210 -287374243 -208977573 -802975265 -94416257 -389103592
        -99972822 -254820357 -29721729</internalNodes>
      <leafValues>
        -4.1328254342079163e-001 3.8240924477577209e-001</leafValues></_>
    <_>
      <internalNodes>
        0 -1 249 1458564814 419417807 -713040319 -51918865 -17760270
        -1066022688 860925959 1937237794</internalNodes>
      <leafValues>
        -5.4432755708694458e-001 2.6340115070343018e-001</leafValues></_>
    <_>
      <internalNodes>
        0 -1 9119 -1074791425 -1685409576 272741239 -1612803811
        -1618084991 -125718510 947611133 -104899627</internalNodes>
      <leafValues>
        -3.7718826532363892e-001 3.8423448801040649e-001</leafValues></_>
    <_>
      <internalNodes>
        0 -1 3903 -355276310 -100961651 -1312053208 -613935490
        -1573742846 454094332 1774041179 2069224959</internalNodes>
      <leafValues>
        -5.1614081859588623e-001 2.6618406176567078e-001</leafValues></_>
    <_>
      <internalNodes>
        0 -1 8340 -286323105 1060634495 -285278225 -93061258 -16789922
        -25165953 -16843009 -1171587849</internalNodes>
      <leafValues>
        -3.3632993698120117e-001 4.0795272588729858e-001</leafValues></_>
    <_>
      <internalNodes>
        0 -1 8423 -1037546467 -545429285 125933055 -718284417 -824484357
        -544024661 2049069003 1779578643</internalNodes>
      <leafValues>
        -4.7613525390625000e-001 2.7667975425720215e-001</leafValues></_>
    <_>
      <internalNodes>
        0 -1 6747 2004745440 2021777477 -1235869044 1649346583 -74065187
        269576219 1644935014 826265023</internalNodes>
      <leafValues>
        -5.0312125682830811e-001 2.5695598125457764e-001</leafValues></_>
    <_>
      <internalNodes>
        0 -1 1818 710216466 -318514734 -653014785 1427490271 -368461377
        -372698720 -1056404488 -856683936</internalNodes>
      <leafValues>
        -4.4275984168052673e-001 2.6574984192848206e-001</leafValues></_>
    <_>
      <internalNodes>
        0 -1 1667 658373436 -1219553806 689189075 969646930 1812675004
        -1344726376 2143986524 1792293480</internalNodes>
      <leafValues>
        -4.7011590003967285e-001 2.6402130722999573e-001</leafValues></_></weakClassifiers></stage7>
</opencv_storage>
