<?xml version="1.0"?>
<opencv_storage>
<stage9>
  <maxWeakCount>10</maxWeakCount>
  <stageThreshold>-1.6978306770324707e+000</stageThreshold>
  <weakClassifiers>
    <_>
      <internalNodes>
        0 -1 5392 -799543041 -144713961 -438857281 -2113585 -187711521
        -169636977 -202379345 -150229205</internalNodes>
      <leafValues>
        -6.1975491046905518e-001 2.0941759645938873e-001</leafValues></_>
    <_>
      <internalNodes>
        0 -1 3520 -1582632559 -69484093 -662581033 -137636459
        -1425372245 -1685544800 -1347701761 -1880407563</internalNodes>
      <leafValues>
        -4.0710994601249695e-001 3.6307337880134583e-001</leafValues></_>
    <_>
      <internalNodes>
        0 -1 4000 -69254913 911413387 -804761443 844272639 -221620152
        -485818328 -359871944 -143459393</internalNodes>
      <leafValues>
        -4.5957079529762268e-001 3.1622281670570374e-001</leafValues></_>
    <_>
      <internalNodes>
        0 -1 1469 -9461550 1002379466 -1278431360 1574761944 1064771761
        1054806206 -11702295 -821698617</internalNodes>
      <leafValues>
        -5.2489721775054932e-001 2.5266522169113159e-001</leafValues></_>
    <_>
      <internalNodes>
        0 -1 4983 568260968 -33603322 1124813627 1543459567 -356189974
        -168286550 -749498437 1472348807</internalNodes>
      <leafValues>
        -4.1222733259201050e-001 3.3663344383239746e-001</leafValues></_>
    <_>
      <internalNodes>
        0 -1 8629 -119808642 529824195 1091621544 262298558 1372550128
        1083196043 -345024348 234061806</internalNodes>
      <leafValues>
        -5.0998508930206299e-001 2.5628635287284851e-001</leafValues></_>
    <_>
      <internalNodes>
        0 -1 890 5183891 -3768159 275749369 -649347049 856226537
        -1414887288 -209161540 -856145804</internalNodes>
      <leafValues>
        -3.5926035046577454e-001 3.3232560753822327e-001</leafValues></_>
    <_>
      <internalNodes>
        0 -1 8782 -807729557 131055625 -1072676390 718164298 580621313
        50364419 -804589324 -721421853</internalNodes>
      <leafValues>
        -5.2419865131378174e-001 2.5889411568641663e-001</leafValues></_>
    <_>
      <internalNodes>
        0 -1 3872 -455450938 -308047829 -988594363 -169918464 1088439230
        14704787 -799575807 1075791987</internalNodes>
      <leafValues>
        -5.4291749000549316e-001 2.3258884251117706e-001</leafValues></_>
    <_>
      <internalNodes>
        0 -1 5925 -1332455307 -1081999159 -1073655589 -1617423529
        -1987560823 -1064628223 -1817651014 -1159053137</internalNodes>
      <leafValues>
        -3.9873072504997253e-001 3.2385966181755066e-001</leafValues></_></weakClassifiers></stage9>
</opencv_storage>
