<?xml version="1.0"?>
<opencv_storage>
<stage12>
  <maxWeakCount>14</maxWeakCount>
  <stageThreshold>-1.8551042079925537e+000</stageThreshold>
  <weakClassifiers>
    <_>
      <internalNodes>
        0 -1 6905 -6291457 -217724 -1794753060 -2106480 -1611139077
        -1886858414 967663359 -35651841</internalNodes>
      <leafValues>
        -6.1165046691894531e-001 2.1998701989650726e-001</leafValues></_>
    <_>
      <internalNodes>
        0 -1 8810 -220503461 1046171925 -804159010 -229457777 -82894262
        2047543298 -636816696 -85787909</internalNodes>
      <leafValues>
        -4.8605296015739441e-001 2.4715013802051544e-001</leafValues></_>
    <_>
      <internalNodes>
        0 -1 5917 -143106599 -101105666 -1073860609 -1208471649
        -50574084 -545259521 -1107513666 -1145946178</internalNodes>
      <leafValues>
        -3.4196951985359192e-001 3.8776722550392151e-001</leafValues></_>
    <_>
      <internalNodes>
        0 -1 6950 530709781 -1746340360 1570191069 -1080203300 941994943
        -1081044600 687870969 -1082184503</internalNodes>
      <leafValues>
        -3.5074520111083984e-001 3.2188600301742554e-001</leafValues></_>
    <_>
      <internalNodes>
        0 -1 8753 -294174641 527106241 1191203030 -1572826669
        -1333753242 -1845362688 -1332960534 -222891030</internalNodes>
      <leafValues>
        -4.1604331135749817e-001 2.9828056693077087e-001</leafValues></_>
    <_>
      <internalNodes>
        0 -1 1488 -8719390 -618540854 -846579258 -942848956 572556994
        816544426 85960382 342744781</internalNodes>
      <leafValues>
        -4.6139663457870483e-001 2.5618630647659302e-001</leafValues></_>
    <_>
      <internalNodes>
        0 -1 7359 458937331 260734994 -1878929231 -479149631 -74569419
        169541786 -352128352 -67194376</internalNodes>
      <leafValues>
        -4.1315668821334839e-001 2.8103637695312500e-001</leafValues></_>
    <_>
      <internalNodes>
        0 -1 4445 -6160461 -840513668 -22413661 229326807 -2014251760
        -50899465 -1347435102 -72404745</internalNodes>
      <leafValues>
        -3.1393769383430481e-001 3.7248110771179199e-001</leafValues></_>
    <_>
      <internalNodes>
        0 -1 4353 1900200216 -1462443265 553650445 -35713058 -588548016
        -1857896296 -1104953972 840499850</internalNodes>
      <leafValues>
        -5.0883436203002930e-001 2.3050607740879059e-001</leafValues></_>
    <_>
      <internalNodes>
        0 -1 2589 1345597439 857532634 231102742 188233486 1216959225
        -73086224 -1828179220 1748041378</internalNodes>
      <leafValues>
        -4.8944786190986633e-001 2.1654166281223297e-001</leafValues></_>
    <_>
      <internalNodes>
        0 -1 3348 -2121353935 1359471119 -267822113 -1714039843
        -1106525504 -1555332736 -1852577765 -2070609627</internalNodes>
      <leafValues>
        -5.1807308197021484e-001 2.2270521521568298e-001</leafValues></_>
    <_>
      <internalNodes>
        0 -1 5007 -539433786 -1337304824 -113176430 -648521979
        -2104369739 2022604968 -2073937813 1429687535</internalNodes>
      <leafValues>
        -3.6894896626472473e-001 2.9814288020133972e-001</leafValues></_>
    <_>
      <internalNodes>
        0 -1 6447 -71609992 -541529236 889198744 189495217 700141817
        966279816 290134458 483859096</internalNodes>
      <leafValues>
        -4.4798922538757324e-001 2.4937921762466431e-001</leafValues></_>
    <_>
      <internalNodes>
        0 -1 5977 -1640759090 -15158917 1242393977 -69658121 -662048516
        -1713561399 -691291844 -1437553901</internalNodes>
      <leafValues>
        -4.2222321033477783e-001 2.6454335451126099e-001</leafValues></_></weakClassifiers></stage12>
</opencv_storage>
