<?xml version="1.0"?>
<opencv_storage>
<stage13>
  <maxWeakCount>12</maxWeakCount>
  <stageThreshold>-1.4664413928985596e+000</stageThreshold>
  <weakClassifiers>
    <_>
      <internalNodes>
        0 -1 2200 -42994701 2141180291 1358975411 -1892820001 -90209803
        -909754334 -1716783943 -274867713</internalNodes>
      <leafValues>
        -6.3200002908706665e-001 1.8171428143978119e-001</leafValues></_>
    <_>
      <internalNodes>
        0 -1 8354 -490089393 440385625 -2013178676 282296557 -670397878
        1930035491 -1021601074 -144996213</internalNodes>
      <leafValues>
        -5.0018316507339478e-001 2.5387063622474670e-001</leafValues></_>
    <_>
      <internalNodes>
        0 -1 8833 -1210461329 -1490298872 285315520 -10563440 581102251
        696778890 1351291124 -973080120</internalNodes>
      <leafValues>
        -4.2684057354927063e-001 3.0562394857406616e-001</leafValues></_>
    <_>
      <internalNodes>
        0 -1 6241 -438831908 -253378332 -1827732288 -1115428653
        -522755617 -1333469056 -79771687 994049274</internalNodes>
      <leafValues>
        -4.0941739082336426e-001 3.1598958373069763e-001</leafValues></_>
    <_>
      <internalNodes>
        0 -1 4014 1832251060 928825733 222565340 722178724 2034269176
        -1144734532 46738060 733317658</internalNodes>
      <leafValues>
        -5.2872490882873535e-001 2.5379356741905212e-001</leafValues></_>
    <_>
      <internalNodes>
        0 -1 3640 597678307 -1600421755 -788512551 -220524518 588027
        -2012708864 1354473555 -829424747</internalNodes>
      <leafValues>
        -4.3009147047996521e-001 2.9594457149505615e-001</leafValues></_>
    <_>
      <internalNodes>
        0 -1 3199 1933104910 -841948533 -1860748070 1329809421
        -2134720309 1866596401 -228779265 455080703</internalNodes>
      <leafValues>
        -4.2313247919082642e-001 2.8279745578765869e-001</leafValues></_>
    <_>
      <internalNodes>
        0 -1 5103 -151586720 -174646965 -670001140 1157433966 -458078526
        624037943 -153089371 624825071</internalNodes>
      <leafValues>
        -5.2659732103347778e-001 2.3997217416763306e-001</leafValues></_>
    <_>
      <internalNodes>
        0 -1 2727 739182596 1821321548 1360523579 1829202199 -791641616
        2055389320 -248890825 807594258</internalNodes>
      <leafValues>
        -6.3802146911621094e-001 1.9327627122402191e-001</leafValues></_>
    <_>
      <internalNodes>
        0 -1 2580 -1033956615 -1827434288 -2130672164 689738307
        -1064691128 -922746872 -1019161938 -85014342</internalNodes>
      <leafValues>
        -3.6340129375457764e-001 3.6461037397384644e-001</leafValues></_>
    <_>
      <internalNodes>
        0 -1 9129 -1306987612 -1820048751 -2147139492 -251313531
        -1157391727 427853954 -1608836440 -1995488891</internalNodes>
      <leafValues>
        -4.2444524168968201e-001 2.9178085923194885e-001</leafValues></_>
    <_>
      <internalNodes>
        0 -1 8296 -1429524353 573243520 -1852829358 -292794302
        1258991665 -1693941736 -1945436047 -54615855</internalNodes>
      <leafValues>
        -5.4578518867492676e-001 2.3731873929500580e-001</leafValues></_></weakClassifiers></stage13>
</opencv_storage>
