<?xml version="1.0"?>
<opencv_storage>
<cascade>
  <stageType>BOOST</stageType>
  <featureType>LBP</featureType>
  <height>30</height>
  <width>20</width>
  <stageParams>
    <boostType>GAB</boostType>
    <minHitRate>9.9500000476837158e-001</minHitRate>
    <maxFalseAlarm>5.0000000000000000e-001</maxFalseAlarm>
    <weightTrimRate>9.4999999999999996e-001</weightTrimRate>
    <maxDepth>1</maxDepth>
    <maxWeakCount>100</maxWeakCount></stageParams>
  <featureParams>
    <maxCatCount>256</maxCatCount>
    <featSize>1</featSize></featureParams>
  <stageNum>15</stageNum>
  <stages>
    <!-- stage 0 -->
    <_>
      <maxWeakCount>5</maxWeakCount>
      <stageThreshold>-1.2799475193023682e+000</stageThreshold>
      <weakClassifiers>
        <_>
          <internalNodes>
            0 -1 108 -1114116 -2097793 -216541697 -1076890637 -68158467
            -3411809 -1445889 805271551</internalNodes>
          <leafValues>
            -8.6798679828643799e-001 2.4728064239025116e-001</leafValues></_>
        <_>
          <internalNodes>
            0 -1 103 10753117 -2996078 -1857432065 -10497895 -109010179
            -620003166 -91637011 -1095237336</internalNodes>
          <leafValues>
            -7.4417269229888916e-001 3.7569373846054077e-001</leafValues></_>
        <_>
          <internalNodes>
            0 -1 100 404496380 -1215164328 -1806446081 -2191014
            -1147635211 -73521016 -1280595208 -1073989208</internalNodes>
          <leafValues>
            -6.5835660696029663e-001 4.2771425843238831e-001</leafValues></_>
        <_>
          <internalNodes>
            0 -1 57 -55094673 -19181095 -784281089 -364973957 -91600372
            -90209694 -100619586 -84223450</internalNodes>
          <leafValues>
            -5.6049031019210815e-001 4.8986423015594482e-001</leafValues></_>
        <_>
          <internalNodes>
            0 -1 142 -8396021 -489701231 -805089122 -1059393317
            -93804477 713195538 -1307989775 -184825345</internalNodes>
          <leafValues>
            -5.4909336566925049e-001 5.0070434808731079e-001</leafValues></_></weakClassifiers></_>
    <!-- stage 1 -->
    <_>
      <maxWeakCount>6</maxWeakCount>
      <stageThreshold>-2.2244501113891602e+000</stageThreshold>
      <weakClassifiers>
        <_>
          <internalNodes>
            0 -1 44 -1346765901 -341871725 -711853609 -2121007
            -358942213 -74808695 -74712589 -3595</internalNodes>
          <leafValues>
            -7.6753836870193481e-001 3.1989002227783203e-001</leafValues></_>
        <_>
          <internalNodes>
            0 -1 6 -33557505 -1109868548 -1621250565 -35865332 229446653
            1073542620 266144509 -3276801</internalNodes>
          <leafValues>
            -5.4967767000198364e-001 5.1506149768829346e-001</leafValues></_>
        <_>
          <internalNodes>
            0 -1 109 -218380273 -528523 -417557505 -705432361 -67110706
            -3148993 -110371862 -535631322</internalNodes>
          <leafValues>
            -5.0100344419479370e-001 5.2607458829879761e-001</leafValues></_>
        <_>
          <internalNodes>
            0 -1 62 89399293 1000929007 1028663551 1037835992 1070690748
            -274177816 1054419708 -1078187864</internalNodes>
          <leafValues>
            -5.4623115062713623e-001 4.3601781129837036e-001</leafValues></_>
        <_>
          <internalNodes>
            0 -1 125 -1076905161 -1481977648 -787360523 -137373516
            327922353 -1950678902 -779365899 -41540</internalNodes>
          <leafValues>
            -4.5592364668846130e-001 4.7979149222373962e-001</leafValues></_>
        <_>
          <internalNodes>
            0 -1 3 -792868122 -201854001 -929434961 -570441757
            -1432290629 -252718914 1711482223 1648608322</internalNodes>
          <leafValues>
            -4.9150425195693970e-001 4.4204065203666687e-001</leafValues></_></weakClassifiers></_>
    <!-- stage 2 -->
    <_>
      <maxWeakCount>8</maxWeakCount>
      <stageThreshold>-1.4708181619644165e+000</stageThreshold>
      <weakClassifiers>
        <_>
          <internalNodes>
            0 -1 24 -204099393 -2237953 -174981153 -157187 -69211649
            -67502625 -152593 -586839925</internalNodes>
          <leafValues>
            -6.7692023515701294e-001 4.2966264486312866e-001</leafValues></_>
        <_>
          <internalNodes>
            0 -1 117 -1145054721 1067090360 -250095120 -132156 939419647
            803990011 161176061 -9219</internalNodes>
          <leafValues>
            -5.4371070861816406e-001 4.3438744544982910e-001</leafValues></_>
        <_>
          <internalNodes>
            0 -1 45 -1343225925 -268435481 -269 -16 -939524097
            -805306377 -1610680330 -301992459</internalNodes>
          <leafValues>
            -4.4919338822364807e-001 5.1256346702575684e-001</leafValues></_>
        <_>
          <internalNodes>
            0 -1 134 -16825473 -539668165 -264187685 -1294397346
            -91616932 -108388349 -220269832 -86840353</internalNodes>
          <leafValues>
            -4.4237798452377319e-001 4.8975574970245361e-001</leafValues></_>
        <_>
          <internalNodes>
            0 -1 67 -117508184 -773990917 -264166912 -773874909
            -930162276 -1735876226 1537161755 301954875</internalNodes>
          <leafValues>
            -5.4892283678054810e-001 3.8643896579742432e-001</leafValues></_>
        <_>
          <internalNodes>
            0 -1 107 815146995 -1572023886 487675357 -144918043
            -1433850952 -1147469688 -620549907 -1074218852</internalNodes>
          <leafValues>
            -5.0355535745620728e-001 4.0626612305641174e-001</leafValues></_>
        <_>
          <internalNodes>
            0 -1 79 -287331058 -355860341 1383258584 -83979818
            -259294700 1896972426 -360514958 -218366021</internalNodes>
          <leafValues>
            -5.2237510681152344e-001 4.0766716003417969e-001</leafValues></_>
        <_>
          <internalNodes>
            0 -1 54 -246548652 1562331409 -2097142964 256573443
            -1329533020 1347506243 -360023637 141246907</internalNodes>
          <leafValues>
            -5.4107743501663208e-001 3.7637373805046082e-001</leafValues></_></weakClassifiers></_>
    <!-- stage 3 -->
    <_>
      <maxWeakCount>8</maxWeakCount>
      <stageThreshold>-1.6516047716140747e+000</stageThreshold>
      <weakClassifiers>
        <_>
          <internalNodes>
            0 -1 116 -16823201 -2131105 -1844063489 -3155617 -87098629
            -69215833 -37748993 -1171103873</internalNodes>
          <leafValues>
            -7.5121307373046875e-001 1.6463908553123474e-001</leafValues></_>
        <_>
          <internalNodes>
            0 -1 126 -8388629 -1347645048 -107522576 -2371128 1341389311
            1239124633 -207358987 -171982849</internalNodes>
          <leafValues>
            -5.9865468740463257e-001 3.3517524600028992e-001</leafValues></_>
        <_>
          <internalNodes>
            0 -1 36 -2097114191 -6432811 -482362369 -8554507 -85016579
            -1342465327 -1078995489 -1920465535</internalNodes>
          <leafValues>
            -5.6858861446380615e-001 3.7170141935348511e-001</leafValues></_>
        <_>
          <internalNodes>
            0 -1 27 -85992914 -292585229 -804597614 -220278626 -91784594
            1375897675 -1194599897 -134219085</internalNodes>
          <leafValues>
            -5.0355517864227295e-001 4.0215528011322021e-001</leafValues></_>
        <_>
          <internalNodes>
            0 -1 90 991704053 962461904 -796671527 -1080159915
            -1173876487 -628457334 -87534849 -1410712648</internalNodes>
          <leafValues>
            -5.1079297065734863e-001 3.9782369136810303e-001</leafValues></_>
        <_>
          <internalNodes>
            0 -1 66 -241502008 -45292701 824950846 1978640383 -675033942
            1354206477 881847615 1469837263</internalNodes>
          <leafValues>
            -4.5796093344688416e-001 4.1977530717849731e-001</leafValues></_>
        <_>
          <internalNodes>
            0 -1 115 -1275274245 -1087832136 -523 -1614873111 1073608701
            -1347092482 2147434493 -1610647832</internalNodes>
          <leafValues>
            -3.8709503412246704e-001 4.6383580565452576e-001</leafValues></_>
        <_>
          <internalNodes>
            0 -1 133 -286297273 721928324 -653225520 -387985202
            2055414339 1753448600 -1819542828 -402656578</internalNodes>
          <leafValues>
            -5.2220302820205688e-001 3.4280896186828613e-001</leafValues></_></weakClassifiers></_>
    <!-- stage 4 -->
    <_>
      <maxWeakCount>9</maxWeakCount>
      <stageThreshold>-2.0857794284820557e+000</stageThreshold>
      <weakClassifiers>
        <_>
          <internalNodes>
            0 -1 135 -34465 -78130209 -770321409 -218119939 -947150837
            -116717054 -87297026 -84741153</internalNodes>
          <leafValues>
            -7.4450916051864624e-001 1.2687155604362488e-001</leafValues></_>
        <_>
          <internalNodes>
            0 -1 41 -1350050527 -136318057 -1714694693 -6294605
            -335809537 -73674259 -371200513 -2068904795</internalNodes>
          <leafValues>
            -6.2754148244857788e-001 3.1201741099357605e-001</leafValues></_>
        <_>
          <internalNodes>
            0 -1 18 -4203050 -7040104 1028467900 -1075932418 2023338943
            2140732136 978858238 2063579630</internalNodes>
          <leafValues>
            -5.2770465612411499e-001 3.6807748675346375e-001</leafValues></_>
        <_>
          <internalNodes>
            0 -1 72 -50498219 2132769143 -639831753 894326239
            -1634312228 -106757589 -173344518 -1364554822</internalNodes>
          <leafValues>
            -4.6851286292076111e-001 3.9524498581886292e-001</leafValues></_>
        <_>
          <internalNodes>
            0 -1 110 -319041745 1971289461 -1052677 1572601079
            -118591761 -268468865 -252973825 -1057622015</internalNodes>
          <leafValues>
            -4.0709885954856873e-001 4.3887570500373840e-001</leafValues></_>
        <_>
          <internalNodes>
            0 -1 105 507313073 -1078181380 -684591623 -35734568
            1063862267 -1916163941 1006437885 233449880</internalNodes>
          <leafValues>
            -4.8314088582992554e-001 3.3938032388687134e-001</leafValues></_>
        <_>
          <internalNodes>
            0 -1 31 -610283440 1422880619 1761820689 667515711 -45420171
            -628457714 1903048218 176898031</internalNodes>
          <leafValues>
            -5.2062523365020752e-001 3.0630344152450562e-001</leafValues></_>
        <_>
          <internalNodes>
            0 -1 130 -404845809 1854623883 -763113238 -156776369
            -343234221 432083074 -360449328 -188744727</internalNodes>
          <leafValues>
            -4.6942073106765747e-001 3.2029244303703308e-001</leafValues></_>
        <_>
          <internalNodes>
            0 -1 101 -535546788 -137211201 1562303967 387832157 -6707203
            -55987992 -87909921 -1439145167</internalNodes>
          <leafValues>
            -4.4641667604446411e-001 3.5945764183998108e-001</leafValues></_></weakClassifiers></_>
    <!-- stage 5 -->
    <_>
      <maxWeakCount>9</maxWeakCount>
      <stageThreshold>-1.3672478199005127e+000</stageThreshold>
      <weakClassifiers>
        <_>
          <internalNodes>
            0 -1 145 -136317953 -337661237 -788409351 -35710978
            -208936005 -343244638 -225711177 -134221057</internalNodes>
          <leafValues>
            -6.4276593923568726e-001 3.4430545568466187e-001</leafValues></_>
        <_>
          <internalNodes>
            0 -1 2 1215810271 -2626126 1297447135 -545653865 -276829734
            -2098894 -346816513 -150475262</internalNodes>
          <leafValues>
            -4.7811275720596313e-001 4.1444167494773865e-001</leafValues></_>
        <_>
          <internalNodes>
            0 -1 120 -956364705 -2658785 -804720163 1920684247
            -120993665 -1098182486 -90642245 -1162708357</internalNodes>
          <leafValues>
            -4.5551323890686035e-001 3.8983470201492310e-001</leafValues></_>
        <_>
          <internalNodes>
            0 -1 30 -134787476 2071941367 1390208734 842681339
            -116375460 1934041099 -124104886 1534262143</internalNodes>
          <leafValues>
            -6.0475867986679077e-001 2.9039204120635986e-001</leafValues></_>
        <_>
          <internalNodes>
            0 -1 102 -1279328321 -1079230904 -590532100 -40524 368112367
            -1639153462 1041762813 1073700348</internalNodes>
          <leafValues>
            -4.8936748504638672e-001 3.5369095206260681e-001</leafValues></_>
        <_>
          <internalNodes>
            0 -1 85 -2021641419 -339083063 -670966541 -2113067
            -1148243777 -1450514302 -1953724745 -1459863227</internalNodes>
          <leafValues>
            -5.4630178213119507e-001 2.9310855269432068e-001</leafValues></_>
        <_>
          <internalNodes>
            0 -1 51 -19071014 -38048229 2013139752 997922579 -244385048
            -2142667790 -140527697 -74743949</internalNodes>
          <leafValues>
            -3.8327503204345703e-001 4.5182362198829651e-001</leafValues></_>
        <_>
          <internalNodes>
            0 -1 132 1072617754 1054736948 -388017666 -1123401284
            352090036 728434922 1808095708 1608490228</internalNodes>
          <leafValues>
            -6.0689020156860352e-001 2.6165115833282471e-001</leafValues></_>
        <_>
          <internalNodes>
            0 -1 86 -995368764 -715271307 -515649029 1973146381
            -390912515 -30889876 -1595557073 865026586</internalNodes>
          <leafValues>
            -4.7970446944236755e-001 3.1192061305046082e-001</leafValues></_></weakClassifiers></_>
    <!-- stage 6 -->
    <_>
      <maxWeakCount>9</maxWeakCount>
      <stageThreshold>-1.4818649291992187e+000</stageThreshold>
      <weakClassifiers>
        <_>
          <internalNodes>
            0 -1 143 -1073741893 -1214252341 -1056705513 -1156319667
            467659753 730581643 -581971479 -35651587</internalNodes>
          <leafValues>
            -7.1656334400177002e-001 9.5008052885532379e-002</leafValues></_>
        <_>
          <internalNodes>
            0 -1 39 -238701991 -682634277 -436211329 -20291 -59917381
            -33690741 -297142117 403538699</internalNodes>
          <leafValues>
            -5.2883654832839966e-001 3.1005489826202393e-001</leafValues></_>
        <_>
          <internalNodes>
            0 -1 21 -67121169 -455651315 -786317046 -153169458
            -743704037 1677951112 -760487134 -204215333</internalNodes>
          <leafValues>
            -4.5255252718925476e-001 3.7498369812965393e-001</leafValues></_>
        <_>
          <internalNodes>
            0 -1 63 491600861 429069200 -2126405795 1071168862
            1501576665 -107183926 -83250692 -1160992072</internalNodes>
          <leafValues>
            -4.1802662611007690e-001 3.9238426089286804e-001</leafValues></_>
        <_>
          <internalNodes>
            0 -1 94 1288699082 -180955916 88710139 -786973296 -910247025
            -550010655 -2045780337 1356329618</internalNodes>
          <leafValues>
            -4.6583002805709839e-001 3.5918581485748291e-001</leafValues></_>
        <_>
          <internalNodes>
            0 -1 122 -1073754577 786157777 -1064200998 -1029748525
            -627332797 -251428862 -74727327 -1049729</internalNodes>
          <leafValues>
            -4.4429376721382141e-001 3.6057171225547791e-001</leafValues></_>
        <_>
          <internalNodes>
            0 -1 0 139310624 -154443482 273914845 -12753975 -874513573
            -270824226 -544286021 516356</internalNodes>
          <leafValues>
            -6.0989189147949219e-001 2.3939630389213562e-001</leafValues></_>
        <_>
          <internalNodes>
            0 -1 53 -291560881 -1594155000 -803221440 -19736697
            -1683357173 -485883768 -91489965 -205788225</internalNodes>
          <leafValues>
            -5.0495880842208862e-001 2.6687371730804443e-001</leafValues></_>
        <_>
          <internalNodes>
            0 -1 89 2062531496 -1576185460 1499372784 -35726882
            730806781 192999676 814418168 233680634</internalNodes>
          <leafValues>
            -5.9745883941650391e-001 2.4396724998950958e-001</leafValues></_></weakClassifiers></_>
    <!-- stage 7 -->
    <_>
      <maxWeakCount>11</maxWeakCount>
      <stageThreshold>-2.0352764129638672e+000</stageThreshold>
      <weakClassifiers>
        <_>
          <internalNodes>
            0 -1 52 -50331649 -33564833 -11661053 -1363173 -120652801
            -790040082 -68572225 -83920101</internalNodes>
          <leafValues>
            -6.3176494836807251e-001 2.4460874497890472e-001</leafValues></_>
        <_>
          <internalNodes>
            0 -1 141 -8437681 861878555 -1056837381 -98578281 -125056934
            -888635254 -125044006 -84747269</internalNodes>
          <leafValues>
            -4.8693552613258362e-001 3.2471367716789246e-001</leafValues></_>
        <_>
          <internalNodes>
            0 -1 139 -1074023753 -1417030289 1359073744 -7175324
            1518840483 -1953857389 1105453297 -704646163</internalNodes>
          <leafValues>
            -4.5534244179725647e-001 3.3887296915054321e-001</leafValues></_>
        <_>
          <internalNodes>
            0 -1 14 -556806402 -218617729 -3126354 -256844805 -228435169
            271604414 1966304079 2069621627</internalNodes>
          <leafValues>
            -5.0851088762283325e-001 2.8487819433212280e-001</leafValues></_>
        <_>
          <internalNodes>
            0 -1 1 41943344 -943959368 -1088840711 -1257173747
            -1125926475 -77823505 -1079670292 -1920988028</internalNodes>
          <leafValues>
            -5.0889801979064941e-001 3.0734014511108398e-001</leafValues></_>
        <_>
          <internalNodes>
            0 -1 106 -1298370159 -1794895672 -787377701 -1110060916
            -1838433542 -1199570813 -1685909303 -1079104643</internalNodes>
          <leafValues>
            -4.0422329306602478e-001 3.8570395112037659e-001</leafValues></_>
        <_>
          <internalNodes>
            0 -1 46 -1492141663 -272469816 -787377679 -3159600
            1644855771 1269530777 1405031378 -1042627627</internalNodes>
          <leafValues>
            -4.7655078768730164e-001 2.7347692847251892e-001</leafValues></_>
        <_>
          <internalNodes>
            0 -1 124 -1113637389 -1467891520 1359589873 -2895404
            -1328663755 -1190985600 160125361 -637543431</internalNodes>
          <leafValues>
            -4.3681585788726807e-001 2.9496267437934875e-001</leafValues></_>
        <_>
          <internalNodes>
            0 -1 17 -632883588 -795850022 -778903608 -1083661041
            -615454256 2043976411 846418231 978790994</internalNodes>
          <leafValues>
            -4.8485410213470459e-001 2.9573574662208557e-001</leafValues></_>
        <_>
          <internalNodes>
            0 -1 59 -680214272 -532266808 -1457794809 266413837
            -414042636 -1432850199 797297663 780101479</internalNodes>
          <leafValues>
            -4.7367781400680542e-001 2.8483545780181885e-001</leafValues></_>
        <_>
          <internalNodes>
            0 -1 91 496049371 299220402 -1510006017 1609236340 535232502
            -1665269889 1023345817 -1154695508</internalNodes>
          <leafValues>
            -3.4983390569686890e-001 3.7115839123725891e-001</leafValues></_></weakClassifiers></_>
    <!-- stage 8 -->
    <_>
      <maxWeakCount>10</maxWeakCount>
      <stageThreshold>-1.5808721780776978e+000</stageThreshold>
      <weakClassifiers>
        <_>
          <internalNodes>
            0 -1 64 -740298273 -136316417 -754454049 -538969089 -2106369
            -4461905 -134742529 -7355505</internalNodes>
          <leafValues>
            -5.8010315895080566e-001 4.9241659045219421e-001</leafValues></_>
        <_>
          <internalNodes>
            0 -1 43 -1977027661 -371539817 1442960255 -673193515
            -1416893957 -359939957 -1551254541 -1342219903</internalNodes>
          <leafValues>
            -4.7183129191398621e-001 3.4344914555549622e-001</leafValues></_>
        <_>
          <internalNodes>
            0 -1 144 -538979677 -1563442997 -783171502 -556273166
            -1316777453 1904345216 -1181754699 -136315941</internalNodes>
          <leafValues>
            -4.3460145592689514e-001 3.6913153529167175e-001</leafValues></_>
        <_>
          <internalNodes>
            0 -1 16 -139037612 -35094701 145650711 68043039 -55512748
            -357948139 -68198529 716136223</internalNodes>
          <leafValues>
            -5.5119866132736206e-001 2.7816787362098694e-001</leafValues></_>
        <_>
          <internalNodes>
            0 -1 50 -184889690 -3092233 -715894566 -1155917304
            -655336296 1414736763 -10790417 1349728539</internalNodes>
          <leafValues>
            -5.0372707843780518e-001 3.0567196011543274e-001</leafValues></_>
        <_>
          <internalNodes>
            0 -1 75 282133047 -789344171 1095291103 1603649551
            -1014916419 -105832231 -100562133 -63673564</internalNodes>
          <leafValues>
            -4.1513258218765259e-001 3.3236032724380493e-001</leafValues></_>
        <_>
          <internalNodes>
            0 -1 97 1576997183 1065942780 2031319416 -3649068 266026749
            1062843073 135479773 -40305154</internalNodes>
          <leafValues>
            -4.0981006622314453e-001 3.5222432017326355e-001</leafValues></_>
        <_>
          <internalNodes>
            0 -1 58 -1354825391 -380935597 1343058323 -1521084013
            -114798096 -351559526 -610887250 -1355641231</internalNodes>
          <leafValues>
            -4.7858750820159912e-001 2.6894426345825195e-001</leafValues></_>
        <_>
          <internalNodes>
            0 -1 112 -355235833 2147319159 -1393557505 2046295928
            -327163985 -9175243 -1493192753 -1296826521</internalNodes>
          <leafValues>
            -3.2932040095329285e-001 3.9190128445625305e-001</leafValues></_>
        <_>
          <internalNodes>
            0 -1 19 1507601341 446476675 -1794335684 -1617381062
            -1283454535 998840457 2075086716 1014840895</internalNodes>
          <leafValues>
            -4.6668604016304016e-001 2.6859340071678162e-001</leafValues></_></weakClassifiers></_>
    <!-- stage 9 -->
    <_>
      <maxWeakCount>11</maxWeakCount>
      <stageThreshold>-1.5934667587280273e+000</stageThreshold>
      <weakClassifiers>
        <_>
          <internalNodes>
            0 -1 111 -318780209 -68168073 -721161825 -2100809 -36704001
            -70262622 -359730689 -80494785</internalNodes>
          <leafValues>
            -6.3639771938323975e-001 2.3473054170608521e-001</leafValues></_>
        <_>
          <internalNodes>
            0 -1 114 1570495931 233762702 -243019332 -40961218
            2060153823 416082651 -238456336 -38011205</internalNodes>
          <leafValues>
            -4.9572888016700745e-001 2.6823535561561584e-001</leafValues></_>
        <_>
          <internalNodes>
            0 -1 48 1358088890 -182238102 80894104 1304152251
            -1711088902 -653078518 1576762015 1499406059</internalNodes>
          <leafValues>
            -5.0205922126770020e-001 2.8472834825515747e-001</leafValues></_>
        <_>
          <internalNodes>
            0 -1 38 300168117 -545482290 -648577057 -1081758577
            -38749697 -40259047 -1392148577 -2004844287</internalNodes>
          <leafValues>
            -3.9590772986412048e-001 3.3177086710929871e-001</leafValues></_>
        <_>
          <internalNodes>
            0 -1 49 -1348486365 -359948271 -805203089 -639909753
            1120072383 -1467316094 -711321337 -856690447</internalNodes>
          <leafValues>
            -4.3340146541595459e-001 3.1692984700202942e-001</leafValues></_>
        <_>
          <internalNodes>
            0 -1 61 1574729053 534317307 -719564321 1071523799
            -1337295876 -99909430 -1148568644 -1146454993</internalNodes>
          <leafValues>
            -3.5545819997787476e-001 3.6300778388977051e-001</leafValues></_>
        <_>
          <internalNodes>
            0 -1 4 -123088806 1892929751 -1517835665 -28360498
            1343958391 827493659 1833119035 1228254091</internalNodes>
          <leafValues>
            -4.3507716059684753e-001 2.9586762189865112e-001</leafValues></_>
        <_>
          <internalNodes>
            0 -1 121 -1196490119 982974545 -1073164069 438301039
            -91637222 -24936422 -1198851411 -88419562</internalNodes>
          <leafValues>
            -4.5473775267601013e-001 2.7793139219284058e-001</leafValues></_>
        <_>
          <internalNodes>
            0 -1 118 126646676 601393216 286535767 -170131316 50510506
            -561381246 -1861574183 -1345842300</internalNodes>
          <leafValues>
            -5.8895331621170044e-001 2.1732825040817261e-001</leafValues></_>
        <_>
          <internalNodes>
            0 -1 82 1207326020 1212405870 -1023250150 992157976
            1898934772 1220920025 1238110953 595802047</internalNodes>
          <leafValues>
            -5.7639330625534058e-001 2.1478010714054108e-001</leafValues></_>
        <_>
          <internalNodes>
            0 -1 140 -572865 1934278761 -805191217 445878293 -662044584
            -74809334 -895814929 -1366934669</internalNodes>
          <leafValues>
            -4.3967047333717346e-001 2.6903903484344482e-001</leafValues></_></weakClassifiers></_>
    <!-- stage 10 -->
    <_>
      <maxWeakCount>12</maxWeakCount>
      <stageThreshold>-1.5952543020248413e+000</stageThreshold>
      <weakClassifiers>
        <_>
          <internalNodes>
            0 -1 74 -242093837 -5665 -766247169 -136318505 -274879749
            -608439861 -245367041 -687111761</internalNodes>
          <leafValues>
            -6.2792438268661499e-001 2.1424260735511780e-001</leafValues></_>
        <_>
          <internalNodes>
            0 -1 93 -577964546 -33604697 -267629934 -271711753
            1925703167 -744084837 -6331473 2146382067</internalNodes>
          <leafValues>
            -5.5607396364212036e-001 2.2584533691406250e-001</leafValues></_>
        <_>
          <internalNodes>
            0 -1 81 -100704547 1509888383 1426117074 999952975 -75347748
            -2013265918 -213333014 -1078297922</internalNodes>
          <leafValues>
            -3.9199236035346985e-001 3.6100322008132935e-001</leafValues></_>
        <_>
          <internalNodes>
            0 -1 29 -543211249 1861702041 -1878933330 -267239169
            -620160678 2046885888 -89397177 -237778305</internalNodes>
          <leafValues>
            -4.7821295261383057e-001 2.7705234289169312e-001</leafValues></_>
        <_>
          <internalNodes>
            0 -1 127 -1317801679 -1566654248 -788426511 -362917678
            193599643 -2013265792 285421744 -1714691588</internalNodes>
          <leafValues>
            -4.3590679764747620e-001 3.1424817442893982e-001</leafValues></_>
        <_>
          <internalNodes>
            0 -1 104 1924644877 2067647063 -1068116001 1912209247
            1514126926 -582022781 -2003977478 839958027</internalNodes>
          <leafValues>
            -5.2469807863235474e-001 2.4750737845897675e-001</leafValues></_>
        <_>
          <internalNodes>
            0 -1 8 633678869 405815579 -1744821265 1071125018 447827388
            966312329 445200360 1341958872</internalNodes>
          <leafValues>
            -5.8439677953720093e-001 1.9187152385711670e-001</leafValues></_>
        <_>
          <internalNodes>
            0 -1 25 -407379081 1970730853 111944228 812144 -322183146
            -1303937161 -491279830 -1498486809</internalNodes>
          <leafValues>
            -3.3516681194305420e-001 3.9038389921188354e-001</leafValues></_>
        <_>
          <internalNodes>
            0 -1 11 1651540228 -682442514 1363759134 -908775094
            -725473638 -1544978290 1312959307 6759936</internalNodes>
          <leafValues>
            -7.0052289962768555e-001 1.6606493294239044e-001</leafValues></_>
        <_>
          <internalNodes>
            0 -1 87 -1126927371 42091471 318820616 882531094 -75475992
            -2147352341 -477490240 -1080413938</internalNodes>
          <leafValues>
            -5.4865527153015137e-001 2.0493784546852112e-001</leafValues></_>
        <_>
          <internalNodes>
            0 -1 78 -270539894 -326823734 -250609534 -61960061
            -1853713919 1912737920 285934130 -255073340</internalNodes>
          <leafValues>
            -4.6096265316009521e-001 2.7190744876861572e-001</leafValues></_>
        <_>
          <internalNodes>
            0 -1 60 -453053324 134521684 1359198288 525196300 1351725808
            210340018 1604333736 246246947</internalNodes>
          <leafValues>
            -5.8659154176712036e-001 2.0019716024398804e-001</leafValues></_></weakClassifiers></_>
    <!-- stage 11 -->
    <_>
      <maxWeakCount>11</maxWeakCount>
      <stageThreshold>-1.4771419763565063e+000</stageThreshold>
      <weakClassifiers>
        <_>
          <internalNodes>
            0 -1 69 -35848705 -572680225 -1818404550 -543204037
            -35980033 -658847253 -83420246 -71324833</internalNodes>
          <leafValues>
            -6.1454546451568604e-001 2.5333333015441895e-001</leafValues></_>
        <_>
          <internalNodes>
            0 -1 84 -1962888543 -644874224 -788360737 -7356015
            -1148657509 -1576304632 -1307868161 -1447362415</internalNodes>
          <leafValues>
            -4.4664210081100464e-001 3.0362537503242493e-001</leafValues></_>
        <_>
          <internalNodes>
            0 -1 20 -439887113 -783976601 113553120 76892229 -359705054
            1922454309 -1462792406 -403185017</internalNodes>
          <leafValues>
            -3.6719363927841187e-001 3.7199705839157104e-001</leafValues></_>
        <_>
          <internalNodes>
            0 -1 137 -337721585 1751056583 -1878474310 -389295974
            -234627069 154239104 -1146375659 -521674069</internalNodes>
          <leafValues>
            -5.2171248197555542e-001 2.3733502626419067e-001</leafValues></_>
        <_>
          <internalNodes>
            0 -1 28 -695331760 2056157529 -712043757 1301238607
            -1713196766 -1870494974 1145976632 724245306</internalNodes>
          <leafValues>
            -5.1795905828475952e-001 2.5807210803031921e-001</leafValues></_>
        <_>
          <internalNodes>
            0 -1 34 -968829990 936386776 294915547 533347482 -1283443975
            192938128 600131624 1041902377</internalNodes>
          <leafValues>
            -4.7502151131629944e-001 2.7818176150321960e-001</leafValues></_>
        <_>
          <internalNodes>
            0 -1 35 439367952 -16149304 1930088887 -1248783587
            -1750558023 -1710677879 1804123127 -1934883200</internalNodes>
          <leafValues>
            -5.6884706020355225e-001 1.9360028207302094e-001</leafValues></_>
        <_>
          <internalNodes>
            0 -1 146 -1143088845 -2021145966 1342394385 -597994559
            -1689619798 -536182776 -746331407 -439624039</internalNodes>
          <leafValues>
            -4.0193626284599304e-001 3.3461874723434448e-001</leafValues></_>
        <_>
          <internalNodes>
            0 -1 83 1383604815 1872331132 349508091 -170933503
            -602408530 -201401367 8837063 -751699070</internalNodes>
          <leafValues>
            -3.5425952076911926e-001 3.6069238185882568e-001</leafValues></_>
        <_>
          <internalNodes>
            0 -1 88 1824938321 -211353525 -1862266792 -1151703655
            -1700205652 -225771510 -763227238 -1416086494</internalNodes>
          <leafValues>
            -4.3732878565788269e-001 2.9920661449432373e-001</leafValues></_>
        <_>
          <internalNodes>
            0 -1 98 998241458 -1087498284 88297108 -6462128 -165669302
            975536933 1559432573 1821343203</internalNodes>
          <leafValues>
            -4.9389761686325073e-001 2.3865385353565216e-001</leafValues></_></weakClassifiers></_>
    <!-- stage 12 -->
    <_>
      <maxWeakCount>12</maxWeakCount>
      <stageThreshold>-1.8234807252883911e+000</stageThreshold>
      <weakClassifiers>
        <_>
          <internalNodes>
            0 -1 113 -8390657 -108867292 -939036042 -212404352
            2111274671 2063778187 1741373847 -74777969</internalNodes>
          <leafValues>
            -6.2974441051483154e-001 1.3725490868091583e-001</leafValues></_>
        <_>
          <internalNodes>
            0 -1 119 -189120419 -683077625 -805285413 1531531273
            -393641525 -267681791 -637355601 -1103463621</internalNodes>
          <leafValues>
            -4.4233974814414978e-001 2.9370594024658203e-001</leafValues></_>
        <_>
          <internalNodes>
            0 -1 32 -38412463 1962364005 -24629 -1480767833 -1078794317
            -1107823243 -1493438553 -1343246417</internalNodes>
          <leafValues>
            -3.0756476521492004e-001 4.3447881937026978e-001</leafValues></_>
        <_>
          <internalNodes>
            0 -1 76 -507477886 -1077422075 1964226039 -237907757
            -999519569 -216426069 -1594114337 50530723</internalNodes>
          <leafValues>
            -4.7767949104309082e-001 2.5315511226654053e-001</leafValues></_>
        <_>
          <internalNodes>
            0 -1 99 1065415569 -1090732024 906168085 -813298332
            159955961 -1951882160 711203237 779893524</internalNodes>
          <leafValues>
            -5.5003035068511963e-001 2.3549981415271759e-001</leafValues></_>
        <_>
          <internalNodes>
            0 -1 26 1946156357 -59088418 539820033 -335596769 -391448015
            268448020 592136927 -1580972185</internalNodes>
          <leafValues>
            -3.8472646474838257e-001 3.1219351291656494e-001</leafValues></_>
        <_>
          <internalNodes>
            0 -1 123 -1434737885 725848171 -1068412789 -464580393
            -242507181 192970816 -914304383 -453592855</internalNodes>
          <leafValues>
            -5.4619431495666504e-001 2.0155937969684601e-001</leafValues></_>
        <_>
          <internalNodes>
            0 -1 22 639032286 -822674342 -636546277 1062948125
            -1945291300 -388331309 1468742611 864898421</internalNodes>
          <leafValues>
            -3.9733824133872986e-001 3.0261218547821045e-001</leafValues></_>
        <_>
          <internalNodes>
            0 -1 12 -965228322 1376950979 1095209229 -1634569682
            -217989649 1233258682 -1452061651 862189571</internalNodes>
          <leafValues>
            -4.0113151073455811e-001 2.9624989628791809e-001</leafValues></_>
        <_>
          <internalNodes>
            0 -1 96 1406348300 1398070224 746699690 1414389723
            1477112107 1493649424 312187802 830674782</internalNodes>
          <leafValues>
            -5.4482585191726685e-001 2.0955200493335724e-001</leafValues></_>
        <_>
          <internalNodes>
            0 -1 40 -1918721231 1521482057 285659998 -1616964684
            1272110077 982224905 2005484175 -1933094587</internalNodes>
          <leafValues>
            -5.0193905830383301e-001 1.9652983546257019e-001</leafValues></_>
        <_>
          <internalNodes>
            0 -1 23 2079306621 -1164116040 804204277 -1093948674
            2147240689 501071867 524103422 -554746961</internalNodes>
          <leafValues>
            -3.3295887708663940e-001 3.5177314281463623e-001</leafValues></_></weakClassifiers></_>
    <!-- stage 13 -->
    <_>
      <maxWeakCount>13</maxWeakCount>
      <stageThreshold>-1.4937996864318848e+000</stageThreshold>
      <weakClassifiers>
        <_>
          <internalNodes>
            0 -1 77 -140513289 -443951850 -329277246 -136369247
            -1046548481 1355071711 -716264950 -447745137</internalNodes>
          <leafValues>
            -6.0614269971847534e-001 2.4232082068920135e-001</leafValues></_>
        <_>
          <internalNodes>
            0 -1 55 -604023817 -203599677 16892123 1037189279 -203797812
            -1551364992 -87655474 -1412763434</internalNodes>
          <leafValues>
            -4.2150822281837463e-001 3.0088290572166443e-001</leafValues></_>
        <_>
          <internalNodes>
            0 -1 129 -913380688 -1793462269 -1055809130 -1592802921
            1644476581 -532524797 -1023012341 766859403</internalNodes>
          <leafValues>
            -6.2886691093444824e-001 2.0634756982326508e-001</leafValues></_>
        <_>
          <internalNodes>
            0 -1 92 570033205 -33800314 620741151 494876591 -1510169556
            -1858404528 -1510704500 -1103589748</internalNodes>
          <leafValues>
            -3.2654529809951782e-001 4.0385293960571289e-001</leafValues></_>
        <_>
          <internalNodes>
            0 -1 136 -1144274257 1132708054 33607742 -120520306
            -208934646 304087056 -1181037614 -188234774</internalNodes>
          <leafValues>
            -3.8435265421867371e-001 3.2616007328033447e-001</leafValues></_>
        <_>
          <internalNodes>
            0 -1 15 -736439696 -705464266 -1039347639 264845073
            -2136296990 -221637533 -515704321 1138176743</internalNodes>
          <leafValues>
            -3.7662407755851746e-001 3.5433271527290344e-001</leafValues></_>
        <_>
          <internalNodes>
            0 -1 65 1881383959 -117862193 328284661 -317411038
            -494161733 -642021229 -938501464 -1400855802</internalNodes>
          <leafValues>
            -4.2027437686920166e-001 3.0687603354454041e-001</leafValues></_>
        <_>
          <internalNodes>
            0 -1 80 -1685129898 -707390941 890640666 2107609115
            -2136943969 -2004289141 -1181273208 999234107</internalNodes>
          <leafValues>
            -3.9336892962455750e-001 3.1695425510406494e-001</leafValues></_>
        <_>
          <internalNodes>
            0 -1 7 -1790709360 165715982 1396804457 32881806 -250154812
            -1817935181 654391242 121494427</internalNodes>
          <leafValues>
            -4.2040431499481201e-001 2.9265922307968140e-001</leafValues></_>
        <_>
          <internalNodes>
            0 -1 68 1703108911 -292224895 -2088648674 -803303271
            -1828485102 705626120 -1198900683 -150220661</internalNodes>
          <leafValues>
            -4.5081067085266113e-001 2.5994989275932312e-001</leafValues></_>
        <_>
          <internalNodes>
            0 -1 138 865571347 -2088025966 -1610530559 -308658024
            548032674 293765256 -1584765979 -172504191</internalNodes>
          <leafValues>
            -4.9321126937866211e-001 2.4192394316196442e-001</leafValues></_>
        <_>
          <internalNodes>
            0 -1 70 -254003108 739668203 402674950 496644907 -393739280
            1233203210 -1732210696 1061028682</internalNodes>
          <leafValues>
            -4.8567008972167969e-001 2.4844491481781006e-001</leafValues></_>
        <_>
          <internalNodes>
            0 -1 5 -962256885 -623405810 68321670 1290204413 -632039150
            -1780516262 -1891246497 -213397213</internalNodes>
          <leafValues>
            -3.8191428780555725e-001 2.9665371775627136e-001</leafValues></_></weakClassifiers></_>
    <!-- stage 14 -->
    <_>
      <maxWeakCount>14</maxWeakCount>
      <stageThreshold>-1.4387061595916748e+000</stageThreshold>
      <weakClassifiers>
        <_>
          <internalNodes>
            0 -1 42 -242748417 -581312313 -1286452325 -786966085
            -585012309 -1161789334 -1643513605 -70529105</internalNodes>
          <leafValues>
            -5.6497359275817871e-001 4.5512819290161133e-001</leafValues></_>
        <_>
          <internalNodes>
            0 -1 128 -1291398247 -1853833071 1396822027 -103284595
            -2146909813 -217055232 42154937 -1148501111</internalNodes>
          <leafValues>
            -3.9710828661918640e-001 3.2238715887069702e-001</leafValues></_>
        <_>
          <internalNodes>
            0 -1 47 -246244526 -624295856 807056592 -1618505709
            -647851016 476709001 -318433011 1499180027</internalNodes>
          <leafValues>
            -4.1565027832984924e-001 3.2411199808120728e-001</leafValues></_>
        <_>
          <internalNodes>
            0 -1 56 -727722923 -965843605 -286365713 1863257895
            -991832671 -386832525 1941700079 -1897196741</internalNodes>
          <leafValues>
            -3.3128342032432556e-001 4.1162472963333130e-001</leafValues></_>
        <_>
          <internalNodes>
            0 -1 131 -1303125489 386977862 1342263552 -985214910
            283138251 1375862914 1073827904 1374012363</internalNodes>
          <leafValues>
            -3.5775136947631836e-001 3.7664207816123962e-001</leafValues></_>
        <_>
          <internalNodes>
            0 -1 37 761270931 -625922137 2080252095 1601564642
            -1107916826 -425941126 -1669443699 -1121450772</internalNodes>
          <leafValues>
            -3.2965123653411865e-001 4.2900532484054565e-001</leafValues></_>
        <_>
          <internalNodes>
            0 -1 45 -1459416958 -510558078 -2147385277 -582959038
            -1031634782 -267911040 1092817843 -393555823</internalNodes>
          <leafValues>
            -5.0500380992889404e-001 2.7969241142272949e-001</leafValues></_>
        <_>
          <internalNodes>
            0 -1 95 -788488180 1528266949 1208029399 273676379
            1745586766 1552076832 -2147445538 302638147</internalNodes>
          <leafValues>
            -5.6421029567718506e-001 1.8751427531242371e-001</leafValues></_>
        <_>
          <internalNodes>
            0 -1 33 -114321025 -1717006128 -1878935276 -329977776
            797450883 21004803 302529231 -380843697</internalNodes>
          <leafValues>
            -4.1336780786514282e-001 3.2129549980163574e-001</leafValues></_>
        <_>
          <internalNodes>
            0 -1 73 -979706380 488243036 -1073856783 1869848555
            -1090848002 -1634598915 1456675022 218577075</internalNodes>
          <leafValues>
            -3.4483569860458374e-001 3.8941898941993713e-001</leafValues></_>
        <_>
          <internalNodes>
            0 -1 10 -1341677104 -662109118 285757465 2043707981
            -1962698439 688193579 -937619275 1279339143</internalNodes>
          <leafValues>
            -4.3892422318458557e-001 2.8104469180107117e-001</leafValues></_>
        <_>
          <internalNodes>
            0 -1 13 -1933653789 -92868810 -1132488135 -340607126
            536706551 -172687369 1551327070 -425218217</internalNodes>
          <leafValues>
            -3.3055827021598816e-001 3.8802856206893921e-001</leafValues></_>
        <_>
          <internalNodes>
            0 -1 71 -648537136 -589741793 268746952 755523677 -393458980
            1879253507 671368088 -1487986297</internalNodes>
          <leafValues>
            -4.1908943653106689e-001 3.3238255977630615e-001</leafValues></_>
        <_>
          <internalNodes>
            0 -1 9 134942929 33701915 82114 -245546871 -2130703735
            -1844969464 1208025297 -611528040</internalNodes>
          <leafValues>
            -4.6228513121604919e-001 2.9708480834960938e-001</leafValues></_></weakClassifiers></_></stages>
  <features>
    <_>
      <rect>
        0 0 3 5</rect></_>
    <_>
      <rect>
        0 0 6 2</rect></_>
    <_>
      <rect>
        0 0 6 6</rect></_>
    <_>
      <rect>
        0 2 4 6</rect></_>
    <_>
      <rect>
        0 3 4 6</rect></_>
    <_>
      <rect>
        0 4 6 5</rect></_>
    <_>
      <rect>
        0 15 6 5</rect></_>
    <_>
      <rect>
        0 16 5 3</rect></_>
    <_>
      <rect>
        0 24 6 2</rect></_>
    <_>
      <rect>
        0 26 1 1</rect></_>
    <_>
      <rect>
        1 0 6 3</rect></_>
    <_>
      <rect>
        1 1 2 6</rect></_>
    <_>
      <rect>
        1 6 2 4</rect></_>
    <_>
      <rect>
        1 7 1 3</rect></_>
    <_>
      <rect>
        1 7 3 4</rect></_>
    <_>
      <rect>
        1 11 4 4</rect></_>
    <_>
      <rect>
        1 12 5 4</rect></_>
    <_>
      <rect>
        1 18 4 3</rect></_>
    <_>
      <rect>
        1 18 6 4</rect></_>
    <_>
      <rect>
        1 20 3 3</rect></_>
    <_>
      <rect>
        2 8 3 6</rect></_>
    <_>
      <rect>
        2 10 1 1</rect></_>
    <_>
      <rect>
        2 11 6 3</rect></_>
    <_>
      <rect>
        2 18 5 4</rect></_>
    <_>
      <rect>
        3 0 5 3</rect></_>
    <_>
      <rect>
        3 9 3 6</rect></_>
    <_>
      <rect>
        3 9 4 5</rect></_>
    <_>
      <rect>
        3 11 1 1</rect></_>
    <_>
      <rect>
        3 11 5 4</rect></_>
    <_>
      <rect>
        3 12 1 1</rect></_>
    <_>
      <rect>
        3 12 2 2</rect></_>
    <_>
      <rect>
        3 12 5 4</rect></_>
    <_>
      <rect>
        3 13 2 4</rect></_>
    <_>
      <rect>
        3 15 5 5</rect></_>
    <_>
      <rect>
        3 19 3 3</rect></_>
    <_>
      <rect>
        4 0 3 2</rect></_>
    <_>
      <rect>
        4 0 3 3</rect></_>
    <_>
      <rect>
        4 0 4 1</rect></_>
    <_>
      <rect>
        4 0 5 2</rect></_>
    <_>
      <rect>
        4 0 5 4</rect></_>
    <_>
      <rect>
        4 1 2 3</rect></_>
    <_>
      <rect>
        4 1 2 4</rect></_>
    <_>
      <rect>
        4 2 4 4</rect></_>
    <_>
      <rect>
        4 4 1 1</rect></_>
    <_>
      <rect>
        4 5 1 1</rect></_>
    <_>
      <rect>
        4 6 1 1</rect></_>
    <_>
      <rect>
        4 6 2 1</rect></_>
    <_>
      <rect>
        4 6 3 4</rect></_>
    <_>
      <rect>
        4 6 4 4</rect></_>
    <_>
      <rect>
        4 7 1 1</rect></_>
    <_>
      <rect>
        4 9 3 3</rect></_>
    <_>
      <rect>
        4 9 4 4</rect></_>
    <_>
      <rect>
        4 10 4 4</rect></_>
    <_>
      <rect>
        4 11 1 1</rect></_>
    <_>
      <rect>
        4 11 3 4</rect></_>
    <_>
      <rect>
        4 13 1 2</rect></_>
    <_>
      <rect>
        4 14 3 3</rect></_>
    <_>
      <rect>
        4 15 1 1</rect></_>
    <_>
      <rect>
        4 15 1 2</rect></_>
    <_>
      <rect>
        4 16 3 3</rect></_>
    <_>
      <rect>
        4 16 4 3</rect></_>
    <_>
      <rect>
        4 23 2 2</rect></_>
    <_>
      <rect>
        4 24 4 2</rect></_>
    <_>
      <rect>
        4 26 3 1</rect></_>
    <_>
      <rect>
        5 0 4 5</rect></_>
    <_>
      <rect>
        5 1 5 2</rect></_>
    <_>
      <rect>
        5 7 4 3</rect></_>
    <_>
      <rect>
        5 9 5 4</rect></_>
    <_>
      <rect>
        5 11 1 1</rect></_>
    <_>
      <rect>
        5 11 4 3</rect></_>
    <_>
      <rect>
        5 12 2 2</rect></_>
    <_>
      <rect>
        5 12 2 3</rect></_>
    <_>
      <rect>
        5 14 1 2</rect></_>
    <_>
      <rect>
        5 18 3 3</rect></_>
    <_>
      <rect>
        6 1 3 4</rect></_>
    <_>
      <rect>
        6 2 4 1</rect></_>
    <_>
      <rect>
        6 4 3 3</rect></_>
    <_>
      <rect>
        6 6 3 7</rect></_>
    <_>
      <rect>
        6 10 1 1</rect></_>
    <_>
      <rect>
        6 11 1 1</rect></_>
    <_>
      <rect>
        6 12 4 3</rect></_>
    <_>
      <rect>
        6 13 1 2</rect></_>
    <_>
      <rect>
        6 15 3 3</rect></_>
    <_>
      <rect>
        7 2 4 5</rect></_>
    <_>
      <rect>
        7 4 1 1</rect></_>
    <_>
      <rect>
        7 5 1 1</rect></_>
    <_>
      <rect>
        7 6 3 3</rect></_>
    <_>
      <rect>
        7 10 1 3</rect></_>
    <_>
      <rect>
        7 14 1 2</rect></_>
    <_>
      <rect>
        7 21 4 2</rect></_>
    <_>
      <rect>
        7 24 1 1</rect></_>
    <_>
      <rect>
        7 27 3 1</rect></_>
    <_>
      <rect>
        8 0 4 1</rect></_>
    <_>
      <rect>
        8 2 4 9</rect></_>
    <_>
      <rect>
        8 3 4 6</rect></_>
    <_>
      <rect>
        8 4 4 2</rect></_>
    <_>
      <rect>
        8 6 4 4</rect></_>
    <_>
      <rect>
        8 15 4 5</rect></_>
    <_>
      <rect>
        8 18 4 4</rect></_>
    <_>
      <rect>
        8 21 3 3</rect></_>
    <_>
      <rect>
        8 25 1 1</rect></_>
    <_>
      <rect>
        9 1 3 2</rect></_>
    <_>
      <rect>
        9 18 3 4</rect></_>
    <_>
      <rect>
        10 3 1 1</rect></_>
    <_>
      <rect>
        10 3 3 3</rect></_>
    <_>
      <rect>
        10 21 3 3</rect></_>
    <_>
      <rect>
        10 24 1 1</rect></_>
    <_>
      <rect>
        10 26 2 1</rect></_>
    <_>
      <rect>
        11 0 3 10</rect></_>
    <_>
      <rect>
        11 1 3 5</rect></_>
    <_>
      <rect>
        11 1 3 6</rect></_>
    <_>
      <rect>
        11 2 2 4</rect></_>
    <_>
      <rect>
        11 5 2 3</rect></_>
    <_>
      <rect>
        11 11 2 6</rect></_>
    <_>
      <rect>
        11 15 3 4</rect></_>
    <_>
      <rect>
        11 21 3 3</rect></_>
    <_>
      <rect>
        12 2 2 3</rect></_>
    <_>
      <rect>
        12 17 2 4</rect></_>
    <_>
      <rect>
        12 24 1 1</rect></_>
    <_>
      <rect>
        13 4 1 1</rect></_>
    <_>
      <rect>
        13 5 1 1</rect></_>
    <_>
      <rect>
        13 6 1 1</rect></_>
    <_>
      <rect>
        13 10 1 1</rect></_>
    <_>
      <rect>
        13 11 1 1</rect></_>
    <_>
      <rect>
        13 20 1 1</rect></_>
    <_>
      <rect>
        13 21 1 1</rect></_>
    <_>
      <rect>
        13 21 2 1</rect></_>
    <_>
      <rect>
        13 22 1 1</rect></_>
    <_>
      <rect>
        13 24 1 1</rect></_>
    <_>
      <rect>
        14 4 2 8</rect></_>
    <_>
      <rect>
        14 11 1 1</rect></_>
    <_>
      <rect>
        14 12 2 5</rect></_>
    <_>
      <rect>
        14 15 2 5</rect></_>
    <_>
      <rect>
        14 16 1 1</rect></_>
    <_>
      <rect>
        15 5 1 1</rect></_>
    <_>
      <rect>
        15 6 1 1</rect></_>
    <_>
      <rect>
        15 10 1 1</rect></_>
    <_>
      <rect>
        15 11 1 1</rect></_>
    <_>
      <rect>
        15 20 1 1</rect></_>
    <_>
      <rect>
        15 21 1 1</rect></_>
    <_>
      <rect>
        16 5 1 1</rect></_>
    <_>
      <rect>
        16 6 1 1</rect></_>
    <_>
      <rect>
        16 11 1 1</rect></_>
    <_>
      <rect>
        16 12 1 5</rect></_>
    <_>
      <rect>
        16 16 1 1</rect></_>
    <_>
      <rect>
        16 17 1 1</rect></_>
    <_>
      <rect>
        16 21 1 1</rect></_></features></cascade>
</opencv_storage>
