<?xml version="1.0"?>
<opencv_storage>
<stage5>
  <maxWeakCount>9</maxWeakCount>
  <stageThreshold>-1.3672478199005127e+000</stageThreshold>
  <weakClassifiers>
    <_>
      <internalNodes>
        0 -1 8964 -136317953 -337661237 -788409351 -35710978 -208936005
        -343244638 -225711177 -134221057</internalNodes>
      <leafValues>
        -6.4276593923568726e-001 3.4430545568466187e-001</leafValues></_>
    <_>
      <internalNodes>
        0 -1 55 1215810271 -2626126 1297447135 -545653865 -276829734
        -2098894 -346816513 -150475262</internalNodes>
      <leafValues>
        -4.7811275720596313e-001 4.1444167494773865e-001</leafValues></_>
    <_>
      <internalNodes>
        0 -1 8210 -956364705 -2658785 -804720163 1920684247 -120993665
        -1098182486 -90642245 -1162708357</internalNodes>
      <leafValues>
        -4.5551323890686035e-001 3.8983470201492310e-001</leafValues></_>
    <_>
      <internalNodes>
        0 -1 3087 -134787476 2071941367 1390208734 842681339 -116375460
        1934041099 -124104886 1534262143</internalNodes>
      <leafValues>
        -6.0475867986679077e-001 2.9039204120635986e-001</leafValues></_>
    <_>
      <internalNodes>
        0 -1 6905 -1279328321 -1079230904 -590532100 -40524 368112367
        -1639153462 1041762813 1073700348</internalNodes>
      <leafValues>
        -4.8936748504638672e-001 3.5369095206260681e-001</leafValues></_>
    <_>
      <internalNodes>
        0 -1 5545 -2021641419 -339083063 -670966541 -2113067 -1148243777
        -1450514302 -1953724745 -1459863227</internalNodes>
      <leafValues>
        -5.4630178213119507e-001 2.9310855269432068e-001</leafValues></_>
    <_>
      <internalNodes>
        0 -1 3734 -19071014 -38048229 2013139752 997922579 -244385048
        -2142667790 -140527697 -74743949</internalNodes>
      <leafValues>
        -3.8327503204345703e-001 4.5182362198829651e-001</leafValues></_>
    <_>
      <internalNodes>
        0 -1 8639 1072617754 1054736948 -388017666 -1123401284 352090036
        728434922 1808095708 1608490228</internalNodes>
      <leafValues>
        -6.0689020156860352e-001 2.6165115833282471e-001</leafValues></_>
    <_>
      <internalNodes>
        0 -1 5595 -995368764 -715271307 -515649029 1973146381 -390912515
        -30889876 -1595557073 865026586</internalNodes>
      <leafValues>
        -4.7970446944236755e-001 3.1192061305046082e-001</leafValues></_></weakClassifiers></stage5>
</opencv_storage>
