<?xml version="1.0"?>
<opencv_storage>
<stage12>
  <maxWeakCount>12</maxWeakCount>
  <stageThreshold>-1.8234807252883911e+000</stageThreshold>
  <weakClassifiers>
    <_>
      <internalNodes>
        0 -1 7670 -8390657 -108867292 -939036042 -212404352 2111274671
        2063778187 1741373847 -74777969</internalNodes>
      <leafValues>
        -6.2974441051483154e-001 1.3725490868091583e-001</leafValues></_>
    <_>
      <internalNodes>
        0 -1 8194 -189120419 -683077625 -805285413 1531531273 -393641525
        -267681791 -637355601 -1103463621</internalNodes>
      <leafValues>
        -4.4233974814414978e-001 2.9370594024658203e-001</leafValues></_>
    <_>
      <internalNodes>
        0 -1 3118 -38412463 1962364005 -24629 -1480767833 -1078794317
        -1107823243 -1493438553 -1343246417</internalNodes>
      <leafValues>
        -3.0756476521492004e-001 4.3447881937026978e-001</leafValues></_>
    <_>
      <internalNodes>
        0 -1 4951 -507477886 -1077422075 1964226039 -237907757
        -999519569 -216426069 -1594114337 50530723</internalNodes>
      <leafValues>
        -4.7767949104309082e-001 2.5315511226654053e-001</leafValues></_>
    <_>
      <internalNodes>
        0 -1 6485 1065415569 -1090732024 906168085 -813298332 159955961
        -1951882160 711203237 779893524</internalNodes>
      <leafValues>
        -5.5003035068511963e-001 2.3549981415271759e-001</leafValues></_>
    <_>
      <internalNodes>
        0 -1 3010 1946156357 -59088418 539820033 -335596769 -391448015
        268448020 592136927 -1580972185</internalNodes>
      <leafValues>
        -3.8472646474838257e-001 3.1219351291656494e-001</leafValues></_>
    <_>
      <internalNodes>
        0 -1 8296 -1434737885 725848171 -1068412789 -464580393
        -242507181 192970816 -914304383 -453592855</internalNodes>
      <leafValues>
        -5.4619431495666504e-001 2.0155937969684601e-001</leafValues></_>
    <_>
      <internalNodes>
        0 -1 2300 639032286 -822674342 -636546277 1062948125 -1945291300
        -388331309 1468742611 864898421</internalNodes>
      <leafValues>
        -3.9733824133872986e-001 3.0261218547821045e-001</leafValues></_>
    <_>
      <internalNodes>
        0 -1 1199 -965228322 1376950979 1095209229 -1634569682
        -217989649 1233258682 -1452061651 862189571</internalNodes>
      <leafValues>
        -4.0113151073455811e-001 2.9624989628791809e-001</leafValues></_>
    <_>
      <internalNodes>
        0 -1 6184 1406348300 1398070224 746699690 1414389723 1477112107
        1493649424 312187802 830674782</internalNodes>
      <leafValues>
        -5.4482585191726685e-001 2.0955200493335724e-001</leafValues></_>
    <_>
      <internalNodes>
        0 -1 3396 -1918721231 1521482057 285659998 -1616964684
        1272110077 982224905 2005484175 -1933094587</internalNodes>
      <leafValues>
        -5.0193905830383301e-001 1.9652983546257019e-001</leafValues></_>
    <_>
      <internalNodes>
        0 -1 2497 2079306621 -1164116040 804204277 -1093948674
        2147240689 501071867 524103422 -554746961</internalNodes>
      <leafValues>
        -3.3295887708663940e-001 3.5177314281463623e-001</leafValues></_></weakClassifiers></stage12>
</opencv_storage>
