<?xml version="1.0"?>
<opencv_storage>
<stage6>
  <maxWeakCount>9</maxWeakCount>
  <stageThreshold>-1.4818649291992187e+000</stageThreshold>
  <weakClassifiers>
    <_>
      <internalNodes>
        0 -1 8943 -1073741893 -1214252341 -1056705513 -1156319667
        467659753 730581643 -581971479 -35651587</internalNodes>
      <leafValues>
        -7.1656334400177002e-001 9.5008052885532379e-002</leafValues></_>
    <_>
      <internalNodes>
        0 -1 3378 -238701991 -682634277 -436211329 -20291 -59917381
        -33690741 -297142117 403538699</internalNodes>
      <leafValues>
        -5.2883654832839966e-001 3.1005489826202393e-001</leafValues></_>
    <_>
      <internalNodes>
        0 -1 2232 -67121169 -455651315 -786317046 -153169458 -743704037
        1677951112 -760487134 -204215333</internalNodes>
      <leafValues>
        -4.5255252718925476e-001 3.7498369812965393e-001</leafValues></_>
    <_>
      <internalNodes>
        0 -1 4052 491600861 429069200 -2126405795 1071168862 1501576665
        -107183926 -83250692 -1160992072</internalNodes>
      <leafValues>
        -4.1802662611007690e-001 3.9238426089286804e-001</leafValues></_>
    <_>
      <internalNodes>
        0 -1 6089 1288699082 -180955916 88710139 -786973296 -910247025
        -550010655 -2045780337 1356329618</internalNodes>
      <leafValues>
        -4.6583002805709839e-001 3.5918581485748291e-001</leafValues></_>
    <_>
      <internalNodes>
        0 -1 8284 -1073754577 786157777 -1064200998 -1029748525
        -627332797 -251428862 -74727327 -1049729</internalNodes>
      <leafValues>
        -4.4429376721382141e-001 3.6057171225547791e-001</leafValues></_>
    <_>
      <internalNodes>
        0 -1 24 139310624 -154443482 273914845 -12753975 -874513573
        -270824226 -544286021 516356</internalNodes>
      <leafValues>
        -6.0989189147949219e-001 2.3939630389213562e-001</leafValues></_>
    <_>
      <internalNodes>
        0 -1 3775 -291560881 -1594155000 -803221440 -19736697
        -1683357173 -485883768 -91489965 -205788225</internalNodes>
      <leafValues>
        -5.0495880842208862e-001 2.6687371730804443e-001</leafValues></_>
    <_>
      <internalNodes>
        0 -1 5907 2062531496 -1576185460 1499372784 -35726882 730806781
        192999676 814418168 233680634</internalNodes>
      <leafValues>
        -5.9745883941650391e-001 2.4396724998950958e-001</leafValues></_></weakClassifiers></stage6>
</opencv_storage>
