<?xml version="1.0"?>
<opencv_storage>
<stage9>
  <maxWeakCount>11</maxWeakCount>
  <stageThreshold>-1.5934667587280273e+000</stageThreshold>
  <weakClassifiers>
    <_>
      <internalNodes>
        0 -1 7464 -318780209 -68168073 -721161825 -2100809 -36704001
        -70262622 -359730689 -80494785</internalNodes>
      <leafValues>
        -6.3639771938323975e-001 2.3473054170608521e-001</leafValues></_>
    <_>
      <internalNodes>
        0 -1 7738 1570495931 233762702 -243019332 -40961218 2060153823
        416082651 -238456336 -38011205</internalNodes>
      <leafValues>
        -4.9572888016700745e-001 2.6823535561561584e-001</leafValues></_>
    <_>
      <internalNodes>
        0 -1 3627 1358088890 -182238102 80894104 1304152251 -1711088902
        -653078518 1576762015 1499406059</internalNodes>
      <leafValues>
        -5.0205922126770020e-001 2.8472834825515747e-001</leafValues></_>
    <_>
      <internalNodes>
        0 -1 3376 300168117 -545482290 -648577057 -1081758577 -38749697
        -40259047 -1392148577 -2004844287</internalNodes>
      <leafValues>
        -3.9590772986412048e-001 3.3177086710929871e-001</leafValues></_>
    <_>
      <internalNodes>
        0 -1 3640 -1348486365 -359948271 -805203089 -639909753
        1120072383 -1467316094 -711321337 -856690447</internalNodes>
      <leafValues>
        -4.3340146541595459e-001 3.1692984700202942e-001</leafValues></_>
    <_>
      <internalNodes>
        0 -1 4028 1574729053 534317307 -719564321 1071523799 -1337295876
        -99909430 -1148568644 -1146454993</internalNodes>
      <leafValues>
        -3.5545819997787476e-001 3.6300778388977051e-001</leafValues></_>
    <_>
      <internalNodes>
        0 -1 200 -123088806 1892929751 -1517835665 -28360498 1343958391
        827493659 1833119035 1228254091</internalNodes>
      <leafValues>
        -4.3507716059684753e-001 2.9586762189865112e-001</leafValues></_>
    <_>
      <internalNodes>
        0 -1 8226 -1196490119 982974545 -1073164069 438301039 -91637222
        -24936422 -1198851411 -88419562</internalNodes>
      <leafValues>
        -4.5473775267601013e-001 2.7793139219284058e-001</leafValues></_>
    <_>
      <internalNodes>
        0 -1 8110 126646676 601393216 286535767 -170131316 50510506
        -561381246 -1861574183 -1345842300</internalNodes>
      <leafValues>
        -5.8895331621170044e-001 2.1732825040817261e-001</leafValues></_>
    <_>
      <internalNodes>
        0 -1 5237 1207326020 1212405870 -1023250150 992157976 1898934772
        1220920025 1238110953 595802047</internalNodes>
      <leafValues>
        -5.7639330625534058e-001 2.1478010714054108e-001</leafValues></_>
    <_>
      <internalNodes>
        0 -1 8890 -572865 1934278761 -805191217 445878293 -662044584
        -74809334 -895814929 -1366934669</internalNodes>
      <leafValues>
        -4.3967047333717346e-001 2.6903903484344482e-001</leafValues></_></weakClassifiers></stage9>
</opencv_storage>
