<?xml version="1.0"?>
<opencv_storage>
<stage13>
  <maxWeakCount>13</maxWeakCount>
  <stageThreshold>-1.4937996864318848e+000</stageThreshold>
  <weakClassifiers>
    <_>
      <internalNodes>
        0 -1 5019 -140513289 -443951850 -329277246 -136369247
        -1046548481 1355071711 -716264950 -447745137</internalNodes>
      <leafValues>
        -6.0614269971847534e-001 2.4232082068920135e-001</leafValues></_>
    <_>
      <internalNodes>
        0 -1 3836 -604023817 -203599677 16892123 1037189279 -203797812
        -1551364992 -87655474 -1412763434</internalNodes>
      <leafValues>
        -4.2150822281837463e-001 3.0088290572166443e-001</leafValues></_>
    <_>
      <internalNodes>
        0 -1 8499 -913380688 -1793462269 -1055809130 -1592802921
        1644476581 -532524797 -1023012341 766859403</internalNodes>
      <leafValues>
        -6.2886691093444824e-001 2.0634756982326508e-001</leafValues></_>
    <_>
      <internalNodes>
        0 -1 5975 570033205 -33800314 620741151 494876591 -1510169556
        -1858404528 -1510704500 -1103589748</internalNodes>
      <leafValues>
        -3.2654529809951782e-001 4.0385293960571289e-001</leafValues></_>
    <_>
      <internalNodes>
        0 -1 8782 -1144274257 1132708054 33607742 -120520306 -208934646
        304087056 -1181037614 -188234774</internalNodes>
      <leafValues>
        -3.8435265421867371e-001 3.2616007328033447e-001</leafValues></_>
    <_>
      <internalNodes>
        0 -1 1419 -736439696 -705464266 -1039347639 264845073
        -2136296990 -221637533 -515704321 1138176743</internalNodes>
      <leafValues>
        -3.7662407755851746e-001 3.5433271527290344e-001</leafValues></_>
    <_>
      <internalNodes>
        0 -1 4147 1881383959 -117862193 328284661 -317411038 -494161733
        -642021229 -938501464 -1400855802</internalNodes>
      <leafValues>
        -4.2027437686920166e-001 3.0687603354454041e-001</leafValues></_>
    <_>
      <internalNodes>
        0 -1 5181 -1685129898 -707390941 890640666 2107609115
        -2136943969 -2004289141 -1181273208 999234107</internalNodes>
      <leafValues>
        -3.9336892962455750e-001 3.1695425510406494e-001</leafValues></_>
    <_>
      <internalNodes>
        0 -1 708 -1790709360 165715982 1396804457 32881806 -250154812
        -1817935181 654391242 121494427</internalNodes>
      <leafValues>
        -4.2040431499481201e-001 2.9265922307968140e-001</leafValues></_>
    <_>
      <internalNodes>
        0 -1 4500 1703108911 -292224895 -2088648674 -803303271
        -1828485102 705626120 -1198900683 -150220661</internalNodes>
      <leafValues>
        -4.5081067085266113e-001 2.5994989275932312e-001</leafValues></_>
    <_>
      <internalNodes>
        0 -1 8830 865571347 -2088025966 -1610530559 -308658024 548032674
        293765256 -1584765979 -172504191</internalNodes>
      <leafValues>
        -4.9321126937866211e-001 2.4192394316196442e-001</leafValues></_>
    <_>
      <internalNodes>
        0 -1 4537 -254003108 739668203 402674950 496644907 -393739280
        1233203210 -1732210696 1061028682</internalNodes>
      <leafValues>
        -4.8567008972167969e-001 2.4844491481781006e-001</leafValues></_>
    <_>
      <internalNodes>
        0 -1 266 -962256885 -623405810 68321670 1290204413 -632039150
        -1780516262 -1891246497 -213397213</internalNodes>
      <leafValues>
        -3.8191428780555725e-001 2.9665371775627136e-001</leafValues></_></weakClassifiers></stage13>
</opencv_storage>
