<?xml version="1.0"?>
<opencv_storage>
<stage1>
  <maxWeakCount>6</maxWeakCount>
  <stageThreshold>-2.2244501113891602e+000</stageThreshold>
  <weakClassifiers>
    <_>
      <internalNodes>
        0 -1 3560 -1346765901 -341871725 -711853609 -2121007 -358942213
        -74808695 -74712589 -3595</internalNodes>
      <leafValues>
        -7.6753836870193481e-001 3.1989002227783203e-001</leafValues></_>
    <_>
      <internalNodes>
        0 -1 689 -33557505 -1109868548 -1621250565 -35865332 229446653
        1073542620 266144509 -3276801</internalNodes>
      <leafValues>
        -5.4967767000198364e-001 5.1506149768829346e-001</leafValues></_>
    <_>
      <internalNodes>
        0 -1 7447 -218380273 -528523 -417557505 -705432361 -67110706
        -3148993 -110371862 -535631322</internalNodes>
      <leafValues>
        -5.0100344419479370e-001 5.2607458829879761e-001</leafValues></_>
    <_>
      <internalNodes>
        0 -1 4042 89399293 1000929007 1028663551 1037835992 1070690748
        -274177816 1054419708 -1078187864</internalNodes>
      <leafValues>
        -5.4623115062713623e-001 4.3601781129837036e-001</leafValues></_>
    <_>
      <internalNodes>
        0 -1 8386 -1076905161 -1481977648 -787360523 -137373516
        327922353 -1950678902 -779365899 -41540</internalNodes>
      <leafValues>
        -4.5592364668846130e-001 4.7979149222373962e-001</leafValues></_>
    <_>
      <internalNodes>
        0 -1 146 -792868122 -201854001 -929434961 -570441757 -1432290629
        -252718914 1711482223 1648608322</internalNodes>
      <leafValues>
        -4.9150425195693970e-001 4.4204065203666687e-001</leafValues></_></weakClassifiers></stage1>
</opencv_storage>
