<?xml version="1.0"?>
<opencv_storage>
<stage10>
  <maxWeakCount>12</maxWeakCount>
  <stageThreshold>-1.5952543020248413e+000</stageThreshold>
  <weakClassifiers>
    <_>
      <internalNodes>
        0 -1 4846 -242093837 -5665 -766247169 -136318505 -274879749
        -608439861 -245367041 -687111761</internalNodes>
      <leafValues>
        -6.2792438268661499e-001 2.1424260735511780e-001</leafValues></_>
    <_>
      <internalNodes>
        0 -1 6056 -577964546 -33604697 -267629934 -271711753 1925703167
        -744084837 -6331473 2146382067</internalNodes>
      <leafValues>
        -5.5607396364212036e-001 2.2584533691406250e-001</leafValues></_>
    <_>
      <internalNodes>
        0 -1 5186 -100704547 1509888383 1426117074 999952975 -75347748
        -2013265918 -213333014 -1078297922</internalNodes>
      <leafValues>
        -3.9199236035346985e-001 3.6100322008132935e-001</leafValues></_>
    <_>
      <internalNodes>
        0 -1 3080 -543211249 1861702041 -1878933330 -267239169
        -620160678 2046885888 -89397177 -237778305</internalNodes>
      <leafValues>
        -4.7821295261383057e-001 2.7705234289169312e-001</leafValues></_>
    <_>
      <internalNodes>
        0 -1 8392 -1317801679 -1566654248 -788426511 -362917678
        193599643 -2013265792 285421744 -1714691588</internalNodes>
      <leafValues>
        -4.3590679764747620e-001 3.1424817442893982e-001</leafValues></_>
    <_>
      <internalNodes>
        0 -1 7064 1924644877 2067647063 -1068116001 1912209247
        1514126926 -582022781 -2003977478 839958027</internalNodes>
      <leafValues>
        -5.2469807863235474e-001 2.4750737845897675e-001</leafValues></_>
    <_>
      <internalNodes>
        0 -1 851 633678869 405815579 -1744821265 1071125018 447827388
        966312329 445200360 1341958872</internalNodes>
      <leafValues>
        -5.8439677953720093e-001 1.9187152385711670e-001</leafValues></_>
    <_>
      <internalNodes>
        0 -1 3004 -407379081 1970730853 111944228 812144 -322183146
        -1303937161 -491279830 -1498486809</internalNodes>
      <leafValues>
        -3.3516681194305420e-001 3.9038389921188354e-001</leafValues></_>
    <_>
      <internalNodes>
        0 -1 944 1651540228 -682442514 1363759134 -908775094 -725473638
        -1544978290 1312959307 6759936</internalNodes>
      <leafValues>
        -7.0052289962768555e-001 1.6606493294239044e-001</leafValues></_>
    <_>
      <internalNodes>
        0 -1 5695 -1126927371 42091471 318820616 882531094 -75475992
        -2147352341 -477490240 -1080413938</internalNodes>
      <leafValues>
        -5.4865527153015137e-001 2.0493784546852112e-001</leafValues></_>
    <_>
      <internalNodes>
        0 -1 5113 -270539894 -326823734 -250609534 -61960061 -1853713919
        1912737920 285934130 -255073340</internalNodes>
      <leafValues>
        -4.6096265316009521e-001 2.7190744876861572e-001</leafValues></_>
    <_>
      <internalNodes>
        0 -1 3924 -453053324 134521684 1359198288 525196300 1351725808
        210340018 1604333736 246246947</internalNodes>
      <leafValues>
        -5.8659154176712036e-001 2.0019716024398804e-001</leafValues></_></weakClassifiers></stage10>
</opencv_storage>
