<?xml version="1.0"?>
<opencv_storage>
<stage14>
  <maxWeakCount>14</maxWeakCount>
  <stageThreshold>-1.4387061595916748e+000</stageThreshold>
  <weakClassifiers>
    <_>
      <internalNodes>
        0 -1 3460 -242748417 -581312313 -1286452325 -786966085
        -585012309 -1161789334 -1643513605 -70529105</internalNodes>
      <leafValues>
        -5.6497359275817871e-001 4.5512819290161133e-001</leafValues></_>
    <_>
      <internalNodes>
        0 -1 8400 -1291398247 -1853833071 1396822027 -103284595
        -2146909813 -217055232 42154937 -1148501111</internalNodes>
      <leafValues>
        -3.9710828661918640e-001 3.2238715887069702e-001</leafValues></_>
    <_>
      <internalNodes>
        0 -1 3619 -246244526 -624295856 807056592 -1618505709 -647851016
        476709001 -318433011 1499180027</internalNodes>
      <leafValues>
        -4.1565027832984924e-001 3.2411199808120728e-001</leafValues></_>
    <_>
      <internalNodes>
        0 -1 3872 -727722923 -965843605 -286365713 1863257895 -991832671
        -386832525 1941700079 -1897196741</internalNodes>
      <leafValues>
        -3.3128342032432556e-001 4.1162472963333130e-001</leafValues></_>
    <_>
      <internalNodes>
        0 -1 8608 -1303125489 386977862 1342263552 -985214910 283138251
        1375862914 1073827904 1374012363</internalNodes>
      <leafValues>
        -3.5775136947631836e-001 3.7664207816123962e-001</leafValues></_>
    <_>
      <internalNodes>
        0 -1 3365 761270931 -625922137 2080252095 1601564642 -1107916826
        -425941126 -1669443699 -1121450772</internalNodes>
      <leafValues>
        -3.2965123653411865e-001 4.2900532484054565e-001</leafValues></_>
    <_>
      <internalNodes>
        0 -1 3600 -1459416958 -510558078 -2147385277 -582959038
        -1031634782 -267911040 1092817843 -393555823</internalNodes>
      <leafValues>
        -5.0500380992889404e-001 2.7969241142272949e-001</leafValues></_>
    <_>
      <internalNodes>
        0 -1 6118 -788488180 1528266949 1208029399 273676379 1745586766
        1552076832 -2147445538 302638147</internalNodes>
      <leafValues>
        -5.6421029567718506e-001 1.8751427531242371e-001</leafValues></_>
    <_>
      <internalNodes>
        0 -1 3184 -114321025 -1717006128 -1878935276 -329977776
        797450883 21004803 302529231 -380843697</internalNodes>
      <leafValues>
        -4.1336780786514282e-001 3.2129549980163574e-001</leafValues></_>
    <_>
      <internalNodes>
        0 -1 4685 -979706380 488243036 -1073856783 1869848555
        -1090848002 -1634598915 1456675022 218577075</internalNodes>
      <leafValues>
        -3.4483569860458374e-001 3.8941898941993713e-001</leafValues></_>
    <_>
      <internalNodes>
        0 -1 922 -1341677104 -662109118 285757465 2043707981 -1962698439
        688193579 -937619275 1279339143</internalNodes>
      <leafValues>
        -4.3892422318458557e-001 2.8104469180107117e-001</leafValues></_>
    <_>
      <internalNodes>
        0 -1 1238 -1933653789 -92868810 -1132488135 -340607126 536706551
        -172687369 1551327070 -425218217</internalNodes>
      <leafValues>
        -3.3055827021598816e-001 3.8802856206893921e-001</leafValues></_>
    <_>
      <internalNodes>
        0 -1 4538 -648537136 -589741793 268746952 755523677 -393458980
        1879253507 671368088 -1487986297</internalNodes>
      <leafValues>
        -4.1908943653106689e-001 3.3238255977630615e-001</leafValues></_>
    <_>
      <internalNodes>
        0 -1 858 134942929 33701915 82114 -245546871 -2130703735
        -1844969464 1208025297 -611528040</internalNodes>
      <leafValues>
        -4.6228513121604919e-001 2.9708480834960938e-001</leafValues></_></weakClassifiers></stage14>
</opencv_storage>
