<?xml version="1.0"?>
<opencv_storage>
<stage3>
  <maxWeakCount>8</maxWeakCount>
  <stageThreshold>-1.6516047716140747e+000</stageThreshold>
  <weakClassifiers>
    <_>
      <internalNodes>
        0 -1 7879 -16823201 -2131105 -1844063489 -3155617 -87098629
        -69215833 -37748993 -1171103873</internalNodes>
      <leafValues>
        -7.5121307373046875e-001 1.6463908553123474e-001</leafValues></_>
    <_>
      <internalNodes>
        0 -1 8389 -8388629 -1347645048 -107522576 -2371128 1341389311
        1239124633 -207358987 -171982849</internalNodes>
      <leafValues>
        -5.9865468740463257e-001 3.3517524600028992e-001</leafValues></_>
    <_>
      <internalNodes>
        0 -1 3357 -2097114191 -6432811 -482362369 -8554507 -85016579
        -1342465327 -1078995489 -1920465535</internalNodes>
      <leafValues>
        -5.6858861446380615e-001 3.7170141935348511e-001</leafValues></_>
    <_>
      <internalNodes>
        0 -1 3050 -85992914 -292585229 -804597614 -220278626 -91784594
        1375897675 -1194599897 -134219085</internalNodes>
      <leafValues>
        -5.0355517864227295e-001 4.0215528011322021e-001</leafValues></_>
    <_>
      <internalNodes>
        0 -1 5925 991704053 962461904 -796671527 -1080159915 -1173876487
        -628457334 -87534849 -1410712648</internalNodes>
      <leafValues>
        -5.1079297065734863e-001 3.9782369136810303e-001</leafValues></_>
    <_>
      <internalNodes>
        0 -1 4388 -241502008 -45292701 824950846 1978640383 -675033942
        1354206477 881847615 1469837263</internalNodes>
      <leafValues>
        -4.5796093344688416e-001 4.1977530717849731e-001</leafValues></_>
    <_>
      <internalNodes>
        0 -1 7802 -1275274245 -1087832136 -523 -1614873111 1073608701
        -1347092482 2147434493 -1610647832</internalNodes>
      <leafValues>
        -3.8709503412246704e-001 4.6383580565452576e-001</leafValues></_>
    <_>
      <internalNodes>
        0 -1 8640 -286297273 721928324 -653225520 -387985202 2055414339
        1753448600 -1819542828 -402656578</internalNodes>
      <leafValues>
        -5.2220302820205688e-001 3.4280896186828613e-001</leafValues></_></weakClassifiers></stage3>
</opencv_storage>
