<?xml version="1.0"?>
<opencv_storage>
<stage8>
  <maxWeakCount>10</maxWeakCount>
  <stageThreshold>-1.4224764108657837e+000</stageThreshold>
  <weakClassifiers>
    <_>
      <internalNodes>
        0 -1 6263 -5 -551872078 85940657 -4244717 -1936917505
        -1616661842 232576507 -541328389</internalNodes>
      <leafValues>
        -6.3787442445755005e-001 1.6493150591850281e-001</leafValues></_>
    <_>
      <internalNodes>
        0 -1 8194 -990115747 -2424805 269538011 -39890919 -73739112
        -1174044502 -611390721 -1166525639</internalNodes>
      <leafValues>
        -5.1498019695281982e-001 2.7494302392005920e-001</leafValues></_>
    <_>
      <internalNodes>
        0 -1 3600 -1414269997 -962690933 -654092833 -154496829
        -914138373 -880738296 -1949736621 -34606875</internalNodes>
      <leafValues>
        -4.1286051273345947e-001 3.3208864927291870e-001</leafValues></_>
    <_>
      <internalNodes>
        0 -1 6403 -8718576 -660687138 689641500 -1382138785 -91165923
        -1193608536 2144435295 912125690</internalNodes>
      <leafValues>
        -5.0670814514160156e-001 2.5487262010574341e-001</leafValues></_>
    <_>
      <internalNodes>
        0 -1 7251 -187500098 -83742406 1129402585 -1478806219
        -1398734919 -1951694185 152328637 -1610723845</internalNodes>
      <leafValues>
        -3.7917515635490417e-001 3.5236117243766785e-001</leafValues></_>
    <_>
      <internalNodes>
        0 -1 34 1077176930 -455084034 1368727007 -536934821 -1589505
        -2698565 -1585758661 1180106759</internalNodes>
      <leafValues>
        -5.3644102811813354e-001 2.4031725525856018e-001</leafValues></_>
    <_>
      <internalNodes>
        0 -1 1398 -1342765041 -890514417 -2141630311 -523071073
        -234217404 805371923 -91489785 -50938894</internalNodes>
      <leafValues>
        -5.3880494832992554e-001 2.0775708556175232e-001</leafValues></_>
    <_>
      <internalNodes>
        0 -1 7219 -190846174 770625993 -682495904 1829338007 -1492171897
        113924527 1401066976 1142684158</internalNodes>
      <leafValues>
        -5.7644379138946533e-001 2.3950262367725372e-001</leafValues></_>
    <_>
      <internalNodes>
        0 -1 5933 757363421 -1177304882 -1056780067 -1847703157
        -1182119751 -1710653302 987425533 -1081590924</internalNodes>
      <leafValues>
        -5.6486892700195313e-001 1.9818447530269623e-001</leafValues></_>
    <_>
      <internalNodes>
        0 -1 5249 -371467877 -343932926 -654224910 -565985136 159939367
        1253638154 1119556469 -189803801</internalNodes>
      <leafValues>
        -5.1742064952850342e-001 2.2938349843025208e-001</leafValues></_></weakClassifiers></stage8>
</opencv_storage>
