<?xml version="1.0"?>
<opencv_storage>
<stage11>
  <maxWeakCount>12</maxWeakCount>
  <stageThreshold>-1.3269749879837036e+000</stageThreshold>
  <weakClassifiers>
    <_>
      <internalNodes>
        0 -1 7183 -153092101 -555772525 -879674599 -73711849 1288502255
        -1945154661 -924911237 -604013713</internalNodes>
      <leafValues>
        -6.4395159482955933e-001 9.5098040997982025e-002</leafValues></_>
    <_>
      <internalNodes>
        0 -1 5790 -582495438 -314424184 -1056779856 -748826535
        -1702843405 143294593 273265555 -930098229</internalNodes>
      <leafValues>
        -4.6760183572769165e-001 2.7902105450630188e-001</leafValues></_>
    <_>
      <internalNodes>
        0 -1 5435 5275854 1474151731 -499900417 -140529185 -14697025
        -5563252 -631727426 839161864</internalNodes>
      <leafValues>
        -5.4855704307556152e-001 2.1908396482467651e-001</leafValues></_>
    <_>
      <internalNodes>
        0 -1 8320 -1240747775 -1426006016 1392513232 -178335294
        303015936 -1694466040 432668853 -1948264260</internalNodes>
      <leafValues>
        -4.4022402167320251e-001 2.9923906922340393e-001</leafValues></_>
    <_>
      <internalNodes>
        0 -1 825 1425138398 -1827667617 -1656690402 -1782963810
        1791511240 -142405477 -75334871 1073165086</internalNodes>
      <leafValues>
        -4.2865347862243652e-001 3.0678385496139526e-001</leafValues></_>
    <_>
      <internalNodes>
        0 -1 966 26485107 -799813440 1342462311 -807413500 -1316322910
        -1415966577 -351154751 -846987136</internalNodes>
      <leafValues>
        -3.8935011625289917e-001 3.2214677333831787e-001</leafValues></_>
    <_>
      <internalNodes>
        0 -1 751 -304952850 1816445546 -719779580 1042211608 -1306395942
        25199100 1887468390 1664441383</internalNodes>
      <leafValues>
        -6.2490689754486084e-001 1.7159667611122131e-001</leafValues></_>
    <_>
      <internalNodes>
        0 -1 8510 -19185146 300831187 -1073643185 105889991 -2145914269
        -250715966 -95458786 1112726127</internalNodes>
      <leafValues>
        -4.9128654599189758e-001 2.5981396436691284e-001</leafValues></_>
    <_>
      <internalNodes>
        0 -1 7350 784994545 -1025605480 -1878994531 -715746936
        -796235574 -1575911414 -108410181 -74557212</internalNodes>
      <leafValues>
        -4.0945836901664734e-001 2.8393688797950745e-001</leafValues></_>
    <_>
      <internalNodes>
        0 -1 4390 -605433615 -708535933 50413585 133918415 -113452555
        -2146954598 414484778 -1374730329</internalNodes>
      <leafValues>
        -3.4603124856948853e-001 3.5139569640159607e-001</leafValues></_>
    <_>
      <internalNodes>
        0 -1 4242 -372648470 -1657472803 294767787 -1630163642
        1092187626 -1877815125 -116922093 1162314195</internalNodes>
      <leafValues>
        -4.3698722124099731e-001 2.6570162177085876e-001</leafValues></_>
    <_>
      <internalNodes>
        0 -1 7828 271713980 1040928862 335593941 -673591216 -870302821
        -1986920296 17445097 -1617405864</internalNodes>
      <leafValues>
        -4.2380899190902710e-001 2.9452940821647644e-001</leafValues></_></weakClassifiers></stage11>
</opencv_storage>
