<?xml version="1.0"?>
<opencv_storage>
<stage5>
  <maxWeakCount>10</maxWeakCount>
  <stageThreshold>-1.5362601280212402e+000</stageThreshold>
  <weakClassifiers>
    <_>
      <internalNodes>
        0 -1 4458 -3085 -7480437 -811650831 -35651617 -16796929
        -863184678 -135277057 -806355009</internalNodes>
      <leafValues>
        -6.2774777412414551e-001 3.3379310369491577e-001</leafValues></_>
    <_>
      <internalNodes>
        0 -1 8898 -86023569 -203976633 1477497023 -153364259 -863256053
        -1727870958 -359933186 -218170373</internalNodes>
      <leafValues>
        -4.2959013581275940e-001 4.1245880722999573e-001</leafValues></_>
    <_>
      <internalNodes>
        0 -1 7386 838089717 -60906343 -1321658145 -1075985967
        -1718636292 -393623352 -1417164293 -1078182968</internalNodes>
      <leafValues>
        -5.3759008646011353e-001 3.1910142302513123e-001</leafValues></_>
    <_>
      <internalNodes>
        0 -1 923 1112842808 2147461811 -62948867 -1644843870 -885421137
        -2098625 -421270833 1296376323</internalNodes>
      <leafValues>
        -5.3485375642776489e-001 2.8413960337638855e-001</leafValues></_>
    <_>
      <internalNodes>
        0 -1 4000 -1551122437 -289161141 -251412131 -24194104 -611421635
        -1148551144 -74747805 -6358283</internalNodes>
      <leafValues>
        -4.3525806069374084e-001 3.6233004927635193e-001</leafValues></_>
    <_>
      <internalNodes>
        0 -1 8284 -609275085 -1517825838 -1316687754 -427822964
        -611585178 -1458927477 -204803439 -486542373</internalNodes>
      <leafValues>
        -4.1764405369758606e-001 3.6282977461814880e-001</leafValues></_>
    <_>
      <internalNodes>
        0 -1 4498 -53018701 -708997341 1165841715 -601411713 -858458970
        -1734039629 -2119930053 -989912149</internalNodes>
      <leafValues>
        -3.4881591796875000e-001 4.1762575507164001e-001</leafValues></_>
    <_>
      <internalNodes>
        0 -1 4816 1620057053 -170395717 -854533633 -1076570657
        -206853956 -2585968 -776430147 -328725739</internalNodes>
      <leafValues>
        -3.7537091970443726e-001 3.8853517174720764e-001</leafValues></_>
    <_>
      <internalNodes>
        0 -1 563 -83892242 1476035744 2117136129 784287178 -162969676
        854968651 904994533 1576386559</internalNodes>
      <leafValues>
        -4.9930524826049805e-001 2.7185001969337463e-001</leafValues></_>
    <_>
      <internalNodes>
        0 -1 8106 680541876 -606945183 -250130217 -1211250226
        -1182748439 -1161256952 -1433437189 -1075698952</internalNodes>
      <leafValues>
        -4.3574336171150208e-001 3.1332546472549438e-001</leafValues></_></weakClassifiers></stage5>
</opencv_storage>
