<?xml version="1.0"?>
<opencv_storage>
<stage13>
  <maxWeakCount>14</maxWeakCount>
  <stageThreshold>-1.6512916088104248e+000</stageThreshold>
  <weakClassifiers>
    <_>
      <internalNodes>
        0 -1 4639 -103689741 -284454904 -805203465 -581054256
        -1928812357 -1692761984 302772391 -822095713</internalNodes>
      <leafValues>
        -6.7146068811416626e-001 -4.7058821655809879e-003</leafValues></_>
    <_>
      <internalNodes>
        0 -1 7675 -562104353 -31575258 974205307 -1760883145 -1063453762
        -1931173199 1617246495 -74764433</internalNodes>
      <leafValues>
        -4.3794775009155273e-001 2.7868294715881348e-001</leafValues></_>
    <_>
      <internalNodes>
        0 -1 23 -533822816 -3518653 -249474603 -350490556 -1696746081
        -619711808 655245563 75981088</internalNodes>
      <leafValues>
        -5.0003349781036377e-001 2.1631342172622681e-001</leafValues></_>
    <_>
      <internalNodes>
        0 -1 4779 339749557 959905775 -1275120001 2147090428 1073554686
        -1077084164 503258748 -17038096</internalNodes>
      <leafValues>
        -3.2552880048751831e-001 3.4989774227142334e-001</leafValues></_>
    <_>
      <internalNodes>
        0 -1 8050 -1455426757 -359731190 -1862236967 -221282220
        184575146 -1568145278 190517315 -1948257840</internalNodes>
      <leafValues>
        -4.4781750440597534e-001 2.4306960403919220e-001</leafValues></_>
    <_>
      <internalNodes>
        0 -1 7041 -721248854 1419859287 -1056697599 -1240270625
        -393242884 957301768 -693429525 1455113727</internalNodes>
      <leafValues>
        -4.0076529979705811e-001 2.8931638598442078e-001</leafValues></_>
    <_>
      <internalNodes>
        0 -1 7341 -1462232111 -1566670716 -251539107 -7061348
        -1467472989 -2113404846 966814715 -1142148495</internalNodes>
      <leafValues>
        -4.4932007789611816e-001 2.4574282765388489e-001</leafValues></_>
    <_>
      <internalNodes>
        0 -1 2468 -379795808 1272138027 -921172864 -434481781
        -1708627061 883958187 -633308556 2041863031</internalNodes>
      <leafValues>
        -5.2701604366302490e-001 2.1067410707473755e-001</leafValues></_>
    <_>
      <internalNodes>
        0 -1 3598 -37078798 -725093504 1127171456 -1995454052
        -1057200832 -1811478368 -846277112 123702947</internalNodes>
      <leafValues>
        -4.8798942565917969e-001 2.0981267094612122e-001</leafValues></_>
    <_>
      <internalNodes>
        0 -1 7472 -1024047025 1570197572 1711649119 1972314350
        -120954125 -1156888532 1900569854 573598466</internalNodes>
      <leafValues>
        -5.0488519668579102e-001 2.1797622740268707e-001</leafValues></_>
    <_>
      <internalNodes>
        0 -1 8686 -1290360476 -1312649080 1090588722 -1752350514
        -74798911 -360579072 600420601 -1360109316</internalNodes>
      <leafValues>
        -3.8754904270172119e-001 2.7804464101791382e-001</leafValues></_>
    <_>
      <internalNodes>
        0 -1 5053 -162352880 915640818 1015091478 769744639 2086664739
        269152576 310762534 1602810711</internalNodes>
      <leafValues>
        -4.8472163081169128e-001 2.1058093011379242e-001</leafValues></_>
    <_>
      <internalNodes>
        0 -1 2321 -1462322604 -1786056064 17438395 -1543013718
        1124770306 126165161 -1214231299 1637173973</internalNodes>
      <leafValues>
        -4.7902241349220276e-001 2.2217275202274323e-001</leafValues></_>
    <_>
      <internalNodes>
        0 -1 4644 -346118273 1833304066 -741795568 -891523709 17445301
        1242212486 1101648626 -41651225</internalNodes>
      <leafValues>
        -4.2337054014205933e-001 2.4391928315162659e-001</leafValues></_></weakClassifiers></stage13>
</opencv_storage>
