<?xml version="1.0"?>
<opencv_storage>
<stage10>
  <maxWeakCount>14</maxWeakCount>
  <stageThreshold>-1.9772845506668091e+000</stageThreshold>
  <weakClassifiers>
    <_>
      <internalNodes>
        0 -1 5635 -33555013 -541876317 1233443131 -3432645 -1063389749
        -1934906750 -855769317 -542131265</internalNodes>
      <leafValues>
        -6.4477080106735229e-001 1.2697602808475494e-001</leafValues></_>
    <_>
      <internalNodes>
        0 -1 8753 -360775089 433799503 1091158199 -1844198961
        -1282715640 -2004189184 -7685959 -234702237</internalNodes>
      <leafValues>
        -5.3747981786727905e-001 2.1186141669750214e-001</leafValues></_>
    <_>
      <internalNodes>
        0 -1 2641 8396976 -606561059 1594023423 -545209916 -398870033
        -1902916612 -1148088689 -1912338112</internalNodes>
      <leafValues>
        -5.2200704813003540e-001 2.3570252954959869e-001</leafValues></_>
    <_>
      <internalNodes>
        0 -1 7725 -1546929677 -1362444096 419469713 -740376400 554410699
        -829783928 1108029873 -274738768</internalNodes>
      <leafValues>
        -4.1908904910087585e-001 3.2257327437400818e-001</leafValues></_>
    <_>
      <internalNodes>
        0 -1 856 772022781 -36073251 -1828646689 -1694236274 1946169660
        2039109760 -1551799384 789727766</internalNodes>
      <leafValues>
        -4.6417772769927979e-001 2.8356385231018066e-001</leafValues></_>
    <_>
      <internalNodes>
        0 -1 4479 -1430520331 -686563135 -1862021093 -577154859
        -1954168648 -2013067255 33671418 -1964011091</internalNodes>
      <leafValues>
        -3.4108981490135193e-001 3.5716724395751953e-001</leafValues></_>
    <_>
      <internalNodes>
        0 -1 137 -220271054 -1359811265 -971307559 -1936217921 924186683
        -1790843517 1129390619 327372559</internalNodes>
      <leafValues>
        -5.0304657220840454e-001 2.1779190003871918e-001</leafValues></_>
    <_>
      <internalNodes>
        0 -1 9074 -1126434061 -1616126913 2063494781 -1250033859
        -1091250179 -553716099 1064630268 -67131747</internalNodes>
      <leafValues>
        -2.4029767513275146e-001 4.7236576676368713e-001</leafValues></_>
    <_>
      <internalNodes>
        0 -1 1359 -195581118 -205364305 -711699199 1099048303 1644209222
        -2119269082 1972758402 1164323767</internalNodes>
      <leafValues>
        -5.2316719293594360e-001 2.1644365787506104e-001</leafValues></_>
    <_>
      <internalNodes>
        0 -1 7792 -2015911120 1020957910 -1056860769 -1386969833
        -66534476 353995403 -2086970408 681335004</internalNodes>
      <leafValues>
        -5.5330079793930054e-001 2.0660641789436340e-001</leafValues></_>
    <_>
      <internalNodes>
        0 -1 8555 -310388937 127853500 16888196 218428190 832187361
        406864490 -666414224 -1065422257</internalNodes>
      <leafValues>
        -4.4702303409576416e-001 2.4800898134708405e-001</leafValues></_>
    <_>
      <internalNodes>
        0 -1 5966 884217493 -1089101736 -649243720 492671262 -1282885239
        -70746065 -615695559 -1375205371</internalNodes>
      <leafValues>
        -4.3584343791007996e-001 2.7342429757118225e-001</leafValues></_>
    <_>
      <internalNodes>
        0 -1 4952 1556640194 2127938175 570511827 1708384925 -351589812
        -577723890 -844596339 1570486559</internalNodes>
      <leafValues>
        -3.8033899664878845e-001 2.9116788506507874e-001</leafValues></_>
    <_>
      <internalNodes>
        0 -1 8242 -119846289 -485814270 -804007717 -957005477
        -1467389834 -92225534 -401873943 -26429348</internalNodes>
      <leafValues>
        -3.9997521042823792e-001 2.8249323368072510e-001</leafValues></_></weakClassifiers></stage10>
</opencv_storage>
