<?xml version="1.0"?>
<opencv_storage>
<stage4>
  <maxWeakCount>10</maxWeakCount>
  <stageThreshold>-1.7707573175430298e+000</stageThreshold>
  <weakClassifiers>
    <_>
      <internalNodes>
        0 -1 7268 -65537 -2153936 -786449441 -35702409 -1932984853
        -6368277 97319935 -543195137</internalNodes>
      <leafValues>
        -6.7699456214904785e-001 2.7015250921249390e-001</leafValues></_>
    <_>
      <internalNodes>
        0 -1 8500 -153156517 -10794813 -715927333 -226635617 -343218917
        -91553664 -23409665 -84747601</internalNodes>
      <leafValues>
        -4.6099629998207092e-001 3.9547199010848999e-001</leafValues></_>
    <_>
      <internalNodes>
        0 -1 6496 420347897 536149971 -1185415241 1069440511 -73401347
        -17663545 738138300 715632376</internalNodes>
      <leafValues>
        -4.4839820265769958e-001 3.6723837256431580e-001</leafValues></_>
    <_>
      <internalNodes>
        0 -1 6340 -3147806 1322185162 906777184 -607135778 -751057481
        113892302 1168634359 1200618283</internalNodes>
      <leafValues>
        -5.9311342239379883e-001 2.8621074557304382e-001</leafValues></_>
    <_>
      <internalNodes>
        0 -1 3476 -1363485773 -69472038 2035929177 -2113031 -1685067603
        -1690107768 -615539841 -1879112335</internalNodes>
      <leafValues>
        -4.0494856238365173e-001 3.8875305652618408e-001</leafValues></_>
    <_>
      <internalNodes>
        0 -1 6984 1617086534 2147392347 -819344897 1931472987 -288903505
        -35927609 -285885026 1107323654</internalNodes>
      <leafValues>
        -5.3074091672897339e-001 2.9994177818298340e-001</leafValues></_>
    <_>
      <internalNodes>
        0 -1 6870 -1415847117 -424013614 -783134505 -555696048 412873131
        713687178 1393324273 -588262923</internalNodes>
      <leafValues>
        -4.6739280223846436e-001 3.0949011445045471e-001</leafValues></_>
    <_>
      <internalNodes>
        0 -1 4777 442836441 -1112272481 1895889215 919476510 2040683424
        -1148577390 -284575555 -270778704</internalNodes>
      <leafValues>
        -4.5831233263015747e-001 3.2697090506553650e-001</leafValues></_>
    <_>
      <internalNodes>
        0 -1 6748 -947061323 -1667327440 1410358577 -1437253840
        -2012431475 -2138988273 147085653 -1686137285</internalNodes>
      <leafValues>
        -4.4946962594985962e-001 3.4022918343544006e-001</leafValues></_>
    <_>
      <internalNodes>
        0 -1 199 -533535198 -120390417 -109336589 -892361653 -1318740169
        -171584757 2132504463 1466396451</internalNodes>
      <leafValues>
        -5.4696875810623169e-001 2.6970073580741882e-001</leafValues></_></weakClassifiers></stage4>
</opencv_storage>
