<?xml version="1.0"?>
<opencv_storage>
<stage1>
  <maxWeakCount>8</maxWeakCount>
  <stageThreshold>-1.4872236251831055e+000</stageThreshold>
  <weakClassifiers>
    <_>
      <internalNodes>
        0 -1 7240 -16842753 -16860229 -6865611 -2154985 -1461125121
        -1463883013 1217232703 -2130049</internalNodes>
      <leafValues>
        -7.3840177059173584e-001 2.9093497991561890e-001</leafValues></_>
    <_>
      <internalNodes>
        0 -1 6520 9707037 353636712 -174612993 -12742178 -1685985027
        -71497281 -5534536 -1075271496</internalNodes>
      <leafValues>
        -5.3926503658294678e-001 4.6671465039253235e-001</leafValues></_>
    <_>
      <internalNodes>
        0 -1 7740 -1343507533 -1431646056 -716977935 -35827376 198933223
        -1987411318 -1695718923 -1064715</internalNodes>
      <leafValues>
        -5.1442205905914307e-001 4.4994273781776428e-001</leafValues></_>
    <_>
      <internalNodes>
        0 -1 8745 -16822913 -8917073 -1090617349 -222822402 -16789906
        -8421505 -16859138 -17104901</internalNodes>
      <leafValues>
        -3.7595555186271667e-001 6.0239863395690918e-001</leafValues></_>
    <_>
      <internalNodes>
        0 -1 925 -939212090 2147472047 226885119 -544211153 -218122305
        -72934 -796737 1381322786</internalNodes>
      <leafValues>
        -5.0710034370422363e-001 4.0596196055412292e-001</leafValues></_>
    <_>
      <internalNodes>
        0 -1 8110 171195377 -1143154536 -2062315041 -1143050051
        -141975112 -1148551032 -85312551 -1346895200</internalNodes>
      <leafValues>
        -6.1133432388305664e-001 3.3852037787437439e-001</leafValues></_>
    <_>
      <internalNodes>
        0 -1 5825 -1365773837 -1953836654 -212626957 -18884365
        -1445483917 1520667154 -2086431563 -19926571</internalNodes>
      <leafValues>
        -4.7007879614830017e-001 4.5398959517478943e-001</leafValues></_>
    <_>
      <internalNodes>
        0 -1 8800 -1416889665 -1936834054 -1166831598 -58744678
        -2134119881 233734664 -745936752 -234892335</internalNodes>
      <leafValues>
        -4.8044601082801819e-001 4.3220365047454834e-001</leafValues></_></weakClassifiers></stage1>
</opencv_storage>
