<?xml version="1.0"?>
<opencv_storage>
<stage2>
  <maxWeakCount>8</maxWeakCount>
  <stageThreshold>-1.5839956998825073e+000</stageThreshold>
  <weakClassifiers>
    <_>
      <internalNodes>
        0 -1 5135 -5 -12637397 1435308337 -6350021 -858981377
        -1935627605 -1060053569 -570441729</internalNodes>
      <leafValues>
        -6.7224574089050293e-001 4.1906589269638062e-001</leafValues></_>
    <_>
      <internalNodes>
        0 -1 3413 -1573868623 -1992231 -1257127939 -11172463 -1102972481
        -573134171 -549090305 -280690684</internalNodes>
      <leafValues>
        -5.1941293478012085e-001 4.3571379780769348e-001</leafValues></_>
    <_>
      <internalNodes>
        0 -1 6421 -1549012165 -1895149566 -803212335 -2306031
        -1416936705 -1434287989 -1850780239 -167788043</internalNodes>
      <leafValues>
        -4.7939598560333252e-001 4.2014640569686890e-001</leafValues></_>
    <_>
      <internalNodes>
        0 -1 1627 -6619146 453688079 -1110144014 -1078326822 1037393919
        1064860309 2080328542 1071607614</internalNodes>
      <leafValues>
        -5.8401376008987427e-001 3.3665126562118530e-001</leafValues></_>
    <_>
      <internalNodes>
        0 -1 7071 68164848 -577218365 -251539045 -543845989 -259486758
        -1723105152 -1710300501 -1162081887</internalNodes>
      <leafValues>
        -4.9282538890838623e-001 3.8678085803985596e-001</leafValues></_>
    <_>
      <internalNodes>
        0 -1 8314 -145231701 -276063009 -805185168 -137379585 -620070183
        1261142170 -1316227657 -140510785</internalNodes>
      <leafValues>
        -4.1727009415626526e-001 4.3653899431228638e-001</leafValues></_>
    <_>
      <internalNodes>
        0 -1 8406 751858165 -1714496887 -788277793 -121711638
        -1195140120 1795752066 -207554055 -1346626760</internalNodes>
      <leafValues>
        -5.7801371812820435e-001 3.4048640727996826e-001</leafValues></_>
    <_>
      <internalNodes>
        0 -1 3621 -268766736 -31780675 -1861627752 -1932587668
        -1559103131 -1977966591 741334655 -1901345933</internalNodes>
      <leafValues>
        -4.9273353815078735e-001 3.5616853833198547e-001</leafValues></_></weakClassifiers></stage2>
</opencv_storage>
