<?xml version="1.0"?>
<opencv_storage>
<cascade>
  <stageType>BOOST</stageType>
  <featureType>LBP</featureType>
  <height>30</height>
  <width>20</width>
  <stageParams>
    <boostType>GAB</boostType>
    <minHitRate>9.9500000476837158e-001</minHitRate>
    <maxFalseAlarm>5.0000000000000000e-001</maxFalseAlarm>
    <weightTrimRate>9.4999999999999996e-001</weightTrimRate>
    <maxDepth>1</maxDepth>
    <maxWeakCount>100</maxWeakCount></stageParams>
  <featureParams>
    <maxCatCount>256</maxCatCount>
    <featSize>1</featSize></featureParams>
  <stageNum>15</stageNum>
  <stages>
    <!-- stage 0 -->
    <_>
      <maxWeakCount>6</maxWeakCount>
      <stageThreshold>-1.7302769422531128e+000</stageThreshold>
      <weakClassifiers>
        <_>
          <internalNodes>
            0 -1 73 -706750991 -5515893 -580922881 -7341573 -573582849
            -84937585 -708849157 -1884556885</internalNodes>
          <leafValues>
            -7.5720083713531494e-001 5.0191569328308105e-001</leafValues></_>
        <_>
          <internalNodes>
            0 -1 116 821837813 -137312047 -1857432065 -10498023
            -1182227747 -74874720 -125125633 -1078183020</internalNodes>
          <leafValues>
            -7.0633471012115479e-001 4.8228093981742859e-001</leafValues></_>
        <_>
          <internalNodes>
            0 -1 124 -72372317 -1477705814 -4142 -4194317 -939524609
            1342177279 -16796169 -134218281</internalNodes>
          <leafValues>
            -4.8428693413734436e-001 6.4013683795928955e-001</leafValues></_>
        <_>
          <internalNodes>
            0 -1 81 741356533 -537331310 -612134411 -2109191 -209044803
            -1700036470 -91248423 -1359462352</internalNodes>
          <leafValues>
            -6.5021473169326782e-001 4.4249412417411804e-001</leafValues></_>
        <_>
          <internalNodes>
            0 -1 37 -708579102 -716186765 -972556113 -1613763261
            1423168767 1904562487 1440465838 1392997898</internalNodes>
          <leafValues>
            -6.3152831792831421e-001 4.6134406328201294e-001</leafValues></_>
        <_>
          <internalNodes>
            0 -1 143 284244977 -1413594221 -787099275 -86343267
            -1467342149 -1635221094 -1867789835 -86210128</internalNodes>
          <leafValues>
            -5.8857238292694092e-001 4.0641611814498901e-001</leafValues></_></weakClassifiers></_>
    <!-- stage 1 -->
    <_>
      <maxWeakCount>7</maxWeakCount>
      <stageThreshold>-2.0870141983032227e+000</stageThreshold>
      <weakClassifiers>
        <_>
          <internalNodes>
            0 -1 53 -134220301 -542115445 -706742273 -38797329
            -740298313 -335561777 -741608449 -812648529</internalNodes>
          <leafValues>
            -7.0413535833358765e-001 4.4404762983322144e-001</leafValues></_>
        <_>
          <internalNodes>
            0 -1 92 8393461 -2420482 -251451907 -43698177 -1179979271
            -611839816 -1416053761 -1430516976</internalNodes>
          <leafValues>
            -6.3131779432296753e-001 4.2142415046691895e-001</leafValues></_>
        <_>
          <internalNodes>
            0 -1 123 -10488917 -271596885 -868099726 -538978817
            -625214801 26083464 -778176521 -167772161</internalNodes>
          <leafValues>
            -5.5865734815597534e-001 5.0119471549987793e-001</leafValues></_>
        <_>
          <internalNodes>
            0 -1 47 -327714 1031321052 -740742088 -1141327106 1875737071
            1016625915 1004343740 2147352063</internalNodes>
          <leafValues>
            -5.7512319087982178e-001 4.2344301939010620e-001</leafValues></_>
        <_>
          <internalNodes>
            0 -1 21 136359861 -539170349 -781132801 -101610063
            -1147868161 -6321479 -470168657 -1890251771</internalNodes>
          <leafValues>
            -4.7035428881645203e-001 4.8633274435997009e-001</leafValues></_>
        <_>
          <internalNodes>
            0 -1 102 -336596213 -1559785245 -1038384784 -6307696
            -317989901 168394760 -108334859 -51391503</internalNodes>
          <leafValues>
            -4.8948645591735840e-001 4.4730749726295471e-001</leafValues></_>
        <_>
          <internalNodes>
            0 -1 23 1080087924 -2552449 1524489725 -438326233 -17994242
            -1614913410 -587207745 811599360</internalNodes>
          <leafValues>
            -6.5458583831787109e-001 3.1706655025482178e-001</leafValues></_></weakClassifiers></_>
    <!-- stage 2 -->
    <_>
      <maxWeakCount>7</maxWeakCount>
      <stageThreshold>-1.3699208498001099e+000</stageThreshold>
      <weakClassifiers>
        <_>
          <internalNodes>
            0 -1 67 -136318477 -139461713 -771762725 -1049105 -693136961
            -3151105 -675548225 -273686545</internalNodes>
          <leafValues>
            -6.6848021745681763e-001 4.6164199709892273e-001</leafValues></_>
        <_>
          <internalNodes>
            0 -1 46 -2105346 -1078140966 -13493132 -33580033 -1053777
            682134463 873157113 536739839</internalNodes>
          <leafValues>
            -6.0849475860595703e-001 3.5827419161796570e-001</leafValues></_>
        <_>
          <internalNodes>
            0 -1 132 -1344286590 -1567964536 -149695504 -90181474
            -376704458 1275756546 -1803357961 -33824779</internalNodes>
          <leafValues>
            -5.7687211036682129e-001 3.6658948659896851e-001</leafValues></_>
        <_>
          <internalNodes>
            0 -1 137 -1128524427 -8744816 -251063843 -2141761
            -1439778563 -75364335 -68525123 -1427358856</internalNodes>
          <leafValues>
            -5.7647848129272461e-001 3.8960009813308716e-001</leafValues></_>
        <_>
          <internalNodes>
            0 -1 98 -741345310 1188010477 -650251982 -204476049
            -140774405 1088207003 -236718601 1441789431</internalNodes>
          <leafValues>
            -6.4746451377868652e-001 3.2725924253463745e-001</leafValues></_>
        <_>
          <internalNodes>
            0 -1 83 -1567081607 -388173687 -804138541 -2453444
            -1702134797 -643268414 -225446981 -286759984</internalNodes>
          <leafValues>
            -5.6310033798217773e-001 3.7928360700607300e-001</leafValues></_>
        <_>
          <internalNodes>
            0 -1 90 875920343 -1696673701 -1878666786 -183201322
            1904964557 -92241912 -612165128 -4717672</internalNodes>
          <leafValues>
            -4.8562592267990112e-001 3.8512402772903442e-001</leafValues></_></weakClassifiers></_>
    <!-- stage 3 -->
    <_>
      <maxWeakCount>8</maxWeakCount>
      <stageThreshold>-1.8108202219009399e+000</stageThreshold>
      <weakClassifiers>
        <_>
          <internalNodes>
            0 -1 104 -2371157 -879781750 -226176589 -3149605 -74712069
            -1987426262 -441797901 -67110913</internalNodes>
          <leafValues>
            -6.7847102880477905e-001 3.7342151999473572e-001</leafValues></_>
        <_>
          <internalNodes>
            0 -1 109 1303369201 -40650982 -1747459589 -142344552
            429904383 -7607381 1389745563 -1886661205</internalNodes>
          <leafValues>
            -5.3016841411590576e-001 4.0035629272460938e-001</leafValues></_>
        <_>
          <internalNodes>
            0 -1 3 -263139626 -6821321 -1209012737 2046420839 -33817857
            -2666498 -2249729 2002061893</internalNodes>
          <leafValues>
            -5.4860150814056396e-001 3.6699226498603821e-001</leafValues></_>
        <_>
          <internalNodes>
            0 -1 141 -5243021 -1884291144 -137 -104857611 -1476403209
            -2048917505 -168303131 -50334019</internalNodes>
          <leafValues>
            -3.9614889025688171e-001 4.7466680407524109e-001</leafValues></_>
        <_>
          <internalNodes>
            0 -1 50 877935613 1023678908 492388344 434766234 2070174717
            496009465 1004348556 -1345540968</internalNodes>
          <leafValues>
            -4.7067144513130188e-001 4.0390238165855408e-001</leafValues></_>
        <_>
          <internalNodes>
            0 -1 69 -945815766 -403715345 -176685534 -623937058
            1409018743 1224472579 1374648179 1172305663</internalNodes>
          <leafValues>
            -7.0895677804946899e-001 2.3201572895050049e-001</leafValues></_>
        <_>
          <internalNodes>
            0 -1 118 685249304 -69975581 -1258172165 -543354402
            -661965835 -74932213 -341050631 -1090778576</internalNodes>
          <leafValues>
            -6.5425848960876465e-001 2.7978736162185669e-001</leafValues></_>
        <_>
          <internalNodes>
            0 -1 155 -1550160989 -1349013333 17854932 -17059363
            -385117677 -670367614 -2087992332 -839126031</internalNodes>
          <leafValues>
            -5.0990569591522217e-001 3.1728398799896240e-001</leafValues></_></weakClassifiers></_>
    <!-- stage 4 -->
    <_>
      <maxWeakCount>9</maxWeakCount>
      <stageThreshold>-1.9035272598266602e+000</stageThreshold>
      <weakClassifiers>
        <_>
          <internalNodes>
            0 -1 74 -2099791 -4195409 -2231817 -1056801 -68157505
            -71334181 -337641985 -842006865</internalNodes>
          <leafValues>
            -6.6322118043899536e-001 3.1506848335266113e-001</leafValues></_>
        <_>
          <internalNodes>
            0 -1 86 -606078046 -808595454 -1727931982 -33564323
            -71636225 1191903387 -206834953 -704646449</internalNodes>
          <leafValues>
            -6.0019612312316895e-001 3.0226641893386841e-001</leafValues></_>
        <_>
          <internalNodes>
            0 -1 72 207632884 -706915683 -708718089 -1617424171
            -1226196737 -1112276824 -1157911123 -1344009728</internalNodes>
          <leafValues>
            -5.8259361982345581e-001 3.0752310156822205e-001</leafValues></_>
        <_>
          <internalNodes>
            0 -1 63 1437323498 1231026683 -11666166 -644885558
            -771784341 1268512571 1505355658 1401681322</internalNodes>
          <leafValues>
            -5.1900243759155273e-001 3.8204857707023621e-001</leafValues></_>
        <_>
          <internalNodes>
            0 -1 133 -1116999013 -1467756405 -805187277 -6827798
            -250361238 -889094014 -1055132969 -167777289</internalNodes>
          <leafValues>
            -4.2143884301185608e-001 3.7563094496726990e-001</leafValues></_>
        <_>
          <internalNodes>
            0 -1 115 1056522227 1061748726 1073715899 -73744 536690685
            -1879179395 -1359008263 -246084</internalNodes>
          <leafValues>
            -3.7904846668243408e-001 4.5512792468070984e-001</leafValues></_>
        <_>
          <internalNodes>
            0 -1 32 -3084 -582449202 -91092460 -539574275 -34278947
            179077564 1372156314 1593834399</internalNodes>
          <leafValues>
            -4.5033091306686401e-001 3.6571097373962402e-001</leafValues></_>
        <_>
          <internalNodes>
            0 -1 10 -158146138 -6700577 -59531785 -1395349569 -211995877
            -72360869 -107319489 1844274799</internalNodes>
          <leafValues>
            -4.7302025556564331e-001 3.5044094920158386e-001</leafValues></_>
        <_>
          <internalNodes>
            0 -1 61 593241911 -1319513957 -786853443 -573206254
            -775189519 -82214728 689089005 -1733264492</internalNodes>
          <leafValues>
            -4.0432450175285339e-001 3.9185822010040283e-001</leafValues></_></weakClassifiers></_>
    <!-- stage 5 -->
    <_>
      <maxWeakCount>9</maxWeakCount>
      <stageThreshold>-1.5898567438125610e+000</stageThreshold>
      <weakClassifiers>
        <_>
          <internalNodes>
            0 -1 152 -1610884677 -1083182377 -385560065 -540019749
            -1647314225 -351567222 -238556417 -2097735</internalNodes>
          <leafValues>
            -6.8169975280761719e-001 1.9940328598022461e-001</leafValues></_>
        <_>
          <internalNodes>
            0 -1 114 -135267669 -341090296 -783235693 -167773741
            -1076102437 -1962213247 -242551817 -234884169</internalNodes>
          <leafValues>
            -4.4792237877845764e-001 4.3253049254417419e-001</leafValues></_>
        <_>
          <internalNodes>
            0 -1 41 -688850724 2046272159 -271908865 -269567081
            -75519233 -337221 -21250049 1499819791</internalNodes>
          <leafValues>
            -4.9497824907302856e-001 3.6514124274253845e-001</leafValues></_>
        <_>
          <internalNodes>
            0 -1 27 -703925984 2144328671 -539497985 -1383091521
            1465868341 -941624857 -67261827 70211447</internalNodes>
          <leafValues>
            -6.6021937131881714e-001 2.3366048932075500e-001</leafValues></_>
        <_>
          <internalNodes>
            0 -1 18 -304304226 1060678654 -27384274 -1208706822
            1536965613 491805384 1234767453 1609891835</internalNodes>
          <leafValues>
            -5.5607432126998901e-001 2.7571529150009155e-001</leafValues></_>
        <_>
          <internalNodes>
            0 -1 120 730282787 -1349549688 -752684576 -438611235
            -206835085 -2102755160 -777784332 -995171356</internalNodes>
          <leafValues>
            -6.3368117809295654e-001 2.5108760595321655e-001</leafValues></_>
        <_>
          <internalNodes>
            0 -1 40 -1469010760 -548097119 2106702263 -2151605
            -1633468964 -69227539 -518989635 761530885</internalNodes>
          <leafValues>
            -6.3420808315277100e-001 2.4063855409622192e-001</leafValues></_>
        <_>
          <internalNodes>
            0 -1 142 -1144001627 -1416658680 -788492013 -18886258
            -125584837 -192757232 -645303343 -124000008</internalNodes>
          <leafValues>
            -4.3261909484863281e-001 3.3697474002838135e-001</leafValues></_>
        <_>
          <internalNodes>
            0 -1 126 47322011 1060213020 -1751301925 -544029283
            713701816 -125075238 2032351485 -1416832604</internalNodes>
          <leafValues>
            -4.2699053883552551e-001 3.6014065146446228e-001</leafValues></_></weakClassifiers></_>
    <!-- stage 6 -->
    <_>
      <maxWeakCount>10</maxWeakCount>
      <stageThreshold>-1.7922767400741577e+000</stageThreshold>
      <weakClassifiers>
        <_>
          <internalNodes>
            0 -1 85 -67109377 -879783918 -247410217 -168849197 -90444885
            -877951998 -779095581 -23593</internalNodes>
          <leafValues>
            -6.6792303323745728e-001 1.8734048306941986e-001</leafValues></_>
        <_>
          <internalNodes>
            0 -1 68 -704646669 -553124054 -749209641 -74716502
            1107293687 -819217653 1422643627 -1886388309</internalNodes>
          <leafValues>
            -4.4283640384674072e-001 3.8523140549659729e-001</leafValues></_>
        <_>
          <internalNodes>
            0 -1 128 -1139530691 -33622083 -102593 -1648410817 -33771559
            -196612 -1636261889 -1195884758</internalNodes>
          <leafValues>
            -3.7362745404243469e-001 4.1903802752494812e-001</leafValues></_>
        <_>
          <internalNodes>
            0 -1 88 2147352575 531955612 1005567996 -1073824016
            1467944893 1073545207 2146769564 -4194658</internalNodes>
          <leafValues>
            -3.6449775099754333e-001 3.9220353960990906e-001</leafValues></_>
        <_>
          <internalNodes>
            0 -1 84 -168823518 1192230314 2147474946 1457913571
            -521415777 259971789 354407842 1171254251</internalNodes>
          <leafValues>
            -5.7142710685729980e-001 2.3470862209796906e-001</leafValues></_>
        <_>
          <internalNodes>
            0 -1 2 -1507807280 -87785071 1563859913 -845681839
            -1415878216 -75459902 -308516371 -1981740944</internalNodes>
          <leafValues>
            -4.3197053670883179e-001 3.2408165931701660e-001</leafValues></_>
        <_>
          <internalNodes>
            0 -1 96 578694932 -795704883 -653676425 -690978338 -90998653
            -1157431168 -644232453 -1359466204</internalNodes>
          <leafValues>
            -5.7556134462356567e-001 2.1567170321941376e-001</leafValues></_>
        <_>
          <internalNodes>
            0 -1 122 -1551375581 -305168246 -2097032814 -2108947
            -745838557 -896925560 1669946353 -722735627</internalNodes>
          <leafValues>
            -4.9313136935234070e-001 2.2807866334915161e-001</leafValues></_>
        <_>
          <internalNodes>
            0 -1 154 -69332153 -2062815013 -754892399 -824999349
            -1285893773 -183918454 -68486239 -353961482</internalNodes>
          <leafValues>
            -4.1374844312667847e-001 3.0286565423011780e-001</leafValues></_>
        <_>
          <internalNodes>
            0 -1 59 103294960 1072042468 -1928852237 440275038 842290000
            478513288 -1205335332 1060117192</internalNodes>
          <leafValues>
            -6.4748507738113403e-001 2.0249606668949127e-001</leafValues></_></weakClassifiers></_>
    <!-- stage 7 -->
    <_>
      <maxWeakCount>11</maxWeakCount>
      <stageThreshold>-1.5206640958786011e+000</stageThreshold>
      <weakClassifiers>
        <_>
          <internalNodes>
            0 -1 140 -206308373 -405814803 -653240431 -2113127
            -1223963973 1191940224 -208997389 -671116289</internalNodes>
          <leafValues>
            -7.2093021869659424e-001 2.4743725080043077e-003</leafValues></_>
        <_>
          <internalNodes>
            0 -1 66 1441788415 1470363599 -7645750 -605035637 -741674757
            1375715115 -219054614 -74449494</internalNodes>
          <leafValues>
            -4.1757726669311523e-001 3.4973496198654175e-001</leafValues></_>
        <_>
          <internalNodes>
            0 -1 77 -1345395450 -2004446710 -787361420 -95006518
            1774410351 193700011 -510922400 -21546</internalNodes>
          <leafValues>
            -5.0542783737182617e-001 2.5893995165824890e-001</leafValues></_>
        <_>
          <internalNodes>
            0 -1 36 676340432 -7294859 -1714047745 -35847288 -339886083
            -549508165 1033711037 -1476129536</internalNodes>
          <leafValues>
            -5.0278449058532715e-001 2.6722767949104309e-001</leafValues></_>
        <_>
          <internalNodes>
            0 -1 28 -714607450 -683276918 -1470898482 -150061176
            282330495 1502461838 1088396780 1781518091</internalNodes>
          <leafValues>
            -4.5713004469871521e-001 2.8918460011482239e-001</leafValues></_>
        <_>
          <internalNodes>
            0 -1 107 -114361347 -1611464708 -73588996 -1073746952
            939357693 1040014846 -2046874116 -536936999</internalNodes>
          <leafValues>
            -3.1110826134681702e-001 4.0420189499855042e-001</leafValues></_>
        <_>
          <internalNodes>
            0 -1 101 -1416109278 -1518190390 -1053798382 -190969020
            -1985254933 -895827832 1436086773 -441715980</internalNodes>
          <leafValues>
            -4.8148316144943237e-001 2.6440948247909546e-001</leafValues></_>
        <_>
          <internalNodes>
            0 -1 4 -28127370 -2702705 -117242881 -808309913 38813181
            -70200693 -1154670257 1643332679</internalNodes>
          <leafValues>
            -4.1959014534950256e-001 3.2589784264564514e-001</leafValues></_>
        <_>
          <internalNodes>
            0 -1 119 982786021 -19213485 -956186145 -1194426149
            -610538501 -376799224 -1148639041 -1091030212</internalNodes>
          <leafValues>
            -5.0360316038131714e-001 2.5914174318313599e-001</leafValues></_>
        <_>
          <internalNodes>
            0 -1 100 -439357525 -808467064 -1255948462 -710938237
            -1013974729 -905016485 -196384777 -984123917</internalNodes>
          <leafValues>
            -4.1712924838066101e-001 3.0912807583808899e-001</leafValues></_>
        <_>
          <internalNodes>
            0 -1 60 187106231 439107794 -1872656929 -1164312293
            296244824 -16170837 -73344520 -1906830536</internalNodes>
          <leafValues>
            -5.0616282224655151e-001 2.6241067051887512e-001</leafValues></_></weakClassifiers></_>
    <!-- stage 8 -->
    <_>
      <maxWeakCount>12</maxWeakCount>
      <stageThreshold>-1.8064464330673218e+000</stageThreshold>
      <weakClassifiers>
        <_>
          <internalNodes>
            0 -1 149 -2359601 -821837537 -754869806 -611348019
            -710676261 -1056208677 -1751009357 -136317953</internalNodes>
          <leafValues>
            -7.0107930898666382e-001 -4.3827611953020096e-003</leafValues></_>
        <_>
          <internalNodes>
            0 -1 26 -25759874 -673911905 -107020289 -587275847
            -213026453 -5623573 -3985473 2135911455</internalNodes>
          <leafValues>
            -5.0285500288009644e-001 2.4710732698440552e-001</leafValues></_>
        <_>
          <internalNodes>
            0 -1 87 -273685077 -269500511 -131471 -135041229 -276840465
            -1988100097 -973154825 -134238209</internalNodes>
          <leafValues>
            -3.0631673336029053e-001 4.3595892190933228e-001</leafValues></_>
        <_>
          <internalNodes>
            0 -1 71 305668351 297058192 1006451389 968146488 226235564
            -53084169 1073683608 -40088928</internalNodes>
          <leafValues>
            -3.1768384575843811e-001 3.6956790089607239e-001</leafValues></_>
        <_>
          <internalNodes>
            0 -1 112 -403701870 -1383071838 -1050633 -541868123
            -545783873 -1931476994 -704645710 -907020801</internalNodes>
          <leafValues>
            -3.2876527309417725e-001 3.8571092486381531e-001</leafValues></_>
        <_>
          <internalNodes>
            0 -1 117 210507260 -111341365 -1844506209 2139918553
            -1174326599 -82149224 -73880867 -1130349260</internalNodes>
          <leafValues>
            -4.8102274537086487e-001 2.5346311926841736e-001</leafValues></_>
        <_>
          <internalNodes>
            0 -1 43 -221780190 1498376458 43515954 644323343 1122520769
            1141611403 1078289629 1441947639</internalNodes>
          <leafValues>
            -6.5817105770111084e-001 1.7583394050598145e-001</leafValues></_>
        <_>
          <internalNodes>
            0 -1 76 -1209602309 871944431 1896924364 -1621224274
            1006524624 1049473707 1872448028 -4198686</internalNodes>
          <leafValues>
            -3.9080926775932312e-001 2.7584877610206604e-001</leafValues></_>
        <_>
          <internalNodes>
            0 -1 30 1789390591 -143982658 -269488145 -856068 -310546465
            -176881673 -34132210 -336101962</internalNodes>
          <leafValues>
            -2.6022058725357056e-001 4.3124026060104370e-001</leafValues></_>
        <_>
          <internalNodes>
            0 -1 56 -1885914313 -1483013942 -754871869 -286109356
            -1156900565 -897054591 -612107435 -860978316</internalNodes>
          <leafValues>
            -5.2470582723617554e-001 2.1552725136280060e-001</leafValues></_>
        <_>
          <internalNodes>
            0 -1 51 1149653024 -827082426 -1823421824 -1394091317
            -793934809 952746671 1906162538 210395435</internalNodes>
          <leafValues>
            -6.6579824686050415e-001 1.8024662137031555e-001</leafValues></_>
        <_>
          <internalNodes>
            0 -1 136 -1949312077 -830340989 268682705 -556023587
            -527788504 657410 -754748941 -508567136</internalNodes>
          <leafValues>
            -4.8347562551498413e-001 2.2919401526451111e-001</leafValues></_></weakClassifiers></_>
    <!-- stage 9 -->
    <_>
      <maxWeakCount>12</maxWeakCount>
      <stageThreshold>-1.8446892499923706e+000</stageThreshold>
      <weakClassifiers>
        <_>
          <internalNodes>
            0 -1 97 -538970629 -552862846 2119949297 -39849151
            -2054172417 -1971402565 1373368795 -544211573</internalNodes>
          <leafValues>
            -6.1183208227157593e-001 1.1704545468091965e-001</leafValues></_>
        <_>
          <internalNodes>
            0 -1 8 -1526693391 -678391559 -1525805601 -552689588
            -1467364881 -545179493 -1425532435 -1881864192</internalNodes>
          <leafValues>
            -3.8998651504516602e-001 3.2436788082122803e-001</leafValues></_>
        <_>
          <internalNodes>
            0 -1 139 -168037581 -1442082664 -1878928943 -561311656
            -108135007 -2004647752 -912527132 -912530965</internalNodes>
          <leafValues>
            -3.5699629783630371e-001 3.2743713259696960e-001</leafValues></_>
        <_>
          <internalNodes>
            0 -1 81 741356021 -84225973 -1794928163 -673722167
            -209036663 -1173389309 -206886449 -1075045868</internalNodes>
          <leafValues>
            -5.3502041101455688e-001 2.0664526522159576e-001</leafValues></_>
        <_>
          <internalNodes>
            0 -1 31 -1116852690 -749293586 -1525144768 -555985504
            -1766245657 1018220988 797513455 2113203887</internalNodes>
          <leafValues>
            -5.1659893989562988e-001 2.3604878783226013e-001</leafValues></_>
        <_>
          <internalNodes>
            0 -1 147 -1883243085 -1619335241 -1073746115 -1615925263
            -839917571 -2013265921 -84090887 -570690255</internalNodes>
          <leafValues>
            -3.1722742319107056e-001 3.5839065909385681e-001</leafValues></_>
        <_>
          <internalNodes>
            0 -1 89 -40064003 932750782 -184438600 -1079226170
            1514752509 698876666 2080314588 229768058</internalNodes>
          <leafValues>
            -4.4630560278892517e-001 2.6448303461074829e-001</leafValues></_>
        <_>
          <internalNodes>
            0 -1 6 -201003262 -208382187 -973060259 -489627572
            1329289995 -15588951 -1123456129 1664174159</internalNodes>
          <leafValues>
            -4.7373941540718079e-001 2.4136742949485779e-001</leafValues></_>
        <_>
          <internalNodes>
            0 -1 93 1283185840 1662239706 -804616110 -1310977910
            185565392 -259456886 1137396059 -1969489374</internalNodes>
          <leafValues>
            -4.6507588028907776e-001 2.5402691960334778e-001</leafValues></_>
        <_>
          <internalNodes>
            0 -1 48 1566155907 888307933 -1073741666 936640730
            1030252733 941754571 -1977852180 -1624501252</internalNodes>
          <leafValues>
            -3.8242295384407043e-001 2.9328867793083191e-001</leafValues></_>
        <_>
          <internalNodes>
            0 -1 127 812977181 -585641965 -656879425 420776215
            -100646202 -83328999 -343873027 -1662731480</internalNodes>
          <leafValues>
            -4.4449126720428467e-001 2.2871331870555878e-001</leafValues></_>
        <_>
          <internalNodes>
            0 -1 130 227488047 -1886452543 -1056878463 -359673710
            -343231981 -2004353024 1401471729 -128797968</internalNodes>
          <leafValues>
            -5.6038326025009155e-001 2.2113172709941864e-001</leafValues></_></weakClassifiers></_>
    <!-- stage 10 -->
    <_>
      <maxWeakCount>13</maxWeakCount>
      <stageThreshold>-1.7167474031448364e+000</stageThreshold>
      <weakClassifiers>
        <_>
          <internalNodes>
            0 -1 54 -574621705 -575742262 1359073791 -544744115
            -593501197 -20846421 1373049711 -1347683413</internalNodes>
          <leafValues>
            -6.4254611730575562e-001 4.5475423336029053e-002</leafValues></_>
        <_>
          <internalNodes>
            0 -1 113 -2004365294 -812660534 -213265707 -8449842
            -779443529 -2146926592 -1597447263 -503323695</internalNodes>
          <leafValues>
            -4.6290296316146851e-001 2.4228519201278687e-001</leafValues></_>
        <_>
          <internalNodes>
            0 -1 91 -154612276 2110235611 -33059569 595579933 -917517829
            -55951353 -1360122883 824652299</internalNodes>
          <leafValues>
            -4.6836426854133606e-001 2.4026465415954590e-001</leafValues></_>
        <_>
          <internalNodes>
            0 -1 135 -2082475134 -276000638 1359167954 -2256303
            -494228793 -1417641856 -594877465 -201329949</internalNodes>
          <leafValues>
            -3.6163085699081421e-001 3.1878179311752319e-001</leafValues></_>
        <_>
          <internalNodes>
            0 -1 38 1950643350 -679026831 1439537858 -636925077
            343664697 252538523 -384298356 1854607146</internalNodes>
          <leafValues>
            -4.6901121735572815e-001 2.6571854948997498e-001</leafValues></_>
        <_>
          <internalNodes>
            0 -1 108 294650011 294130192 1476464861 -1856597611
            1242568840 -1191182184 -343895842 -8125816</internalNodes>
          <leafValues>
            -3.6293679475784302e-001 3.1847840547561646e-001</leafValues></_>
        <_>
          <internalNodes>
            0 -1 16 -208146686 -1016241721 -1606265728 1003500206
            -695301594 1328470750 -149236768 1344274365</internalNodes>
          <leafValues>
            -6.3465702533721924e-001 1.5904334187507629e-001</leafValues></_>
        <_>
          <internalNodes>
            0 -1 24 -1438340368 -57417337 318896543 -1248444283
            -1978960973 -98330449 -1718671121 1816463956</internalNodes>
          <leafValues>
            -5.3698635101318359e-001 2.1234104037284851e-001</leafValues></_>
        <_>
          <internalNodes>
            0 -1 5 -217691893 -141502330 -1806438069 -881606468
            1796043159 -628827510 -909047843 -1067368225</internalNodes>
          <leafValues>
            -3.4408441185951233e-001 3.2612264156341553e-001</leafValues></_>
        <_>
          <internalNodes>
            0 -1 70 -1738945798 -1869286592 -989715172 -1611517744
            -1195291447 988399650 463165977 1839092439</internalNodes>
          <leafValues>
            -4.5326539874076843e-001 2.3573873937129974e-001</leafValues></_>
        <_>
          <internalNodes>
            0 -1 158 -2088516746 -1484535808 1073824724 -65880000
            -2020869598 -385286014 -2121747755 -61873418</internalNodes>
          <leafValues>
            -3.8150376081466675e-001 2.8237634897232056e-001</leafValues></_>
        <_>
          <internalNodes>
            0 -1 144 506608381 1465323849 -2096873309 -175763055
            411043983 680231062 -1970650130 -1414004472</internalNodes>
          <leafValues>
            -3.4438413381576538e-001 3.1316050887107849e-001</leafValues></_>
        <_>
          <internalNodes>
            0 -1 138 1032000291 -1365274496 -1862253949 -962936622
            -1962905541 168460417 -661950223 -287403872</internalNodes>
          <leafValues>
            -5.5593246221542358e-001 1.9156482815742493e-001</leafValues></_></weakClassifiers></_>
    <!-- stage 11 -->
    <_>
      <maxWeakCount>13</maxWeakCount>
      <stageThreshold>-1.5444836616516113e+000</stageThreshold>
      <weakClassifiers>
        <_>
          <internalNodes>
            0 -1 55 -706743297 -671220513 -652960289 -612056587
            -757728613 -1145392999 -68563989 -271581201</internalNodes>
          <leafValues>
            -5.7093781232833862e-001 2.7504244446754456e-001</leafValues></_>
        <_>
          <internalNodes>
            0 -1 121 -137396830 1137512591 -1726671392 -955444914
            1931203579 65190050 281670098 1188028910</internalNodes>
          <leafValues>
            -6.1847776174545288e-001 1.5050846338272095e-001</leafValues></_>
        <_>
          <internalNodes>
            0 -1 145 -353594347 -544333667 -268434977 -645143741
            -364189253 -83230056 -385238273 -391364821</internalNodes>
          <leafValues>
            -3.7141674757003784e-001 3.2550752162933350e-001</leafValues></_>
        <_>
          <internalNodes>
            0 -1 49 2036284662 320471766 -2143246200 -1424878846
            42482156 959225888 520161736 -3165854</internalNodes>
          <leafValues>
            -3.7121421098709106e-001 3.2042643427848816e-001</leafValues></_>
        <_>
          <internalNodes>
            0 -1 99 -1455218796 -271953904 1493258241 -36503112
            1611254464 -2138570621 1485509857 -628157709</internalNodes>
          <leafValues>
            -3.9156424999237061e-001 2.6718258857727051e-001</leafValues></_>
        <_>
          <internalNodes>
            0 -1 80 709887284 -1747713838 85037533 1595773069
            -1601455695 -74940288 427897401 198191392</internalNodes>
          <leafValues>
            -5.4649084806442261e-001 2.2927428781986237e-001</leafValues></_>
        <_>
          <internalNodes>
            0 -1 134 1067436799 802078862 -1302103864 1061444188
            -875888451 327573715 1343187616 1877961547</internalNodes>
          <leafValues>
            -4.1384583711624146e-001 2.5336709618568420e-001</leafValues></_>
        <_>
          <internalNodes>
            0 -1 0 403771901 989909121 -1073741725 -145665983
            -1995962198 -1845452800 1779128827 -1632106112</internalNodes>
          <leafValues>
            -3.7615948915481567e-001 2.8644874691963196e-001</leafValues></_>
        <_>
          <internalNodes>
            0 -1 19 324671964 -1105427254 1342269696 -2076802532
            2107603126 285311510 -1425405696 2136822528</internalNodes>
          <leafValues>
            -5.1683902740478516e-001 2.1401950716972351e-001</leafValues></_>
        <_>
          <internalNodes>
            0 -1 42 -695164290 366081006 153119117 -1442807619
            -528133389 1653153996 797162442 793604407</internalNodes>
          <leafValues>
            -4.3571966886520386e-001 2.5013870000839233e-001</leafValues></_>
        <_>
          <internalNodes>
            0 -1 125 -584843374 -307712305 -32943 -38539281 -570597385
            -721420289 -16779805 -536904449</internalNodes>
          <leafValues>
            -2.9907658696174622e-001 3.9379176497459412e-001</leafValues></_>
        <_>
          <internalNodes>
            0 -1 82 -1932597856 -527643366 1342429784 872723653
            -988924433 -97988543 420733721 531354763</internalNodes>
          <leafValues>
            -4.1369917988777161e-001 2.9819682240486145e-001</leafValues></_>
        <_>
          <internalNodes>
            0 -1 110 1347957328 -61833007 -1995419411 -153579389
            -108320133 -74809206 -83258933 -1405583748</internalNodes>
          <leafValues>
            -4.2457893490791321e-001 2.6929485797882080e-001</leafValues></_></weakClassifiers></_>
    <!-- stage 12 -->
    <_>
      <maxWeakCount>14</maxWeakCount>
      <stageThreshold>-1.5021084547042847e+000</stageThreshold>
      <weakClassifiers>
        <_>
          <internalNodes>
            0 -1 35 -38800393 -1244558517 -641350769 -270040245
            -607010401 -591855208 -19676161 -827395585</internalNodes>
          <leafValues>
            -6.1196839809417725e-001 1.4946618676185608e-001</leafValues></_>
        <_>
          <internalNodes>
            0 -1 64 -2060626018 157048220 1073831880 -718679566
            396125157 261177797 1354643328 2074851082</internalNodes>
          <leafValues>
            -5.5370628833770752e-001 1.7048229277133942e-001</leafValues></_>
        <_>
          <internalNodes>
            0 -1 103 -917507797 -2096115510 1090554195 -6300197
            -1953779341 -846659197 1099543543 -1059065129</internalNodes>
          <leafValues>
            -4.1360494494438171e-001 2.8175619244575500e-001</leafValues></_>
        <_>
          <internalNodes>
            0 -1 9 -1303213346 1946107933 -779036257 1431210325
            1623204779 -90568724 -385285937 1835355399</internalNodes>
          <leafValues>
            -4.2607140541076660e-001 3.1832665205001831e-001</leafValues></_>
        <_>
          <internalNodes>
            0 -1 148 -544740945 -1417080529 -779042750 -551710391
            1250052251 1132462080 -1818591004 -453000990</internalNodes>
          <leafValues>
            -4.3272691965103149e-001 2.7398994565010071e-001</leafValues></_>
        <_>
          <internalNodes>
            0 -1 39 16785718 1871626310 -1340354093 1398112580 -83719736
            -1197371251 -628581447 -327122540</internalNodes>
          <leafValues>
            -4.2259693145751953e-001 2.6741161942481995e-001</leafValues></_>
        <_>
          <internalNodes>
            0 -1 13 -1238442302 -824715937 -49905009 577515742
            1444561356 1259841827 1022100461 662131303</internalNodes>
          <leafValues>
            -4.3945029377937317e-001 2.5073188543319702e-001</leafValues></_>
        <_>
          <internalNodes>
            0 -1 78 2064941723 1037324298 1074829790 -712232762
            421727181 948732549 -904823932 2136718262</internalNodes>
          <leafValues>
            -4.0585049986839294e-001 3.0971175432205200e-001</leafValues></_>
        <_>
          <internalNodes>
            0 -1 157 -1596687593 -225869182 258143 -392757179
            -1836445693 -611647488 -1333640567 -1426431371</internalNodes>
          <leafValues>
            -4.7068381309509277e-001 2.3964570462703705e-001</leafValues></_>
        <_>
          <internalNodes>
            0 -1 57 -2087490209 -506753021 4309329 -603586559 1212692499
            -1023278968 -1584877454 -332479632</internalNodes>
          <leafValues>
            -4.5352792739868164e-001 2.5395074486732483e-001</leafValues></_>
        <_>
          <internalNodes>
            0 -1 14 -190192542 636025801 -1778349667 -485931581
            -2080403262 1629815699 1455463519 573026255</internalNodes>
          <leafValues>
            -5.2765905857086182e-001 2.2162182629108429e-001</leafValues></_>
        <_>
          <internalNodes>
            0 -1 150 316210163 -1315962788 403243354 -1118532964
            298391965 -1291812725 1493832185 2078190072</internalNodes>
          <leafValues>
            -3.4266605973243713e-001 3.2647350430488586e-001</leafValues></_>
        <_>
          <internalNodes>
            0 -1 52 -2101199937 -1002143633 16797781 -1706147392
            1225408739 -1040048118 -368884797 -270606299</internalNodes>
          <leafValues>
            -4.4571021199226379e-001 2.5757405161857605e-001</leafValues></_>
        <_>
          <internalNodes>
            0 -1 33 -1990312692 1559499990 -2109731292 -754118369
            1133353971 402686202 8481036 1599470983</internalNodes>
          <leafValues>
            -4.6720537543296814e-001 2.5677713751792908e-001</leafValues></_></weakClassifiers></_>
    <!-- stage 13 -->
    <_>
      <maxWeakCount>16</maxWeakCount>
      <stageThreshold>-1.5497375726699829e+000</stageThreshold>
      <weakClassifiers>
        <_>
          <internalNodes>
            0 -1 29 1456917503 -783090785 -385771043 -576793250
            2137747711 -209682288 -74814801 -572673</internalNodes>
          <leafValues>
            -6.1900943517684937e-001 4.3219074606895447e-002</leafValues></_>
        <_>
          <internalNodes>
            0 -1 102 -103818785 -485556022 -178794288 -67169037
            -896954214 134480008 -779382554 -35671317</internalNodes>
          <leafValues>
            -3.6692067980766296e-001 3.2098525762557983e-001</leafValues></_>
        <_>
          <internalNodes>
            0 -1 153 -1075839043 -1786265021 -1878929343 -1726840109
            -1043345011 -1744650238 -532585911 -1110583275</internalNodes>
          <leafValues>
            -4.1411411762237549e-001 2.4655395746231079e-001</leafValues></_>
        <_>
          <internalNodes>
            0 -1 45 -1617975666 2113639614 1369584944 -862784537
            -1415627988 1010321554 1062933647 477927423</internalNodes>
          <leafValues>
            -4.9386230111122131e-001 1.9993875920772552e-001</leafValues></_>
        <_>
          <internalNodes>
            0 -1 22 4198448 -1378348844 -914357931 1564803329 721973474
            -184023888 722049386 1218189516</internalNodes>
          <leafValues>
            -3.2996234297752380e-001 3.1486591696739197e-001</leafValues></_>
        <_>
          <internalNodes>
            0 -1 15 -1123096508 -1010517558 33163649 -1157431164
            -1186861872 531693705 1061182433 1639448445</internalNodes>
          <leafValues>
            -4.4120603799819946e-001 2.0709240436553955e-001</leafValues></_>
        <_>
          <internalNodes>
            0 -1 131 731198242 -2013101944 1343295632 -429948582
            -2138398713 184549512 -259266123 -2063927055</internalNodes>
          <leafValues>
            -5.9603029489517212e-001 1.5237586200237274e-001</leafValues></_>
        <_>
          <internalNodes>
            0 -1 34 1033636832 512622607 956389724 -1642429566
            1250449880 1879638146 -1148573668 311300462</internalNodes>
          <leafValues>
            -5.1423364877700806e-001 1.6515043377876282e-001</leafValues></_>
        <_>
          <internalNodes>
            0 -1 129 1078875557 111132767 -738110703 -28970977
            -251063297 1694140824 -212746526 105905131</internalNodes>
          <leafValues>
            -4.1440048813819885e-001 2.3339447379112244e-001</leafValues></_>
        <_>
          <internalNodes>
            0 -1 105 668154336 -1078697452 -1793978276 -1080112372
            65167933 718410495 1259607517 561387576</internalNodes>
          <leafValues>
            -4.9050325155258179e-001 1.8286050856113434e-001</leafValues></_>
        <_>
          <internalNodes>
            0 -1 12 -1795500976 -671055573 -1861958357 151369985
            1889236484 1739197981 -1052767222 1158369799</internalNodes>
          <leafValues>
            -6.0220956802368164e-001 1.5937183797359467e-001</leafValues></_>
        <_>
          <internalNodes>
            0 -1 79 610276052 -1333739377 1342210049 -1856208741
            -2113679222 -1467875286 -754898759 -1413989563</internalNodes>
          <leafValues>
            -5.9945571422576904e-001 1.4271382987499237e-001</leafValues></_>
        <_>
          <internalNodes>
            0 -1 1 -696235038 -1607060789 1476642879 1636346160
            1910504343 -628784629 2080648188 1625378501</internalNodes>
          <leafValues>
            -4.4522574543952942e-001 2.0178766548633575e-001</leafValues></_>
        <_>
          <internalNodes>
            0 -1 62 1978398794 -1054770665 -1342058150 -1987739119
            -716156859 1476935686 -335928821 1403864987</internalNodes>
          <leafValues>
            -4.0657913684844971e-001 2.3347139358520508e-001</leafValues></_>
        <_>
          <internalNodes>
            0 -1 17 -2124462029 38506711 1887518803 -870788965 679678562
            831160448 1175085137 -127991771</internalNodes>
          <leafValues>
            -5.1857388019561768e-001 1.6398194432258606e-001</leafValues></_>
        <_>
          <internalNodes>
            0 -1 75 572703522 -414756221 -1853869073 -1176633139
            942340327 -1073635184 -1861513035 -2134093088</internalNodes>
          <leafValues>
            -4.6751832962036133e-001 2.0975911617279053e-001</leafValues></_></weakClassifiers></_>
    <!-- stage 14 -->
    <_>
      <maxWeakCount>15</maxWeakCount>
      <stageThreshold>-1.3982508182525635e+000</stageThreshold>
      <weakClassifiers>
        <_>
          <internalNodes>
            0 -1 58 -1050938369 -1010827071 1359073429 -581599083
            -1442670357 -98369408 1937808051 -78910477</internalNodes>
          <leafValues>
            -5.9688150882720947e-001 7.9839169979095459e-002</leafValues></_>
        <_>
          <internalNodes>
            0 -1 151 596837341 898699280 1358958739 -173014639
            -1953890085 -1457978880 570561018 -15197996</internalNodes>
          <leafValues>
            -3.4959173202514648e-001 3.1285846233367920e-001</leafValues></_>
        <_>
          <internalNodes>
            0 -1 94 -721956618 1367330039 -1877916664 -213528481
            -1073151865 306708648 -1878402838 2074835850</internalNodes>
          <leafValues>
            -3.6736530065536499e-001 2.9970109462738037e-001</leafValues></_>
        <_>
          <internalNodes>
            0 -1 106 1406924887 446202006 1090535624 -1218539374
            1526952617 990020296 1224808937 -110445910</internalNodes>
          <leafValues>
            -3.3195126056671143e-001 3.1232607364654541e-001</leafValues></_>
        <_>
          <internalNodes>
            0 -1 7 442169874 1091141768 1073922267 -1794620856
            1091174440 -1182185464 -1718935414 1771381585</internalNodes>
          <leafValues>
            -4.5291784405708313e-001 2.5770494341850281e-001</leafValues></_>
        <_>
          <internalNodes>
            0 -1 44 542035596 -965377848 -1828126160 -1039073275
            -1870468909 763412547 975195851 1970457243</internalNodes>
          <leafValues>
            -4.6080061793327332e-001 2.5191095471382141e-001</leafValues></_>
        <_>
          <internalNodes>
            0 -1 112 -612123678 -809418552 -1325395755 -687374259
            -888487293 -351666168 651943 -1987429731</internalNodes>
          <leafValues>
            -3.7408375740051270e-001 2.6969438791275024e-001</leafValues></_>
        <_>
          <internalNodes>
            0 -1 146 -1850814128 -1302507315 1124110603 -1252896761
            -790509427 -771227579 -247203688 469987403</internalNodes>
          <leafValues>
            -3.8610741496086121e-001 2.7408841252326965e-001</leafValues></_>
        <_>
          <internalNodes>
            0 -1 11 -548491198 -963544809 1082261775 563204823
            1449007816 1015029763 680266699 31868470</internalNodes>
          <leafValues>
            -4.4040137529373169e-001 2.3840939998626709e-001</leafValues></_>
        <_>
          <internalNodes>
            0 -1 95 -1253772922 502846704 -1979520964 -670542280
            136393754 197168131 1075130617 -1897174270</internalNodes>
          <leafValues>
            -3.5133564472198486e-001 2.9098108410835266e-001</leafValues></_>
        <_>
          <internalNodes>
            0 -1 111 1132712323 -930587896 -1878996975 -653714733
            -2095382262 -1977614320 -2146794928 89125035</internalNodes>
          <leafValues>
            -4.5099222660064697e-001 2.2950783371925354e-001</leafValues></_>
        <_>
          <internalNodes>
            0 -1 156 -2086981373 -2145775614 17844758 -254099455
            -2147401711 562069504 -2138404704 -343277408</internalNodes>
          <leafValues>
            -4.8119124770164490e-001 2.3203460872173309e-001</leafValues></_>
        <_>
          <internalNodes>
            0 -1 25 -354292336 2130702313 -268567555 -169038233
            1609955317 -1480589826 267763423 -2097378201</internalNodes>
          <leafValues>
            -2.9897907376289368e-001 3.7276363372802734e-001</leafValues></_>
        <_>
          <internalNodes>
            0 -1 65 1346642048 -1189244850 285232151 -1395616239
            -1941239761 -1719615344 1774359438 723921689</internalNodes>
          <leafValues>
            -5.0058263540267944e-001 2.1991699934005737e-001</leafValues></_>
        <_>
          <internalNodes>
            0 -1 20 -1753873771 339197935 -1073951883 -1162331394
            -285459061 -1143320714 -1107550532 -910436919</internalNodes>
          <leafValues>
            -2.8677240014076233e-001 4.1029652953147888e-001</leafValues></_></weakClassifiers></_></stages>
  <features>
    <_>
      <rect>
        0 0 1 1</rect></_>
    <_>
      <rect>
        0 1 3 4</rect></_>
    <_>
      <rect>
        0 1 4 2</rect></_>
    <_>
      <rect>
        0 1 6 4</rect></_>
    <_>
      <rect>
        0 2 3 4</rect></_>
    <_>
      <rect>
        0 2 3 5</rect></_>
    <_>
      <rect>
        0 3 4 5</rect></_>
    <_>
      <rect>
        0 3 5 3</rect></_>
    <_>
      <rect>
        0 3 6 1</rect></_>
    <_>
      <rect>
        0 3 6 3</rect></_>
    <_>
      <rect>
        0 4 6 4</rect></_>
    <_>
      <rect>
        0 5 3 6</rect></_>
    <_>
      <rect>
        0 5 6 6</rect></_>
    <_>
      <rect>
        0 6 3 5</rect></_>
    <_>
      <rect>
        0 7 5 6</rect></_>
    <_>
      <rect>
        0 12 5 6</rect></_>
    <_>
      <rect>
        0 14 5 3</rect></_>
    <_>
      <rect>
        0 15 1 1</rect></_>
    <_>
      <rect>
        0 18 5 4</rect></_>
    <_>
      <rect>
        0 20 3 3</rect></_>
    <_>
      <rect>
        0 24 3 2</rect></_>
    <_>
      <rect>
        1 0 5 3</rect></_>
    <_>
      <rect>
        1 0 6 1</rect></_>
    <_>
      <rect>
        1 0 6 5</rect></_>
    <_>
      <rect>
        1 1 5 3</rect></_>
    <_>
      <rect>
        1 2 3 2</rect></_>
    <_>
      <rect>
        1 2 5 4</rect></_>
    <_>
      <rect>
        1 5 4 6</rect></_>
    <_>
      <rect>
        1 5 6 8</rect></_>
    <_>
      <rect>
        1 6 3 2</rect></_>
    <_>
      <rect>
        1 7 2 2</rect></_>
    <_>
      <rect>
        1 12 6 6</rect></_>
    <_>
      <rect>
        1 15 5 5</rect></_>
    <_>
      <rect>
        1 18 4 4</rect></_>
    <_>
      <rect>
        1 24 2 2</rect></_>
    <_>
      <rect>
        2 0 5 8</rect></_>
    <_>
      <rect>
        2 0 6 2</rect></_>
    <_>
      <rect>
        2 0 6 9</rect></_>
    <_>
      <rect>
        2 0 6 10</rect></_>
    <_>
      <rect>
        2 1 4 1</rect></_>
    <_>
      <rect>
        2 1 5 3</rect></_>
    <_>
      <rect>
        2 2 6 4</rect></_>
    <_>
      <rect>
        2 3 6 4</rect></_>
    <_>
      <rect>
        2 11 6 5</rect></_>
    <_>
      <rect>
        2 12 5 6</rect></_>
    <_>
      <rect>
        2 12 6 6</rect></_>
    <_>
      <rect>
        2 15 6 5</rect></_>
    <_>
      <rect>
        2 18 5 4</rect></_>
    <_>
      <rect>
        2 23 3 2</rect></_>
    <_>
      <rect>
        3 21 3 3</rect></_>
    <_>
      <rect>
        3 24 5 2</rect></_>
    <_>
      <rect>
        4 5 4 5</rect></_>
    <_>
      <rect>
        4 6 1 1</rect></_>
    <_>
      <rect>
        4 6 4 5</rect></_>
    <_>
      <rect>
        4 6 4 7</rect></_>
    <_>
      <rect>
        4 6 5 4</rect></_>
    <_>
      <rect>
        4 10 1 1</rect></_>
    <_>
      <rect>
        4 17 1 1</rect></_>
    <_>
      <rect>
        4 20 1 1</rect></_>
    <_>
      <rect>
        4 24 3 2</rect></_>
    <_>
      <rect>
        4 26 2 1</rect></_>
    <_>
      <rect>
        5 1 4 1</rect></_>
    <_>
      <rect>
        5 1 5 8</rect></_>
    <_>
      <rect>
        5 2 5 8</rect></_>
    <_>
      <rect>
        5 3 5 9</rect></_>
    <_>
      <rect>
        5 4 4 4</rect></_>
    <_>
      <rect>
        5 6 5 5</rect></_>
    <_>
      <rect>
        5 7 4 4</rect></_>
    <_>
      <rect>
        5 7 4 6</rect></_>
    <_>
      <rect>
        5 14 4 3</rect></_>
    <_>
      <rect>
        5 18 3 4</rect></_>
    <_>
      <rect>
        5 27 4 1</rect></_>
    <_>
      <rect>
        6 3 2 1</rect></_>
    <_>
      <rect>
        6 5 3 6</rect></_>
    <_>
      <rect>
        6 6 3 4</rect></_>
    <_>
      <rect>
        6 11 2 2</rect></_>
    <_>
      <rect>
        6 20 2 3</rect></_>
    <_>
      <rect>
        6 21 1 1</rect></_>
    <_>
      <rect>
        6 21 3 3</rect></_>
    <_>
      <rect>
        7 4 1 1</rect></_>
    <_>
      <rect>
        7 4 3 1</rect></_>
    <_>
      <rect>
        7 5 1 1</rect></_>
    <_>
      <rect>
        7 5 4 7</rect></_>
    <_>
      <rect>
        7 7 1 1</rect></_>
    <_>
      <rect>
        7 10 4 4</rect></_>
    <_>
      <rect>
        7 16 1 1</rect></_>
    <_>
      <rect>
        7 16 2 1</rect></_>
    <_>
      <rect>
        7 17 1 1</rect></_>
    <_>
      <rect>
        7 21 3 3</rect></_>
    <_>
      <rect>
        7 21 4 3</rect></_>
    <_>
      <rect>
        7 26 1 1</rect></_>
    <_>
      <rect>
        8 2 4 4</rect></_>
    <_>
      <rect>
        8 4 2 1</rect></_>
    <_>
      <rect>
        8 6 2 5</rect></_>
    <_>
      <rect>
        8 6 4 4</rect></_>
    <_>
      <rect>
        8 6 4 8</rect></_>
    <_>
      <rect>
        8 7 1 1</rect></_>
    <_>
      <rect>
        8 8 3 5</rect></_>
    <_>
      <rect>
        8 12 4 2</rect></_>
    <_>
      <rect>
        8 14 1 1</rect></_>
    <_>
      <rect>
        8 14 3 3</rect></_>
    <_>
      <rect>
        8 15 1 1</rect></_>
    <_>
      <rect>
        8 16 1 1</rect></_>
    <_>
      <rect>
        8 16 2 2</rect></_>
    <_>
      <rect>
        8 17 1 1</rect></_>
    <_>
      <rect>
        8 18 4 4</rect></_>
    <_>
      <rect>
        8 21 2 3</rect></_>
    <_>
      <rect>
        8 21 4 3</rect></_>
    <_>
      <rect>
        8 27 2 1</rect></_>
    <_>
      <rect>
        9 6 2 5</rect></_>
    <_>
      <rect>
        9 7 2 1</rect></_>
    <_>
      <rect>
        9 9 3 4</rect></_>
    <_>
      <rect>
        9 12 2 2</rect></_>
    <_>
      <rect>
        9 13 1 1</rect></_>
    <_>
      <rect>
        9 17 1 1</rect></_>
    <_>
      <rect>
        9 26 2 1</rect></_>
    <_>
      <rect>
        10 3 1 1</rect></_>
    <_>
      <rect>
        10 4 2 1</rect></_>
    <_>
      <rect>
        10 5 1 1</rect></_>
    <_>
      <rect>
        10 6 1 1</rect></_>
    <_>
      <rect>
        10 11 1 1</rect></_>
    <_>
      <rect>
        10 11 3 2</rect></_>
    <_>
      <rect>
        10 15 1 1</rect></_>
    <_>
      <rect>
        10 15 2 1</rect></_>
    <_>
      <rect>
        10 16 1 1</rect></_>
    <_>
      <rect>
        10 18 1 1</rect></_>
    <_>
      <rect>
        10 27 2 1</rect></_>
    <_>
      <rect>
        11 1 2 1</rect></_>
    <_>
      <rect>
        11 3 3 1</rect></_>
    <_>
      <rect>
        11 7 3 3</rect></_>
    <_>
      <rect>
        11 10 1 1</rect></_>
    <_>
      <rect>
        11 11 1 1</rect></_>
    <_>
      <rect>
        11 16 1 1</rect></_>
    <_>
      <rect>
        11 17 1 1</rect></_>
    <_>
      <rect>
        11 18 3 4</rect></_>
    <_>
      <rect>
        12 14 1 1</rect></_>
    <_>
      <rect>
        12 16 1 1</rect></_>
    <_>
      <rect>
        13 3 1 1</rect></_>
    <_>
      <rect>
        13 11 1 1</rect></_>
    <_>
      <rect>
        13 12 1 1</rect></_>
    <_>
      <rect>
        13 12 2 1</rect></_>
    <_>
      <rect>
        13 13 1 1</rect></_>
    <_>
      <rect>
        13 15 1 1</rect></_>
    <_>
      <rect>
        13 26 1 1</rect></_>
    <_>
      <rect>
        14 0 2 1</rect></_>
    <_>
      <rect>
        14 0 2 3</rect></_>
    <_>
      <rect>
        14 2 2 5</rect></_>
    <_>
      <rect>
        14 6 2 6</rect></_>
    <_>
      <rect>
        14 10 2 1</rect></_>
    <_>
      <rect>
        14 11 2 1</rect></_>
    <_>
      <rect>
        14 24 2 2</rect></_>
    <_>
      <rect>
        14 27 2 1</rect></_>
    <_>
      <rect>
        15 6 1 5</rect></_>
    <_>
      <rect>
        16 0 1 8</rect></_>
    <_>
      <rect>
        16 6 1 1</rect></_>
    <_>
      <rect>
        16 11 1 1</rect></_>
    <_>
      <rect>
        16 16 1 1</rect></_>
    <_>
      <rect>
        17 4 1 1</rect></_>
    <_>
      <rect>
        17 11 1 1</rect></_></features></cascade>
</opencv_storage>
