<?xml version="1.0"?>
<opencv_storage>
<stage4>
  <maxWeakCount>9</maxWeakCount>
  <stageThreshold>-1.9035272598266602e+000</stageThreshold>
  <weakClassifiers>
    <_>
      <internalNodes>
        0 -1 5016 -2099791 -4195409 -2231817 -1056801 -68157505
        -71334181 -337641985 -842006865</internalNodes>
      <leafValues>
        -6.6322118043899536e-001 3.1506848335266113e-001</leafValues></_>
    <_>
      <internalNodes>
        0 -1 5829 -606078046 -808595454 -1727931982 -33564323 -71636225
        1191903387 -206834953 -704646449</internalNodes>
      <leafValues>
        -6.0019612312316895e-001 3.0226641893386841e-001</leafValues></_>
    <_>
      <internalNodes>
        0 -1 4906 207632884 -706915683 -708718089 -1617424171
        -1226196737 -1112276824 -1157911123 -1344009728</internalNodes>
      <leafValues>
        -5.8259361982345581e-001 3.0752310156822205e-001</leafValues></_>
    <_>
      <internalNodes>
        0 -1 4198 1437323498 1231026683 -11666166 -644885558 -771784341
        1268512571 1505355658 1401681322</internalNodes>
      <leafValues>
        -5.1900243759155273e-001 3.8204857707023621e-001</leafValues></_>
    <_>
      <internalNodes>
        0 -1 7752 -1116999013 -1467756405 -805187277 -6827798 -250361238
        -889094014 -1055132969 -167777289</internalNodes>
      <leafValues>
        -4.2143884301185608e-001 3.7563094496726990e-001</leafValues></_>
    <_>
      <internalNodes>
        0 -1 6955 1056522227 1061748726 1073715899 -73744 536690685
        -1879179395 -1359008263 -246084</internalNodes>
      <leafValues>
        -3.7904846668243408e-001 4.5512792468070984e-001</leafValues></_>
    <_>
      <internalNodes>
        0 -1 1554 -3084 -582449202 -91092460 -539574275 -34278947
        179077564 1372156314 1593834399</internalNodes>
      <leafValues>
        -4.5033091306686401e-001 3.6571097373962402e-001</leafValues></_>
    <_>
      <internalNodes>
        0 -1 265 -158146138 -6700577 -59531785 -1395349569 -211995877
        -72360869 -107319489 1844274799</internalNodes>
      <leafValues>
        -4.7302025556564331e-001 3.5044094920158386e-001</leafValues></_>
    <_>
      <internalNodes>
        0 -1 4137 593241911 -1319513957 -786853443 -573206254 -775189519
        -82214728 689089005 -1733264492</internalNodes>
      <leafValues>
        -4.0432450175285339e-001 3.9185822010040283e-001</leafValues></_></weakClassifiers></stage4>
</opencv_storage>
