<?xml version="1.0"?>
<opencv_storage>
<stage11>
  <maxWeakCount>13</maxWeakCount>
  <stageThreshold>-1.5444836616516113e+000</stageThreshold>
  <weakClassifiers>
    <_>
      <internalNodes>
        0 -1 3635 -706743297 -671220513 -652960289 -612056587 -757728613
        -1145392999 -68563989 -271581201</internalNodes>
      <leafValues>
        -5.7093781232833862e-001 2.7504244446754456e-001</leafValues></_>
    <_>
      <internalNodes>
        0 -1 7237 -137396830 1137512591 -1726671392 -955444914
        1931203579 65190050 281670098 1188028910</internalNodes>
      <leafValues>
        -6.1847776174545288e-001 1.5050846338272095e-001</leafValues></_>
    <_>
      <internalNodes>
        0 -1 8422 -353594347 -544333667 -268434977 -645143741 -364189253
        -83230056 -385238273 -391364821</internalNodes>
      <leafValues>
        -3.7141674757003784e-001 3.2550752162933350e-001</leafValues></_>
    <_>
      <internalNodes>
        0 -1 3283 2036284662 320471766 -2143246200 -1424878846 42482156
        959225888 520161736 -3165854</internalNodes>
      <leafValues>
        -3.7121421098709106e-001 3.2042643427848816e-001</leafValues></_>
    <_>
      <internalNodes>
        0 -1 6365 -1455218796 -271953904 1493258241 -36503112 1611254464
        -2138570621 1485509857 -628157709</internalNodes>
      <leafValues>
        -3.9156424999237061e-001 2.6718258857727051e-001</leafValues></_>
    <_>
      <internalNodes>
        0 -1 5529 709887284 -1747713838 85037533 1595773069 -1601455695
        -74940288 427897401 198191392</internalNodes>
      <leafValues>
        -5.4649084806442261e-001 2.2927428781986237e-001</leafValues></_>
    <_>
      <internalNodes>
        0 -1 7775 1067436799 802078862 -1302103864 1061444188 -875888451
        327573715 1343187616 1877961547</internalNodes>
      <leafValues>
        -4.1384583711624146e-001 2.5336709618568420e-001</leafValues></_>
    <_>
      <internalNodes>
        0 -1 0 403771901 989909121 -1073741725 -145665983 -1995962198
        -1845452800 1779128827 -1632106112</internalNodes>
      <leafValues>
        -3.7615948915481567e-001 2.8644874691963196e-001</leafValues></_>
    <_>
      <internalNodes>
        0 -1 788 324671964 -1105427254 1342269696 -2076802532 2107603126
        285311510 -1425405696 2136822528</internalNodes>
      <leafValues>
        -5.1683902740478516e-001 2.1401950716972351e-001</leafValues></_>
    <_>
      <internalNodes>
        0 -1 1956 -695164290 366081006 153119117 -1442807619 -528133389
        1653153996 797162442 793604407</internalNodes>
      <leafValues>
        -4.3571966886520386e-001 2.5013870000839233e-001</leafValues></_>
    <_>
      <internalNodes>
        0 -1 7329 -584843374 -307712305 -32943 -38539281 -570597385
        -721420289 -16779805 -536904449</internalNodes>
      <leafValues>
        -2.9907658696174622e-001 3.9379176497459412e-001</leafValues></_>
    <_>
      <internalNodes>
        0 -1 5575 -1932597856 -527643366 1342429784 872723653 -988924433
        -97988543 420733721 531354763</internalNodes>
      <leafValues>
        -4.1369917988777161e-001 2.9819682240486145e-001</leafValues></_>
    <_>
      <internalNodes>
        0 -1 6715 1347957328 -61833007 -1995419411 -153579389 -108320133
        -74809206 -83258933 -1405583748</internalNodes>
      <leafValues>
        -4.2457893490791321e-001 2.6929485797882080e-001</leafValues></_></weakClassifiers></stage11>
</opencv_storage>
