<?xml version="1.0"?>
<opencv_storage>
<stage9>
  <maxWeakCount>12</maxWeakCount>
  <stageThreshold>-1.8446892499923706e+000</stageThreshold>
  <weakClassifiers>
    <_>
      <internalNodes>
        0 -1 6235 -538970629 -552862846 2119949297 -39849151 -2054172417
        -1971402565 1373368795 -544211573</internalNodes>
      <leafValues>
        -6.1183208227157593e-001 1.1704545468091965e-001</leafValues></_>
    <_>
      <internalNodes>
        0 -1 213 -1526693391 -678391559 -1525805601 -552689588
        -1467364881 -545179493 -1425532435 -1881864192</internalNodes>
      <leafValues>
        -3.8998651504516602e-001 3.2436788082122803e-001</leafValues></_>
    <_>
      <internalNodes>
        0 -1 8308 -168037581 -1442082664 -1878928943 -561311656
        -108135007 -2004647752 -912527132 -912530965</internalNodes>
      <leafValues>
        -3.5699629783630371e-001 3.2743713259696960e-001</leafValues></_>
    <_>
      <internalNodes>
        0 -1 5545 741356021 -84225973 -1794928163 -673722167 -209036663
        -1173389309 -206886449 -1075045868</internalNodes>
      <leafValues>
        -5.3502041101455688e-001 2.0664526522159576e-001</leafValues></_>
    <_>
      <internalNodes>
        0 -1 1469 -1116852690 -749293586 -1525144768 -555985504
        -1766245657 1018220988 797513455 2113203887</internalNodes>
      <leafValues>
        -5.1659893989562988e-001 2.3604878783226013e-001</leafValues></_>
    <_>
      <internalNodes>
        0 -1 8529 -1883243085 -1619335241 -1073746115 -1615925263
        -839917571 -2013265921 -84090887 -570690255</internalNodes>
      <leafValues>
        -3.1722742319107056e-001 3.5839065909385681e-001</leafValues></_>
    <_>
      <internalNodes>
        0 -1 5908 -40064003 932750782 -184438600 -1079226170 1514752509
        698876666 2080314588 229768058</internalNodes>
      <leafValues>
        -4.4630560278892517e-001 2.6448303461074829e-001</leafValues></_>
    <_>
      <internalNodes>
        0 -1 199 -201003262 -208382187 -973060259 -489627572 1329289995
        -15588951 -1123456129 1664174159</internalNodes>
      <leafValues>
        -4.7373941540718079e-001 2.4136742949485779e-001</leafValues></_>
    <_>
      <internalNodes>
        0 -1 6169 1283185840 1662239706 -804616110 -1310977910 185565392
        -259456886 1137396059 -1969489374</internalNodes>
      <leafValues>
        -4.6507588028907776e-001 2.5402691960334778e-001</leafValues></_>
    <_>
      <internalNodes>
        0 -1 2573 1566155907 888307933 -1073741666 936640730 1030252733
        941754571 -1977852180 -1624501252</internalNodes>
      <leafValues>
        -3.8242295384407043e-001 2.9328867793083191e-001</leafValues></_>
    <_>
      <internalNodes>
        0 -1 7434 812977181 -585641965 -656879425 420776215 -100646202
        -83328999 -343873027 -1662731480</internalNodes>
      <leafValues>
        -4.4449126720428467e-001 2.2871331870555878e-001</leafValues></_>
    <_>
      <internalNodes>
        0 -1 7641 227488047 -1886452543 -1056878463 -359673710
        -343231981 -2004353024 1401471729 -128797968</internalNodes>
      <leafValues>
        -5.6038326025009155e-001 2.2113172709941864e-001</leafValues></_></weakClassifiers></stage9>
</opencv_storage>
