<?xml version="1.0"?>
<opencv_storage>
<stage14>
  <maxWeakCount>15</maxWeakCount>
  <stageThreshold>-1.3982508182525635e+000</stageThreshold>
  <weakClassifiers>
    <_>
      <internalNodes>
        0 -1 3985 -1050938369 -1010827071 1359073429 -581599083
        -1442670357 -98369408 1937808051 -78910477</internalNodes>
      <leafValues>
        -5.9688150882720947e-001 7.9839169979095459e-002</leafValues></_>
    <_>
      <internalNodes>
        0 -1 8699 596837341 898699280 1358958739 -173014639 -1953890085
        -1457978880 570561018 -15197996</internalNodes>
      <leafValues>
        -3.4959173202514648e-001 3.1285846233367920e-001</leafValues></_>
    <_>
      <internalNodes>
        0 -1 6184 -721956618 1367330039 -1877916664 -213528481
        -1073151865 306708648 -1878402838 2074835850</internalNodes>
      <leafValues>
        -3.6736530065536499e-001 2.9970109462738037e-001</leafValues></_>
    <_>
      <internalNodes>
        0 -1 6482 1406924887 446202006 1090535624 -1218539374 1526952617
        990020296 1224808937 -110445910</internalNodes>
      <leafValues>
        -3.3195126056671143e-001 3.1232607364654541e-001</leafValues></_>
    <_>
      <internalNodes>
        0 -1 206 442169874 1091141768 1073922267 -1794620856 1091174440
        -1182185464 -1718935414 1771381585</internalNodes>
      <leafValues>
        -4.5291784405708313e-001 2.5770494341850281e-001</leafValues></_>
    <_>
      <internalNodes>
        0 -1 2333 542035596 -965377848 -1828126160 -1039073275
        -1870468909 763412547 975195851 1970457243</internalNodes>
      <leafValues>
        -4.6080061793327332e-001 2.5191095471382141e-001</leafValues></_>
    <_>
      <internalNodes>
        0 -1 6814 -612123678 -809418552 -1325395755 -687374259
        -888487293 -351666168 651943 -1987429731</internalNodes>
      <leafValues>
        -3.7408375740051270e-001 2.6969438791275024e-001</leafValues></_>
    <_>
      <internalNodes>
        0 -1 8461 -1850814128 -1302507315 1124110603 -1252896761
        -790509427 -771227579 -247203688 469987403</internalNodes>
      <leafValues>
        -3.8610741496086121e-001 2.7408841252326965e-001</leafValues></_>
    <_>
      <internalNodes>
        0 -1 291 -548491198 -963544809 1082261775 563204823 1449007816
        1015029763 680266699 31868470</internalNodes>
      <leafValues>
        -4.4040137529373169e-001 2.3840939998626709e-001</leafValues></_>
    <_>
      <internalNodes>
        0 -1 6188 -1253772922 502846704 -1979520964 -670542280 136393754
        197168131 1075130617 -1897174270</internalNodes>
      <leafValues>
        -3.5133564472198486e-001 2.9098108410835266e-001</leafValues></_>
    <_>
      <internalNodes>
        0 -1 6767 1132712323 -930587896 -1878996975 -653714733
        -2095382262 -1977614320 -2146794928 89125035</internalNodes>
      <leafValues>
        -4.5099222660064697e-001 2.2950783371925354e-001</leafValues></_>
    <_>
      <internalNodes>
        0 -1 8960 -2086981373 -2145775614 17844758 -254099455
        -2147401711 562069504 -2138404704 -343277408</internalNodes>
      <leafValues>
        -4.8119124770164490e-001 2.3203460872173309e-001</leafValues></_>
    <_>
      <internalNodes>
        0 -1 1003 -354292336 2130702313 -268567555 -169038233 1609955317
        -1480589826 267763423 -2097378201</internalNodes>
      <leafValues>
        -2.9897907376289368e-001 3.7276363372802734e-001</leafValues></_>
    <_>
      <internalNodes>
        0 -1 4272 1346642048 -1189244850 285232151 -1395616239
        -1941239761 -1719615344 1774359438 723921689</internalNodes>
      <leafValues>
        -5.0058263540267944e-001 2.1991699934005737e-001</leafValues></_>
    <_>
      <internalNodes>
        0 -1 845 -1753873771 339197935 -1073951883 -1162331394
        -285459061 -1143320714 -1107550532 -910436919</internalNodes>
      <leafValues>
        -2.8677240014076233e-001 4.1029652953147888e-001</leafValues></_></weakClassifiers></stage14>
</opencv_storage>
