<?xml version="1.0"?>
<opencv_storage>
<stage3>
  <maxWeakCount>8</maxWeakCount>
  <stageThreshold>-1.8108202219009399e+000</stageThreshold>
  <weakClassifiers>
    <_>
      <internalNodes>
        0 -1 6421 -2371157 -879781750 -226176589 -3149605 -74712069
        -1987426262 -441797901 -67110913</internalNodes>
      <leafValues>
        -6.7847102880477905e-001 3.7342151999473572e-001</leafValues></_>
    <_>
      <internalNodes>
        0 -1 6696 1303369201 -40650982 -1747459589 -142344552 429904383
        -7607381 1389745563 -1886661205</internalNodes>
      <leafValues>
        -5.3016841411590576e-001 4.0035629272460938e-001</leafValues></_>
    <_>
      <internalNodes>
        0 -1 108 -263139626 -6821321 -1209012737 2046420839 -33817857
        -2666498 -2249729 2002061893</internalNodes>
      <leafValues>
        -5.4860150814056396e-001 3.6699226498603821e-001</leafValues></_>
    <_>
      <internalNodes>
        0 -1 8320 -5243021 -1884291144 -137 -104857611 -1476403209
        -2048917505 -168303131 -50334019</internalNodes>
      <leafValues>
        -3.9614889025688171e-001 4.7466680407524109e-001</leafValues></_>
    <_>
      <internalNodes>
        0 -1 3319 877935613 1023678908 492388344 434766234 2070174717
        496009465 1004348556 -1345540968</internalNodes>
      <leafValues>
        -4.7067144513130188e-001 4.0390238165855408e-001</leafValues></_>
    <_>
      <internalNodes>
        0 -1 4602 -945815766 -403715345 -176685534 -623937058 1409018743
        1224472579 1374648179 1172305663</internalNodes>
      <leafValues>
        -7.0895677804946899e-001 2.3201572895050049e-001</leafValues></_>
    <_>
      <internalNodes>
        0 -1 7095 685249304 -69975581 -1258172165 -543354402 -661965835
        -74932213 -341050631 -1090778576</internalNodes>
      <leafValues>
        -6.5425848960876465e-001 2.7978736162185669e-001</leafValues></_>
    <_>
      <internalNodes>
        0 -1 8933 -1550160989 -1349013333 17854932 -17059363 -385117677
        -670367614 -2087992332 -839126031</internalNodes>
      <leafValues>
        -5.0990569591522217e-001 3.1728398799896240e-001</leafValues></_></weakClassifiers></stage3>
</opencv_storage>
