<?xml version="1.0"?>
<opencv_storage>
<stage1>
  <maxWeakCount>7</maxWeakCount>
  <stageThreshold>-2.0870141983032227e+000</stageThreshold>
  <weakClassifiers>
    <_>
      <internalNodes>
        0 -1 3628 -134220301 -542115445 -706742273 -38797329 -740298313
        -335561777 -741608449 -812648529</internalNodes>
      <leafValues>
        -7.0413535833358765e-001 4.4404762983322144e-001</leafValues></_>
    <_>
      <internalNodes>
        0 -1 6101 8393461 -2420482 -251451907 -43698177 -1179979271
        -611839816 -1416053761 -1430516976</internalNodes>
      <leafValues>
        -6.3131779432296753e-001 4.2142415046691895e-001</leafValues></_>
    <_>
      <internalNodes>
        0 -1 7295 -10488917 -271596885 -868099726 -538978817 -625214801
        26083464 -778176521 -167772161</internalNodes>
      <leafValues>
        -5.5865734815597534e-001 5.0119471549987793e-001</leafValues></_>
    <_>
      <internalNodes>
        0 -1 2497 -327714 1031321052 -740742088 -1141327106 1875737071
        1016625915 1004343740 2147352063</internalNodes>
      <leafValues>
        -5.7512319087982178e-001 4.2344301939010620e-001</leafValues></_>
    <_>
      <internalNodes>
        0 -1 912 136359861 -539170349 -781132801 -101610063 -1147868161
        -6321479 -470168657 -1890251771</internalNodes>
      <leafValues>
        -4.7035428881645203e-001 4.8633274435997009e-001</leafValues></_>
    <_>
      <internalNodes>
        0 -1 6405 -336596213 -1559785245 -1038384784 -6307696 -317989901
        168394760 -108334859 -51391503</internalNodes>
      <leafValues>
        -4.8948645591735840e-001 4.4730749726295471e-001</leafValues></_>
    <_>
      <internalNodes>
        0 -1 924 1080087924 -2552449 1524489725 -438326233 -17994242
        -1614913410 -587207745 811599360</internalNodes>
      <leafValues>
        -6.5458583831787109e-001 3.1706655025482178e-001</leafValues></_></weakClassifiers></stage1>
</opencv_storage>
