<?xml version="1.0"?>
<opencv_storage>
<stage10>
  <maxWeakCount>13</maxWeakCount>
  <stageThreshold>-1.7167474031448364e+000</stageThreshold>
  <weakClassifiers>
    <_>
      <internalNodes>
        0 -1 3630 -574621705 -575742262 1359073791 -544744115 -593501197
        -20846421 1373049711 -1347683413</internalNodes>
      <leafValues>
        -6.4254611730575562e-001 4.5475423336029053e-002</leafValues></_>
    <_>
      <internalNodes>
        0 -1 6825 -2004365294 -812660534 -213265707 -8449842 -779443529
        -2146926592 -1597447263 -503323695</internalNodes>
      <leafValues>
        -4.6290296316146851e-001 2.4228519201278687e-001</leafValues></_>
    <_>
      <internalNodes>
        0 -1 6051 -154612276 2110235611 -33059569 595579933 -917517829
        -55951353 -1360122883 824652299</internalNodes>
      <leafValues>
        -4.6836426854133606e-001 2.4026465415954590e-001</leafValues></_>
    <_>
      <internalNodes>
        0 -1 8040 -2082475134 -276000638 1359167954 -2256303 -494228793
        -1417641856 -594877465 -201329949</internalNodes>
      <leafValues>
        -3.6163085699081421e-001 3.1878179311752319e-001</leafValues></_>
    <_>
      <internalNodes>
        0 -1 1799 1950643350 -679026831 1439537858 -636925077 343664697
        252538523 -384298356 1854607146</internalNodes>
      <leafValues>
        -4.6901121735572815e-001 2.6571854948997498e-001</leafValues></_>
    <_>
      <internalNodes>
        0 -1 6522 294650011 294130192 1476464861 -1856597611 1242568840
        -1191182184 -343895842 -8125816</internalNodes>
      <leafValues>
        -3.6293679475784302e-001 3.1847840547561646e-001</leafValues></_>
    <_>
      <internalNodes>
        0 -1 652 -208146686 -1016241721 -1606265728 1003500206
        -695301594 1328470750 -149236768 1344274365</internalNodes>
      <leafValues>
        -6.3465702533721924e-001 1.5904334187507629e-001</leafValues></_>
    <_>
      <internalNodes>
        0 -1 968 -1438340368 -57417337 318896543 -1248444283 -1978960973
        -98330449 -1718671121 1816463956</internalNodes>
      <leafValues>
        -5.3698635101318359e-001 2.1234104037284851e-001</leafValues></_>
    <_>
      <internalNodes>
        0 -1 136 -217691893 -141502330 -1806438069 -881606468 1796043159
        -628827510 -909047843 -1067368225</internalNodes>
      <leafValues>
        -3.4408441185951233e-001 3.2612264156341553e-001</leafValues></_>
    <_>
      <internalNodes>
        0 -1 4686 -1738945798 -1869286592 -989715172 -1611517744
        -1195291447 988399650 463165977 1839092439</internalNodes>
      <leafValues>
        -4.5326539874076843e-001 2.3573873937129974e-001</leafValues></_>
    <_>
      <internalNodes>
        0 -1 9078 -2088516746 -1484535808 1073824724 -65880000
        -2020869598 -385286014 -2121747755 -61873418</internalNodes>
      <leafValues>
        -3.8150376081466675e-001 2.8237634897232056e-001</leafValues></_>
    <_>
      <internalNodes>
        0 -1 8420 506608381 1465323849 -2096873309 -175763055 411043983
        680231062 -1970650130 -1414004472</internalNodes>
      <leafValues>
        -3.4438413381576538e-001 3.1316050887107849e-001</leafValues></_>
    <_>
      <internalNodes>
        0 -1 8296 1032000291 -1365274496 -1862253949 -962936622
        -1962905541 168460417 -661950223 -287403872</internalNodes>
      <leafValues>
        -5.5593246221542358e-001 1.9156482815742493e-001</leafValues></_></weakClassifiers></stage10>
</opencv_storage>
