<?xml version="1.0"?>
<opencv_storage>
<stage8>
  <maxWeakCount>12</maxWeakCount>
  <stageThreshold>-1.8064464330673218e+000</stageThreshold>
  <weakClassifiers>
    <_>
      <internalNodes>
        0 -1 8592 -2359601 -821837537 -754869806 -611348019 -710676261
        -1056208677 -1751009357 -136317953</internalNodes>
      <leafValues>
        -7.0107930898666382e-001 -4.3827611953020096e-003</leafValues></_>
    <_>
      <internalNodes>
        0 -1 1023 -25759874 -673911905 -107020289 -587275847 -213026453
        -5623573 -3985473 2135911455</internalNodes>
      <leafValues>
        -5.0285500288009644e-001 2.4710732698440552e-001</leafValues></_>
    <_>
      <internalNodes>
        0 -1 5841 -273685077 -269500511 -131471 -135041229 -276840465
        -1988100097 -973154825 -134238209</internalNodes>
      <leafValues>
        -3.0631673336029053e-001 4.3595892190933228e-001</leafValues></_>
    <_>
      <internalNodes>
        0 -1 4783 305668351 297058192 1006451389 968146488 226235564
        -53084169 1073683608 -40088928</internalNodes>
      <leafValues>
        -3.1768384575843811e-001 3.6956790089607239e-001</leafValues></_>
    <_>
      <internalNodes>
        0 -1 6814 -403701870 -1383071838 -1050633 -541868123 -545783873
        -1931476994 -704645710 -907020801</internalNodes>
      <leafValues>
        -3.2876527309417725e-001 3.8571092486381531e-001</leafValues></_>
    <_>
      <internalNodes>
        0 -1 7079 210507260 -111341365 -1844506209 2139918553
        -1174326599 -82149224 -73880867 -1130349260</internalNodes>
      <leafValues>
        -4.8102274537086487e-001 2.5346311926841736e-001</leafValues></_>
    <_>
      <internalNodes>
        0 -1 2302 -221780190 1498376458 43515954 644323343 1122520769
        1141611403 1078289629 1441947639</internalNodes>
      <leafValues>
        -6.5817105770111084e-001 1.7583394050598145e-001</leafValues></_>
    <_>
      <internalNodes>
        0 -1 5310 -1209602309 871944431 1896924364 -1621224274
        1006524624 1049473707 1872448028 -4198686</internalNodes>
      <leafValues>
        -3.9080926775932312e-001 2.7584877610206604e-001</leafValues></_>
    <_>
      <internalNodes>
        0 -1 1244 1789390591 -143982658 -269488145 -856068 -310546465
        -176881673 -34132210 -336101962</internalNodes>
      <leafValues>
        -2.6022058725357056e-001 4.3124026060104370e-001</leafValues></_>
    <_>
      <internalNodes>
        0 -1 3745 -1885914313 -1483013942 -754871869 -286109356
        -1156900565 -897054591 -612107435 -860978316</internalNodes>
      <leafValues>
        -5.2470582723617554e-001 2.1552725136280060e-001</leafValues></_>
    <_>
      <internalNodes>
        0 -1 3588 1149653024 -827082426 -1823421824 -1394091317
        -793934809 952746671 1906162538 210395435</internalNodes>
      <leafValues>
        -6.6579824686050415e-001 1.8024662137031555e-001</leafValues></_>
    <_>
      <internalNodes>
        0 -1 8060 -1949312077 -830340989 268682705 -556023587 -527788504
        657410 -754748941 -508567136</internalNodes>
      <leafValues>
        -4.8347562551498413e-001 2.2919401526451111e-001</leafValues></_></weakClassifiers></stage8>
</opencv_storage>
