<?xml version="1.0"?>
<opencv_storage>
<stage13>
  <maxWeakCount>16</maxWeakCount>
  <stageThreshold>-1.5497375726699829e+000</stageThreshold>
  <weakClassifiers>
    <_>
      <internalNodes>
        0 -1 1205 1456917503 -783090785 -385771043 -576793250 2137747711
        -209682288 -74814801 -572673</internalNodes>
      <leafValues>
        -6.1900943517684937e-001 4.3219074606895447e-002</leafValues></_>
    <_>
      <internalNodes>
        0 -1 6405 -103818785 -485556022 -178794288 -67169037 -896954214
        134480008 -779382554 -35671317</internalNodes>
      <leafValues>
        -3.6692067980766296e-001 3.2098525762557983e-001</leafValues></_>
    <_>
      <internalNodes>
        0 -1 8852 -1075839043 -1786265021 -1878929343 -1726840109
        -1043345011 -1744650238 -532585911 -1110583275</internalNodes>
      <leafValues>
        -4.1411411762237549e-001 2.4655395746231079e-001</leafValues></_>
    <_>
      <internalNodes>
        0 -1 2339 -1617975666 2113639614 1369584944 -862784537
        -1415627988 1010321554 1062933647 477927423</internalNodes>
      <leafValues>
        -4.9386230111122131e-001 1.9993875920772552e-001</leafValues></_>
    <_>
      <internalNodes>
        0 -1 920 4198448 -1378348844 -914357931 1564803329 721973474
        -184023888 722049386 1218189516</internalNodes>
      <leafValues>
        -3.2996234297752380e-001 3.1486591696739197e-001</leafValues></_>
    <_>
      <internalNodes>
        0 -1 593 -1123096508 -1010517558 33163649 -1157431164
        -1186861872 531693705 1061182433 1639448445</internalNodes>
      <leafValues>
        -4.4120603799819946e-001 2.0709240436553955e-001</leafValues></_>
    <_>
      <internalNodes>
        0 -1 7659 731198242 -2013101944 1343295632 -429948582
        -2138398713 184549512 -259266123 -2063927055</internalNodes>
      <leafValues>
        -5.9603029489517212e-001 1.5237586200237274e-001</leafValues></_>
    <_>
      <internalNodes>
        0 -1 1713 1033636832 512622607 956389724 -1642429566 1250449880
        1879638146 -1148573668 311300462</internalNodes>
      <leafValues>
        -5.1423364877700806e-001 1.6515043377876282e-001</leafValues></_>
    <_>
      <internalNodes>
        0 -1 7594 1078875557 111132767 -738110703 -28970977 -251063297
        1694140824 -212746526 105905131</internalNodes>
      <leafValues>
        -4.1440048813819885e-001 2.3339447379112244e-001</leafValues></_>
    <_>
      <internalNodes>
        0 -1 6452 668154336 -1078697452 -1793978276 -1080112372 65167933
        718410495 1259607517 561387576</internalNodes>
      <leafValues>
        -4.9050325155258179e-001 1.8286050856113434e-001</leafValues></_>
    <_>
      <internalNodes>
        0 -1 315 -1795500976 -671055573 -1861958357 151369985 1889236484
        1739197981 -1052767222 1158369799</internalNodes>
      <leafValues>
        -6.0220956802368164e-001 1.5937183797359467e-001</leafValues></_>
    <_>
      <internalNodes>
        0 -1 5513 610276052 -1333739377 1342210049 -1856208741
        -2113679222 -1467875286 -754898759 -1413989563</internalNodes>
      <leafValues>
        -5.9945571422576904e-001 1.4271382987499237e-001</leafValues></_>
    <_>
      <internalNodes>
        0 -1 81 -696235038 -1607060789 1476642879 1636346160 1910504343
        -628784629 2080648188 1625378501</internalNodes>
      <leafValues>
        -4.4522574543952942e-001 2.0178766548633575e-001</leafValues></_>
    <_>
      <internalNodes>
        0 -1 4153 1978398794 -1054770665 -1342058150 -1987739119
        -716156859 1476935686 -335928821 1403864987</internalNodes>
      <leafValues>
        -4.0657913684844971e-001 2.3347139358520508e-001</leafValues></_>
    <_>
      <internalNodes>
        0 -1 660 -2124462029 38506711 1887518803 -870788965 679678562
        831160448 1175085137 -127991771</internalNodes>
      <leafValues>
        -5.1857388019561768e-001 1.6398194432258606e-001</leafValues></_>
    <_>
      <internalNodes>
        0 -1 5144 572703522 -414756221 -1853869073 -1176633139 942340327
        -1073635184 -1861513035 -2134093088</internalNodes>
      <leafValues>
        -4.6751832962036133e-001 2.0975911617279053e-001</leafValues></_></weakClassifiers></stage13>
</opencv_storage>
