<?xml version="1.0"?>
<opencv_storage>
<cascade>
  <stageType>BOOST</stageType>
  <featureType>LBP</featureType>
  <height>30</height>
  <width>20</width>
  <stageParams>
    <boostType>GAB</boostType>
    <minHitRate>9.9500000476837158e-001</minHitRate>
    <maxFalseAlarm>5.0000000000000000e-001</maxFalseAlarm>
    <weightTrimRate>9.4999999999999996e-001</weightTrimRate>
    <maxDepth>1</maxDepth>
    <maxWeakCount>100</maxWeakCount></stageParams>
  <featureParams>
    <maxCatCount>256</maxCatCount>
    <featSize>1</featSize></featureParams>
  <stageNum>15</stageNum>
  <stages>
    <!-- stage 0 -->
    <_>
      <maxWeakCount>5</maxWeakCount>
      <stageThreshold>-2.1071770191192627e+000</stageThreshold>
      <weakClassifiers>
        <_>
          <internalNodes>
            0 -1 131 -1113915393 -1143022608 -237906465 -6303523
            -1148536065 -1163198077 -74712067 -6350340</internalNodes>
          <leafValues>
            -7.2007507085800171e-001 5.0179642438888550e-001</leafValues></_>
        <_>
          <internalNodes>
            0 -1 98 -1661987627 -7339941 -788065089 -201387781
            -360006919 -1180008261 -73757957 -1095234992</internalNodes>
          <leafValues>
            -6.6371572017669678e-001 4.9222326278686523e-001</leafValues></_>
        <_>
          <internalNodes>
            0 -1 79 -496511930 1896086343 -45101441 -94176290 -4199733
            -14165381 -1260401969 572781383</internalNodes>
          <leafValues>
            -6.7574489116668701e-001 4.2744231224060059e-001</leafValues></_>
        <_>
          <internalNodes>
            0 -1 97 605036784 459031000 -1853498883 -107183884 27406590
            -92110823 -1142389859 -1987573728</internalNodes>
          <leafValues>
            -6.3590133190155029e-001 4.2711973190307617e-001</leafValues></_>
        <_>
          <internalNodes>
            0 -1 9 -2107948 -1252533999 -677851936 -1909468673
            -794921024 -107364142 -656983809 158332927</internalNodes>
          <leafValues>
            -5.6767892837524414e-001 4.5796531438827515e-001</leafValues></_></weakClassifiers></_>
    <!-- stage 1 -->
    <_>
      <maxWeakCount>6</maxWeakCount>
      <stageThreshold>-1.6208419799804687e+000</stageThreshold>
      <weakClassifiers>
        <_>
          <internalNodes>
            0 -1 141 -1077939265 -1344302655 -216802825 -69233710
            -1130638593 -2136375101 -1731464715 -4195847</internalNodes>
          <leafValues>
            -7.4974650144577026e-001 3.3687773346900940e-001</leafValues></_>
        <_>
          <internalNodes>
            0 -1 51 1007959261 1073510381 1029128191 -1143077766
            1230269693 -33806102 -1077410883 -1074000728</internalNodes>
          <leafValues>
            -6.3257998228073120e-001 3.9301496744155884e-001</leafValues></_>
        <_>
          <internalNodes>
            0 -1 144 -26253729 643811418 -1006513666 -523189794
            -477402366 2139848704 -83116840 -83891462</internalNodes>
          <leafValues>
            -5.7371687889099121e-001 4.2273971438407898e-001</leafValues></_>
        <_>
          <internalNodes>
            0 -1 54 -699404722 -15207625 -256704769 -8422537 -271058194
            1795929879 -536879410 1913905666</internalNodes>
          <leafValues>
            -6.1506193876266479e-001 3.8997301459312439e-001</leafValues></_>
        <_>
          <internalNodes>
            0 -1 108 1044910296 -78626614 1905269151 -93733 -76956951
            -1044379000 -89394497 -72611332</internalNodes>
          <leafValues>
            -5.2334403991699219e-001 4.6671980619430542e-001</leafValues></_>
        <_>
          <internalNodes>
            0 -1 89 -3148396 -1726158635 -1945876040 151000063
            -839412496 501809297 -1181914952 -603991041</internalNodes>
          <leafValues>
            -5.0543665885925293e-001 4.6857246756553650e-001</leafValues></_></weakClassifiers></_>
    <!-- stage 2 -->
    <_>
      <maxWeakCount>7</maxWeakCount>
      <stageThreshold>-1.5156209468841553e+000</stageThreshold>
      <weakClassifiers>
        <_>
          <internalNodes>
            0 -1 113 -1 -1073815300 1541363708 -536904740 1004459007
            518554619 966334973 -3</internalNodes>
          <leafValues>
            -7.1783387660980225e-001 2.5191572308540344e-001</leafValues></_>
        <_>
          <internalNodes>
            0 -1 5 -734986506 -8406845 -669648385 -33609969 -1092633089
            -5645761 -2622721 1685401351</internalNodes>
          <leafValues>
            -6.1734747886657715e-001 3.7110787630081177e-001</leafValues></_>
        <_>
          <internalNodes>
            0 -1 111 -1063320985 -1571298475 -32254977 -530951465
            -107855243 -58032128 -92212492 -21325057</internalNodes>
          <leafValues>
            -5.8602988719940186e-001 3.6153599619865417e-001</leafValues></_>
        <_>
          <internalNodes>
            0 -1 96 630200693 -1078181861 -1207348737 -2170375
            -930596396 -232095598 -1952678929 -1075307336</internalNodes>
          <leafValues>
            -6.2865775823593140e-001 3.5835194587707520e-001</leafValues></_>
        <_>
          <internalNodes>
            0 -1 19 -2097340 -1141441413 -388432180 714002527 -509978816
            -211474111 -540194180 726662015</internalNodes>
          <leafValues>
            -6.6665589809417725e-001 3.0375120043754578e-001</leafValues></_>
        <_>
          <internalNodes>
            0 -1 130 -1275168783 -1932394096 -804138561 -136539956
            -1598820168 -1182690878 -1735706383 -1346496264</internalNodes>
          <leafValues>
            -5.1237660646438599e-001 3.8763329386711121e-001</leafValues></_>
        <_>
          <internalNodes>
            0 -1 87 -36702920 1356158004 41994890 92625399 -344247840
            292905104 624573327 1604039679</internalNodes>
          <leafValues>
            -6.0470223426818848e-001 3.1376007199287415e-001</leafValues></_></weakClassifiers></_>
    <!-- stage 3 -->
    <_>
      <maxWeakCount>8</maxWeakCount>
      <stageThreshold>-1.5924443006515503e+000</stageThreshold>
      <weakClassifiers>
        <_>
          <internalNodes>
            0 -1 45 -2097667 -3278895 285474719 1058930143 -100927028
            -33836860 -73403393 -257</internalNodes>
          <leafValues>
            -6.3487833738327026e-001 4.2001461982727051e-001</leafValues></_>
        <_>
          <internalNodes>
            0 -1 129 -1147667461 -1431772800 -1861103147 -73478000
            957609951 -1731690358 -753184267 -4216612</internalNodes>
          <leafValues>
            -5.0533801317214966e-001 3.9873608946800232e-001</leafValues></_>
        <_>
          <internalNodes>
            0 -1 81 1010308373 -536997673 293704565 -3239501 -1156006913
            -1416042357 -1145001285 -1197473148</internalNodes>
          <leafValues>
            -4.4434863328933716e-001 4.4002139568328857e-001</leafValues></_>
        <_>
          <internalNodes>
            0 -1 106 792998781 -1090236163 -784116749 -10616744
            -1141216279 -90668928 -1333124099 -1090772564</internalNodes>
          <leafValues>
            -6.1771607398986816e-001 3.0290719866752625e-001</leafValues></_>
        <_>
          <internalNodes>
            0 -1 83 -4197666 1098334294 -1576871752 552506703 -175550328
            70865183 2031006958 2136997367</internalNodes>
          <leafValues>
            -5.1584929227828979e-001 3.9179021120071411e-001</leafValues></_>
        <_>
          <internalNodes>
            0 -1 124 -137404055 -1374185425 -1877749351 -395851317
            -74732957 -1431896062 -74785819 -16779049</internalNodes>
          <leafValues>
            -4.7673803567886353e-001 3.6241888999938965e-001</leafValues></_>
        <_>
          <internalNodes>
            0 -1 138 60439295 -1291142520 -209628727 -2248260 1066101407
            -1148903278 974066429 -44612</internalNodes>
          <leafValues>
            -4.1698366403579712e-001 4.3431162834167480e-001</leafValues></_>
        <_>
          <internalNodes>
            0 -1 145 -305436410 248701147 -795749230 -493036645
            -100515840 1476624426 -91489376 -16846594</internalNodes>
          <leafValues>
            -6.0858029127120972e-001 2.8374242782592773e-001</leafValues></_></weakClassifiers></_>
    <!-- stage 4 -->
    <_>
      <maxWeakCount>10</maxWeakCount>
      <stageThreshold>-1.5924254655838013e+000</stageThreshold>
      <weakClassifiers>
        <_>
          <internalNodes>
            0 -1 12 -2097153 -3622914 -132641 -2097257 -83911681
            -69625096 2147287547 -65</internalNodes>
          <leafValues>
            -6.0882955789566040e-001 4.8269894719123840e-001</leafValues></_>
        <_>
          <internalNodes>
            0 -1 24 -1440701455 -351235 -1625591425 -2258607 -75514883
            -270804239 -73811971 -1410005983</internalNodes>
          <leafValues>
            -4.7867265343666077e-001 4.0620023012161255e-001</leafValues></_>
        <_>
          <internalNodes>
            0 -1 68 -134218252 496255852 -603915265 386197375 -488992
            -84195112 1713451752 1073734635</internalNodes>
          <leafValues>
            -5.4729533195495605e-001 3.2715249061584473e-001</leafValues></_>
        <_>
          <internalNodes>
            0 -1 135 -69469201 1944048839 -732728866 -220737318
            -1551239162 1394786577 -73751553 -135799825</internalNodes>
          <leafValues>
            -4.1480651497840881e-001 4.1133394837379456e-001</leafValues></_>
        <_>
          <internalNodes>
            0 -1 75 261890045 1025808116 84218205 -182599780 730463229
            -1356031512 352131324 1073483368</internalNodes>
          <leafValues>
            -5.5596566200256348e-001 3.1429263949394226e-001</leafValues></_>
        <_>
          <internalNodes>
            0 -1 1 1085720614 2119085415 -445649475 -50926237 -654574745
            -2097733 -268444308 1917281859</internalNodes>
          <leafValues>
            -6.5463227033615112e-001 2.0665383338928223e-001</leafValues></_>
        <_>
          <internalNodes>
            0 -1 77 486351921 -1245954899 1979626227 2105408893
            -1242458995 -305825872 -1216566337 -1125368088</internalNodes>
          <leafValues>
            -3.5587283968925476e-001 4.4169336557388306e-001</leafValues></_>
        <_>
          <internalNodes>
            0 -1 125 -1319071 -1527525385 -84934683 -928010332 -8390812
            -524297 -65583 -37775873</internalNodes>
          <leafValues>
            -3.7664496898651123e-001 4.3660467863082886e-001</leafValues></_>
        <_>
          <internalNodes>
            0 -1 57 -110383 -469836303 -264197 -1447043140 -20982299
            -84541441 1379564927 -1413753957</internalNodes>
          <leafValues>
            -3.7969365715980530e-001 4.0249985456466675e-001</leafValues></_>
        <_>
          <internalNodes>
            0 -1 41 -1415896097 -356584623 -754739745 -87254893
            -360049797 -32980862 2074291187 -268640143</internalNodes>
          <leafValues>
            -5.0417309999465942e-001 3.1009700894355774e-001</leafValues></_></weakClassifiers></_>
    <!-- stage 5 -->
    <_>
      <maxWeakCount>11</maxWeakCount>
      <stageThreshold>-1.5741107463836670e+000</stageThreshold>
      <weakClassifiers>
        <_>
          <internalNodes>
            0 -1 112 -1 -1080105478 1063088444 -43258148 234487295
            531561191 300749309 2113926143</internalNodes>
          <leafValues>
            -7.3931425809860229e-001 5.3975202143192291e-002</leafValues></_>
        <_>
          <internalNodes>
            0 -1 118 -1076431877 -170212200 -788319783 -36073228
            -1198607621 -1467465590 -1551123461 -1074062376</internalNodes>
          <leafValues>
            -4.0973204374313354e-001 4.3605956435203552e-001</leafValues></_>
        <_>
          <internalNodes>
            0 -1 133 -285745835 -2107561 -73940017 -201592481 -69211410
            -71329461 -2007500337 -2134718697</internalNodes>
          <leafValues>
            -3.8644742965698242e-001 4.1096138954162598e-001</leafValues></_>
        <_>
          <internalNodes>
            0 -1 110 -421836697 1884909592 -590228289 -218214309
            -477419520 -108404736 -87889155 -88149001</internalNodes>
          <leafValues>
            -3.9572569727897644e-001 3.6995810270309448e-001</leafValues></_>
        <_>
          <internalNodes>
            0 -1 44 -613171120 270155847 -1328767971 595318011
            -148898795 308957467 -1825875377 176126591</internalNodes>
          <leafValues>
            -5.5335772037506104e-001 2.9582744836807251e-001</leafValues></_>
        <_>
          <internalNodes>
            0 -1 22 1565318 1979578403 -564566641 -537145991 -1401951317
            -247475566 1107022830 1132193282</internalNodes>
          <leafValues>
            -5.3515946865081787e-001 2.6345068216323853e-001</leafValues></_>
        <_>
          <internalNodes>
            0 -1 33 1570076921 450638063 -1709647237 327685341
            1392251532 -74644760 -1726682371 -1088926186</internalNodes>
          <leafValues>
            -4.1452050209045410e-001 3.4585618972778320e-001</leafValues></_>
        <_>
          <internalNodes>
            0 -1 147 -1078725745 -1413267261 -720989700 -421562146
            -1152683438 63636104 -640943439 -50335500</internalNodes>
          <leafValues>
            -4.7857588529586792e-001 2.8659024834632874e-001</leafValues></_>
        <_>
          <internalNodes>
            0 -1 40 -1496680719 -352923445 -787410475 -18870053
            -125656147 -1391755136 -611649113 -1378344651</internalNodes>
          <leafValues>
            -5.0705188512802124e-001 2.8263881802558899e-001</leafValues></_>
        <_>
          <internalNodes>
            0 -1 86 2044198598 -1328358897 -1475509241 1377034751
            -637035579 -209500093 1645893727 1633155791</internalNodes>
          <leafValues>
            -4.8695167899131775e-001 2.7602559328079224e-001</leafValues></_>
        <_>
          <internalNodes>
            0 -1 119 840710885 -1075552124 -1790895114 1604104393
            730295019 -1165064063 558574557 -1681380816</internalNodes>
          <leafValues>
            -5.6072080135345459e-001 2.4288901686668396e-001</leafValues></_></weakClassifiers></_>
    <!-- stage 6 -->
    <_>
      <maxWeakCount>11</maxWeakCount>
      <stageThreshold>-1.6567102670669556e+000</stageThreshold>
      <weakClassifiers>
        <_>
          <internalNodes>
            0 -1 148 -1080036869 -1348217898 -788270667 -4204065
            -477368069 -1953840967 -225707851 -3587</internalNodes>
          <leafValues>
            -7.1305531263351440e-001 5.6414220482110977e-002</leafValues></_>
        <_>
          <internalNodes>
            0 -1 115 -1279262733 -1458645308 -922691374 -2715216
            999002757 -930606943 -1279270672 -71306824</internalNodes>
          <leafValues>
            -4.6890428662300110e-001 3.1907272338867188e-001</leafValues></_>
        <_>
          <internalNodes>
            0 -1 99 614205493 -81824134 -1862237313 -2289283 -1936176439
            -88600574 -87373061 -1158141084</internalNodes>
          <leafValues>
            -5.6476771831512451e-001 2.6521578431129456e-001</leafValues></_>
        <_>
          <internalNodes>
            0 -1 109 -70320658 1574256965 353554610 225185086 -403108520
            964388003 -500799240 2143289135</internalNodes>
          <leafValues>
            -4.7996339201927185e-001 3.4348586201667786e-001</leafValues></_>
        <_>
          <internalNodes>
            0 -1 26 -159911168 -10594202 -86796585 -359400321 1931938561
            -290655237 1662937359 6810239</internalNodes>
          <leafValues>
            -6.0257530212402344e-001 2.2525590658187866e-001</leafValues></_>
        <_>
          <internalNodes>
            0 -1 52 2104819189 527727540 805122045 1065303483 2094489085
            -1080500268 803539130 -1078098182</internalNodes>
          <leafValues>
            -3.4082347154617310e-001 4.3213820457458496e-001</leafValues></_>
        <_>
          <internalNodes>
            0 -1 2 -1488936459 -2708577 -242025057 -8879977 -1348476193
            -1344675661 -374925827 -440399036</internalNodes>
          <leafValues>
            -3.9508897066116333e-001 3.4712934494018555e-001</leafValues></_>
        <_>
          <internalNodes>
            0 -1 13 -84226310 -1986204836 -1247371334 -1080513602
            -5447687 -1312206966 2045187064 1532721743</internalNodes>
          <leafValues>
            -4.1927531361579895e-001 3.2529342174530029e-001</leafValues></_>
        <_>
          <internalNodes>
            0 -1 140 -29138161 1784403971 -805253044 -95170348
            1653252167 -1224507392 -1702130950 -225250534</internalNodes>
          <leafValues>
            -3.9782977104187012e-001 3.2346692681312561e-001</leafValues></_>
        <_>
          <internalNodes>
            0 -1 55 1311730248 1845983075 1285392057 -1722700034
            990117319 1866600980 1593673934 1377023506</internalNodes>
          <leafValues>
            -6.0990768671035767e-001 1.9818294048309326e-001</leafValues></_>
        <_>
          <internalNodes>
            0 -1 47 -1347536261 -1911684903 1610617239 -86486832
            -744918973 -494403432 -376702048 -16986896</internalNodes>
          <leafValues>
            -5.0957733392715454e-001 2.1415126323699951e-001</leafValues></_></weakClassifiers></_>
    <!-- stage 7 -->
    <_>
      <maxWeakCount>11</maxWeakCount>
      <stageThreshold>-1.4487550258636475e+000</stageThreshold>
      <weakClassifiers>
        <_>
          <internalNodes>
            0 -1 38 -69206017 -2097665 571855805 933222879 -2084
            -5253035 -4198401 -513</internalNodes>
          <leafValues>
            -5.9629499912261963e-001 3.2237872481346130e-001</leafValues></_>
        <_>
          <internalNodes>
            0 -1 136 -209977925 -1949314814 1359599058 -33846134
            -374682885 1267925162 1636488181 -739781633</internalNodes>
          <leafValues>
            -4.6686846017837524e-001 2.9919701814651489e-001</leafValues></_>
        <_>
          <internalNodes>
            0 -1 91 396374393 964743544 -651947811 -715912994 -628727622
            -1410791280 -1962538499 -74967416</internalNodes>
          <leafValues>
            -3.9210817217826843e-001 3.5366132855415344e-001</leafValues></_>
        <_>
          <internalNodes>
            0 -1 120 -210239376 -35757877 -217976421 -15216425 -74798593
            -1953963904 -91689992 -1430750855</internalNodes>
          <leafValues>
            -4.2793115973472595e-001 3.2063633203506470e-001</leafValues></_>
        <_>
          <internalNodes>
            0 -1 143 -16814209 1991671679 -285278473 -1091108869
            -318804130 -268959889 -16777988 -83959841</internalNodes>
          <leafValues>
            -3.2630401849746704e-001 4.1614142060279846e-001</leafValues></_>
        <_>
          <internalNodes>
            0 -1 124 -70305749 1781481501 1677848788 -1036271154
            -108268989 -1149005824 -91555104 -220204546</internalNodes>
          <leafValues>
            -4.4913035631179810e-001 2.7067637443542480e-001</leafValues></_>
        <_>
          <internalNodes>
            0 -1 20 -306251018 -929266460 -879244658 266166239
            -766103312 -1679084574 1797462883 -814781893</internalNodes>
          <leafValues>
            -4.2276608943939209e-001 2.9817193746566772e-001</leafValues></_>
        <_>
          <internalNodes>
            0 -1 154 -1074646801 -1717652910 1359073466 -1685249861
            -1693761319 -1886748544 839344365 -21074307</internalNodes>
          <leafValues>
            -4.5708301663398743e-001 2.6804462075233459e-001</leafValues></_>
        <_>
          <internalNodes>
            0 -1 6 -186453022 1205309927 -2134790913 -319850737
            -497696157 -210288045 -8807745 1122726431</internalNodes>
          <leafValues>
            -4.9092349410057068e-001 2.5568920373916626e-001</leafValues></_>
        <_>
          <internalNodes>
            0 -1 4 539163174 -714144665 -589663533 -1386451132
            -230102025 -227549447 -290239576 1693740551</internalNodes>
          <leafValues>
            -5.8416461944580078e-001 1.8625879287719727e-001</leafValues></_>
        <_>
          <internalNodes>
            0 -1 66 -1319438746 309918220 303114310 867562831 1514126529
            -1301057460 857430795 1702849119</internalNodes>
          <leafValues>
            -4.5689111948013306e-001 2.5233429670333862e-001</leafValues></_></weakClassifiers></_>
    <!-- stage 8 -->
    <_>
      <maxWeakCount>12</maxWeakCount>
      <stageThreshold>-1.4690088033676147e+000</stageThreshold>
      <weakClassifiers>
        <_>
          <internalNodes>
            0 -1 95 -1025 -2835684 -177910920 -6304292 -1081279489
            -1081503029 1070406399 -33</internalNodes>
          <leafValues>
            -6.1462777853012085e-001 1.9280843436717987e-001</leafValues></_>
        <_>
          <internalNodes>
            0 -1 8 -8389136 -25173089 -780019997 197887949 -491523996
            -1012182321 -8983573 800063463</internalNodes>
          <leafValues>
            -5.3467005491256714e-001 2.1789258718490601e-001</leafValues></_>
        <_>
          <internalNodes>
            0 -1 127 1072692695 -1414922222 319017457 -560016976
            682312227 193527947 1222849009 -855914088</internalNodes>
          <leafValues>
            -5.1257759332656860e-001 2.4371653795242310e-001</leafValues></_>
        <_>
          <internalNodes>
            0 -1 107 -732689380 -627236071 -703505673 -1253207073
            -1182077971 -324329246 -1627210050 -1204278525</internalNodes>
          <leafValues>
            -3.9901718497276306e-001 3.3850002288818359e-001</leafValues></_>
        <_>
          <internalNodes>
            0 -1 116 442019769 -1080250184 88561629 369070556
            -1494159653 -2000774227 939030989 265169245</internalNodes>
          <leafValues>
            -5.0243657827377319e-001 2.5656715035438538e-001</leafValues></_>
        <_>
          <internalNodes>
            0 -1 102 -272241564 1381458241 690511626 563525419
            -459704064 538132482 -1970705777 1395392359</internalNodes>
          <leafValues>
            -5.7101362943649292e-001 2.0705537497997284e-001</leafValues></_>
        <_>
          <internalNodes>
            0 -1 36 -1458902617 -825143206 -780019222 -556625840
            -510958870 -1022754678 -1417520378 -121902732</internalNodes>
          <leafValues>
            -4.1593107581138611e-001 2.9145309329032898e-001</leafValues></_>
        <_>
          <internalNodes>
            0 -1 85 -732699966 1613822494 -704258044 -768541978
            -753052451 587399605 1179470862 1332734695</internalNodes>
          <leafValues>
            -5.2368897199630737e-001 2.2542023658752441e-001</leafValues></_>
        <_>
          <internalNodes>
            0 -1 72 -1362611787 1338937475 -1795039033 -171458105
            -1949834613 -83656566 1115792047 -1351913103</internalNodes>
          <leafValues>
            -4.9222812056541443e-001 2.2394673526287079e-001</leafValues></_>
        <_>
          <internalNodes>
            0 -1 76 278419924 1384538269 -1069427493 -1776398113
            -1547662964 -1316814712 -654300676 -1146217949</internalNodes>
          <leafValues>
            -4.0057998895645142e-001 3.0765220522880554e-001</leafValues></_>
        <_>
          <internalNodes>
            0 -1 103 -133231819 856375897 -805220007 -1488512915
            -1165272120 -905338878 -364489506 -1432724937</internalNodes>
          <leafValues>
            -3.9664065837860107e-001 3.0800512433052063e-001</leafValues></_>
        <_>
          <internalNodes>
            0 -1 121 -1075103683 -1374961522 -804535918 -194080749
            -371586989 134972042 -787750799 -23135564</internalNodes>
          <leafValues>
            -4.8342087864875793e-001 2.3901978135108948e-001</leafValues></_></weakClassifiers></_>
    <!-- stage 9 -->
    <_>
      <maxWeakCount>12</maxWeakCount>
      <stageThreshold>-1.6046650409698486e+000</stageThreshold>
      <weakClassifiers>
        <_>
          <internalNodes>
            0 -1 39 1610184703 2107331801 -1862190657 924713434
            2064407486 -610758230 -108270593 -266498</internalNodes>
          <leafValues>
            -6.2736308574676514e-001 1.1717496067285538e-001</leafValues></_>
        <_>
          <internalNodes>
            0 -1 122 -5126705 1935405179 -1994943286 1390270936
            -82204602 1027833857 -1198801234 -206833477</internalNodes>
          <leafValues>
            -4.6387225389480591e-001 2.6013588905334473e-001</leafValues></_>
        <_>
          <internalNodes>
            0 -1 16 -1440550128 -606667440 -716967485 -169922829
            -149294081 -7411044 -1008504901 143458388</internalNodes>
          <leafValues>
            -4.7481256723403931e-001 2.6623815298080444e-001</leafValues></_>
        <_>
          <internalNodes>
            0 -1 73 -1327495164 1898752831 -586588193 -77907333
            -1277691724 -1617295335 -41042019 537153309</internalNodes>
          <leafValues>
            -6.3001835346221924e-001 1.8443231284618378e-001</leafValues></_>
        <_>
          <internalNodes>
            0 -1 128 -1147217699 -1751330496 -1052671919 -821104616
            932180383 -1828075515 186270953 -1092657923</internalNodes>
          <leafValues>
            -4.5127394795417786e-001 2.6972326636314392e-001</leafValues></_>
        <_>
          <internalNodes>
            0 -1 80 1809311438 -29254817 -673200401 172422684 -241436729
            2064863513 -669284146 1394864726</internalNodes>
          <leafValues>
            -4.7159829735755920e-001 2.6397645473480225e-001</leafValues></_>
        <_>
          <internalNodes>
            0 -1 0 -530422249 -298278183 1360485137 -32110034 -247267623
            -611016023 -902808357 -296457178</internalNodes>
          <leafValues>
            -3.8988739252090454e-001 2.9705542325973511e-001</leafValues></_>
        <_>
          <internalNodes>
            0 -1 153 -1524963629 -1784893220 -805218913 -1512500260
            -1868797311 671813635 704652185 328694129</internalNodes>
          <leafValues>
            -5.3917688131332397e-001 2.1771720051765442e-001</leafValues></_>
        <_>
          <internalNodes>
            0 -1 65 -2071065802 -492912501 1359036880 -539754288
            -1362533493 -1986428925 -359966480 -335920560</internalNodes>
          <leafValues>
            -4.8662236332893372e-001 2.2720710933208466e-001</leafValues></_>
        <_>
          <internalNodes>
            0 -1 61 -190852876 1410875469 -761595490 495916485
            -1400972312 -41170486 442514410 459504983</internalNodes>
          <leafValues>
            -4.4338965415954590e-001 2.7738019824028015e-001</leafValues></_>
        <_>
          <internalNodes>
            0 -1 25 -832604148 -1805467431 708903483 -2107127146
            -45843643 -10904973 -2067150261 578813551</internalNodes>
          <leafValues>
            -5.8734440803527832e-001 2.0568992197513580e-001</leafValues></_>
        <_>
          <internalNodes>
            0 -1 149 645922973 -1155480959 -799948463 -544976683
            -746106198 -628457344 -1065131307 -640650024</internalNodes>
          <leafValues>
            -4.7139388322830200e-001 2.3041303455829620e-001</leafValues></_></weakClassifiers></_>
    <!-- stage 10 -->
    <_>
      <maxWeakCount>12</maxWeakCount>
      <stageThreshold>-1.4130328893661499e+000</stageThreshold>
      <weakClassifiers>
        <_>
          <internalNodes>
            0 -1 59 -203426829 -773876737 -540157011 -745677905
            -203432973 -206630515 -611337270 -540017169</internalNodes>
          <leafValues>
            -5.8946251869201660e-001 2.4851191043853760e-001</leafValues></_>
        <_>
          <internalNodes>
            0 -1 32 -614586913 2077317599 -1860826274 524821719
            -1057076484 1535854752 -1089798152 1004428235</internalNodes>
          <leafValues>
            -4.5801615715026855e-001 2.6236051321029663e-001</leafValues></_>
        <_>
          <internalNodes>
            0 -1 137 -1282674533 -1448685478 -250482188 -544255792
            453767819 260997256 546001313 -905973592</internalNodes>
          <leafValues>
            -4.2859718203544617e-001 2.8226202726364136e-001</leafValues></_>
        <_>
          <internalNodes>
            0 -1 70 12587544 -539139845 -987974465 -1621262369
            2105797375 -4414559 -226371181 -1358951648</internalNodes>
          <leafValues>
            -4.1708812117576599e-001 2.8608381748199463e-001</leafValues></_>
        <_>
          <internalNodes>
            0 -1 28 -247212560 76442148 498767229 12294531 -715233728
            216207681 418468724 764149535</internalNodes>
          <leafValues>
            -6.2853604555130005e-001 2.0083138346672058e-001</leafValues></_>
        <_>
          <internalNodes>
            0 -1 11 -260378934 -540145175 1905657854 -271643614
            -1342049865 -1484416945 -978318977 2146659079</internalNodes>
          <leafValues>
            -3.6510896682739258e-001 3.1844568252563477e-001</leafValues></_>
        <_>
          <internalNodes>
            0 -1 117 -343211410 684654680 268550360 38984925 -91550719
            1593901056 -122959124 -21824587</internalNodes>
          <leafValues>
            -5.2261495590209961e-001 2.1583069860935211e-001</leafValues></_>
        <_>
          <internalNodes>
            0 -1 74 -154141618 509042186 542366255 869959767 -806519868
            38578432 -1976534758 872536857</internalNodes>
          <leafValues>
            -4.9598422646522522e-001 2.5011819601058960e-001</leafValues></_>
        <_>
          <internalNodes>
            0 -1 34 1758462896 -1124795593 1540517727 1165264376
            -75297795 -541785943 -568556579 138685252</internalNodes>
          <leafValues>
            -5.7588231563568115e-001 1.8410274386405945e-001</leafValues></_>
        <_>
          <internalNodes>
            0 -1 43 -1367209768 -830320486 -1052540687 -539094332
            -1602213720 -1550974846 -1147441669 -538029968</internalNodes>
          <leafValues>
            -3.6243167519569397e-001 3.1504315137863159e-001</leafValues></_>
        <_>
          <internalNodes>
            0 -1 151 -359238601 -1044188856 1094746527 -45981505
            -1157021636 1124769920 -133669969 -822191609</internalNodes>
          <leafValues>
            -3.8108959794044495e-001 3.0281084775924683e-001</leafValues></_>
        <_>
          <internalNodes>
            0 -1 139 -498087125 -1576623974 32981 -535408558 839442768
            146833408 -1316310303 -186915918</internalNodes>
          <leafValues>
            -4.4336017966270447e-001 2.4914671480655670e-001</leafValues></_></weakClassifiers></_>
    <!-- stage 11 -->
    <_>
      <maxWeakCount>14</maxWeakCount>
      <stageThreshold>-1.4291292428970337e+000</stageThreshold>
      <weakClassifiers>
        <_>
          <internalNodes>
            0 -1 30 -1180161 -581370081 1343094669 1594751967
            -1073762056 -1241575289 -1125178625 -65</internalNodes>
          <leafValues>
            -6.1258339881896973e-001 1.2136752158403397e-001</leafValues></_>
        <_>
          <internalNodes>
            0 -1 48 -203470625 -750747430 1895940317 839045277
            -1425385424 -393510704 -762691366 -1147524109</internalNodes>
          <leafValues>
            -4.1776630282402039e-001 2.9479157924652100e-001</leafValues></_>
        <_>
          <internalNodes>
            0 -1 134 -606180511 -1384131826 -728739489 -1547188387
            -261163617 -176119606 -470692127 -2143034765</internalNodes>
          <leafValues>
            -3.8853231072425842e-001 3.1700009107589722e-001</leafValues></_>
        <_>
          <internalNodes>
            0 -1 77 275848185 -67290050 1975496757 2105408828 -43460978
            -858851536 -679611457 -1200604152</internalNodes>
          <leafValues>
            -2.7968123555183411e-001 4.0033969283103943e-001</leafValues></_>
        <_>
          <internalNodes>
            0 -1 123 -660276753 1832980551 1615906268 839221725
            1267448386 991133704 -1685903175 -215512609</internalNodes>
          <leafValues>
            -3.6707913875579834e-001 3.3651146292686462e-001</leafValues></_>
        <_>
          <internalNodes>
            0 -1 62 1393355260 -1087630908 1225273969 -15598641
            -109184514 -1349982120 392650942 496714718</internalNodes>
          <leafValues>
            -3.9903762936592102e-001 2.7055841684341431e-001</leafValues></_>
        <_>
          <internalNodes>
            0 -1 101 -1429267197 -1908076152 1091686805 -209088255
            -661917262 -1442709374 -712007435 -355597887</internalNodes>
          <leafValues>
            -3.4344574809074402e-001 3.2462909817695618e-001</leafValues></_>
        <_>
          <internalNodes>
            0 -1 27 -181927953 -72464654 202161516 -292962641 -3865
            926836715 -1418798597 -806420865</internalNodes>
          <leafValues>
            -2.6121538877487183e-001 4.6230289340019226e-001</leafValues></_>
        <_>
          <internalNodes>
            0 -1 29 1372582786 1939321104 134557963 704593992 -120195692
            -202026988 487186525 1802992464</internalNodes>
          <leafValues>
            -4.4205784797668457e-001 2.3763960599899292e-001</leafValues></_>
        <_>
          <internalNodes>
            0 -1 15 1375955155 -607977450 -1140761594 392040466
            310920568 -242677735 -1157510920 -578996258</internalNodes>
          <leafValues>
            -3.1180554628372192e-001 3.5654097795486450e-001</leafValues></_>
        <_>
          <internalNodes>
            0 -1 42 -1436871885 -489762670 -1879043847 -834518976
            1669923434 1099432064 1670084659 -3214940</internalNodes>
          <leafValues>
            -5.1695340871810913e-001 2.1970210969448090e-001</leafValues></_>
        <_>
          <internalNodes>
            0 -1 105 -1146068300 -1585299432 1360056541 -610447333
            -1417496088 -1174372222 8606189 -1142011528</internalNodes>
          <leafValues>
            -3.9143392443656921e-001 2.8242194652557373e-001</leafValues></_>
        <_>
          <internalNodes>
            0 -1 78 6004422 -767906952 1558573906 -17124066 -704839225
            1561272418 -1969501741 1645670466</internalNodes>
          <leafValues>
            -5.7288044691085815e-001 1.8683955073356628e-001</leafValues></_>
        <_>
          <internalNodes>
            0 -1 92 -8913961 -223286754 -46063 152174116 -243837171
            -1170216969 1933528591 -2085665554</internalNodes>
          <leafValues>
            -2.8833222389221191e-001 3.9681518077850342e-001</leafValues></_></weakClassifiers></_>
    <!-- stage 12 -->
    <_>
      <maxWeakCount>12</maxWeakCount>
      <stageThreshold>-1.4016839265823364e+000</stageThreshold>
      <weakClassifiers>
        <_>
          <internalNodes>
            0 -1 90 -6817281 -718613604 -1878685364 -34352131 990896383
            424200834 36583675 -4194317</internalNodes>
          <leafValues>
            -6.2806749343872070e-001 1.5470851957798004e-001</leafValues></_>
        <_>
          <internalNodes>
            0 -1 53 -2065944139 -572587480 -1726867235 -34225259
            -611865863 -1074229080 -323215463 -1658582272</internalNodes>
          <leafValues>
            -4.4199010729789734e-001 3.0289575457572937e-001</leafValues></_>
        <_>
          <internalNodes>
            0 -1 7 2010828864 -16385025 386714879 -1549141089 -80674464
            -1817450024 -573613370 260830207</internalNodes>
          <leafValues>
            -5.2036136388778687e-001 2.5664710998535156e-001</leafValues></_>
        <_>
          <internalNodes>
            0 -1 142 -1417485430 -1928724340 1094867024 -578338532
            -1593640781 -2138554232 -360046096 -1483771207</internalNodes>
          <leafValues>
            -4.2330345511436462e-001 2.9644298553466797e-001</leafValues></_>
        <_>
          <internalNodes>
            0 -1 88 -890312604 307270487 67354831 43177819 -187793144
            -1874640553 -1966995442 570946555</internalNodes>
          <leafValues>
            -5.3722864389419556e-001 2.4025313556194305e-001</leafValues></_>
        <_>
          <internalNodes>
            0 -1 67 -6633291 806392271 -779268010 -1735208436 600465113
            -1081491440 -651470371 -1433707665</internalNodes>
          <leafValues>
            -3.5472050309181213e-001 3.5167604684829712e-001</leafValues></_>
        <_>
          <internalNodes>
            0 -1 23 -1067316624 -174422785 1167016407 558186774
            -250549417 -74988920 1196820918 1183801685</internalNodes>
          <leafValues>
            -5.8140522241592407e-001 2.0556019246578217e-001</leafValues></_>
        <_>
          <internalNodes>
            0 -1 150 -1249946914 -1962536551 285311430 -425848422
            -527888349 -1073119104 -939347724 -355538203</internalNodes>
          <leafValues>
            -4.6315163373947144e-001 2.6707524061203003e-001</leafValues></_>
        <_>
          <internalNodes>
            0 -1 146 -107224597 21200978 16793746 -930136048 -1341480822
            176754696 830661090 -1061695224</internalNodes>
          <leafValues>
            -3.9038702845573425e-001 2.8907722234725952e-001</leafValues></_>
        <_>
          <internalNodes>
            0 -1 82 638280704 1539401539 704756 -1534327205 -938866688
            1524303881 -1950195606 2019917771</internalNodes>
          <leafValues>
            -5.5038821697235107e-001 2.1400319039821625e-001</leafValues></_>
        <_>
          <internalNodes>
            0 -1 97 270017245 -1651224423 16879963 -636202989
            -1837012856 -878018552 -1308354371 -666586856</internalNodes>
          <leafValues>
            -4.7698053717613220e-001 2.4775473773479462e-001</leafValues></_>
        <_>
          <internalNodes>
            0 -1 126 1003188503 -1558609470 1073811473 -1035267888
            -1601527501 864681984 -1685884719 -104873560</internalNodes>
          <leafValues>
            -4.3991833925247192e-001 2.6969739794731140e-001</leafValues></_></weakClassifiers></_>
    <!-- stage 13 -->
    <_>
      <maxWeakCount>14</maxWeakCount>
      <stageThreshold>-1.3736269474029541e+000</stageThreshold>
      <weakClassifiers>
        <_>
          <internalNodes>
            0 -1 152 -136847497 -685931629 1360220335 267359195
            -1861633883 -83181432 -376201025 -822086677</internalNodes>
          <leafValues>
            -6.0978430509567261e-001 9.1814160346984863e-002</leafValues></_>
        <_>
          <internalNodes>
            0 -1 50 -253986313 -71090047 -805187117 -1690677095
            -343801720 -1333067646 -544597283 -1142285729</internalNodes>
          <leafValues>
            -3.7010899186134338e-001 3.1262615323066711e-001</leafValues></_>
        <_>
          <internalNodes>
            0 -1 93 -1360286413 -1364492931 -349 -8405134 -956310025
            -268435457 -436216331 -1111502860</internalNodes>
          <leafValues>
            -3.1150892376899719e-001 3.5157343745231628e-001</leafValues></_>
        <_>
          <internalNodes>
            0 -1 46 -1428814917 -367816501 -754269541 -15568876
            296243851 -374863808 -645739630 -69682511</internalNodes>
          <leafValues>
            -3.2526585459709167e-001 2.9767146706581116e-001</leafValues></_>
        <_>
          <internalNodes>
            0 -1 31 -698487554 -884434476 764424513 -1354830506
            -755375888 -1832544584 770257143 2044059374</internalNodes>
          <leafValues>
            -3.9098140597343445e-001 2.5872620940208435e-001</leafValues></_>
        <_>
          <internalNodes>
            0 -1 17 -1887400975 -22106157 2139069943 -571134217
            -1929912593 -536907777 -688177187 -1963129739</internalNodes>
          <leafValues>
            -2.9895135760307312e-001 3.5708230733871460e-001</leafValues></_>
        <_>
          <internalNodes>
            0 -1 35 -379610556 -2100298146 -1484221682 570482859
            -966888639 1745553168 -883183057 997620223</internalNodes>
          <leafValues>
            -5.2296143770217896e-001 1.8832771480083466e-001</leafValues></_>
        <_>
          <internalNodes>
            0 -1 104 -1617091861 59248968 -2109697833 -1076342591
            1367355785 -1837072382 975393457 -1342545744</internalNodes>
          <leafValues>
            -4.2240133881568909e-001 2.3486050963401794e-001</leafValues></_>
        <_>
          <internalNodes>
            0 -1 37 -818281360 -1349608419 -179211180 801964118
            -1207629712 495718530 -78100304 790507371</internalNodes>
          <leafValues>
            -6.5270245075225830e-001 1.4858941733837128e-001</leafValues></_>
        <_>
          <internalNodes>
            0 -1 100 -1900551486 2029255337 -2112527153 -96054825
            -112244404 -1584178525 -1690088881 1936673483</internalNodes>
          <leafValues>
            -4.0741351246833801e-001 2.3744332790374756e-001</leafValues></_>
        <_>
          <internalNodes>
            0 -1 69 -368051564 -2075320060 -2113850912 356970719
            -1320440628 159392034 -1349901426 330035311</internalNodes>
          <leafValues>
            -5.0506776571273804e-001 1.6670984029769897e-001</leafValues></_>
        <_>
          <internalNodes>
            0 -1 71 -1293640623 -551689252 -1743087233 252297355
            -641602567 -1180655419 461388429 -1967911148</internalNodes>
          <leafValues>
            -3.7682038545608521e-001 2.6834288239479065e-001</leafValues></_>
        <_>
          <internalNodes>
            0 -1 10 -499654462 -1973695788 -783903892 390856717
            1913058471 -1834962317 868315918 1842346742</internalNodes>
          <leafValues>
            -3.4690320491790771e-001 2.8260076045989990e-001</leafValues></_>
        <_>
          <internalNodes>
            0 -1 18 -223025918 1445132940 1124532503 -866516300
            1650289451 647184530 1351306061 155411303</internalNodes>
          <leafValues>
            -5.2260321378707886e-001 1.8916574120521545e-001</leafValues></_></weakClassifiers></_>
    <!-- stage 14 -->
    <_>
      <maxWeakCount>15</maxWeakCount>
      <stageThreshold>-1.7818669080734253e+000</stageThreshold>
      <weakClassifiers>
        <_>
          <internalNodes>
            0 -1 144 -740560785 -237666232 1359581685 -762867309
            -1987401718 -1031602046 -1146893841 -22046469</internalNodes>
          <leafValues>
            -6.4534515142440796e-001 2.5187803432345390e-002</leafValues></_>
        <_>
          <internalNodes>
            0 -1 131 -1316030508 -1693531948 37000 -775729088 415432889
            -1190658046 -1732021763 -1347223100</internalNodes>
          <leafValues>
            -4.6611803770065308e-001 2.2721986472606659e-001</leafValues></_>
        <_>
          <internalNodes>
            0 -1 60 -245369935 -723258669 1962603079 -37750793
            -1078598145 -1543537489 -136328177 -1882337554</internalNodes>
          <leafValues>
            -2.4458646774291992e-001 4.6892163157463074e-001</leafValues></_>
        <_>
          <internalNodes>
            0 -1 114 -1280388214 -1979055900 1342357981 -868171664
            -1316314924 -1971158904 160150196 -605035828</internalNodes>
          <leafValues>
            -3.5424050688743591e-001 3.0894434452056885e-001</leafValues></_>
        <_>
          <internalNodes>
            0 -1 64 1784630856 -1711062125 -503315753 -2137931585
            904857861 -2042462088 -339139602 1933643847</internalNodes>
          <leafValues>
            -5.0206148624420166e-001 2.4591407179832458e-001</leafValues></_>
        <_>
          <internalNodes>
            0 -1 14 1521274265 536846059 938274605 997987133 1595674616
            -571187724 -33752131 -1610859975</internalNodes>
          <leafValues>
            -3.1849050521850586e-001 3.6371222138404846e-001</leafValues></_>
        <_>
          <internalNodes>
            0 -1 21 -769506610 -225983984 37590 1875834254 1904402574
            -2109726072 -520092710 957692007</internalNodes>
          <leafValues>
            -4.2219719290733337e-001 2.8924694657325745e-001</leafValues></_>
        <_>
          <internalNodes>
            0 -1 132 -1027080139 -1220353494 8341 -1823894753
            -1172795251 -1438235903 -750765076 -300925693</internalNodes>
          <leafValues>
            -4.4970101118087769e-001 2.4019539356231689e-001</leafValues></_>
        <_>
          <internalNodes>
            0 -1 63 1245231929 310906904 268571870 -602795889 -880521088
            -1156579272 578893965 1063854778</internalNodes>
          <leafValues>
            -3.9817994832992554e-001 2.9055714607238770e-001</leafValues></_>
        <_>
          <internalNodes>
            0 -1 58 -701962255 -1712033803 -37750809 -559094540
            2009071615 800587775 1063780285 -1930539893</internalNodes>
          <leafValues>
            -3.0780160427093506e-001 3.8739505410194397e-001</leafValues></_>
        <_>
          <internalNodes>
            0 -1 94 -29366451 330571133 -71381249 859045695 2122237128
            536196991 -84968180 -432308353</internalNodes>
          <leafValues>
            -3.0514988303184509e-001 3.8706070184707642e-001</leafValues></_>
        <_>
          <internalNodes>
            0 -1 56 -2078347198 -301914560 -1073442534 -906437758
            -1583611071 2062549144 1082184686 1179347234</internalNodes>
          <leafValues>
            -5.0063359737396240e-001 2.2796234488487244e-001</leafValues></_>
        <_>
          <internalNodes>
            0 -1 84 -83413391 -2109298506 -654176111 344252527 118083466
            185737856 -750171794 713769211</internalNodes>
          <leafValues>
            -3.9327940344810486e-001 3.0357143282890320e-001</leafValues></_>
        <_>
          <internalNodes>
            0 -1 49 -670023652 404553939 -1879031591 809537745
            -1064697544 -1191116734 -1006528372 -1084597981</internalNodes>
          <leafValues>
            -3.8516584038734436e-001 2.9578161239624023e-001</leafValues></_>
        <_>
          <internalNodes>
            0 -1 3 -877947998 -801025813 21087753 -1647001393 1666145160
            -1201960294 1493809823 -1998624411</internalNodes>
          <leafValues>
            -3.2319065928459167e-001 3.6998686194419861e-001</leafValues></_></weakClassifiers></_></stages>
  <features>
    <_>
      <rect>
        0 0 2 5</rect></_>
    <_>
      <rect>
        0 0 5 6</rect></_>
    <_>
      <rect>
        0 0 6 2</rect></_>
    <_>
      <rect>
        0 1 3 3</rect></_>
    <_>
      <rect>
        0 1 5 4</rect></_>
    <_>
      <rect>
        0 1 6 4</rect></_>
    <_>
      <rect>
        0 4 6 4</rect></_>
    <_>
      <rect>
        0 5 4 6</rect></_>
    <_>
      <rect>
        0 5 4 7</rect></_>
    <_>
      <rect>
        0 5 5 7</rect></_>
    <_>
      <rect>
        0 12 4 5</rect></_>
    <_>
      <rect>
        0 15 3 4</rect></_>
    <_>
      <rect>
        0 15 6 5</rect></_>
    <_>
      <rect>
        0 17 5 4</rect></_>
    <_>
      <rect>
        0 24 5 2</rect></_>
    <_>
      <rect>
        0 26 4 1</rect></_>
    <_>
      <rect>
        1 0 3 3</rect></_>
    <_>
      <rect>
        1 1 4 2</rect></_>
    <_>
      <rect>
        1 5 4 3</rect></_>
    <_>
      <rect>
        1 6 5 6</rect></_>
    <_>
      <rect>
        1 13 5 5</rect></_>
    <_>
      <rect>
        1 17 3 3</rect></_>
    <_>
      <rect>
        2 1 6 5</rect></_>
    <_>
      <rect>
        2 2 3 4</rect></_>
    <_>
      <rect>
        2 2 4 2</rect></_>
    <_>
      <rect>
        2 3 5 6</rect></_>
    <_>
      <rect>
        2 6 4 4</rect></_>
    <_>
      <rect>
        2 7 6 7</rect></_>
    <_>
      <rect>
        2 8 4 6</rect></_>
    <_>
      <rect>
        2 11 6 4</rect></_>
    <_>
      <rect>
        2 13 6 5</rect></_>
    <_>
      <rect>
        2 17 6 4</rect></_>
    <_>
      <rect>
        2 21 3 3</rect></_>
    <_>
      <rect>
        2 24 3 2</rect></_>
    <_>
      <rect>
        3 0 5 3</rect></_>
    <_>
      <rect>
        3 4 5 7</rect></_>
    <_>
      <rect>
        3 5 1 1</rect></_>
    <_>
      <rect>
        3 8 2 5</rect></_>
    <_>
      <rect>
        3 12 5 4</rect></_>
    <_>
      <rect>
        3 25 4 1</rect></_>
    <_>
      <rect>
        4 4 1 1</rect></_>
    <_>
      <rect>
        4 6 1 1</rect></_>
    <_>
      <rect>
        4 7 1 1</rect></_>
    <_>
      <rect>
        4 9 1 1</rect></_>
    <_>
      <rect>
        4 9 4 4</rect></_>
    <_>
      <rect>
        4 13 5 4</rect></_>
    <_>
      <rect>
        4 16 1 1</rect></_>
    <_>
      <rect>
        4 17 1 1</rect></_>
    <_>
      <rect>
        4 23 1 1</rect></_>
    <_>
      <rect>
        4 23 2 1</rect></_>
    <_>
      <rect>
        4 24 1 1</rect></_>
    <_>
      <rect>
        4 24 4 2</rect></_>
    <_>
      <rect>
        4 24 5 2</rect></_>
    <_>
      <rect>
        5 0 5 2</rect></_>
    <_>
      <rect>
        5 0 5 7</rect></_>
    <_>
      <rect>
        5 1 5 7</rect></_>
    <_>
      <rect>
        5 3 5 9</rect></_>
    <_>
      <rect>
        5 6 2 6</rect></_>
    <_>
      <rect>
        5 6 3 3</rect></_>
    <_>
      <rect>
        5 6 5 3</rect></_>
    <_>
      <rect>
        5 7 5 3</rect></_>
    <_>
      <rect>
        5 14 3 4</rect></_>
    <_>
      <rect>
        5 20 5 3</rect></_>
    <_>
      <rect>
        5 23 4 2</rect></_>
    <_>
      <rect>
        6 2 4 7</rect></_>
    <_>
      <rect>
        6 6 1 1</rect></_>
    <_>
      <rect>
        6 10 4 3</rect></_>
    <_>
      <rect>
        6 11 2 3</rect></_>
    <_>
      <rect>
        6 12 3 5</rect></_>
    <_>
      <rect>
        6 13 4 4</rect></_>
    <_>
      <rect>
        7 0 4 2</rect></_>
    <_>
      <rect>
        7 2 3 2</rect></_>
    <_>
      <rect>
        7 3 1 3</rect></_>
    <_>
      <rect>
        7 3 4 2</rect></_>
    <_>
      <rect>
        7 12 4 3</rect></_>
    <_>
      <rect>
        7 21 4 3</rect></_>
    <_>
      <rect>
        7 24 1 1</rect></_>
    <_>
      <rect>
        8 0 4 1</rect></_>
    <_>
      <rect>
        8 0 4 7</rect></_>
    <_>
      <rect>
        8 1 4 7</rect></_>
    <_>
      <rect>
        8 2 4 7</rect></_>
    <_>
      <rect>
        8 3 3 1</rect></_>
    <_>
      <rect>
        8 4 4 8</rect></_>
    <_>
      <rect>
        8 5 4 8</rect></_>
    <_>
      <rect>
        8 7 3 4</rect></_>
    <_>
      <rect>
        8 7 4 4</rect></_>
    <_>
      <rect>
        8 10 4 3</rect></_>
    <_>
      <rect>
        8 11 4 5</rect></_>
    <_>
      <rect>
        8 12 3 4</rect></_>
    <_>
      <rect>
        8 13 4 5</rect></_>
    <_>
      <rect>
        8 17 3 4</rect></_>
    <_>
      <rect>
        8 27 3 1</rect></_>
    <_>
      <rect>
        9 7 3 4</rect></_>
    <_>
      <rect>
        9 11 1 1</rect></_>
    <_>
      <rect>
        9 13 2 3</rect></_>
    <_>
      <rect>
        9 18 3 4</rect></_>
    <_>
      <rect>
        9 26 1 1</rect></_>
    <_>
      <rect>
        9 27 2 1</rect></_>
    <_>
      <rect>
        10 4 1 1</rect></_>
    <_>
      <rect>
        10 5 1 1</rect></_>
    <_>
      <rect>
        10 5 3 6</rect></_>
    <_>
      <rect>
        10 10 1 1</rect></_>
    <_>
      <rect>
        10 12 3 4</rect></_>
    <_>
      <rect>
        10 14 1 2</rect></_>
    <_>
      <rect>
        10 22 1 1</rect></_>
    <_>
      <rect>
        10 23 1 1</rect></_>
    <_>
      <rect>
        10 24 1 1</rect></_>
    <_>
      <rect>
        11 1 3 2</rect></_>
    <_>
      <rect>
        11 3 1 1</rect></_>
    <_>
      <rect>
        11 11 3 6</rect></_>
    <_>
      <rect>
        11 15 1 1</rect></_>
    <_>
      <rect>
        11 16 1 1</rect></_>
    <_>
      <rect>
        11 17 3 4</rect></_>
    <_>
      <rect>
        11 18 3 4</rect></_>
    <_>
      <rect>
        11 20 1 1</rect></_>
    <_>
      <rect>
        11 21 1 1</rect></_>
    <_>
      <rect>
        11 21 3 3</rect></_>
    <_>
      <rect>
        12 16 1 1</rect></_>
    <_>
      <rect>
        12 24 1 1</rect></_>
    <_>
      <rect>
        12 24 2 2</rect></_>
    <_>
      <rect>
        13 4 1 1</rect></_>
    <_>
      <rect>
        13 11 1 1</rect></_>
    <_>
      <rect>
        13 15 2 1</rect></_>
    <_>
      <rect>
        13 16 2 1</rect></_>
    <_>
      <rect>
        13 17 1 1</rect></_>
    <_>
      <rect>
        13 18 1 1</rect></_>
    <_>
      <rect>
        13 20 1 1</rect></_>
    <_>
      <rect>
        13 21 1 1</rect></_>
    <_>
      <rect>
        13 21 1 2</rect></_>
    <_>
      <rect>
        13 22 1 1</rect></_>
    <_>
      <rect>
        13 23 1 1</rect></_>
    <_>
      <rect>
        13 24 1 1</rect></_>
    <_>
      <rect>
        14 0 2 3</rect></_>
    <_>
      <rect>
        14 0 2 5</rect></_>
    <_>
      <rect>
        14 3 2 3</rect></_>
    <_>
      <rect>
        14 16 2 1</rect></_>
    <_>
      <rect>
        14 21 2 1</rect></_>
    <_>
      <rect>
        14 22 1 1</rect></_>
    <_>
      <rect>
        14 24 2 2</rect></_>
    <_>
      <rect>
        15 10 1 1</rect></_>
    <_>
      <rect>
        15 15 1 1</rect></_>
    <_>
      <rect>
        15 22 1 1</rect></_>
    <_>
      <rect>
        15 24 1 1</rect></_>
    <_>
      <rect>
        16 14 1 1</rect></_>
    <_>
      <rect>
        16 15 1 1</rect></_>
    <_>
      <rect>
        16 16 1 1</rect></_>
    <_>
      <rect>
        16 20 1 1</rect></_>
    <_>
      <rect>
        16 21 1 1</rect></_>
    <_>
      <rect>
        16 22 1 1</rect></_>
    <_>
      <rect>
        16 27 1 1</rect></_>
    <_>
      <rect>
        17 7 1 1</rect></_>
    <_>
      <rect>
        17 10 1 3</rect></_>
    <_>
      <rect>
        17 15 1 3</rect></_>
    <_>
      <rect>
        17 19 1 3</rect></_>
    <_>
      <rect>
        17 20 1 3</rect></_></features></cascade>
</opencv_storage>
