<?xml version="1.0"?>
<opencv_storage>
<stage2>
  <maxWeakCount>7</maxWeakCount>
  <stageThreshold>-1.5156209468841553e+000</stageThreshold>
  <weakClassifiers>
    <_>
      <internalNodes>
        0 -1 7775 -1 -1073815300 1541363708 -536904740 1004459007
        518554619 966334973 -3</internalNodes>
      <leafValues>
        -7.1783387660980225e-001 2.5191572308540344e-001</leafValues></_>
    <_>
      <internalNodes>
        0 -1 108 -734986506 -8406845 -669648385 -33609969 -1092633089
        -5645761 -2622721 1685401351</internalNodes>
      <leafValues>
        -6.1734747886657715e-001 3.7110787630081177e-001</leafValues></_>
    <_>
      <internalNodes>
        0 -1 7740 -1063320985 -1571298475 -32254977 -530951465
        -107855243 -58032128 -92212492 -21325057</internalNodes>
      <leafValues>
        -5.8602988719940186e-001 3.6153599619865417e-001</leafValues></_>
    <_>
      <internalNodes>
        0 -1 6954 630200693 -1078181861 -1207348737 -2170375 -930596396
        -232095598 -1952678929 -1075307336</internalNodes>
      <leafValues>
        -6.2865775823593140e-001 3.5835194587707520e-001</leafValues></_>
    <_>
      <internalNodes>
        0 -1 1225 -2097340 -1141441413 -388432180 714002527 -509978816
        -211474111 -540194180 726662015</internalNodes>
      <leafValues>
        -6.6665589809417725e-001 3.0375120043754578e-001</leafValues></_>
    <_>
      <internalNodes>
        0 -1 8396 -1275168783 -1932394096 -804138561 -136539956
        -1598820168 -1182690878 -1735706383 -1346496264</internalNodes>
      <leafValues>
        -5.1237660646438599e-001 3.8763329386711121e-001</leafValues></_>
    <_>
      <internalNodes>
        0 -1 6319 -36702920 1356158004 41994890 92625399 -344247840
        292905104 624573327 1604039679</internalNodes>
      <leafValues>
        -6.0470223426818848e-001 3.1376007199287415e-001</leafValues></_></weakClassifiers></stage2>
</opencv_storage>
