<?xml version="1.0"?>
<opencv_storage>
<stage7>
  <maxWeakCount>11</maxWeakCount>
  <stageThreshold>-1.4487550258636475e+000</stageThreshold>
  <weakClassifiers>
    <_>
      <internalNodes>
        0 -1 3107 -69206017 -2097665 571855805 933222879 -2084 -5253035
        -4198401 -513</internalNodes>
      <leafValues>
        -5.9629499912261963e-001 3.2237872481346130e-001</leafValues></_>
    <_>
      <internalNodes>
        0 -1 8679 -209977925 -1949314814 1359599058 -33846134 -374682885
        1267925162 1636488181 -739781633</internalNodes>
      <leafValues>
        -4.6686846017837524e-001 2.9919701814651489e-001</leafValues></_>
    <_>
      <internalNodes>
        0 -1 6523 396374393 964743544 -651947811 -715912994 -628727622
        -1410791280 -1962538499 -74967416</internalNodes>
      <leafValues>
        -3.9210817217826843e-001 3.5366132855415344e-001</leafValues></_>
    <_>
      <internalNodes>
        0 -1 8194 -210239376 -35757877 -217976421 -15216425 -74798593
        -1953963904 -91689992 -1430750855</internalNodes>
      <leafValues>
        -4.2793115973472595e-001 3.2063633203506470e-001</leafValues></_>
    <_>
      <internalNodes>
        0 -1 8950 -16814209 1991671679 -285278473 -1091108869 -318804130
        -268959889 -16777988 -83959841</internalNodes>
      <leafValues>
        -3.2630401849746704e-001 4.1614142060279846e-001</leafValues></_>
    <_>
      <internalNodes>
        0 -1 8358 -70305749 1781481501 1677848788 -1036271154 -108268989
        -1149005824 -91555104 -220204546</internalNodes>
      <leafValues>
        -4.4913035631179810e-001 2.7067637443542480e-001</leafValues></_>
    <_>
      <internalNodes>
        0 -1 1494 -306251018 -929266460 -879244658 266166239 -766103312
        -1679084574 1797462883 -814781893</internalNodes>
      <leafValues>
        -4.2276608943939209e-001 2.9817193746566772e-001</leafValues></_>
    <_>
      <internalNodes>
        0 -1 9122 -1074646801 -1717652910 1359073466 -1685249861
        -1693761319 -1886748544 839344365 -21074307</internalNodes>
      <leafValues>
        -4.5708301663398743e-001 2.6804462075233459e-001</leafValues></_>
    <_>
      <internalNodes>
        0 -1 265 -186453022 1205309927 -2134790913 -319850737 -497696157
        -210288045 -8807745 1122726431</internalNodes>
      <leafValues>
        -4.9092349410057068e-001 2.5568920373916626e-001</leafValues></_>
    <_>
      <internalNodes>
        0 -1 99 539163174 -714144665 -589663533 -1386451132 -230102025
        -227549447 -290239576 1693740551</internalNodes>
      <leafValues>
        -5.8416461944580078e-001 1.8625879287719727e-001</leafValues></_>
    <_>
      <internalNodes>
        0 -1 5133 -1319438746 309918220 303114310 867562831 1514126529
        -1301057460 857430795 1702849119</internalNodes>
      <leafValues>
        -4.5689111948013306e-001 2.5233429670333862e-001</leafValues></_></weakClassifiers></stage7>
</opencv_storage>
