<?xml version="1.0"?>
<opencv_storage>
<stage1>
  <maxWeakCount>6</maxWeakCount>
  <stageThreshold>-1.6208419799804687e+000</stageThreshold>
  <weakClassifiers>
    <_>
      <internalNodes>
        0 -1 8836 -1077939265 -1344302655 -216802825 -69233710
        -1130638593 -2136375101 -1731464715 -4195847</internalNodes>
      <leafValues>
        -7.4974650144577026e-001 3.3687773346900940e-001</leafValues></_>
    <_>
      <internalNodes>
        0 -1 4042 1007959261 1073510381 1029128191 -1143077766
        1230269693 -33806102 -1077410883 -1074000728</internalNodes>
      <leafValues>
        -6.3257998228073120e-001 3.9301496744155884e-001</leafValues></_>
    <_>
      <internalNodes>
        0 -1 8955 -26253729 643811418 -1006513666 -523189794 -477402366
        2139848704 -83116840 -83891462</internalNodes>
      <leafValues>
        -5.7371687889099121e-001 4.2273971438407898e-001</leafValues></_>
    <_>
      <internalNodes>
        0 -1 4106 -699404722 -15207625 -256704769 -8422537 -271058194
        1795929879 -536879410 1913905666</internalNodes>
      <leafValues>
        -6.1506193876266479e-001 3.8997301459312439e-001</leafValues></_>
    <_>
      <internalNodes>
        0 -1 7479 1044910296 -78626614 1905269151 -93733 -76956951
        -1044379000 -89394497 -72611332</internalNodes>
      <leafValues>
        -5.2334403991699219e-001 4.6671980619430542e-001</leafValues></_>
    <_>
      <internalNodes>
        0 -1 6364 -3148396 -1726158635 -1945876040 151000063 -839412496
        501809297 -1181914952 -603991041</internalNodes>
      <leafValues>
        -5.0543665885925293e-001 4.6857246756553650e-001</leafValues></_></weakClassifiers></stage1>
</opencv_storage>
