<?xml version="1.0"?>
<opencv_storage>
<stage9>
  <maxWeakCount>12</maxWeakCount>
  <stageThreshold>-1.6046650409698486e+000</stageThreshold>
  <weakClassifiers>
    <_>
      <internalNodes>
        0 -1 3323 1610184703 2107331801 -1862190657 924713434 2064407486
        -610758230 -108270593 -266498</internalNodes>
      <leafValues>
        -6.2736308574676514e-001 1.1717496067285538e-001</leafValues></_>
    <_>
      <internalNodes>
        0 -1 8345 -5126705 1935405179 -1994943286 1390270936 -82204602
        1027833857 -1198801234 -206833477</internalNodes>
      <leafValues>
        -4.6387225389480591e-001 2.6013588905334473e-001</leafValues></_>
    <_>
      <internalNodes>
        0 -1 892 -1440550128 -606667440 -716967485 -169922829 -149294081
        -7411044 -1008504901 143458388</internalNodes>
      <leafValues>
        -4.7481256723403931e-001 2.6623815298080444e-001</leafValues></_>
    <_>
      <internalNodes>
        0 -1 5505 -1327495164 1898752831 -586588193 -77907333
        -1277691724 -1617295335 -41042019 537153309</internalNodes>
      <leafValues>
        -6.3001835346221924e-001 1.8443231284618378e-001</leafValues></_>
    <_>
      <internalNodes>
        0 -1 8387 -1147217699 -1751330496 -1052671919 -821104616
        932180383 -1828075515 186270953 -1092657923</internalNodes>
      <leafValues>
        -4.5127394795417786e-001 2.6972326636314392e-001</leafValues></_>
    <_>
      <internalNodes>
        0 -1 6054 1809311438 -29254817 -673200401 172422684 -241436729
        2064863513 -669284146 1394864726</internalNodes>
      <leafValues>
        -4.7159829735755920e-001 2.6397645473480225e-001</leafValues></_>
    <_>
      <internalNodes>
        0 -1 14 -530422249 -298278183 1360485137 -32110034 -247267623
        -611016023 -902808357 -296457178</internalNodes>
      <leafValues>
        -3.8988739252090454e-001 2.9705542325973511e-001</leafValues></_>
    <_>
      <internalNodes>
        0 -1 9119 -1524963629 -1784893220 -805218913 -1512500260
        -1868797311 671813635 704652185 328694129</internalNodes>
      <leafValues>
        -5.3917688131332397e-001 2.1771720051765442e-001</leafValues></_>
    <_>
      <internalNodes>
        0 -1 4997 -2071065802 -492912501 1359036880 -539754288
        -1362533493 -1986428925 -359966480 -335920560</internalNodes>
      <leafValues>
        -4.8662236332893372e-001 2.2720710933208466e-001</leafValues></_>
    <_>
      <internalNodes>
        0 -1 4598 -190852876 1410875469 -761595490 495916485 -1400972312
        -41170486 442514410 459504983</internalNodes>
      <leafValues>
        -4.4338965415954590e-001 2.7738019824028015e-001</leafValues></_>
    <_>
      <internalNodes>
        0 -1 1949 -832604148 -1805467431 708903483 -2107127146 -45843643
        -10904973 -2067150261 578813551</internalNodes>
      <leafValues>
        -5.8734440803527832e-001 2.0568992197513580e-001</leafValues></_>
    <_>
      <internalNodes>
        0 -1 8989 645922973 -1155480959 -799948463 -544976683 -746106198
        -628457344 -1065131307 -640650024</internalNodes>
      <leafValues>
        -4.7139388322830200e-001 2.3041303455829620e-001</leafValues></_></weakClassifiers></stage9>
</opencv_storage>
