<?xml version="1.0"?>
<opencv_storage>
<stage3>
  <maxWeakCount>8</maxWeakCount>
  <stageThreshold>-1.5924443006515503e+000</stageThreshold>
  <weakClassifiers>
    <_>
      <internalNodes>
        0 -1 3858 -2097667 -3278895 285474719 1058930143 -100927028
        -33836860 -73403393 -257</internalNodes>
      <leafValues>
        -6.3487833738327026e-001 4.2001461982727051e-001</leafValues></_>
    <_>
      <internalNodes>
        0 -1 8392 -1147667461 -1431772800 -1861103147 -73478000
        957609951 -1731690358 -753184267 -4216612</internalNodes>
      <leafValues>
        -5.0533801317214966e-001 3.9873608946800232e-001</leafValues></_>
    <_>
      <internalNodes>
        0 -1 6075 1010308373 -536997673 293704565 -3239501 -1156006913
        -1416042357 -1145001285 -1197473148</internalNodes>
      <leafValues>
        -4.4434863328933716e-001 4.4002139568328857e-001</leafValues></_>
    <_>
      <internalNodes>
        0 -1 7380 792998781 -1090236163 -784116749 -10616744 -1141216279
        -90668928 -1333124099 -1090772564</internalNodes>
      <leafValues>
        -6.1771607398986816e-001 3.0290719866752625e-001</leafValues></_>
    <_>
      <internalNodes>
        0 -1 6156 -4197666 1098334294 -1576871752 552506703 -175550328
        70865183 2031006958 2136997367</internalNodes>
      <leafValues>
        -5.1584929227828979e-001 3.9179021120071411e-001</leafValues></_>
    <_>
      <internalNodes>
        0 -1 8358 -137404055 -1374185425 -1877749351 -395851317
        -74732957 -1431896062 -74785819 -16779049</internalNodes>
      <leafValues>
        -4.7673803567886353e-001 3.6241888999938965e-001</leafValues></_>
    <_>
      <internalNodes>
        0 -1 8693 60439295 -1291142520 -209628727 -2248260 1066101407
        -1148903278 974066429 -44612</internalNodes>
      <leafValues>
        -4.1698366403579712e-001 4.3431162834167480e-001</leafValues></_>
    <_>
      <internalNodes>
        0 -1 8960 -305436410 248701147 -795749230 -493036645 -100515840
        1476624426 -91489376 -16846594</internalNodes>
      <leafValues>
        -6.0858029127120972e-001 2.8374242782592773e-001</leafValues></_></weakClassifiers></stage3>
</opencv_storage>
