<?xml version="1.0"?>
<opencv_storage>
<stage12>
  <maxWeakCount>12</maxWeakCount>
  <stageThreshold>-1.4016839265823364e+000</stageThreshold>
  <weakClassifiers>
    <_>
      <internalNodes>
        0 -1 6432 -6817281 -718613604 -1878685364 -34352131 990896383
        424200834 36583675 -4194317</internalNodes>
      <leafValues>
        -6.2806749343872070e-001 1.5470851957798004e-001</leafValues></_>
    <_>
      <internalNodes>
        0 -1 4101 -2065944139 -572587480 -1726867235 -34225259
        -611865863 -1074229080 -323215463 -1658582272</internalNodes>
      <leafValues>
        -4.4199010729789734e-001 3.0289575457572937e-001</leafValues></_>
    <_>
      <internalNodes>
        0 -1 299 2010828864 -16385025 386714879 -1549141089 -80674464
        -1817450024 -573613370 260830207</internalNodes>
      <leafValues>
        -5.2036136388778687e-001 2.5664710998535156e-001</leafValues></_>
    <_>
      <internalNodes>
        0 -1 8840 -1417485430 -1928724340 1094867024 -578338532
        -1593640781 -2138554232 -360046096 -1483771207</internalNodes>
      <leafValues>
        -4.2330345511436462e-001 2.9644298553466797e-001</leafValues></_>
    <_>
      <internalNodes>
        0 -1 6336 -890312604 307270487 67354831 43177819 -187793144
        -1874640553 -1966995442 570946555</internalNodes>
      <leafValues>
        -5.3722864389419556e-001 2.4025313556194305e-001</leafValues></_>
    <_>
      <internalNodes>
        0 -1 5145 -6633291 806392271 -779268010 -1735208436 600465113
        -1081491440 -651470371 -1433707665</internalNodes>
      <leafValues>
        -3.5472050309181213e-001 3.5167604684829712e-001</leafValues></_>
    <_>
      <internalNodes>
        0 -1 1875 -1067316624 -174422785 1167016407 558186774 -250549417
        -74988920 1196820918 1183801685</internalNodes>
      <leafValues>
        -5.8140522241592407e-001 2.0556019246578217e-001</leafValues></_>
    <_>
      <internalNodes>
        0 -1 9051 -1249946914 -1962536551 285311430 -425848422
        -527888349 -1073119104 -939347724 -355538203</internalNodes>
      <leafValues>
        -4.6315163373947144e-001 2.6707524061203003e-001</leafValues></_>
    <_>
      <internalNodes>
        0 -1 8975 -107224597 21200978 16793746 -930136048 -1341480822
        176754696 830661090 -1061695224</internalNodes>
      <leafValues>
        -3.9038702845573425e-001 2.8907722234725952e-001</leafValues></_>
    <_>
      <internalNodes>
        0 -1 6124 638280704 1539401539 704756 -1534327205 -938866688
        1524303881 -1950195606 2019917771</internalNodes>
      <leafValues>
        -5.5038821697235107e-001 2.1400319039821625e-001</leafValues></_>
    <_>
      <internalNodes>
        0 -1 6958 270017245 -1651224423 16879963 -636202989 -1837012856
        -878018552 -1308354371 -666586856</internalNodes>
      <leafValues>
        -4.7698053717613220e-001 2.4775473773479462e-001</leafValues></_>
    <_>
      <internalNodes>
        0 -1 8380 1003188503 -1558609470 1073811473 -1035267888
        -1601527501 864681984 -1685884719 -104873560</internalNodes>
      <leafValues>
        -4.3991833925247192e-001 2.6969739794731140e-001</leafValues></_></weakClassifiers></stage12>
</opencv_storage>
