<?xml version="1.0"?>
<opencv_storage>
<stage5>
  <maxWeakCount>11</maxWeakCount>
  <stageThreshold>-1.5741107463836670e+000</stageThreshold>
  <weakClassifiers>
    <_>
      <internalNodes>
        0 -1 7763 -1 -1080105478 1063088444 -43258148 234487295
        531561191 300749309 2113926143</internalNodes>
      <leafValues>
        -7.3931425809860229e-001 5.3975202143192291e-002</leafValues></_>
    <_>
      <internalNodes>
        0 -1 8110 -1076431877 -170212200 -788319783 -36073228
        -1198607621 -1467465590 -1551123461 -1074062376</internalNodes>
      <leafValues>
        -4.0973204374313354e-001 4.3605956435203552e-001</leafValues></_>
    <_>
      <internalNodes>
        0 -1 8424 -285745835 -2107561 -73940017 -201592481 -69211410
        -71329461 -2007500337 -2134718697</internalNodes>
      <leafValues>
        -3.8644742965698242e-001 4.1096138954162598e-001</leafValues></_>
    <_>
      <internalNodes>
        0 -1 7725 -421836697 1884909592 -590228289 -218214309 -477419520
        -108404736 -87889155 -88149001</internalNodes>
      <leafValues>
        -3.9572569727897644e-001 3.6995810270309448e-001</leafValues></_>
    <_>
      <internalNodes>
        0 -1 3734 -613171120 270155847 -1328767971 595318011 -148898795
        308957467 -1825875377 176126591</internalNodes>
      <leafValues>
        -5.5335772037506104e-001 2.9582744836807251e-001</leafValues></_>
    <_>
      <internalNodes>
        0 -1 1849 1565318 1979578403 -564566641 -537145991 -1401951317
        -247475566 1107022830 1132193282</internalNodes>
      <leafValues>
        -5.3515946865081787e-001 2.6345068216323853e-001</leafValues></_>
    <_>
      <internalNodes>
        0 -1 2585 1570076921 450638063 -1709647237 327685341 1392251532
        -74644760 -1726682371 -1088926186</internalNodes>
      <leafValues>
        -4.1452050209045410e-001 3.4585618972778320e-001</leafValues></_>
    <_>
      <internalNodes>
        0 -1 8978 -1078725745 -1413267261 -720989700 -421562146
        -1152683438 63636104 -640943439 -50335500</internalNodes>
      <leafValues>
        -4.7857588529586792e-001 2.8659024834632874e-001</leafValues></_>
    <_>
      <internalNodes>
        0 -1 3520 -1496680719 -352923445 -787410475 -18870053 -125656147
        -1391755136 -611649113 -1378344651</internalNodes>
      <leafValues>
        -5.0705188512802124e-001 2.8263881802558899e-001</leafValues></_>
    <_>
      <internalNodes>
        0 -1 6293 2044198598 -1328358897 -1475509241 1377034751
        -637035579 -209500093 1645893727 1633155791</internalNodes>
      <leafValues>
        -4.8695167899131775e-001 2.7602559328079224e-001</leafValues></_>
    <_>
      <internalNodes>
        0 -1 8113 840710885 -1075552124 -1790895114 1604104393 730295019
        -1165064063 558574557 -1681380816</internalNodes>
      <leafValues>
        -5.6072080135345459e-001 2.4288901686668396e-001</leafValues></_></weakClassifiers></stage5>
</opencv_storage>
